{"learner":{"attributes":{"best_iteration":"59","best_score":"0.5200552567938064","scikit_learn":"{\"_estimator_type\": \"classifier\"}"},"feature_names":["some_delta","full_delta","mem_available","pgscan_direct","pgsteal_direct","pgmajfault","workingset_refault","allocstall","pswpin","pswpout","some_sum_2","pgscan_sum_2","pgmaj_sum_2","some_max_2","some_min_2","some_sum_6","pgscan_sum_6","pgmaj_sum_6","some_max_6","some_min_6","some_sum_10","pgscan_sum_10","pgmaj_sum_10","some_max_10","some_min_10","diff_some","diff_pgscan","mem_drop","some_std_6","pgscan_std_6","some_lag_1","pgscan_lag_1","some_lag_2","pgscan_lag_2","some_lag_3","pgscan_lag_3","some_lag_4","pgscan_lag_4","some_ewm_6","pgscan_ewm_6","pgscan_per_mem","alloc_per_mem","swap_ratio"],"feature_types":["int","int","int","int","int","int","int","int","int","int","float","float","float","float","float","float","float","float","float","float","float","float","float","float","float","float","float","float","float","float","float","float","float","float","float","float","float","float","float","float","float","float","float"],"gradient_booster":{"model":{"cats":{"enc":[],"feature_segments":[],"sorted_idx":[]},"gbtree_model_param":{"num_parallel_tree":"1","num_trees":"110"},"iteration_indptr":[0,1,2,3,4,5,6,7,8,9,10,11,12,13,14,15,16,17,18,19,20,21,22,23,24,25,26,27,28,29,30,31,32,33,34,35,36,37,38,39,40,41,42,43,44,45,46,47,48,49,50,51,52,53,54,55,56,57,58,59,60,61,62,63,64,65,66,67,68,69,70,71,72,73,74,75,76,77,78,79,80,81,82,83,84,85,86,87,88,89,90,91,92,93,94,95,96,97,98,99,100,101,102,103,104,105,106,107,108,109,110],"tree_info":[0,0,0,0,0,0,0,0,0,0,0,0,0,0,0,0,0,0,0,0,0,0,0,0,0,0,0,0,0,0,0,0,0,0,0,0,0,0,0,0,0,0,0,0,0,0,0,0,0,0,0,0,0,0,0,0,0,0,0,0,0,0,0,0,0,0,0,0,0,0,0,0,0,0,0,0,0,0,0,0,0,0,0,0,0,0,0,0,0,0,0,0,0,0,0,0,0,0,0,0,0,0,0,0,0,0,0,0,0,0],"trees":[{"base_weights":[-2.823338E-2,-6.53268E-1,1.9849873E0,-9.489697E-1,-5.9872847E-3,9.435066E-1,2.5314193E0,3.30712E-1,-1.0558407E0,-1.24168985E-1,2.2979312E-1,2.4061978E-1,2.5166748E0,1.2764406E-1,2.6570296E0,1.1390645E-1,-1.0356955E-1,-1.1401741E-1,-4.7969587E-2,-2.0889295E-2,1.4233306E-1,1.3903886E-1,-2.3591092E-2,2.8173986E-1,1.879076E-1,2.2172551E-1,2.7038923E-1],"categories":[],"categories_nodes":[],"categories_segments":[],"categories_sizes":[],"default_left":[0,0,0,0,0,0,0,0,0,0,0,0,0,0,0,0,0,0,0,0,0,0,0,0,0,0,0],"id":0,"left_children":[1,3,5,7,9,11,13,15,17,19,-1,21,23,-1,25,-1,-1,-1,-1,-1,-1,-1,-1,-1,-1,-1,-1],"loss_changes":[9.283299E2,1.0763609E2,9.8872925E1,5.2962982E1,5.0831314E1,6.618221E1,1.6195862E1,3.74897E1,3.0299896E1,2.6905344E1,0E0,2.561038E1,3.7444382E0,0E0,5.8483276E0,0E0,0E0,0E0,0E0,0E0,0E0,0E0,0E0,0E0,0E0,0E0,0E0],"parents":[2147483647,0,0,1,1,2,2,3,3,4,4,5,5,6,6,7,7,8,8,9,9,11,11,12,12,14,14],"right_children":[2,4,6,8,10,12,14,16,18,20,-1,22,24,-1,26,-1,-1,-1,-1,-1,-1,-1,-1,-1,-1,-1,-1],"split_conditions":[2.9596E4,9.615128E3,3.59E2,-5.7092E4,4.2E1,7.9896E4,6.056752E-3,4.6E1,3.075E3,1.2106E4,2.2979312E-1,-5.3064E4,8.2E1,1.2764406E-1,1.467373E-2,1.1390645E-1,-1.0356955E-1,-1.1401741E-1,-4.7969587E-2,-2.0889295E-2,1.4233306E-1,1.3903886E-1,-2.3591092E-2,2.8173986E-1,1.879076E-1,2.2172551E-1,2.7038923E-1],"split_indices":[0,38,4,27,4,0,42,24,36,19,0,27,24,0,42,0,0,0,0,0,0,0,0,0,0,0,0],"split_type":[0,0,0,0,0,0,0,0,0,0,0,0,0,0,0,0,0,0,0,0,0,0,0,0,0,0,0],"sum_hessian":[7.378922E2,5.631431E2,1.747491E2,3.8637866E2,1.7676448E2,6.0246014E1,1.1450309E2,2.966362E1,3.5671506E2,1.6870496E2,8.0595255E0,4.17203E1,1.8525715E1,1.1207795E1,1.03295296E2,1.843713E1,1.122649E1,2.7669315E2,8.0021904E1,1.5927884E2,9.426112E0,1.1940054E1,2.9780247E1,9.416765E0,9.108949E0,4.4173485E1,5.912181E1],"tree_param":{"num_deleted":"0","num_feature":"43","num_nodes":"27","size_leaf_vector":"1"}},{"base_weights":[-5.830195E-2,-7.410101E-1,1.2496012E0,-1.1585585E0,-4.837315E-1,-5.326065E-1,1.5527865E0,-1.2473556E-1,-7.997473E-1,6.825072E-2,-6.447397E-1,-1.0145216E-1,3.4692455E-2,1.1134512E0,2.094942E0,6.7884387E-3,-9.1196164E-2,1.0768355E-1,-1.028322E-2,-8.686417E-2,-2.0012127E-2,1.1472277E-2,1.2315541E-1,1.1142436E-1,2.1657589E-1],"categories":[],"categories_nodes":[],"categories_segments":[],"categories_sizes":[],"default_left":[0,0,0,0,0,0,0,0,0,0,0,0,0,0,0,0,0,0,0,0,0,0,0,0,0],"id":1,"left_children":[1,3,5,7,9,11,13,-1,15,17,19,-1,-1,21,23,-1,-1,-1,-1,-1,-1,-1,-1,-1,-1],"loss_changes":[6.4649414E2,5.0849762E1,1.3432031E2,1.05993805E1,2.6282753E1,1.7877743E1,5.001593E1,0E0,8.797863E0,1.2862939E1,2.7367973E1,0E0,0E0,2.2676651E1,1.7450409E1,0E0,0E0,0E0,0E0,0E0,0E0,0E0,0E0,0E0,0E0],"parents":[2147483647,0,0,1,1,2,2,3,3,4,4,5,5,6,6,8,8,9,9,10,10,13,13,14,14],"right_children":[2,4,6,8,10,12,14,-1,16,18,20,-1,-1,22,24,-1,-1,-1,-1,-1,-1,-1,-1,-1,-1],"split_conditions":[3.140797E-3,3.35E2,2.5386E4,1.8094314E3,2.26E2,4.212E3,1.53E3,-1.2473556E-1,6.5E2,4.16E2,6.374844E-4,-1.0145216E-1,3.4692455E-2,2.6E1,9.11E3,6.7884387E-3,-9.1196164E-2,1.0768355E-1,-1.028322E-2,-8.686417E-2,-2.0012127E-2,1.1472277E-2,1.2315541E-1,1.1142436E-1,2.1657589E-1],"split_indices":[42,0,18,28,12,25,3,0,17,0,42,0,0,24,22,0,0,0,0,0,0,0,0,0,0],"split_type":[0,0,0,0,0,0,0,0,0,0,0,0,0,0,0,0,0,0,0,0,0,0,0,0,0],"sum_hessian":[7.240935E2,4.7583905E2,2.4825444E2,1.81162E2,2.9467706E2,3.601455E1,2.122399E2,1.2295553E2,5.8206474E1,6.632139E1,2.2835567E2,2.252954E1,1.3485008E1,1.174192E2,9.48207E1,9.365835E0,4.8840637E1,9.506667E0,5.6814716E1,1.3841936E2,8.993631E1,1.9582779E1,9.783642E1,1.7884932E1,7.6935776E1],"tree_param":{"num_deleted":"0","num_feature":"43","num_nodes":"25","size_leaf_vector":"1"}},{"base_weights":[-2.7134467E-2,-6.7824507E-1,1.1580193E0,5.9488094E-1,-8.065121E-1,5.3717035E-1,1.8525398E0,1.03718884E-1,1.5664887E-1,-9.7563154E-1,-2.4611986E-1,-5.678646E-1,7.8763646E-1,1.4344087E0,2.0388002E0,1.3389543E-1,-1.083492E-1,-1.18755385E-1,-7.319817E-2,3.277216E-2,-5.7603754E-2,-1.0765057E-1,1.4455972E-2,5.8148712E-2,1.9939256E-1,1.8287954E-1,8.647005E-2,1.5467468E-1,2.0567377E-1],"categories":[],"categories_nodes":[],"categories_segments":[],"categories_sizes":[],"default_left":[0,0,0,0,0,0,0,0,0,0,0,0,0,0,0,0,0,0,0,0,0,0,0,0,0,0,0,0,0],"id":2,"left_children":[1,3,5,7,9,11,13,15,-1,17,19,21,23,25,27,-1,-1,-1,-1,-1,-1,-1,-1,-1,-1,-1,-1,-1,-1],"loss_changes":[5.609454E2,7.667952E1,1.1072696E2,2.2268642E1,4.02211E1,3.7738796E1,8.874542E0,4.900953E1,0E0,1.8212708E1,2.166034E1,1.0601319E1,2.4602394E1,9.449394E0,4.2645264E0,0E0,0E0,0E0,0E0,0E0,0E0,0E0,0E0,0E0,0E0,0E0,0E0,0E0,0E0],"parents":[2147483647,0,0,1,1,2,2,3,3,4,4,5,5,6,6,7,7,9,9,10,10,11,11,12,12,13,13,14,14],"right_children":[2,4,6,8,10,12,14,16,-1,18,20,22,24,26,28,-1,-1,-1,-1,-1,-1,-1,-1,-1,-1,-1,-1,-1,-1],"split_conditions":[2.5141E4,-5.7092E4,6.1E2,1.2386661E4,9.615128E3,2E0,1.2831E4,2.4E1,1.5664887E-1,1.0851608E3,-2.088E3,1.484E3,2.03225E5,7.832E4,7.856E3,1.3389543E-1,-1.083492E-1,-1.18755385E-1,-7.319817E-2,3.277216E-2,-5.7603754E-2,-1.0765057E-1,1.4455972E-2,5.8148712E-2,1.9939256E-1,1.8287954E-1,8.647005E-2,1.5467468E-1,2.0567377E-1],"split_indices":[13,27,4,28,38,9,9,19,0,38,25,1,18,13,17,0,0,0,0,0,0,0,0,0,0,0,0,0,0],"split_type":[0,0,0,0,0,0,0,0,0,0,0,0,0,0,0,0,0,0,0,0,0,0,0,0,0,0,0,0,0],"sum_hessian":[7.2700397E2,4.6931E2,2.5769397E2,4.283718E1,4.264728E2,1.3619574E2,1.2149824E2,2.9485292E1,1.335189E1,3.2737976E2,9.909304E1,2.504524E1,1.111505E2,3.77383E1,8.375994E1,1.4435909E1,1.5049383E1,1.3264229E2,1.9473749E2,3.7627975E1,6.1465065E1,1.4032659E1,1.1012583E1,9.877027E1,1.238023E1,1.8757692E1,1.8980608E1,2.3381989E1,6.0377953E1],"tree_param":{"num_deleted":"0","num_feature":"43","num_nodes":"29","size_leaf_vector":"1"}},{"base_weights":[-5.4420736E-2,-4.937063E-1,1.7427336E0,-7.413818E-1,3.9115047E-1,7.019305E-2,1.8197696E0,-8.828789E-1,-7.009738E-2,5.309993E-1,-1.03051044E-1,2.0830243E0,1.5780722E0,2.4022048E-3,-9.276199E-2,1.8478058E-1,-3.5222262E-2,2.288971E-3,9.121101E-2,1.07351385E-1,2.1702495E-1,1.1041629E-1,1.8916886E-1],"categories":[],"categories_nodes":[],"categories_segments":[],"categories_sizes":[],"default_left":[0,0,0,0,0,0,0,0,0,0,0,0,0,0,0,0,0,0,0,0,0,0,0],"id":3,"left_children":[1,3,5,7,9,-1,11,13,15,17,-1,19,21,-1,-1,-1,-1,-1,-1,-1,-1,-1,-1],"loss_changes":[5.6647314E2,1.2648564E2,1.0386047E1,4.267189E1,2.6132015E1,0E0,7.6896667E0,3.5312714E1,4.8562565E1,2.5506966E1,0E0,1.2631958E1,1.1463318E1,0E0,0E0,0E0,0E0,0E0,0E0,0E0,0E0,0E0,0E0],"parents":[2147483647,0,0,1,1,2,2,3,3,4,4,6,6,7,7,8,8,9,9,11,11,12,12],"right_children":[2,4,6,8,10,-1,12,14,16,18,-1,20,22,-1,-1,-1,-1,-1,-1,-1,-1,-1,-1],"split_conditions":[2.1865676E-6,2.0436E4,4.52E2,1.062E3,2.030964E6,7.019305E-2,8.534E3,-4.4332E4,1.066E3,4.506E3,-1.03051044E-1,1.379472E6,3.1939E4,2.4022048E-3,-9.276199E-2,1.8478058E-1,-3.5222262E-2,2.288971E-3,9.121101E-2,1.07351385E-1,2.1702495E-1,1.1041629E-1,1.8916886E-1],"split_indices":[41,34,5,8,2,0,16,27,5,14,0,2,16,0,0,0,0,0,0,0,0,0,0],"split_type":[0,0,0,0,0,0,0,0,0,0,0,0,0,0,0,0,0,0,0,0,0,0,0],"sum_hessian":[7.177708E2,5.7686316E2,1.4090768E2,4.508506E2,1.26012566E2,1.02742195E1,1.3063347E2,3.7216226E2,7.868832E1,1.1528834E2,1.0724229E1,6.2169994E1,6.846347E1,3.8069157E1,3.340931E2,1.0164871E1,6.8523445E1,5.371934E1,6.1568996E1,1.2184112E1,4.998588E1,3.5713505E1,3.274996E1],"tree_param":{"num_deleted":"0","num_feature":"43","num_nodes":"23","size_leaf_vector":"1"}},{"base_weights":[-9.446952E-2,-5.2356607E-1,1.5232551E0,-7.2191536E-1,1.8277553E-1,1.9826266E-1,1.4117769E0,-1.1474023E0,-5.482624E-1,-3.1008077E-1,8.410784E-1,1.1806713E0,1.6897033E-1,-1.1711442E-1,-7.281751E-2,-1.5055207E-2,-6.2046975E-2,-4.6511456E-2,9.96829E-2,4.006853E-2,1.6490704E-1,1.6800058E-1,9.0122916E-2],"categories":[],"categories_nodes":[],"categories_segments":[],"categories_sizes":[],"default_left":[0,0,0,0,0,0,0,0,0,0,0,0,0,0,0,0,0,0,0,0,0,0,0],"id":4,"left_children":[1,3,5,7,9,-1,11,13,15,17,19,21,-1,-1,-1,-1,-1,-1,-1,-1,-1,-1,-1],"loss_changes":[4.8157028E2,7.694321E1,8.9019165E0,3.1380356E1,3.9055145E1,0E0,1.0416901E1,4.2169952E0,1.3087326E1,1.7272955E1,1.9177048E1,9.8869095E0,0E0,0E0,0E0,0E0,0E0,0E0,0E0,0E0,0E0,0E0,0E0],"parents":[2147483647,0,0,1,1,2,2,3,3,4,4,6,6,7,7,8,8,9,9,10,10,11,11],"right_children":[2,4,6,8,10,-1,12,14,16,18,20,22,-1,-1,-1,-1,-1,-1,-1,-1,-1,-1,-1],"split_conditions":[2.1865676E-6,2.55646E5,2.28E2,1.0851608E3,1.03E3,1.9826266E-1,9.370754E-5,1.98E2,9.15E2,1.5707E4,8.4356E4,3.79E2,1.6897033E-1,-1.1711442E-1,-7.281751E-2,-1.5055207E-2,-6.2046975E-2,-4.6511456E-2,9.96829E-2,4.006853E-2,1.6490704E-1,1.6800058E-1,9.0122916E-2],"split_indices":[41,20,3,38,8,0,41,25,13,25,0,32,0,0,0,0,0,0,0,0,0,0,0],"split_type":[0,0,0,0,0,0,0,0,0,0,0,0,0,0,0,0,0,0,0,0,0,0,0],"sum_hessian":[6.9395123E2,5.485552E2,1.4539603E2,4.2846362E2,1.2009156E2,2.2976574E1,1.2241946E2,1.2389915E2,3.0456448E2,6.8540146E1,5.1551414E1,7.6850586E1,4.556887E1,9.7630104E1,2.6269045E1,6.845923E1,2.3610526E2,6.0508163E1,8.0319805E0,3.5582745E1,1.5968672E1,2.0366135E1,5.6484447E1],"tree_param":{"num_deleted":"0","num_feature":"43","num_nodes":"23","size_leaf_vector":"1"}},{"base_weights":[-6.1179575E-2,-4.5190734E-1,1.4126396E0,-7.999447E-1,1.1544458E-1,7.237892E-2,1.4701395E0,-1.0817444E0,-5.8811647E-1,-4.4494563E-1,3.633685E-1,1.8777329E-1,1.3277489E0,-1.0893579E-1,-5.2512627E-2,3.9180674E-2,-7.365632E-2,9.9296786E-2,-6.841461E-2,4.5145664E-2,-1.0570322E-1,8.926708E-2,1.4158688E-1],"categories":[],"categories_nodes":[],"categories_segments":[],"categories_sizes":[],"default_left":[0,0,0,0,0,0,0,0,0,0,0,0,0,0,0,0,0,0,0,0,0,0,0],"id":5,"left_children":[1,3,5,7,9,-1,11,13,15,17,19,-1,21,-1,-1,-1,-1,-1,-1,-1,-1,-1,-1],"loss_changes":[4.0093542E2,1.08837776E2,5.0188293E0,2.0108047E1,2.9052223E1,0E0,9.47702E0,5.620697E0,3.8426315E1,2.7125473E1,2.5169317E1,0E0,6.7136383E0,0E0,0E0,0E0,0E0,0E0,0E0,0E0,0E0,0E0,0E0],"parents":[2147483647,0,0,1,1,2,2,3,3,4,4,6,6,7,7,8,8,9,9,10,10,12,12],"right_children":[2,4,6,8,10,-1,12,14,16,18,20,-1,22,-1,-1,-1,-1,-1,-1,-1,-1,-1,-1],"split_conditions":[6E0,1.2479986E4,4.52E2,3.35E2,5E0,7.237892E-2,4.8536E4,3.829E3,7.09E2,2.174E3,2.030964E6,1.8777329E-1,2.2452E4,-1.0893579E-1,-5.2512627E-2,3.9180674E-2,-7.365632E-2,9.9296786E-2,-6.841461E-2,4.5145664E-2,-1.0570322E-1,8.926708E-2,1.4158688E-1],"split_indices":[7,38,5,0,9,0,0,17,17,17,2,0,14,0,0,0,0,0,0,0,0,0,0],"split_type":[0,0,0,0,0,0,0,0,0,0,0,0,0,0,0,0,0,0,0,0,0,0,0],"sum_hessian":[6.9647815E2,5.506187E2,1.4585942E2,3.414415E2,2.0917722E2,1.22211485E1,1.3363828E2,1.4617712E2,1.9526437E2,6.3957603E1,1.452196E2,2.8134417E1,1.0550386E2,1.2710055E2,1.9076576E1,3.1663605E1,1.6360077E2,1.0046184E1,5.391142E1,1.3474615E2,1.0473448E1,3.4154663E1,7.13492E1],"tree_param":{"num_deleted":"0","num_feature":"43","num_nodes":"23","size_leaf_vector":"1"}},{"base_weights":[-2.6594656E-2,-3.9480653E-1,1.2602692E0,-6.8608195E-1,1.6070358E-1,4.6308685E-2,1.3428308E0,-2.8308295E-3,-7.894821E-1,1.4164087E0,3.6334988E-2,1.486549E0,1.053443E0,9.098353E-2,-5.012011E-2,-1.09009735E-1,-5.6321103E-2,1.7682992E-1,8.7419935E-2,-1.0445926E-2,8.247115E-2,1.5405887E-1,1.1594402E-1,-8.728062E-3,1.2510358E-1],"categories":[],"categories_nodes":[],"categories_segments":[],"categories_sizes":[],"default_left":[0,0,0,0,0,0,0,0,0,0,0,0,0,0,0,0,0,0,0,0,0,0,0,0,0],"id":6,"left_children":[1,3,5,7,9,-1,11,13,15,17,19,21,23,-1,-1,-1,-1,-1,-1,-1,-1,-1,-1,-1,-1],"loss_changes":[3.2146466E2,8.548953E1,9.262146E0,2.4349396E1,2.8092838E1,0E0,5.234314E0,2.3494106E1,2.0897522E1,3.1995354E0,2.0607975E1,3.008957E0,1.4690262E1,0E0,0E0,0E0,0E0,0E0,0E0,0E0,0E0,0E0,0E0,0E0,0E0],"parents":[2147483647,0,0,1,1,2,2,3,3,4,4,6,6,7,7,8,8,9,9,10,10,11,11,12,12],"right_children":[2,4,6,8,10,-1,12,14,16,18,20,22,24,-1,-1,-1,-1,-1,-1,-1,-1,-1,-1,-1,-1],"split_conditions":[4E0,1.7335322E4,1.31896E6,-3.9964E4,-8.0944E4,4.6308685E-2,-1.0876E4,2.01E2,1.0851608E3,9.2003E4,6.9162E4,7.642E3,1.6532E4,9.098353E-2,-5.012011E-2,-1.09009735E-1,-5.6321103E-2,1.7682992E-1,8.7419935E-2,-1.0445926E-2,8.247115E-2,1.5405887E-1,1.1594402E-1,-8.728062E-3,1.2510358E-1],"split_indices":[7,28,2,27,27,0,27,30,38,18,0,11,30,0,0,0,0,0,0,0,0,0,0,0,0],"split_type":[0,0,0,0,0,0,0,0,0,0,0,0,0,0,0,0,0,0,0,0,0,0,0,0,0],"sum_hessian":[6.7869543E2,5.2780585E2,1.5088954E2,3.464395E2,1.8136635E2,1.484909E1,1.3604045E2,4.5742092E1,3.0069742E2,1.6217705E1,1.6514865E2,9.0497154E1,4.5543293E1,1.6051493E1,2.9690601E1,1.0177863E2,1.989188E2,8.107601E0,8.110104E0,1.403585E2,2.4790136E1,5.6042374E1,3.445478E1,8.765557E0,3.6777737E1],"tree_param":{"num_deleted":"0","num_feature":"43","num_nodes":"25","size_leaf_vector":"1"}},{"base_weights":[-4.381507E-2,-4.0121108E-1,1.205051E0,-6.208744E-1,2.72768E-1,1.6636233E-1,1.1274757E0,-8.8755494E-1,-4.6059904E-1,-8.916832E-2,7.307256E-1,9.2580795E-1,1.4177562E0,-9.364216E-2,-3.9576374E-2,-2.3610134E-2,-8.039424E-2,1.4444888E-1,-2.8383141E-2,1.6846389E-1,4.1128136E-2,1.05861254E-1,2.878923E-2,7.995763E-2,1.4557363E-1],"categories":[],"categories_nodes":[],"categories_segments":[],"categories_sizes":[],"default_left":[0,0,0,0,0,0,0,0,0,0,0,0,0,0,0,0,0,0,0,0,0,0,0,0,0],"id":7,"left_children":[1,3,5,7,9,-1,11,13,15,17,19,21,23,-1,-1,-1,-1,-1,-1,-1,-1,-1,-1,-1,-1],"loss_changes":[2.9790768E2,7.693337E1,6.019455E0,1.6526382E1,2.123116E1,0E0,7.2686615E0,7.205826E0,2.0081398E1,2.437686E1,1.7207027E1,9.396294E0,3.5585022E0,0E0,0E0,0E0,0E0,0E0,0E0,0E0,0E0,0E0,0E0,0E0,0E0],"parents":[2147483647,0,0,1,1,2,2,3,3,4,4,6,6,7,7,8,8,9,9,10,10,11,11,12,12],"right_children":[2,4,6,8,10,-1,12,14,16,18,20,22,24,-1,-1,-1,-1,-1,-1,-1,-1,-1,-1,-1,-1],"split_conditions":[2.1865676E-6,2.59968E5,1.94E2,8E0,3.912E3,1.6636233E-1,1.19E2,2.5645585E-4,5.91E3,1.103E3,5.227E3,3.5112E4,7.388E3,-9.364216E-2,-3.9576374E-2,-2.3610134E-2,-8.039424E-2,1.4444888E-1,-2.8383141E-2,1.6846389E-1,4.1128136E-2,1.05861254E-1,2.878923E-2,7.995763E-2,1.4557363E-1],"split_indices":[41,20,4,1,9,0,7,42,17,36,9,1,6,0,0,0,0,0,0,0,0,0,0,0,0],"split_type":[0,0,0,0,0,0,0,0,0,0,0,0,0,0,0,0,0,0,0,0,0,0,0,0,0],"sum_hessian":[6.6771045E2,5.192493E2,1.4846112E2,3.9179404E2,1.2745531E2,1.7648783E1,1.3081233E2,1.4668188E2,2.4511215E2,7.100109E1,5.6454224E1,7.754081E1,5.327153E1,1.1867883E2,2.800305E1,1.6041997E2,8.4692184E1,8.121693E0,6.2879395E1,1.2086855E1,4.4367367E1,5.838531E1,1.9155495E1,1.0239134E1,4.30324E1],"tree_param":{"num_deleted":"0","num_feature":"43","num_nodes":"25","size_leaf_vector":"1"}},{"base_weights":[-8.916498E-3,-6.401213E-1,4.7783214E-1,2.7187803E-1,-7.3749137E-1,7.856951E-2,9.084835E-1,9.479574E-2,-4.9636964E-2,-9.1852844E-1,-1.826263E-1,5.478432E-1,-2.5614852E-1,2.007951E-1,1.0465358E0,-1.0509373E-1,-7.105846E-2,1.3569725E-1,-4.627238E-2,3.2234944E-2,1.5883484E-1,-4.625015E-2,9.109308E-2,9.348966E-2,-3.2372147E-2,1.0691122E-1,2.5759581E-2],"categories":[],"categories_nodes":[],"categories_segments":[],"categories_sizes":[],"default_left":[0,0,0,0,0,0,0,0,0,0,0,0,0,0,0,0,0,0,0,0,0,0,0,0,0,0,0],"id":8,"left_children":[1,3,5,7,9,11,13,-1,-1,15,17,19,21,23,25,-1,-1,-1,-1,-1,-1,-1,-1,-1,-1,-1,-1],"loss_changes":[2.008623E2,2.5363129E1,6.3276466E1,1.6180952E1,2.568254E1,3.0151194E1,1.7119476E1,0E0,0E0,5.9796295E0,3.1865776E1,1.8385143E1,3.2205235E1,1.2720731E1,1.0170303E1,0E0,0E0,0E0,0E0,0E0,0E0,0E0,0E0,0E0,0E0,0E0,0E0],"parents":[2147483647,0,0,1,1,2,2,3,3,4,4,5,5,6,6,9,9,10,10,11,11,12,12,13,13,14,14],"right_children":[2,4,6,8,10,12,14,-1,-1,16,18,20,22,24,26,-1,-1,-1,-1,-1,-1,-1,-1,-1,-1,-1,-1],"split_conditions":[9.615128E3,-5.7092E4,8.051E3,2.4E1,3.075E3,9.87E2,3.938E3,9.479574E-2,-4.9636964E-2,7.2665137E2,7.09E2,3.238E3,6.2879312E4,2.0853568E4,4.7278E4,-1.0509373E-1,-7.105846E-2,1.3569725E-1,-4.627238E-2,3.2234944E-2,1.5883484E-1,-4.625015E-2,9.109308E-2,9.348966E-2,-3.2372147E-2,1.0691122E-1,2.5759581E-2],"split_indices":[38,27,9,19,36,12,6,0,0,28,17,6,38,28,1,0,0,0,0,0,0,0,0,0,0,0,0],"split_type":[0,0,0,0,0,0,0,0,0,0,0,0,0,0,0,0,0,0,0,0,0,0,0,0,0,0,0],"sum_hessian":[6.5366046E2,2.8474045E2,3.6892E2,2.7307405E1,2.5743304E2,1.9163632E2,1.772837E2,1.4318948E1,1.2988458E1,1.9387973E2,6.3553318E1,7.997802E1,1.11658295E2,2.9132162E1,1.4815155E2,8.656838E1,1.0731135E2,1.0076117E1,5.34772E1,6.794188E1,1.2036141E1,9.374699E1,1.7911308E1,1.1977152E1,1.715501E1,1.323693E2,1.5782254E1],"tree_param":{"num_deleted":"0","num_feature":"43","num_nodes":"27","size_leaf_vector":"1"}},{"base_weights":[-1.0756117E-2,-5.708217E-1,4.9495125E-1,-7.1106255E-1,1.0502465E-1,1.214263E-1,8.9468485E-1,-9.5471644E-1,-5.7538164E-1,1.3532801E-1,-3.074171E-1,2.1429576E-1,-1.21509105E-1,4.1822907E-1,1.0249518E0,-9.8295346E-2,-3.2387745E-2,1.2216662E-2,-7.261903E-2,-6.647316E-2,6.4474605E-2,7.3389444E-3,1.1725754E-1,-2.17824E-2,7.504909E-2,6.0475715E-2,1.0734979E-1],"categories":[],"categories_nodes":[],"categories_segments":[],"categories_sizes":[],"default_left":[0,0,0,0,0,0,0,0,0,0,0,0,0,0,0,0,0,0,0,0,0,0,0,0,0,0,0],"id":9,"left_children":[1,3,5,7,9,11,13,15,17,-1,19,21,-1,23,25,-1,-1,-1,-1,-1,-1,-1,-1,-1,-1,-1,-1],"loss_changes":[1.7980025E2,2.8660294E1,4.962047E1,8.005959E0,2.8590965E1,2.2496042E1,9.747955E0,4.7105103E0,2.2480396E1,0E0,1.5629937E1,2.2595488E1,0E0,8.697136E0,5.3386383E0,0E0,0E0,0E0,0E0,0E0,0E0,0E0,0E0,0E0,0E0,0E0,0E0],"parents":[2147483647,0,0,1,1,2,2,3,3,4,4,5,5,6,6,7,7,8,8,10,10,11,11,13,13,14,14],"right_children":[2,4,6,8,10,12,14,16,18,-1,20,22,-1,24,26,-1,-1,-1,-1,-1,-1,-1,-1,-1,-1,-1,-1],"split_conditions":[2.22E2,6.9162E4,4.7021E4,1.0851608E3,3.671E3,8.177E3,5.804E3,5.33E2,2.0601506E3,1.3532801E-1,9.96E3,3.2031E4,-1.21509105E-1,1.407E3,1.0035E4,-9.8295346E-2,-3.2387745E-2,1.2216662E-2,-7.261903E-2,-6.647316E-2,6.4474605E-2,7.3389444E-3,1.1725754E-1,-2.17824E-2,7.504909E-2,6.0475715E-2,1.0734979E-1],"split_indices":[9,18,0,38,17,31,17,5,38,0,0,21,0,4,9,0,0,0,0,0,0,0,0,0,0,0,0],"split_type":[0,0,0,0,0,0,0,0,0,0,0,0,0,0,0,0,0,0,0,0,0,0,0,0,0,0,0],"sum_hessian":[6.347566E2,3.0134027E2,3.3341635E2,2.4975185E2,5.158843E1,1.7257307E2,1.6084328E2,8.888529E1,1.6086656E2,1.2263225E1,3.9325203E1,1.6205338E2,1.0519701E1,3.480792E1,1.26035355E2,7.711172E1,1.1773577E1,3.4970524E1,1.25896034E2,2.8157497E1,1.1167704E1,1.4332391E2,1.8729462E1,1.2692752E1,2.2115166E1,2.9936998E1,9.609835E1],"tree_param":{"num_deleted":"0","num_feature":"43","num_nodes":"27","size_leaf_vector":"1"}},{"base_weights":[1.6030748E-3,-2.974038E-1,9.895147E-1,-5.1143456E-1,3.4859547E-1,1.2630752E-1,8.913499E-1,1.9017945E-1,-6.4173186E-1,5.2059156E-1,-3.6982116E-1,5.0317365E-5,9.777509E-1,-4.0435348E-2,5.604001E-2,-1.045312E-1,-4.5744706E-2,-2.3095183E-2,7.1580365E-2,-1.0239524E-1,1.0589126E-2,7.005557E-2,1.1280067E-1],"categories":[],"categories_nodes":[],"categories_segments":[],"categories_sizes":[],"default_left":[0,0,0,0,0,0,0,0,0,0,0,0,0,0,0,0,0,0,0,0,0,0,0],"id":10,"left_children":[1,3,5,7,9,-1,11,13,15,17,19,-1,21,-1,-1,-1,-1,-1,-1,-1,-1,-1,-1],"loss_changes":[1.844162E2,6.623471E1,4.674179E0,3.297209E1,1.4729005E1,0E0,8.617455E0,1.4179898E1,2.1888313E1,1.7843338E1,8.07671E0,0E0,5.0400314E0,0E0,0E0,0E0,0E0,0E0,0E0,0E0,0E0,0E0,0E0],"parents":[2147483647,0,0,1,1,2,2,3,3,4,4,6,6,7,7,8,8,9,9,10,10,12,12],"right_children":[2,4,6,8,10,-1,12,14,16,18,20,-1,22,-1,-1,-1,-1,-1,-1,-1,-1,-1,-1],"split_conditions":[2.1865676E-6,2.0436E4,3.79E2,-3.9964E4,1.929E3,1.2630752E-1,1.207E3,2.9E2,1.0851608E3,5.032E3,2.6783E4,5.0317365E-5,1.7783E4,-4.0435348E-2,5.604001E-2,-1.045312E-1,-4.5744706E-2,-2.3095183E-2,7.1580365E-2,-1.0239524E-1,1.0589126E-2,7.005557E-2,1.1280067E-1],"split_indices":[41,34,32,27,24,0,32,34,38,13,30,0,9,0,0,0,0,0,0,0,0,0,0],"split_type":[0,0,0,0,0,0,0,0,0,0,0,0,0,0,0,0,0,0,0,0,0,0,0],"sum_hessian":[6.2391174E2,4.7883185E2,1.4507991E2,3.598555E2,1.1897636E2,3.1095459E1,1.1398445E2,5.616892E1,3.0368658E2,9.617653E1,2.2799828E1,1.0242686E1,1.0374177E2,2.2063261E1,3.410566E1,7.5023636E1,2.2866293E2,2.2846891E1,7.3329636E1,9.278986E0,1.3520841E1,5.10897E1,5.2652065E1],"tree_param":{"num_deleted":"0","num_feature":"43","num_nodes":"23","size_leaf_vector":"1"}},{"base_weights":[-4.2711597E-2,-3.4972855E-1,5.176255E-1,3.8434815E-1,-5.1661843E-1,2.263947E-1,7.68094E-1,-1.8127425E-1,7.7643776E-1,-6.5388393E-1,1.9697616E-1,6.111856E-1,-3.9761332E-1,1.8523234E-1,6.7460513E-1,-5.342469E-2,5.8310855E-2,3.4162264E-2,1.1291192E-1,-9.96425E-2,-4.5971774E-2,-7.313614E-2,6.2487956E-2,-3.877991E-2,7.3446676E-2,-1.207763E-1,-2.2873955E-3,-4.1819956E-2,7.2906375E-2],"categories":[],"categories_nodes":[],"categories_segments":[],"categories_sizes":[],"default_left":[0,0,0,0,0,0,0,0,0,0,0,0,0,0,0,0,0,0,0,0,0,0,0,0,0,0,0,0,0],"id":11,"left_children":[1,3,5,7,9,11,13,15,17,19,21,23,25,-1,27,-1,-1,-1,-1,-1,-1,-1,-1,-1,-1,-1,-1,-1,-1],"loss_changes":[1.0332654E2,4.759445E1,1.5337574E1,1.601048E1,3.1082085E1,2.3700869E1,1.2370293E1,9.062647E0,7.209421E0,1.7531075E1,2.3200846E1,1.0712818E1,1.2190626E1,0E0,1.2028763E1,0E0,0E0,0E0,0E0,0E0,0E0,0E0,0E0,0E0,0E0,0E0,0E0,0E0,0E0],"parents":[2147483647,0,0,1,1,2,2,3,3,4,4,5,5,6,6,7,7,8,8,9,9,10,10,11,11,12,12,14,14],"right_children":[2,4,6,8,10,12,14,16,18,20,22,24,26,-1,28,-1,-1,-1,-1,-1,-1,-1,-1,-1,-1,-1,-1,-1,-1],"split_conditions":[4.364E3,-3.678E4,1.1036E4,1.55E2,2.4633E4,3.52E2,7.022E3,2.679E3,7.8E2,4.297E3,8.4E1,3.35E2,4.6822E4,1.8523234E-1,1.1267653E2,-5.342469E-2,5.8310855E-2,3.4162264E-2,1.1291192E-1,-9.96425E-2,-4.5971774E-2,-7.313614E-2,6.2487956E-2,-3.877991E-2,7.3446676E-2,-1.207763E-1,-2.2873955E-3,-4.1819956E-2,7.2906375E-2],"split_indices":[6,27,36,25,32,19,10,12,21,15,24,14,18,0,29,0,0,0,0,0,0,0,0,0,0,0,0,0,0],"split_type":[0,0,0,0,0,0,0,0,0,0,0,0,0,0,0,0,0,0,0,0,0,0,0,0,0,0,0,0,0],"sum_hessian":[6.0075323E2,3.8829202E2,2.1246118E2,7.17447E1,3.1654733E2,9.8542145E1,1.1391904E2,2.9207932E1,4.2536766E1,2.6566895E2,5.0878384E1,6.1113464E1,3.7428684E1,8.07763E0,1.0584141E2,1.983345E1,9.374481E0,2.1769724E1,2.0767042E1,7.63814E1,1.8928755E2,1.6382814E1,3.4495567E1,8.575239E0,5.2538223E1,1.0948208E1,2.6480476E1,8.626359E0,9.721505E1],"tree_param":{"num_deleted":"0","num_feature":"43","num_nodes":"29","size_leaf_vector":"1"}},{"base_weights":[-7.7496073E-3,-2.4335095E-1,8.1617737E-1,-4.6421078E-1,3.4436694E-1,7.5260603E-1,1.3369845E-1,-5.897254E-1,1.17802784E-1,-5.8393337E-2,4.577713E-1,9.159649E-1,3.3167386E-1,1.4926207E-2,-6.689618E-2,2.9584162E-2,-8.830508E-2,5.281178E-2,-6.2006965E-2,1.00945614E-1,4.8204493E-2,-5.5715747E-2,6.9174E-2],"categories":[],"categories_nodes":[],"categories_segments":[],"categories_sizes":[],"default_left":[0,0,0,0,0,0,0,0,0,0,0,0,0,0,0,0,0,0,0,0,0,0,0],"id":12,"left_children":[1,3,5,7,9,11,-1,13,15,-1,17,19,21,-1,-1,-1,-1,-1,-1,-1,-1,-1,-1],"loss_changes":[1.16330635E2,6.0579E1,4.7735214E0,2.4863045E1,1.3910399E1,8.105682E0,0E0,2.5591743E1,1.2391072E1,0E0,1.3249704E1,5.265465E0,1.2761208E1,0E0,0E0,0E0,0E0,0E0,0E0,0E0,0E0,0E0,0E0],"parents":[2147483647,0,0,1,1,2,2,3,3,4,4,5,5,7,7,8,8,10,10,11,11,12,12],"right_children":[2,4,6,8,10,12,-1,14,16,-1,18,20,22,-1,-1,-1,-1,-1,-1,-1,-1,-1,-1],"split_conditions":[2.1865676E-6,2.0436E4,3.78E2,1.256E3,1.6E1,5.9608E4,1.3369845E-1,-4.4332E4,2.3954E4,-5.8393337E-2,6.012E3,4.4118E4,1.4284409E-2,1.4926207E-2,-6.689618E-2,2.9584162E-2,-8.830508E-2,5.281178E-2,-6.2006965E-2,1.00945614E-1,4.8204493E-2,-5.5715747E-2,6.9174E-2],"split_indices":[41,34,7,8,24,25,0,27,21,0,24,32,42,0,0,0,0,0,0,0,0,0,0],"split_type":[0,0,0,0,0,0,0,0,0,0,0,0,0,0,0,0,0,0,0,0,0,0,0],"sum_hessian":[5.99726E2,4.665255E2,1.3320049E2,3.3929547E2,1.2723004E2,1.2081972E2,1.2380764E1,2.7933084E2,5.9964615E1,1.3218426E1,1.1401161E2,8.6756966E1,3.406276E1,3.8953083E1,2.4037776E2,5.0683155E1,9.281459E0,1.0443351E2,9.578109E0,6.2033344E1,2.4723618E1,1.0241643E1,2.3821115E1],"tree_param":{"num_deleted":"0","num_feature":"43","num_nodes":"23","size_leaf_vector":"1"}},{"base_weights":[-2.337194E-2,-2.367492E-1,7.8502357E-1,-6.64259E-1,-3.8341478E-2,1.0414433E0,6.235949E-1,-9.843555E-1,-4.356039E-1,7.471304E-1,-1.1793874E-1,4.5925986E-2,1.1260062E-1,3.7293586E-1,9.410874E-1,-2.3985283E-2,-1.0300578E-1,-1.8443376E-2,-1.1350373E-1,8.112516E-3,2.1695285E-1,-4.8883602E-2,6.785055E-3,8.4289834E-2,-2.1784458E-2,1.370793E-1,6.716439E-2],"categories":[],"categories_nodes":[],"categories_segments":[],"categories_sizes":[],"default_left":[0,0,0,0,0,0,0,0,0,0,0,0,0,0,0,0,0,0,0,0,0,0,0,0,0,0,0],"id":13,"left_children":[1,3,5,7,9,11,13,15,17,19,21,-1,-1,23,25,-1,-1,-1,-1,-1,-1,-1,-1,-1,-1,-1,-1],"loss_changes":[1.0070784E2,3.911473E1,4.7710037E0,1.0478943E1,1.966598E1,3.762249E0,5.7704334E0,4.713768E0,1.5604916E1,2.9431673E1,2.2032814E1,0E0,0E0,1.3514271E1,3.494484E0,0E0,0E0,0E0,0E0,0E0,0E0,0E0,0E0,0E0,0E0,0E0,0E0],"parents":[2147483647,0,0,1,1,2,2,3,3,4,4,5,5,6,6,7,7,8,8,9,9,10,10,13,13,14,14],"right_children":[2,4,6,8,10,12,14,16,18,20,22,-1,-1,24,26,-1,-1,-1,-1,-1,-1,-1,-1,-1,-1,-1,-1],"split_conditions":[7E0,2.34E2,6.87E2,1.906E3,3.8E2,9.573E3,8.9792295E-5,2.5329778E-6,5.77E2,2.87E2,5.015267E-4,4.5925986E-2,1.1260062E-1,2.145149E3,2.9551228E3,-2.3985283E-2,-1.0300578E-1,-1.8443376E-2,-1.1350373E-1,8.112516E-3,2.1695285E-1,-4.8883602E-2,6.785055E-3,8.4289834E-2,-2.1784458E-2,1.370793E-1,6.716439E-2],"split_indices":[7,14,26,18,14,22,41,42,30,24,42,0,0,29,39,0,0,0,0,0,0,0,0,0,0,0,0],"split_type":[0,0,0,0,0,0,0,0,0,0,0,0,0,0,0,0,0,0,0,0,0,0,0,0,0,0,0],"sum_hessian":[5.843213E2,4.6246014E2,1.2186116E2,1.4632983E2,3.161303E2,4.6672226E1,7.5188934E1,6.0665897E1,8.566393E1,2.8894287E1,2.8723602E2,1.0532052E1,3.6140175E1,4.231219E1,3.2876747E1,8.24103E0,5.2424866E1,6.5555466E1,2.0108465E1,2.0380749E1,8.513539E0,9.2472786E1,1.9476323E2,2.281144E1,1.9500751E1,9.779521E0,2.3097225E1],"tree_param":{"num_deleted":"0","num_feature":"43","num_nodes":"27","size_leaf_vector":"1"}},{"base_weights":[-3.25438E-2,-2.5145596E-1,7.926108E-1,-7.5453115E-1,-1.0751479E-1,8.880036E-1,-1.3027675E-2,-9.667193E-1,-4.2445076E-1,8.958274E-1,-1.6945323E-1,7.280351E-1,1.2051723E0,-2.7837316E-2,-1.0675137E-1,-1.1404093E-1,-1.3467982E-2,1.8730254E-1,-2.1752443E-2,-4.2116422E-2,9.498753E-3,7.786963E-2,9.73587E-3,1.312179E-1,5.6656606E-2],"categories":[],"categories_nodes":[],"categories_segments":[],"categories_sizes":[],"default_left":[0,0,0,0,0,0,0,0,0,0,0,0,0,0,0,0,0,0,0,0,0,0,0,0,0],"id":14,"left_children":[1,3,5,7,9,11,-1,13,15,17,19,21,23,-1,-1,-1,-1,-1,-1,-1,-1,-1,-1,-1,-1],"loss_changes":[1.03686295E2,3.2750046E1,1.0807648E1,6.8322296E0,2.184785E1,5.225296E0,0E0,6.6846657E0,8.598143E0,2.5508831E1,2.515416E1,4.426998E0,3.841793E0,0E0,0E0,0E0,0E0,0E0,0E0,0E0,0E0,0E0,0E0,0E0,0E0],"parents":[2147483647,0,0,1,1,2,2,3,3,4,4,5,5,7,7,8,8,9,9,10,10,11,11,12,12],"right_children":[2,4,6,8,10,12,-1,14,16,18,20,22,24,-1,-1,-1,-1,-1,-1,-1,-1,-1,-1,-1,-1],"split_conditions":[6E0,3.13E2,7.4212E4,9.12E2,1.322E3,2.6385E4,-1.3027675E-2,2.2E1,-1.294E3,1.561E3,6.8204E4,8.791E3,7.8304E4,-2.7837316E-2,-1.0675137E-1,-1.1404093E-1,-1.3467982E-2,1.8730254E-1,-2.1752443E-2,-4.2116422E-2,9.498753E-3,7.786963E-2,9.73587E-3,1.312179E-1,5.6656606E-2],"split_indices":[7,0,27,34,22,21,0,34,25,10,23,3,25,0,0,0,0,0,0,0,0,0,0,0,0],"split_type":[0,0,0,0,0,0,0,0,0,0,0,0,0,0,0,0,0,0,0,0,0,0,0,0,0],"sum_hessian":[5.7446094E2,4.541717E2,1.2028924E2,1.0078121E2,3.5339047E2,1.0926814E2,1.1021093E1,6.103747E1,3.9743744E1,2.0388065E1,3.330024E2,7.299428E1,3.627387E1,1.2482119E1,4.8555355E1,1.0284545E1,2.9459198E1,1.0400928E1,9.987137E0,1.643316E2,1.686708E2,6.26601E1,1.0334174E1,2.7334904E1,8.938965E0],"tree_param":{"num_deleted":"0","num_feature":"43","num_nodes":"25","size_leaf_vector":"1"}},{"base_weights":[3.0774845E-2,-1.6365781E-1,6.8966246E-1,-6.6123897E-1,-2.0961123E-2,4.4904372E-1,8.501256E-1,-9.19299E-1,-3.6029363E-1,8.143881E-1,-1.2061393E-1,7.463868E-1,-1.6367644E-1,1.1129559E-1,7.122472E-1,-9.718815E-2,-3.580138E-2,3.1217262E-2,-6.934007E-2,1.6418132E-1,4.068202E-2,-4.1471943E-2,1.5453251E-2,1.24758415E-1,5.3311706E-2,-7.126806E-2,3.772057E-2,2.4212613E-3,8.712559E-2],"categories":[],"categories_nodes":[],"categories_segments":[],"categories_sizes":[],"default_left":[0,0,0,0,0,0,0,0,0,0,0,0,0,0,0,0,0,0,0,0,0,0,0,0,0,0,0,0,0],"id":15,"left_children":[1,3,5,7,9,11,13,15,17,19,21,23,25,-1,27,-1,-1,-1,-1,-1,-1,-1,-1,-1,-1,-1,-1,-1,-1],"loss_changes":[7.312215E1,3.113438E1,4.8107605E0,7.3883095E0,2.8378616E1,9.653954E0,3.261345E0,3.002102E0,1.1947351E1,1.2558102E1,2.7999544E1,3.3845634E0,5.762941E0,0E0,7.9983635E0,0E0,0E0,0E0,0E0,0E0,0E0,0E0,0E0,0E0,0E0,0E0,0E0,0E0,0E0],"parents":[2147483647,0,0,1,1,2,2,3,3,4,4,5,5,6,6,7,7,8,8,9,9,10,10,11,11,12,12,14,14],"right_children":[2,4,6,8,10,12,14,16,18,20,22,24,26,-1,28,-1,-1,-1,-1,-1,-1,-1,-1,-1,-1,-1,-1,-1,-1],"split_conditions":[2.1865676E-6,3.13E2,8.113E3,2.3094E4,1.5E2,7.832E4,1.6220787E3,2.529E3,5.1412E4,1.77E2,6.8204E4,5.9056E4,1.30296E5,1.1129559E-1,3.1787E4,-9.718815E-2,-3.580138E-2,3.1217262E-2,-6.934007E-2,1.6418132E-1,4.068202E-2,-4.1471943E-2,1.5453251E-2,1.24758415E-1,5.3311706E-2,-7.126806E-2,3.772057E-2,2.4212613E-3,8.712559E-2],"split_indices":[41,0,17,20,12,13,29,17,20,1,23,20,23,0,14,0,0,0,0,0,0,0,0,0,0,0,0,0,0],"split_type":[0,0,0,0,0,0,0,0,0,0,0,0,0,0,0,0,0,0,0,0,0,0,0,0,0,0,0,0,0],"sum_hessian":[5.701013E2,4.4002045E2,1.3008089E2,9.780693E1,3.4221353E2,5.2458313E1,7.762257E1,5.235646E1,4.5450466E1,3.6293453E1,3.0592007E2,3.5492813E1,1.69655E1,2.2320284E1,5.5302284E1,4.2910812E1,9.445648E0,1.5884617E1,2.956585E1,1.0406996E1,2.5886457E1,1.442353E2,1.6168477E2,8.1409445E0,2.7351868E1,8.40263E0,8.562869E0,1.335385E1,4.1948433E1],"tree_param":{"num_deleted":"0","num_feature":"43","num_nodes":"29","size_leaf_vector":"1"}},{"base_weights":[-2.974639E-2,-2.1718007E-1,7.107315E-1,-4.3818095E-1,2.9800546E-1,4.9305922E-1,9.1579485E-1,-1.0782976E-1,-3.5459283E-1,4.7818995E-1,-8.5871714E-1,8.980823E-1,-5.800878E-2,2.9802611E-2,9.547272E-2,-7.431791E-2,-1.6538855E-2,7.415453E-2,-2.1163605E-2,-1.3494314E-1,-1.6327256E-2,2.8102014E-2,1.04429565E-1,5.833056E-2,-6.3146755E-2],"categories":[],"categories_nodes":[],"categories_segments":[],"categories_sizes":[],"default_left":[0,0,0,0,0,0,0,0,0,0,0,0,0,0,0,0,0,0,0,0,0,0,0,0,0],"id":16,"left_children":[1,3,5,7,9,11,13,-1,15,17,19,21,23,-1,-1,-1,-1,-1,-1,-1,-1,-1,-1,-1,-1],"loss_changes":[7.590461E1,4.9785362E1,4.6980095E0,1.7894043E1,2.7245567E1,1.2179327E1,3.1607742E0,0E0,2.1188568E1,2.488895E1,6.671011E0,3.759636E0,9.468997E0,0E0,0E0,0E0,0E0,0E0,0E0,0E0,0E0,0E0,0E0,0E0,0E0],"parents":[2147483647,0,0,1,1,2,2,3,3,4,4,5,5,6,6,8,8,9,9,10,10,11,11,12,12],"right_children":[2,4,6,8,10,12,14,-1,16,18,20,22,24,-1,-1,-1,-1,-1,-1,-1,-1,-1,-1,-1,-1],"split_conditions":[7E0,2.0436E4,2.6758E4,1.34474E6,1.919908E6,4.266E3,7.689E3,-1.0782976E-1,3.35E2,3.1453E4,7.4E1,1.43492E6,1.954E3,2.9802611E-2,9.547272E-2,-7.431791E-2,-1.6538855E-2,7.415453E-2,-2.1163605E-2,-1.3494314E-1,-1.6327256E-2,2.8102014E-2,1.04429565E-1,5.833056E-2,-6.3146755E-2],"split_indices":[7,34,14,2,2,16,22,0,0,22,37,2,14,0,0,0,0,0,0,0,0,0,0,0,0],"split_type":[0,0,0,0,0,0,0,0,0,0,0,0,0,0,0,0,0,0,0,0,0,0,0,0,0],"sum_hessian":[5.4744543E2,4.3704288E2,1.10402534E2,3.0606244E2,1.3098044E2,5.3951946E1,5.6450592E1,3.206135E1,2.7400107E2,1.134527E2,1.7527744E1,3.1259789E1,2.2692156E1,8.308725E0,4.814187E1,7.9357635E1,1.9464343E2,7.884638E1,3.4606316E1,9.38116E0,8.1465845E0,8.400525E0,2.2859264E1,1.0653525E1,1.20386305E1],"tree_param":{"num_deleted":"0","num_feature":"43","num_nodes":"25","size_leaf_vector":"1"}},{"base_weights":[-2.9078776E-3,-1.9706403E-1,6.4643455E-1,-3.9749366E-1,7.6351464E-2,5.4464334E-1,1.1222673E-1,-8.441521E-1,-2.9085162E-1,1.4907539E-1,-1.2323165E-1,-4.4110034E-2,6.4814556E-1,-1.0209349E-1,-3.1467266E-3,2.1663422E-2,-4.1442826E-2,6.973882E-3,1.4431766E-1,1.1100079E-1,4.7338117E-2],"categories":[],"categories_nodes":[],"categories_segments":[],"categories_sizes":[],"default_left":[0,0,0,0,0,0,0,0,0,0,0,0,0,0,0,0,0,0,0,0,0],"id":17,"left_children":[1,3,5,7,9,11,-1,13,15,17,-1,-1,19,-1,-1,-1,-1,-1,-1,-1,-1],"loss_changes":[6.827895E1,2.2933535E1,6.6588364E0,1.1307972E1,1.7603083E1,1.1086273E1,0E0,8.885216E0,1.529414E1,1.714228E1,0E0,0E0,7.094654E0,0E0,0E0,0E0,0E0,0E0,0E0,0E0,0E0],"parents":[2147483647,0,0,1,1,2,2,3,3,4,4,5,5,7,7,8,8,9,9,12,12],"right_children":[2,4,6,8,10,12,-1,14,16,18,-1,-1,20,-1,-1,-1,-1,-1,-1,-1,-1],"split_conditions":[2.1865676E-6,2.22E2,1.3923898E-4,1.447608E6,1.9563E4,1.31896E6,1.1222673E-1,1.6901479E2,9.25E2,7.8144664E4,-1.2323165E-1,-4.4110034E-2,2.4602137E-4,-1.0209349E-1,-3.1467266E-3,2.1663422E-2,-4.1442826E-2,6.973882E-3,1.4431766E-1,1.1100079E-1,4.7338117E-2],"split_indices":[41,9,41,2,11,2,0,29,17,28,0,0,40,0,0,0,0,0,0,0,0],"split_type":[0,0,0,0,0,0,0,0,0,0,0,0,0,0,0,0,0,0,0,0,0],"sum_hessian":[5.4212646E2,4.1753577E2,1.2459071E2,2.4125877E2,1.76277E2,1.0532421E2,1.9266504E1,4.619548E1,1.950633E2,1.676163E2,8.6607E0,9.608889E0,9.571532E1,3.5420902E1,1.077458E1,4.335585E1,1.5170744E2,1.5914708E2,8.469219E0,2.017133E1,7.554399E1],"tree_param":{"num_deleted":"0","num_feature":"43","num_nodes":"21","size_leaf_vector":"1"}},{"base_weights":[-4.7218867E-2,-3.7043482E-1,2.3549268E-1,3.6703452E-1,-4.975464E-1,-3.6100835E-1,3.5182193E-1,-6.888365E-2,8.076431E-1,-9.6314855E-2,-3.4369344E-1,-7.6751584E-1,8.344602E-2,-8.392661E-2,4.9229696E-1,1.5933616E-1,3.4029335E-2,2.1940753E-2,-5.187789E-2,1.8764561E-2,-1.022504E-1,-5.421003E-2,3.8674746E-2,2.6557323E-2,7.235248E-2],"categories":[],"categories_nodes":[],"categories_segments":[],"categories_sizes":[],"default_left":[0,0,0,0,0,0,0,0,0,0,0,0,0,0,0,0,0,0,0,0,0,0,0,0,0],"id":18,"left_children":[1,3,5,7,9,11,13,-1,15,-1,17,19,-1,21,23,-1,-1,-1,-1,-1,-1,-1,-1,-1,-1],"loss_changes":[4.8537346E1,2.3269577E1,1.9634281E1,1.7600887E1,1.6947285E1,2.331803E1,1.4573458E1,0E0,9.951586E0,0E0,1.9776321E1,1.0916595E1,0E0,1.4068827E1,1.0275898E1,0E0,0E0,0E0,0E0,0E0,0E0,0E0,0E0,0E0,0E0],"parents":[2147483647,0,0,1,1,2,2,3,3,4,4,5,5,6,6,8,8,10,10,11,11,13,13,14,14],"right_children":[2,4,6,8,10,12,14,-1,16,-1,18,20,-1,22,24,-1,-1,-1,-1,-1,-1,-1,-1,-1,-1],"split_conditions":[1.255E4,-3.9964E4,1.379472E6,1.513228E6,7.972E3,1.1E2,-2.5228E4,-6.888365E-2,6E1,-9.6314855E-2,1.19E2,6.55E2,8.344602E-2,4.78752E5,2.1439E4,1.5933616E-1,3.4029335E-2,2.1940753E-2,-5.187789E-2,1.8764561E-2,-1.022504E-1,-5.421003E-2,3.8674746E-2,2.6557323E-2,7.235248E-2],"split_indices":[13,27,2,2,20,7,25,0,14,0,12,12,0,20,34,0,0,0,0,0,0,0,0,0,0],"split_type":[0,0,0,0,0,0,0,0,0,0,0,0,0,0,0,0,0,0,0,0,0,0,0,0,0],"sum_hessian":[5.3091907E2,2.4797673E2,2.8294235E2,3.6269627E1,2.117071E2,4.5946045E1,2.3699632E2,1.0267873E1,2.6001755E1,4.7581722E1,1.6412538E2,3.4762417E1,1.1183627E1,5.749982E1,1.794965E2,8.560907E0,1.7440845E1,4.331155E1,1.2081383E2,8.525212E0,2.6237204E1,2.8985842E1,2.8513977E1,1.02557106E2,7.69394E1],"tree_param":{"num_deleted":"0","num_feature":"43","num_nodes":"25","size_leaf_vector":"1"}},{"base_weights":[-2.5092114E-2,-3.9862862E-1,2.269072E-1,-7.061146E-1,-7.080463E-2,5.7702012E-2,5.933259E-1,-9.3408746E-1,-2.50101E-1,6.278173E-1,-3.6165756E-1,-8.330848E-2,5.2151114E-1,7.870658E-1,2.5531483E-1,-2.7072903E-2,-9.564694E-2,2.4684574E-2,-1.1054493E-1,-4.658296E-2,1.1063327E-1,5.0507286E-3,-9.8073535E-2,1.4703556E-2,-5.8484048E-2,7.851286E-2,-2.1833634E-2,1.7386718E-2,8.281673E-2,-2.4788003E-2,7.420038E-2],"categories":[],"categories_nodes":[],"categories_segments":[],"categories_sizes":[],"default_left":[0,0,0,0,0,0,0,0,0,0,0,0,0,0,0,0,0,0,0,0,0,0,0,0,0,0,0,0,0,0,0],"id":19,"left_children":[1,3,5,7,9,11,13,15,17,19,21,23,25,27,29,-1,-1,-1,-1,-1,-1,-1,-1,-1,-1,-1,-1,-1,-1,-1,-1],"loss_changes":[4.9449726E1,2.1221699E1,1.931814E1,1.114159E1,2.0840261E1,1.410701E1,6.2920303E0,3.694828E0,1.751887E1,1.865382E1,2.0752438E1,2.1304966E1,1.199605E1,3.3597336E0,1.0139181E1,0E0,0E0,0E0,0E0,0E0,0E0,0E0,0E0,0E0,0E0,0E0,0E0,0E0,0E0,0E0,0E0],"parents":[2147483647,0,0,1,1,2,2,3,3,4,4,5,5,6,6,7,7,8,8,9,9,10,10,11,11,12,12,13,13,14,14],"right_children":[2,4,6,8,10,12,14,16,18,20,22,24,26,28,30,-1,-1,-1,-1,-1,-1,-1,-1,-1,-1,-1,-1,-1,-1,-1,-1],"split_conditions":[2E0,1.3874855E1,6.7480482E-6,3.1803174E3,4.38E2,5.1627E4,5.9608E4,1.897E3,2.95E2,5.98E2,3.55E2,3.78E2,-1.534E3,4.82E2,7.7659955E-5,-2.7072903E-2,-9.564694E-2,2.4684574E-2,-1.1054493E-1,-4.658296E-2,1.1063327E-1,5.0507286E-3,-9.8073535E-2,1.4703556E-2,-5.8484048E-2,7.851286E-2,-2.1833634E-2,1.7386718E-2,8.281673E-2,-2.4788003E-2,7.420038E-2],"split_indices":[9,39,41,28,21,34,25,20,1,34,24,24,25,5,41,0,0,0,0,0,0,0,0,0,0,0,0,0,0,0,0],"split_type":[0,0,0,0,0,0,0,0,0,0,0,0,0,0,0,0,0,0,0,0,0,0,0,0,0,0,0,0,0,0,0],"sum_hessian":[5.25015E2,2.1175719E2,3.1325778E2,1.090095E2,1.0274769E2,2.1460637E2,9.865142E1,7.243479E1,3.6574707E1,3.0036818E1,7.271088E1,1.6431471E2,5.0291664E1,6.2398018E1,3.6253403E1,8.513041E0,6.3921753E1,2.343426E1,1.3140449E1,9.767099E0,2.0269718E1,4.50416E1,2.7669275E1,1.13522865E2,5.079185E1,3.5659443E1,1.4632221E1,8.66043E0,5.3737587E1,1.823686E1,1.8016544E1],"tree_param":{"num_deleted":"0","num_feature":"43","num_nodes":"31","size_leaf_vector":"1"}},{"base_weights":[-5.5175968E-2,-2.33235E-1,6.0042995E-1,-3.837647E-1,1.2104766E-1,7.047876E-2,3.0674016E-1,1.177565E-1,-5.644905E-1,1.0491841E-1,-1.9823316E-2,-5.2868746E-2,5.161985E-2,4.2934284E-2,-7.184831E-2,-5.8898166E-2,4.423033E-2,-3.8735718E-2,4.1501172E-2],"categories":[],"categories_nodes":[],"categories_segments":[],"categories_sizes":[],"default_left":[0,0,0,0,0,0,0,0,0,0,0,0,0,0,0,0,0,0,0],"id":20,"left_children":[1,3,5,7,9,-1,11,13,15,-1,17,-1,-1,-1,-1,-1,-1,-1,-1],"loss_changes":[6.0278152E1,2.1729668E1,4.662956E0,2.5968952E1,1.7131763E1,0E0,7.91051E0,2.252134E1,1.3545876E1,0E0,1.9148823E1,0E0,0E0,0E0,0E0,0E0,0E0,0E0,0E0],"parents":[2147483647,0,0,1,1,2,2,3,3,4,4,6,6,7,7,8,8,10,10],"right_children":[2,4,6,8,10,-1,12,14,16,-1,18,-1,-1,-1,-1,-1,-1,-1,-1],"split_conditions":[6E0,2.0436E4,-1.0876E4,-2.7156E4,2.14E2,7.047876E-2,6.778E3,6.942E3,4.658E4,1.0491841E-1,2.873E3,-5.2868746E-2,5.161985E-2,4.2934284E-2,-7.184831E-2,-5.8898166E-2,4.423033E-2,-3.8735718E-2,4.1501172E-2],"split_indices":[7,34,27,27,12,0,17,17,14,0,9,0,0,0,0,0,0,0,0],"split_type":[0,0,0,0,0,0,0,0,0,0,0,0,0,0,0,0,0,0,0],"sum_hessian":[5.1683875E2,4.0664694E2,1.10191795E2,2.8570532E2,1.2094162E2,7.2669106E1,3.7522694E1,7.5449326E1,2.1025601E2,1.5128267E1,1.05813354E2,8.035977E0,2.9486715E1,5.4638252E1,2.081107E1,1.9850328E2,1.175273E1,5.737548E1,4.843787E1],"tree_param":{"num_deleted":"0","num_feature":"43","num_nodes":"19","size_leaf_vector":"1"}},{"base_weights":[2.87147E-2,-9.752489E-2,5.509522E-1,-6.696079E-1,-1.4326025E-2,4.232512E-1,9.74531E-2,3.8374525E-2,-9.129886E-1,2.9380932E-2,-1.09511234E-1,5.878566E-1,-1.7954911E-1,-1.9754078E-2,-1.01231426E-1,-1.0830644E-3,1.1472217E-1,-2.3798417E-2,6.827058E-2,-5.849127E-2,2.6255924E-2],"categories":[],"categories_nodes":[],"categories_segments":[],"categories_sizes":[],"default_left":[0,0,0,0,0,0,0,0,0,0,0,0,0,0,0,0,0,0,0,0,0],"id":21,"left_children":[1,3,5,7,9,11,-1,-1,13,15,-1,17,19,-1,-1,-1,-1,-1,-1,-1,-1],"loss_changes":[3.3727207E1,1.9446186E1,5.942091E0,1.3705603E1,1.823561E1,7.921797E0,0E0,0E0,4.68771E0,1.7036045E1,0E0,7.343704E0,3.4660547E0,0E0,0E0,0E0,0E0,0E0,0E0,0E0,0E0],"parents":[2147483647,0,0,1,1,2,2,3,3,4,4,5,5,8,8,9,9,11,11,12,12],"right_children":[2,4,6,8,10,12,-1,-1,14,16,-1,18,20,-1,-1,-1,-1,-1,-1,-1,-1],"split_conditions":[7E0,1.0851608E3,2.6706E4,-3.9964E4,2.79164E6,3.5112E4,9.74531E-2,3.8374525E-2,1E1,2.361864E6,-1.09511234E-1,4.82E2,1.5514E4,-1.9754078E-2,-1.01231426E-1,-1.0830644E-3,1.1472217E-1,-2.3798417E-2,6.827058E-2,-5.849127E-2,2.6255924E-2],"split_indices":[7,38,9,27,2,1,0,0,5,2,0,5,17,0,0,0,0,0,0,0,0],"split_type":[0,0,0,0,0,0,0,0,0,0,0,0,0,0,0,0,0,0,0,0,0],"sum_hessian":[5.1046298E2,4.108515E2,9.9611496E1,5.1910107E1,3.589414E2,7.915565E1,2.045585E1,9.439649E0,4.247046E1,3.4568378E2,1.3257625E1,6.238575E1,1.6769897E1,8.224034E0,3.424642E1,3.3408804E2,1.1595734E1,8.6538E0,5.373195E1,8.710552E0,8.059345E0],"tree_param":{"num_deleted":"0","num_feature":"43","num_nodes":"21","size_leaf_vector":"1"}},{"base_weights":[1.6042948E-2,-8.4331566E-1,1.0628095E-1,1.3550396E-2,-1.0045093E-1,5.506979E-1,-1.5908815E-2,9.8582894E-1,2.9916528E-1,-1.0465287E-1,5.740278E-1,4.8085958E-2,1.5736875E-1,4.244337E-2,-4.3161552E-2,1.7181608E-3,-7.3407724E-2,-2.1571403E-3,8.013808E-2],"categories":[],"categories_nodes":[],"categories_segments":[],"categories_sizes":[],"default_left":[0,0,0,0,0,0,0,0,0,0,0,0,0,0,0,0,0,0,0],"id":22,"left_children":[1,3,5,-1,-1,7,9,11,13,15,17,-1,-1,-1,-1,-1,-1,-1,-1],"loss_changes":[3.867107E1,1.0689732E1,2.4676004E1,0E0,0E0,1.051029E1,1.850626E1,1.1275055E1,7.2015276E0,2.579141E1,7.810773E0,0E0,0E0,0E0,0E0,0E0,0E0,0E0,0E0],"parents":[2147483647,0,0,1,1,2,2,5,5,6,6,7,7,8,8,9,9,10,10],"right_children":[2,4,6,-1,-1,8,10,12,14,16,18,-1,-1,-1,-1,-1,-1,-1,-1],"split_conditions":[1.0851608E3,-3.9964E4,-5.7092E4,1.3550396E-2,-1.0045093E-1,1.978E3,1.65253E5,1.706112E6,2.030964E6,3.1804E4,-6.24E3,4.8085958E-2,1.5736875E-1,4.244337E-2,-4.3161552E-2,1.7181608E-3,-7.3407724E-2,-2.1571403E-3,8.013808E-2],"split_indices":[38,27,27,0,0,30,10,2,2,22,26,0,0,0,0,0,0,0,0],"split_type":[0,0,0,0,0,0,0,0,0,0,0,0,0,0,0,0,0,0,0],"sum_hessian":[5.0017618E2,4.7353134E1,4.5282306E2,8.667495E0,3.868564E1,9.792583E1,3.5489722E2,3.562622E1,6.2299606E1,3.087348E2,4.6162415E1,2.1243021E1,1.43832E1,5.2055435E1,1.0244168E1,2.6105743E2,4.7677376E1,1.4506852E1,3.1655561E1],"tree_param":{"num_deleted":"0","num_feature":"43","num_nodes":"19","size_leaf_vector":"1"}},{"base_weights":[1.1725096E-3,-8.190929E-1,8.358091E-2,-9.292657E-2,-1.6244035E-3,1.20531164E-1,-1.09058104E-1,6.8725824E-2,6.9320565E-1,1.2779574E-2,-8.979388E-2,8.643968E-2,1.5433637E-2],"categories":[],"categories_nodes":[],"categories_segments":[],"categories_sizes":[],"default_left":[0,0,0,0,0,0,0,0,0,0,0,0,0],"id":23,"left_children":[1,3,5,-1,-1,7,-1,9,11,-1,-1,-1,-1],"loss_changes":[3.3599556E1,6.004633E0,2.06751E1,0E0,0E0,1.2945935E1,0E0,2.7699823E1,4.170723E0,0E0,0E0,0E0,0E0],"parents":[2147483647,0,0,1,1,2,2,5,5,7,7,8,8],"right_children":[2,4,6,-1,-1,8,-1,10,12,-1,-1,-1,-1],"split_conditions":[1.0851608E3,5.33E2,2.79164E6,-9.292657E-2,-1.6244035E-3,3.3673E4,-1.09058104E-1,7.8912E4,1.3175E5,1.2779574E-2,-8.979388E-2,8.643968E-2,1.5433637E-2],"split_indices":[38,5,2,0,0,16,0,27,36,0,0,0,0],"split_type":[0,0,0,0,0,0,0,0,0,0,0,0,0],"sum_hessian":[4.9877637E2,4.5348633E1,4.5342773E2,3.7267094E1,8.081539E0,4.404812E2,1.2946534E1,4.0420776E2,3.6273426E1,3.7946014E2,2.4747614E1,2.518442E1,1.1089006E1],"tree_param":{"num_deleted":"0","num_feature":"43","num_nodes":"13","size_leaf_vector":"1"}},{"base_weights":[-3.974305E-2,-6.159655E-1,5.755075E-2,-2.388419E-1,-9.098769E-1,-5.723567E-2,4.1978058E-1,-6.3994485E-1,7.133164E-2,-1.0692167E-1,-3.319941E-2,6.687702E-1,-1.4695075E-1,5.215364E-1,-5.4509163E-2,1.1135877E-2,-1.0171087E-1,-3.4935813E-2,1.1248276E-1,-2.0122105E-2,6.331451E-2,3.0630523E-2,7.0302054E-2],"categories":[],"categories_nodes":[],"categories_segments":[],"categories_sizes":[],"default_left":[0,0,0,0,0,0,0,0,0,0,0,0,0,0,0,0,0,0,0,0,0,0,0],"id":24,"left_children":[1,3,5,7,9,11,13,15,-1,-1,-1,17,19,21,-1,-1,-1,-1,-1,-1,-1,-1,-1],"loss_changes":[2.7606245E1,7.6989956E0,1.7508453E1,1.2557569E1,4.792568E0,2.0654285E1,1.0301571E1,7.7089624E0,0E0,0E0,0E0,1.926264E1,1.5545716E1,3.9059658E0,0E0,0E0,0E0,0E0,0E0,0E0,0E0,0E0,0E0],"parents":[2147483647,0,0,1,1,2,2,3,3,4,4,5,5,6,6,7,7,11,11,12,12,13,13],"right_children":[2,4,6,8,10,12,14,16,-1,-1,-1,18,20,22,-1,-1,-1,-1,-1,-1,-1,-1,-1],"split_conditions":[3.35E2,5.9E1,2.1865676E-6,1.901E3,3.972E3,1.5E2,4.7278E4,6.41E2,7.133164E-2,-1.0692167E-1,-3.319941E-2,3.6E1,7.9896E4,2.62E3,-5.4509163E-2,1.1135877E-2,-1.0171087E-1,-3.4935813E-2,1.1248276E-1,-2.0122105E-2,6.331451E-2,3.0630523E-2,7.0302054E-2],"split_indices":[0,0,41,34,17,12,1,17,0,0,0,24,0,8,0,0,0,0,0,0,0,0,0],"split_type":[0,0,0,0,0,0,0,0,0,0,0,0,0,0,0,0,0,0,0,0,0,0,0],"sum_hessian":[4.9080402E2,7.112858E1,4.1967545E2,3.1401522E1,3.972706E1,3.1835913E2,1.0131632E2,2.2514608E1,8.886912E0,2.7984562E1,1.1742496E1,3.4809784E1,2.8354935E2,9.210649E1,9.209839E0,8.16136E0,1.435325E1,1.1616062E1,2.3193722E1,2.6229596E2,2.1253384E1,4.9799313E1,4.2307175E1],"tree_param":{"num_deleted":"0","num_feature":"43","num_nodes":"23","size_leaf_vector":"1"}},{"base_weights":[1.3706512E-2,-5.794753E-1,1.09137565E-1,-9.0049185E-2,-2.7616873E-1,7.853048E-1,4.313004E-2,-8.302026E-1,3.2490808E-1,1.379455E0,6.7351386E-2,4.1090465E-1,-1.0762291E-1,-1.07998684E-1,-3.1601362E-2,-3.2978225E-2,8.483637E-2,1.9475208E-1,7.428405E-2,-4.997685E-2,7.0502765E-2,1.3156123E-1,2.8128816E-2,-3.7000053E-2,2.5647411E-2],"categories":[],"categories_nodes":[],"categories_segments":[],"categories_sizes":[],"default_left":[0,0,0,0,0,0,0,0,0,0,0,0,0,0,0,0,0,0,0,0,0,0,0,0,0],"id":25,"left_children":[1,3,5,-1,7,9,11,13,15,17,19,21,23,-1,-1,-1,-1,-1,-1,-1,-1,-1,-1,-1,-1],"loss_changes":[2.7754904E1,7.5952682E0,1.8778982E1,0E0,1.2720627E1,1.5750885E1,2.1465033E1,2.8897543E0,7.145417E0,7.8379974E0,7.0331974E0,1.2155043E1,2.9801468E1,0E0,0E0,0E0,0E0,0E0,0E0,0E0,0E0,0E0,0E0,0E0,0E0],"parents":[2147483647,0,0,1,1,2,2,4,4,5,5,6,6,7,7,8,8,9,9,10,10,11,11,12,12],"right_children":[2,4,6,-1,8,10,12,14,16,18,20,22,24,-1,-1,-1,-1,-1,-1,-1,-1,-1,-1,-1,-1],"split_conditions":[3.13E2,1.1630488E3,1.5E2,-9.0049185E-2,-2.72E2,2.8E2,-4.4332E4,5.3E1,7.51E2,2.05E3,5.6E1,1.206E3,1.03E3,-1.07998684E-1,-3.1601362E-2,-3.2978225E-2,8.483637E-2,1.9475208E-1,7.428405E-2,-4.997685E-2,7.0502765E-2,1.3156123E-1,2.8128816E-2,-3.7000053E-2,2.5647411E-2],"split_indices":[0,28,12,0,25,25,27,8,32,32,5,13,8,0,0,0,0,0,0,0,0,0,0,0,0],"split_type":[0,0,0,0,0,0,0,0,0,0,0,0,0,0,0,0,0,0,0,0,0,0,0,0,0],"sum_hessian":[4.9160532E2,6.788858E1,4.2371674E2,2.9953733E1,3.793485E1,3.745796E1,3.8625876E2,1.9876116E1,1.8058731E1,2.0368504E1,1.7089457E1,1.1260087E2,2.736579E2,1.1874798E1,8.001318E0,8.197013E0,9.861718E0,9.225497E0,1.1143005E1,8.97903E0,8.110427E0,1.1266263E1,1.013346E2,1.5646288E2,1.1719503E2],"tree_param":{"num_deleted":"0","num_feature":"43","num_nodes":"25","size_leaf_vector":"1"}},{"base_weights":[1.427864E-2,-7.698627E-2,5.7356554E-1,2.5066155E-1,-2.2753447E-1,2.522193E-2,7.821261E-1,5.3206974E-1,-6.532687E-2,-3.4673092E-1,2.566796E-1,7.0956066E-2,-7.765362E-2,1.7582817E-2,9.842815E-1,-1.9419601E-2,7.472237E-2,-2.6086014E-2,7.709047E-2,-7.0704564E-2,-2.1682827E-2,5.0540995E-2,-6.376412E-2,1.3141556E-1,6.952746E-2],"categories":[],"categories_nodes":[],"categories_segments":[],"categories_sizes":[],"default_left":[0,0,0,0,0,0,0,0,0,0,0,0,0,0,0,0,0,0,0,0,0,0,0,0,0],"id":26,"left_children":[1,3,5,7,9,11,13,15,17,19,21,-1,-1,-1,23,-1,-1,-1,-1,-1,-1,-1,-1,-1,-1],"loss_changes":[2.4367182E1,2.0163193E1,7.532812E0,1.1490892E1,1.6202614E1,1.1602366E1,5.6239643E0,1.33343525E1,1.1230133E1,1.0444033E1,1.4470998E1,0E0,0E0,0E0,3.2767944E0,0E0,0E0,0E0,0E0,0E0,0E0,0E0,0E0,0E0,0E0],"parents":[2147483647,0,0,1,1,2,2,3,3,4,4,5,5,6,6,7,7,8,8,9,9,10,10,14,14],"right_children":[2,4,6,8,10,12,14,16,18,20,22,-1,-1,-1,24,-1,-1,-1,-1,-1,-1,-1,-1,-1,-1],"split_conditions":[4.658E4,-2.7156E4,9.78E2,8.2E1,4.0832E4,-2.4344E4,6.1E1,1.88E2,6.952E3,-8.616E3,1.295E3,7.0956066E-2,-7.765362E-2,1.7582817E-2,5.03E2,-1.9419601E-2,7.472237E-2,-2.6086014E-2,7.709047E-2,-7.0704564E-2,-2.1682827E-2,5.0540995E-2,-6.376412E-2,1.3141556E-1,6.952746E-2],"split_indices":[14,27,8,24,34,27,24,8,19,27,5,0,0,0,19,0,0,0,0,0,0,0,0,0,0],"split_type":[0,0,0,0,0,0,0,0,0,0,0,0,0,0,0,0,0,0,0,0,0,0,0,0,0],"sum_hessian":[4.7580548E2,4.0881802E2,6.698748E1,1.2836937E2,2.8044867E2,1.8672861E1,4.8314617E1,6.816365E1,6.020571E1,2.253171E2,5.5131554E1,1.0156963E1,8.515898E0,1.2457556E1,3.585706E1,1.773211E1,5.043154E1,4.871909E1,1.1486626E1,4.981816E1,1.7549895E2,4.252679E1,1.2604763E1,1.3057946E1,2.2799114E1],"tree_param":{"num_deleted":"0","num_feature":"43","num_nodes":"25","size_leaf_vector":"1"}},{"base_weights":[-2.5144884E-2,-1.4248689E-1,4.2187327E-1,-3.2526266E-2,-5.04639E-1,3.2514188E-1,8.295445E-2,-6.5696275E-1,6.320355E-2,-1.0736078E-1,-2.3784313E-1,8.847214E-2,2.2534935E-1,1.2023957E-3,-8.304201E-2,-9.530991E-2,1.1746624E-2,4.2483017E-2,-4.623516E-2,3.1444862E-2,-5.4715328E-2],"categories":[],"categories_nodes":[],"categories_segments":[],"categories_sizes":[],"default_left":[0,0,0,0,0,0,0,0,0,0,0,0,0,0,0,0,0,0,0,0,0],"id":27,"left_children":[1,3,5,7,9,11,-1,13,15,-1,17,-1,19,-1,-1,-1,-1,-1,-1,-1,-1],"loss_changes":[2.4883238E1,1.4915207E1,4.1939373E0,1.7389997E1,1.4642258E1,4.836054E0,0E0,6.0072784E0,1.6535418E1,0E0,1.0839772E1,0E0,6.18486E0,0E0,0E0,0E0,0E0,0E0,0E0,0E0,0E0],"parents":[2147483647,0,0,1,1,2,2,3,3,4,4,5,5,7,7,8,8,10,10,12,12],"right_children":[2,4,6,8,10,12,-1,14,16,-1,18,-1,20,-1,-1,-1,-1,-1,-1,-1,-1],"split_conditions":[2.5373304E-6,2.4199E4,2.7666E4,1.1124418E3,2.38973E5,2.765E3,8.295445E-2,1.7E1,4E0,-1.0736078E-1,4.08E2,8.847214E-2,9.844E3,1.2023957E-3,-8.304201E-2,-9.530991E-2,1.1746624E-2,4.2483017E-2,-4.623516E-2,3.1444862E-2,-5.4715328E-2],"split_indices":[41,22,9,38,20,6,0,5,19,0,16,0,26,0,0,0,0,0,0,0,0],"split_type":[0,0,0,0,0,0,0,0,0,0,0,0,0,0,0,0,0,0,0,0,0],"sum_hessian":[4.752097E2,3.7669345E2,9.851623E1,2.8930545E2,8.738801E1,8.172232E1,1.6793901E1,3.866987E1,2.5063557E2,2.5593122E1,6.1794888E1,1.11551285E1,7.056719E1,9.596763E0,2.9073107E1,1.3442135E1,2.3719345E2,1.6460443E1,4.5334446E1,6.234204E1,8.225154E0],"tree_param":{"num_deleted":"0","num_feature":"43","num_nodes":"21","size_leaf_vector":"1"}},{"base_weights":[-1.4849198E-2,-3.8325986E-1,1.0382019E-1,3.47799E-1,-6.7524594E-1,1.4040731E-1,-1.07848555E-1,1.3573034E-1,-7.935084E-2,-8.2798797E-1,1.7346965E-2,1.0754743E0,7.748733E-2,-6.1771333E-2,6.216122E-2,-3.7629727E-2,-1.01969525E-1,1.63871E-2,2.2843586E-1,1.9101964E-3,6.709789E-2],"categories":[],"categories_nodes":[],"categories_segments":[],"categories_sizes":[],"default_left":[0,0,0,0,0,0,0,0,0,0,0,0,0,0,0,0,0,0,0,0,0],"id":28,"left_children":[1,3,5,7,9,11,-1,-1,13,15,-1,17,19,-1,-1,-1,-1,-1,-1,-1,-1],"loss_changes":[2.0429428E1,2.437374E1,1.597002E1,1.5375082E1,1.0817162E1,1.9963318E1,0E0,0E0,9.931854E0,7.3831406E0,0E0,2.5741615E1,1.1561091E1,0E0,0E0,0E0,0E0,0E0,0E0,0E0,0E0],"parents":[2147483647,0,0,1,1,2,2,3,3,4,4,5,5,8,8,9,9,11,11,12,12],"right_children":[2,4,6,8,10,12,-1,-1,14,16,-1,18,20,-1,-1,-1,-1,-1,-1,-1,-1],"split_conditions":[2.6261592E0,1.1220299E-6,2.79164E6,1.18966445E-5,2.855E3,1.3653E4,-1.07848555E-1,1.3573034E-1,7.27E2,2.23E2,1.7346965E-2,1.255E3,1.2029048E4,-6.1771333E-2,6.216122E-2,-3.7629727E-2,-1.01969525E-1,1.63871E-2,2.2843586E-1,1.9101964E-3,6.709789E-2],"split_indices":[39,39,2,42,6,23,0,0,9,32,0,6,29,0,0,0,0,0,0,0,0],"split_type":[0,0,0,0,0,0,0,0,0,0,0,0,0,0,0,0,0,0,0,0,0],"sum_hessian":[4.6624454E2,1.13915375E2,3.5232916E2,3.2355476E1,8.15599E1,3.4245316E2,9.876016E0,9.169953E0,2.3185522E1,6.941486E1,1.2145033E1,2.141879E1,3.2103436E2,1.3146656E1,1.0038865E1,2.6290668E1,4.3124195E1,1.2941614E1,8.477177E0,2.9481342E2,2.6220947E1],"tree_param":{"num_deleted":"0","num_feature":"43","num_nodes":"21","size_leaf_vector":"1"}},{"base_weights":[-2.0774484E-2,-2.6835063E-1,1.2263311E-1,-1.18869945E-1,-8.133007E-1,8.6505836E-1,6.030363E-2,-2.2897437E-1,8.238704E-2,-9.608248E-2,-6.8090046E-3,1.7206614E-1,1.5246519E-2,-3.7828124E-1,1.5481712E-1,-4.182546E-3,-7.993115E-2,1.0689254E-1,-7.174609E-2,-4.7156695E-2,2.285419E-2],"categories":[],"categories_nodes":[],"categories_segments":[],"categories_sizes":[],"default_left":[0,0,0,0,0,0,0,0,0,0,0,0,0,0,0,0,0,0,0,0,0],"id":29,"left_children":[1,3,5,7,9,11,13,15,-1,-1,-1,-1,-1,17,19,-1,-1,-1,-1,-1,-1],"loss_changes":[1.6627962E1,1.3856557E1,1.3536436E1,1.4713432E1,5.5162773E0,1.5085962E1,1.1282995E1,1.382652E1,0E0,0E0,0E0,0E0,0E0,2.802111E1,1.3002943E1,0E0,0E0,0E0,0E0,0E0,0E0],"parents":[2147483647,0,0,1,1,2,2,3,3,4,4,5,5,6,6,7,7,13,13,14,14],"right_children":[2,4,6,8,10,12,14,16,-1,-1,-1,-1,-1,18,20,-1,-1,-1,-1,-1,-1],"split_conditions":[6.374844E-4,9.53E2,9.5874193E-4,2.208E3,6.138E4,1.387E3,2.202E3,4.62E2,8.238704E-2,-9.608248E-2,-6.8090046E-3,1.7206614E-1,1.5246519E-2,7.79E2,9.949926E3,-4.182546E-3,-7.993115E-2,1.0689254E-1,-7.174609E-2,-4.7156695E-2,2.285419E-2],"split_indices":[42,12,42,6,34,34,9,6,0,0,0,0,0,12,38,0,0,0,0,0,0],"split_type":[0,0,0,0,0,0,0,0,0,0,0,0,0,0,0,0,0,0,0,0,0],"sum_hessian":[4.676581E2,1.7193622E2,2.957219E2,1.3516705E2,3.6769157E1,2.2694E1,2.730279E2,1.2185702E2,1.3310041E1,2.8510166E1,8.258993E0,9.45707E0,1.323693E1,4.8099255E1,2.2492865E2,9.41697E1,2.7687317E1,9.655402E0,3.844385E1,2.6451202E1,1.9847745E2],"tree_param":{"num_deleted":"0","num_feature":"43","num_nodes":"21","size_leaf_vector":"1"}},{"base_weights":[3.6333133E-2,-4.2805466E-1,1.0711012E-1,-2.1242264E-1,-1.06134765E-1,3.3078668E-1,-6.526213E-2,-5.207829E-1,5.5506792E-2,2.0423165E-1,2.664572E-1,-5.079594E-1,1.3461618E-1,-8.29999E-3,-8.692675E-2,-2.0731032E-2,3.6641903E-2,-6.353283E-2,2.9851886E-2,-6.66408E-2,1.7747533E-2],"categories":[],"categories_nodes":[],"categories_segments":[],"categories_sizes":[],"default_left":[0,0,0,0,0,0,0,0,0,0,0,0,0,0,0,0,0,0,0,0,0],"id":30,"left_children":[1,3,5,7,-1,9,11,13,-1,15,-1,17,19,-1,-1,-1,-1,-1,-1,-1,-1],"loss_changes":[1.5551472E1,9.228641E0,1.5936277E1,1.1870572E1,0E0,5.648999E1,2.0626093E1,5.919655E0,0E0,1.352796E1,0E0,1.0118305E1,7.227849E0,0E0,0E0,0E0,0E0,0E0,0E0,0E0,0E0],"parents":[2147483647,0,0,1,1,2,2,3,3,5,5,6,6,7,7,9,9,11,11,12,12],"right_children":[2,4,6,8,-1,10,12,14,-1,16,-1,18,20,-1,-1,-1,-1,-1,-1,-1,-1],"split_conditions":[3.13E2,3.52E2,1.164E3,5.6E1,-1.06134765E-1,1.062E3,3.140797E-3,5.2E1,5.5506792E-2,1.475056E6,2.664572E-1,1.6756E5,4.92E2,-8.29999E-3,-8.692675E-2,-2.0731032E-2,3.6641903E-2,-6.353283E-2,2.9851886E-2,-6.66408E-2,1.7747533E-2],"split_indices":[0,12,12,8,0,8,42,12,0,2,0,23,5,0,0,0,0,0,0,0,0],"split_type":[0,0,0,0,0,0,0,0,0,0,0,0,0,0,0,0,0,0,0,0,0],"sum_hessian":[4.7468448E2,6.247181E1,4.1221268E2,4.796287E1,1.450894E1,1.798066E2,2.3240608E2,3.4801155E1,1.3161716E1,1.712286E2,8.577986E0,7.253527E1,1.5987082E2,1.700617E1,1.7794985E1,5.1801296E1,1.1942731E2,6.0436E1,1.2099267E1,9.464165E0,1.5040665E2],"tree_param":{"num_deleted":"0","num_feature":"43","num_nodes":"21","size_leaf_vector":"1"}},{"base_weights":[-1.6829984E-2,-9.7519726E-2,2.8444277E-2,-7.300221E-1,7.62493E-2,-2.950222E-3,-9.761309E-2,5.4217136E-1,9.034192E-3,2.0359037E-2,1.0619894E-1,-3.766155E-3,6.577671E-2],"categories":[],"categories_nodes":[],"categories_segments":[],"categories_sizes":[],"default_left":[0,0,0,0,0,0,0,0,0,0,0,0,0],"id":31,"left_children":[1,-1,3,5,7,-1,-1,9,11,-1,-1,-1,-1],"loss_changes":[2.130482E1,0E0,1.5776409E1,5.3820972E0,1.2821157E1,0E0,0E0,9.667594E0,1.233472E1,0E0,0E0,0E0,0E0],"parents":[2147483647,0,0,2,2,3,3,4,4,7,7,8,8],"right_children":[2,-1,4,6,8,-1,-1,10,12,-1,-1,-1,-1],"split_conditions":[2.4E1,-9.7519726E-2,1.0851608E3,-2.064E4,2.45E2,-2.950222E-3,-9.761309E-2,3.238E3,8.9792295E-5,2.0359037E-2,1.0619894E-1,-3.766155E-3,6.577671E-2],"split_indices":[32,0,38,27,32,0,0,6,41,0,0,0,0],"split_type":[0,0,0,0,0,0,0,0,0,0,0,0,0],"sum_hessian":[4.575376E2,1.9572918E1,4.379647E2,2.5759558E1,4.1220514E2,8.052424E0,1.7707132E1,5.165847E1,3.6054666E2,3.342674E1,1.8231733E1,3.3641214E2,2.4134523E1],"tree_param":{"num_deleted":"0","num_feature":"43","num_nodes":"13","size_leaf_vector":"1"}},{"base_weights":[-6.1149476E-3,3.6404753E-1,-1.01278506E-1,8.416798E-1,1.3088907E-1,-9.358021E-2,-4.1192036E-2,3.146857E-2,1.179737E-1,-2.737878E-1,4.3519923E-1,-1.2735489E-1,4.1912895E-1,2.0632325E-2,-1.0747335E-1,1.0763182E-1,-8.083236E-3,-7.9652425E-3,-1.4397143E-1,5.56821E-2,-4.41293E-2],"categories":[],"categories_nodes":[],"categories_segments":[],"categories_sizes":[],"default_left":[0,0,0,0,0,0,0,0,0,0,0,0,0,0,0,0,0,0,0,0,0],"id":32,"left_children":[1,3,5,7,9,-1,11,-1,-1,13,15,17,19,-1,-1,-1,-1,-1,-1,-1,-1],"loss_changes":[1.5833195E1,1.006886E1,1.9116278E1,6.0051365E0,7.6549845E0,0E0,1.3297715E1,0E0,0E0,1.1461193E1,1.3336039E1,1.6717297E1,8.144805E0,0E0,0E0,0E0,0E0,0E0,0E0,0E0,0E0],"parents":[2147483647,0,0,1,1,2,2,3,3,4,4,6,6,9,9,10,10,11,11,12,12],"right_children":[2,4,6,8,10,-1,12,-1,-1,14,16,18,20,-1,-1,-1,-1,-1,-1,-1,-1],"split_conditions":[-5.7092E4,1.692E3,5.3E1,9.267E3,3.1546576E4,-9.358021E-2,3.51357E5,3.146857E-2,1.179737E-1,2.731E3,2.1894485E3,5.6683E5,1.47004E5,2.0632325E-2,-1.0747335E-1,1.0763182E-1,-8.083236E-3,-7.9652425E-3,-1.4397143E-1,5.56821E-2,-4.41293E-2],"split_indices":[27,6,30,10,28,0,15,0,0,14,29,20,36,0,0,0,0,0,0,0,0],"split_type":[0,0,0,0,0,0,0,0,0,0,0,0,0,0,0,0,0,0,0,0,0],"sum_hessian":[4.5064493E2,9.181081E1,3.588341E2,2.9881628E1,6.192918E1,2.241291E1,3.364212E2,1.3606184E1,1.6275444E1,2.6356005E1,3.5573174E1,2.836781E2,5.2743122E1,1.6704605E1,9.651399E0,1.5184804E1,2.038837E1,2.754455E2,8.232597E0,4.4291195E1,8.451928E0],"tree_param":{"num_deleted":"0","num_feature":"43","num_nodes":"21","size_leaf_vector":"1"}},{"base_weights":[-1.3305917E-2,-1.4553766E-1,2.3414671E-1,3.2684317E-1,-2.9963374E-1,1.2924057E-1,1.7015034E-1,9.949526E-2,1.7241485E-1,-4.52386E-2,-4.917967E-1,-1.2720404E-3,5.866269E-1,-5.5778105E-2,4.3510705E-2,-5.5053644E-2,2.307877E-2,-5.9475426E-2,-1.3598765E-2,1.582959E-2,-6.986538E-2,1.1462439E-1,3.0598657E-2],"categories":[],"categories_nodes":[],"categories_segments":[],"categories_sizes":[],"default_left":[0,0,0,0,0,0,0,0,0,0,0,0,0,0,0,0,0,0,0,0,0,0,0],"id":33,"left_children":[1,3,5,7,9,-1,11,-1,13,15,17,19,21,-1,-1,-1,-1,-1,-1,-1,-1,-1,-1],"loss_changes":[1.4642619E1,2.1277649E1,1.1108615E1,7.8978825E0,1.0702955E1,0E0,1.0621352E1,0E0,1.3188662E1,1.5039148E1,6.0084248E0,1.3212761E1,6.897729E0,0E0,0E0,0E0,0E0,0E0,0E0,0E0,0E0,0E0,0E0],"parents":[2147483647,0,0,1,1,2,2,3,3,4,4,6,6,8,8,9,9,10,10,11,11,12,12],"right_children":[2,4,6,8,10,-1,12,-1,14,16,18,20,22,-1,-1,-1,-1,-1,-1,-1,-1,-1,-1],"split_conditions":[1.062E3,-3.7268E4,1.181E3,6.4E1,6.7E1,1.2924057E-1,4.78752E5,9.949526E-2,2.6817E4,9.9E1,7.437E3,3.7189377E3,5.6683E5,-5.5778105E-2,4.3510705E-2,-5.5053644E-2,2.307877E-2,-5.9475426E-2,-1.3598765E-2,1.582959E-2,-6.986538E-2,1.1462439E-1,3.0598657E-2],"split_indices":[8,27,0,14,8,0,20,0,18,14,14,29,20,0,0,0,0,0,0,0,0,0,0],"split_type":[0,0,0,0,0,0,0,0,0,0,0,0,0,0,0,0,0,0,0,0,0,0,0],"sum_hessian":[4.4790784E2,2.9234042E2,1.555674E2,7.164924E1,2.206912E2,8.118233E0,1.4744917E2,1.2294977E1,5.9354263E1,9.533212E1,1.2535907E2,1.04191185E2,4.325799E1,1.6167688E1,4.3186573E1,3.353596E1,6.179616E1,8.8823135E1,3.6535934E1,8.4631294E1,1.9559889E1,1.2443572E1,3.0814419E1],"tree_param":{"num_deleted":"0","num_feature":"43","num_nodes":"23","size_leaf_vector":"1"}},{"base_weights":[-5.297556E-2,-5.374907E-1,1.1946392E-2,4.232612E-2,-7.263722E-1,4.0532473E-1,-6.03471E-2,-9.787416E-2,-2.2664852E-1,-1.5775497E-1,7.389057E-1,-6.4729816E-1,4.7786497E-2,3.7958242E-2,-8.294661E-2,3.7816938E-2,-7.821514E-2,2.1892302E-1,9.309498E-4,3.1864226E-3,-8.384141E-2,6.461295E-2,-6.465978E-3],"categories":[],"categories_nodes":[],"categories_segments":[],"categories_sizes":[],"default_left":[0,0,0,0,0,0,0,0,0,0,0,0,0,0,0,0,0,0,0,0,0,0,0],"id":34,"left_children":[1,3,5,-1,7,9,11,-1,13,15,17,19,21,-1,-1,-1,-1,-1,-1,-1,-1,-1,-1],"loss_changes":[1.3984949E1,9.844672E0,1.1130059E1,0E0,6.7527676E0,1.1514651E1,2.0954155E1,0E0,7.235236E0,8.551891E0,4.4095444E1,8.696888E0,2.0774984E1,0E0,0E0,0E0,0E0,0E0,0E0,0E0,0E0,0E0,0E0],"parents":[2147483647,0,0,1,1,2,2,4,4,5,5,6,6,8,8,9,9,10,10,11,11,12,12],"right_children":[2,4,6,-1,8,10,12,-1,14,16,18,20,22,-1,-1,-1,-1,-1,-1,-1,-1,-1,-1],"split_conditions":[3E0,4.6983033E-7,1.017E3,4.232612E-2,3.076E3,7.51E2,3.97482E0,-9.787416E-2,7.4E1,1.087E3,2.05E3,6.20332E-7,4.5E2,3.7958242E-2,-8.294661E-2,3.7816938E-2,-7.821514E-2,2.1892302E-1,9.309498E-4,3.1864226E-3,-8.384141E-2,6.461295E-2,-6.465978E-3],"split_indices":[1,39,0,0,17,32,39,0,21,17,32,39,32,0,0,0,0,0,0,0,0,0,0],"split_type":[0,0,0,0,0,0,0,0,0,0,0,0,0,0,0,0,0,0,0,0,0,0,0],"sum_hessian":[4.4190604E2,5.249735E1,3.894087E2,8.288525E0,4.4208824E1,6.0789356E1,3.2861935E2,2.6916117E1,1.729271E1,2.2439049E1,3.8350307E1,5.134428E1,2.7727505E2,8.694436E0,8.598273E0,1.2131074E1,1.0307975E1,1.1978178E1,2.6372128E1,1.3397969E1,3.7946312E1,4.294846E1,2.343266E2],"tree_param":{"num_deleted":"0","num_feature":"43","num_nodes":"23","size_leaf_vector":"1"}},{"base_weights":[1.30687505E-2,-3.953377E-1,8.217293E-2,-6.541737E-1,3.511837E-1,2.3968105E-1,-1.360517E-1,3.1238073E-2,-9.03794E-1,1.1248248E-1,-4.2532604E-2,1.402866E-1,1.8317026E-1,-6.548731E-1,5.983832E-2,-1.610666E-2,-1.0297813E-1,-1.0589125E-2,4.3350708E-2,8.284349E-3,-8.76338E-2,9.2523806E-2,-5.621496E-3],"categories":[],"categories_nodes":[],"categories_segments":[],"categories_sizes":[],"default_left":[0,0,0,0,0,0,0,0,0,0,0,0,0,0,0,0,0,0,0,0,0,0,0],"id":35,"left_children":[1,3,5,7,9,11,13,-1,15,-1,-1,-1,17,19,21,-1,-1,-1,-1,-1,-1,-1,-1],"loss_changes":[1.2526794E1,1.2447697E1,1.3129044E1,1.1866066E1,1.1245608E1,1.5444827E1,1.630557E1,0E0,5.1719494E0,0E0,0E0,0E0,1.753738E1,9.193733E0,1.2931572E1,0E0,0E0,0E0,0E0,0E0,0E0,0E0,0E0],"parents":[2147483647,0,0,1,1,2,2,3,3,4,4,5,5,6,6,8,8,12,12,13,13,14,14],"right_children":[2,4,6,8,10,12,14,-1,16,-1,-1,-1,18,20,22,-1,-1,-1,-1,-1,-1,-1,-1],"split_conditions":[2.1E1,1.134E3,1.6598E4,-5.7092E4,8.602642E3,1.1220299E-6,1.309E3,3.1238073E-2,3.9423517E2,1.1248248E-1,-4.2532604E-2,1.402866E-1,1.106E3,-4.942E4,1.45E2,-1.610666E-2,-1.0297813E-1,-1.0589125E-2,4.3350708E-2,8.284349E-3,-8.76338E-2,9.2523806E-2,-5.621496E-3],"split_indices":[19,8,22,27,38,39,1,0,38,0,0,0,9,27,5,0,0,0,0,0,0,0,0],"split_type":[0,0,0,0,0,0,0,0,0,0,0,0,0,0,0,0,0,0,0,0,0,0,0],"sum_hessian":[4.456075E2,6.414448E1,3.8146304E2,4.7790207E1,1.635427E1,2.2197784E2,1.5948518E2,9.520465E0,3.8269745E1,8.064113E0,8.290159E0,9.446156E0,2.125317E2,4.3928642E1,1.1555655E2,8.11811E0,3.0151634E1,1.02694336E2,1.0983736E2,1.1788662E1,3.213998E1,1.3384939E1,1.0217161E2],"tree_param":{"num_deleted":"0","num_feature":"43","num_nodes":"23","size_leaf_vector":"1"}},{"base_weights":[-1.8400192E-2,-5.5175805E-1,4.573562E-2,-9.731685E-1,3.658012E-2,9.274671E-1,5.368637E-3,-1.1810318E-1,-4.7951866E-2,1.6150548E-1,1.6217632E-2,-2.6381904E-1,1.6615786E-1,-4.3313894E-2,2.4839053E-2,3.1631876E-2,-1.9954097E-2],"categories":[],"categories_nodes":[],"categories_segments":[],"categories_sizes":[],"default_left":[0,0,0,0,0,0,0,0,0,0,0,0,0,0,0,0,0],"id":36,"left_children":[1,3,5,7,-1,9,11,-1,-1,-1,-1,13,15,-1,-1,-1,-1],"loss_changes":[1.4843893E1,1.8572664E1,1.3553335E1,3.9471931E0,0E0,9.6514225E0,1.5926403E1,0E0,0E0,0E0,0E0,1.4321721E1,1.49116535E1,0E0,0E0,0E0,0E0],"parents":[2147483647,0,0,1,1,2,2,3,3,5,5,6,6,11,11,12,12],"right_children":[2,4,6,8,-1,10,12,-1,-1,-1,-1,14,16,-1,-1,-1,-1],"split_conditions":[1.33932E6,1.7245741E3,1.022E3,8.884E3,3.658012E-2,7.7E1,2E0,-1.1810318E-1,-4.7951866E-2,1.6150548E-1,1.6217632E-2,6.9162E4,2.5523E4,-4.3313894E-2,2.4839053E-2,3.1631876E-2,-1.9954097E-2],"split_indices":[2,29,22,36,0,12,9,0,0,0,0,18,22,0,0,0,0],"split_type":[0,0,0,0,0,0,0,0,0,0,0,0,0,0,0,0,0],"sum_hessian":[4.3155276E2,4.658192E1,3.8497083E2,3.2289898E1,1.4292022E1,1.666857E1,3.6830228E2,1.9806429E1,1.2483469E1,8.030606E0,8.637964E0,1.3735133E2,2.3095093E2,1.0025719E2,3.709415E1,1.5954994E2,7.140099E1],"tree_param":{"num_deleted":"0","num_feature":"43","num_nodes":"17","size_leaf_vector":"1"}},{"base_weights":[2.3792867E-2,-7.755968E-2,4.6649545E-2,4.0001297E-1,-1.7082391E-2,-1.3399708E-1,7.1413344E-1,-6.413201E-1,5.4583713E-2,-9.845543E-2,3.526248E-2,7.606159E-3,1.0474017E-1,1.6269683E-4,-8.9073226E-2,1.0939237E-1,2.2243245E-3],"categories":[],"categories_nodes":[],"categories_segments":[],"categories_sizes":[],"default_left":[0,0,0,0,0,0,0,0,0,0,0,0,0,0,0,0,0],"id":37,"left_children":[1,-1,3,5,7,9,11,13,15,-1,-1,-1,-1,-1,-1,-1,-1],"loss_changes":[8.344957E0,0E0,9.637437E0,1.1057073E1,1.6193697E1,1.1286389E1,1.0283302E1,7.4965878E0,1.08735E1,0E0,0E0,0E0,0E0,0E0,0E0,0E0,0E0],"parents":[2147483647,0,0,2,2,3,3,4,4,5,5,6,6,7,7,8,8],"right_children":[2,-1,4,6,8,10,12,14,16,-1,-1,-1,-1,-1,-1,-1,-1],"split_conditions":[9E0,-7.755968E-2,1.036E3,3.4E2,2.317E3,7.2665137E2,3.5E1,3.1882033E-1,4.243E3,-9.845543E-2,3.526248E-2,7.606159E-3,1.0474017E-1,1.6269683E-4,-8.9073226E-2,1.0939237E-1,2.2243245E-3],"split_indices":[14,0,13,13,13,28,25,39,18,0,0,0,0,0,0,0,0],"split_type":[0,0,0,0,0,0,0,0,0,0,0,0,0,0,0,0,0],"sum_hessian":[4.3645438E2,1.1249111E1,4.2520526E2,6.534547E1,3.5985977E2,2.4015686E1,4.132978E1,3.727991E1,3.2257986E2,8.703365E0,1.531232E1,1.6164692E1,2.5165089E1,1.1863342E1,2.541657E1,8.596592E0,3.1398328E2],"tree_param":{"num_deleted":"0","num_feature":"43","num_nodes":"17","size_leaf_vector":"1"}},{"base_weights":[5.77386E-4,3.765727E-2,-6.030445E-1,8.1686005E-3,7.5326905E-2,-1.2574364E-1,2.362419E-2,3.3228543E-2,-1.073812E-1,-2.4035307E-2,1.1583679E-2],"categories":[],"categories_nodes":[],"categories_segments":[],"categories_sizes":[],"default_left":[0,0,0,0,0,0,0,0,0,0,0],"id":38,"left_children":[1,3,5,7,-1,-1,-1,9,-1,-1,-1],"loss_changes":[9.650014E0,9.109775E0,1.583051E1,1.1218219E1,0E0,0E0,0E0,1.0041813E1,0E0,0E0,0E0],"parents":[2147483647,0,0,1,1,2,2,3,3,7,7],"right_children":[2,4,6,8,-1,-1,-1,10,-1,-1,-1],"split_conditions":[3.3509E4,2.37768E5,9.2108E4,1.1398E4,7.5326905E-2,-1.2574364E-1,2.362419E-2,1.8E1,-1.073812E-1,-2.4035307E-2,1.1583679E-2],"split_indices":[17,10,32,4,0,0,0,24,0,0,0],"split_type":[0,0,0,0,0,0,0,0,0,0,0],"sum_hessian":[4.3516403E2,4.102391E2,2.4924908E1,3.952007E2,1.50384035E1,1.3498162E1,1.1426745E1,3.869234E2,8.277316E0,9.147603E1,2.9544736E2],"tree_param":{"num_deleted":"0","num_feature":"43","num_nodes":"11","size_leaf_vector":"1"}},{"base_weights":[-2.421207E-3,-3.7144628E-1,7.868533E-2,-6.166312E-1,1.8426363E-1,1.5922984E-1,-4.964166E-1,1.2679741E-2,-7.8905284E-1,1.0234406E-1,-3.9179243E-2,1.9889636E-1,-1.0784355E-1,-8.225745E-1,4.0429603E-2,-4.555455E-2,-1.0941744E-1,-2.0284869E-2,2.9962815E-2,-4.6842363E-2,-1.4261697E-1],"categories":[],"categories_nodes":[],"categories_segments":[],"categories_sizes":[],"default_left":[0,0,0,0,0,0,0,0,0,0,0,0,0,0,0,0,0,0,0,0,0],"id":39,"left_children":[1,3,5,7,9,11,13,-1,15,-1,-1,17,-1,19,-1,-1,-1,-1,-1,-1,-1],"loss_changes":[1.2657515E1,1.0462793E1,1.5930666E1,6.989805E0,1.2704426E1,1.5550291E1,1.2804025E1,0E0,4.6826763E0,0E0,0E0,1.4638356E1,0E0,6.720402E0,0E0,0E0,0E0,0E0,0E0,0E0,0E0],"parents":[2147483647,0,0,1,1,2,2,3,3,4,4,5,5,6,6,8,8,11,11,13,13],"right_children":[2,4,6,8,10,12,14,-1,16,-1,-1,18,-1,20,-1,-1,-1,-1,-1,-1,-1],"split_conditions":[1.404984E6,2.38973E5,2.4809E4,7.85E2,3.8884E4,2.79164E6,8.402E4,1.2679741E-2,4.522E4,1.0234406E-1,-3.9179243E-2,1.8E1,-1.0784355E-1,1.741515E3,4.0429603E-2,-4.555455E-2,-1.0941744E-1,-2.0284869E-2,2.9962815E-2,-4.6842363E-2,-1.4261697E-1],"split_indices":[2,20,17,13,13,2,14,0,23,0,0,24,0,39,0,0,0,0,0,0,0],"split_type":[0,0,0,0,0,0,0,0,0,0,0,0,0,0,0,0,0,0,0,0,0],"sum_hessian":[4.2131195E2,7.626173E1,3.4505023E2,5.311392E1,2.3147804E1,3.0291287E2,4.2137367E1,9.739122E0,4.3374794E1,9.343691E0,1.3804114E1,2.9411563E2,8.797219E0,3.1294899E1,1.0842466E1,2.419076E1,1.9184034E1,6.564985E1,2.2846579E2,2.150682E1,9.788079E0],"tree_param":{"num_deleted":"0","num_feature":"43","num_nodes":"21","size_leaf_vector":"1"}},{"base_weights":[-2.158641E-3,-1.1104382E-1,2.4383401E-2,7.305578E-1,-3.9257705E-2,2.0303577E-1,2.2999252E-1,-9.973138E-2,5.474993E-1,-1.8837743E-2,1.0768977E-1,-2.1362256E-3,-7.9238884E-2,-1.3585146E-2,7.418606E-2],"categories":[],"categories_nodes":[],"categories_segments":[],"categories_sizes":[],"default_left":[0,0,0,0,0,0,0,0,0,0,0,0,0,0,0],"id":40,"left_children":[1,-1,3,5,7,-1,9,11,13,-1,-1,-1,-1,-1,-1],"loss_changes":[1.3477806E1,0E0,1.8771925E1,2.4323875E1,1.3437614E1,0E0,1.0272375E1,1.9629707E1,6.0141783E0,0E0,0E0,0E0,0E0,0E0,0E0],"parents":[2147483647,0,0,2,2,3,3,4,4,6,6,7,7,8,8],"right_children":[2,-1,4,6,8,-1,10,12,14,-1,-1,-1,-1,-1,-1],"split_conditions":[2.2E1,-1.1104382E-1,9.1E1,1.1220299E-6,6.521667E4,2.0303577E-1,6.8E1,4.925494E4,5.821E3,-1.8837743E-2,1.0768977E-1,-2.1362256E-3,-7.9238884E-2,-1.3585146E-2,7.418606E-2],"split_indices":[30,0,12,39,28,0,12,28,1,0,0,0,0,0,0],"split_type":[0,0,0,0,0,0,0,0,0,0,0,0,0,0,0],"sum_hessian":[4.2468607E2,9.470359E0,4.152157E2,3.452407E1,3.8069165E2,8.861287E0,2.5662785E1,3.4537762E2,3.531403E1,1.7344519E1,8.318265E0,3.131603E2,3.2217304E1,8.972365E0,2.6341665E1],"tree_param":{"num_deleted":"0","num_feature":"43","num_nodes":"15","size_leaf_vector":"1"}},{"base_weights":[1.08875185E-2,2.43699E-1,-9.753406E-2,-6.498785E-2,3.542113E-1,-7.243102E-1,-3.1684432E-2,1.0907046E-1,2.3801611E-1,-1.7006607E-3,-1.0175356E-1,3.4267524E-1,-1.30134E-1,-4.0343553E-2,3.601302E-2,-4.8063308E-2,5.607613E-2,-3.7484754E-2,8.263932E-3],"categories":[],"categories_nodes":[],"categories_segments":[],"categories_sizes":[],"default_left":[0,0,0,0,0,0,0,0,0,0,0,0,0,0,0,0,0,0,0],"id":41,"left_children":[1,3,5,-1,7,9,11,-1,13,-1,-1,15,17,-1,-1,-1,-1,-1,-1],"loss_changes":[1.08258505E1,1.4049019E1,1.1910466E1,0E0,1.12185E1,6.7764864E0,9.697923E0,0E0,1.0352856E1,0E0,0E0,1.1865922E1,1.2317493E1,0E0,0E0,0E0,0E0,0E0,0E0],"parents":[2147483647,0,0,1,1,2,2,4,4,5,5,6,6,8,8,11,11,12,12],"right_children":[2,4,6,-1,8,10,12,-1,14,-1,-1,16,18,-1,-1,-1,-1,-1,-1],"split_conditions":[-3.1948E4,1.31896E6,5.4E1,-6.498785E-2,6.4E1,1.5235E6,3.931E3,1.0907046E-1,2.98E2,-1.7006607E-3,-1.0175356E-1,1.447608E6,2.41125E5,-4.0343553E-2,3.601302E-2,-4.8063308E-2,5.607613E-2,-3.7484754E-2,8.263932E-3],"split_indices":[27,2,14,0,14,2,22,0,5,0,0,2,20,0,0,0,0,0,0],"split_type":[0,0,0,0,0,0,0,0,0,0,0,0,0,0,0,0,0,0,0],"sum_hessian":[4.2793768E2,1.3643492E2,2.9150278E2,1.4260887E1,1.22174034E2,2.7472124E1,2.6403067E2,1.5204784E1,1.06969246E2,9.399582E0,1.807254E1,5.4632954E1,2.093977E2,1.8908182E1,8.8061066E1,1.2373376E1,4.225958E1,9.4137474E1,1.1526022E2],"tree_param":{"num_deleted":"0","num_feature":"43","num_nodes":"19","size_leaf_vector":"1"}},{"base_weights":[5.0278105E-2,-1.581258E-1,1.6139556E-1,9.266114E-2,-8.0506814E-1,-4.5101425E-1,2.3297863E-1,-6.871203E-2,8.5572076E-1,-1.0131751E0,-1.8482655E-2,-9.265989E-1,4.503606E-2,9.6986525E-2,1.7876177E-1,7.860048E-3,-1.0745362E-1,1.5253298E-1,1.3562857E-2,-3.404928E-2,-1.15804E-1,-1.2598434E-1,-4.36254E-2,-3.161647E-2,2.3322163E-2],"categories":[],"categories_nodes":[],"categories_segments":[],"categories_sizes":[],"default_left":[0,0,0,0,0,0,0,0,0,0,0,0,0,0,0,0,0,0,0,0,0,0,0,0,0],"id":42,"left_children":[1,3,5,7,9,11,13,15,17,19,-1,21,-1,-1,23,-1,-1,-1,-1,-1,-1,-1,-1,-1,-1],"loss_changes":[1.0114296E1,2.4675922E1,1.2475878E1,1.3539324E1,5.1816673E0,1.31855545E1,1.088022E1,1.4860138E1,1.0185607E1,4.219345E0,0E0,3.4785366E0,0E0,0E0,8.549948E0,0E0,0E0,0E0,0E0,0E0,0E0,0E0,0E0,0E0,0E0],"parents":[2147483647,0,0,1,1,2,2,3,3,4,4,5,5,6,6,7,7,8,8,9,9,11,11,14,14],"right_children":[2,4,6,8,10,12,14,16,18,20,-1,22,-1,-1,24,-1,-1,-1,-1,-1,-1,-1,-1,-1,-1],"split_conditions":[1.88E2,8.4E1,1.33932E6,3.10029E5,4.732E3,2.6963156E-5,7.85E2,5.798E4,1.1692E4,1.61E2,-1.8482655E-2,6.5469E4,4.503606E-2,9.6986525E-2,4.135E3,7.860048E-3,-1.0745362E-1,1.5253298E-1,1.3562857E-2,-3.404928E-2,-1.15804E-1,-1.2598434E-1,-4.36254E-2,-3.161647E-2,2.3322163E-2],"split_indices":[8,8,2,20,9,41,13,18,22,6,0,18,0,0,10,0,0,0,0,0,0,0,0,0,0],"split_type":[0,0,0,0,0,0,0,0,0,0,0,0,0,0,0,0,0,0,0,0,0,0,0,0,0],"sum_hessian":[4.367182E2,1.513718E2,2.853464E2,1.08913864E2,4.245793E1,2.9622665E1,2.5572374E2,8.973687E1,1.9176992E1,3.143542E1,1.1022511E1,1.9714552E1,9.9081135E0,1.6052336E1,2.396714E2,7.847286E1,1.1264006E1,9.112662E0,1.0064331E1,8.100607E0,2.3334812E1,1.0211951E1,9.502602E0,2.8161455E1,2.1150995E2],"tree_param":{"num_deleted":"0","num_feature":"43","num_nodes":"25","size_leaf_vector":"1"}},{"base_weights":[-4.959049E-2,1.8258613E-1,-1.5744866E-1,1.0442246E-1,8.2132936E-2,-2.4214679E-1,2.9313636E-1,2.3431379E-1,-7.3527284E-2,1.5279676E-1,-4.165107E-1,9.677159E-2,-1.2997523E-2,-5.8550596E-2,3.055291E-2,-6.6817164E-2,4.0499628E-2,-1.0846007E-1,-2.8294483E-2,3.0191E-2,-6.282788E-2],"categories":[],"categories_nodes":[],"categories_segments":[],"categories_sizes":[],"default_left":[0,0,0,0,0,0,0,0,0,0,0,0,0,0,0,0,0,0,0,0,0],"id":43,"left_children":[1,3,5,7,-1,9,11,13,-1,15,17,-1,19,-1,-1,-1,-1,-1,-1,-1,-1],"loss_changes":[1.0591863E1,7.06827E0,1.10363245E1,1.3778181E1,0E0,1.6838352E1,1.0418756E1,8.133669E0,0E0,1.7832117E1,1.4196344E1,0E0,7.0654836E0,0E0,0E0,0E0,0E0,0E0,0E0,0E0,0E0],"parents":[2147483647,0,0,1,1,2,2,3,3,5,5,6,6,7,7,9,9,10,10,12,12],"right_children":[2,4,6,8,-1,10,12,14,-1,16,18,-1,20,-1,-1,-1,-1,-1,-1,-1,-1],"split_conditions":[-3.1948E4,1.2106E4,3.51357E5,1.971E3,8.2132936E-2,2.37E2,1.878E3,-2.4081E4,-7.3527284E-2,2.1E1,2.34E2,9.677159E-2,1.9943E4,-5.8550596E-2,3.055291E-2,-6.6817164E-2,4.0499628E-2,-1.0846007E-1,-2.8294483E-2,3.0191E-2,-6.282788E-2],"split_indices":[27,19,15,19,0,12,12,25,0,19,14,0,19,0,0,0,0,0,0,0,0],"split_type":[0,0,0,0,0,0,0,0,0,0,0,0,0,0,0,0,0,0,0,0,0],"sum_hessian":[4.2309756E2,1.3373254E2,2.8936502E2,1.2036569E2,1.3366856E1,2.438819E2,4.548311E1,1.0515043E2,1.5215263E1,7.441407E1,1.6946783E2,1.350152E1,3.1981588E1,9.889054E0,9.5261375E1,1.797934E1,5.643473E1,2.2747786E1,1.4672005E2,2.1023521E1,1.0958068E1],"tree_param":{"num_deleted":"0","num_feature":"43","num_nodes":"21","size_leaf_vector":"1"}},{"base_weights":[-1.9945467E-2,-1.5523484E-1,2.1720466E-1,-5.7411855E-1,-5.667482E-2,1.5580495E-1,9.170551E-2,-1.1302201E-1,-1.7467339E-2,4.6346825E-1,-1.7245264E-1,-1.268287E-1,4.5568365E-1,4.8225682E-2,-9.197962E-2,-5.6216273E-2,8.280364E-2,-8.172921E-2,-3.8989692E-3,-8.296026E-4,-9.361674E-2,7.209643E-2,-7.939452E-3],"categories":[],"categories_nodes":[],"categories_segments":[],"categories_sizes":[],"default_left":[0,0,0,0,0,0,0,0,0,0,0,0,0,0,0,0,0,0,0,0,0,0,0],"id":44,"left_children":[1,3,5,7,9,-1,11,-1,13,15,17,19,21,-1,-1,-1,-1,-1,-1,-1,-1,-1,-1],"loss_changes":[1.3116739E1,1.0671875E1,2.6505905E1,1.7079296E1,1.2694898E1,0E0,1.0904916E1,0E0,1.3508398E1,1.7010162E1,1.5675463E1,8.55472E0,8.763493E0,0E0,0E0,0E0,0E0,0E0,0E0,0E0,0E0,0E0,0E0],"parents":[2147483647,0,0,1,1,2,2,3,3,4,4,6,6,8,8,9,9,10,10,11,11,12,12],"right_children":[2,4,6,8,10,-1,12,-1,14,16,18,20,22,-1,-1,-1,-1,-1,-1,-1,-1,-1,-1],"split_conditions":[1.03E3,1.431228E6,1.164E3,1.12262E5,9.25E2,1.5580495E-1,7.9896E4,-1.1302201E-1,4.3538E4,4.06E2,3.6E2,1.2861E4,3.5112E4,4.8225682E-2,-9.197962E-2,-5.6216273E-2,8.280364E-2,-8.172921E-2,-3.8989692E-3,-8.296026E-4,-9.361674E-2,7.209643E-2,-7.939452E-3],"split_indices":[8,2,12,20,17,0,0,0,10,17,34,12,1,0,0,0,0,0,0,0,0,0,0],"split_type":[0,0,0,0,0,0,0,0,0,0,0,0,0,0,0,0,0,0,0,0,0,0,0],"sum_hessian":[4.0911194E2,2.6093323E2,1.4817873E2,4.9381634E1,2.1155157E2,1.1762812E1,1.3641591E2,2.3056849E1,2.6324783E1,3.825801E1,1.7329356E2,8.49684E1,5.1447506E1,1.6857885E1,9.466897E0,1.0689054E1,2.7568956E1,2.7207674E1,1.4608589E2,7.49834E1,9.985003E0,3.2821354E1,1.8626152E1],"tree_param":{"num_deleted":"0","num_feature":"43","num_nodes":"23","size_leaf_vector":"1"}},{"base_weights":[5.2783124E-2,1.553302E-1,-1.541334E-1,1.04242094E-1,1.2885341E-1,-3.1891054E-1,1.2856917E-1,-3.7370712E-1,1.6575229E-1,1.5396696E-2,-7.226668E-1,3.2068253E-1,-4.5177322E-2,-8.379299E-2,4.919429E-2,1.2858653E-1,1.0133877E-2,-6.521124E-2,3.8152482E-2,-1.7918257E-2,-9.792834E-2,-3.6049325E-2,6.372624E-2],"categories":[],"categories_nodes":[],"categories_segments":[],"categories_sizes":[],"default_left":[0,0,0,0,0,0,0,0,0,0,0,0,0,0,0,0,0,0,0,0,0,0,0],"id":45,"left_children":[1,3,5,7,-1,9,11,13,15,17,19,21,-1,-1,-1,-1,-1,-1,-1,-1,-1,-1,-1],"loss_changes":[8.901457E0,1.721223E1,6.4824085E0,7.899495E0,0E0,1.19721E1,5.9038935E0,1.4216595E1,1.6435083E1,1.3209823E1,6.594982E0,9.790102E0,0E0,0E0,0E0,0E0,0E0,0E0,0E0,0E0,0E0,0E0,0E0],"parents":[2147483647,0,0,1,1,2,2,3,3,5,5,6,6,7,7,8,8,9,9,10,10,11,11],"right_children":[2,4,6,8,-1,10,12,14,16,18,20,22,-1,-1,-1,-1,-1,-1,-1,-1,-1,-1,-1],"split_conditions":[3.828E3,1.86E3,1.17801E5,3.13E2,1.2885341E-1,2.54E2,1.818792E6,3.664E3,3.79E2,4.4051514E0,1.7164E4,2.0436E4,-4.5177322E-2,-8.379299E-2,4.919429E-2,1.2858653E-1,1.0133877E-2,-6.521124E-2,3.8152482E-2,-1.7918257E-2,-9.792834E-2,-3.6049325E-2,6.372624E-2],"split_indices":[27,27,23,0,0,19,2,36,0,39,27,34,0,0,0,0,0,0,0,0,0,0,0],"split_type":[0,0,0,0,0,0,0,0,0,0,0,0,0,0,0,0,0,0,0,0,0,0,0],"sum_hessian":[4.1947714E2,2.8099362E2,1.384835E2,2.6979788E2,1.1195746E1,8.784576E1,5.0637753E1,3.045977E1,2.393381E2,4.784511E1,4.0000645E1,3.8701138E1,1.1936615E1,1.94263E1,1.1033472E1,1.0865527E1,2.2847258E2,1.6841566E1,3.1003544E1,1.5193272E1,2.4807371E1,1.2875375E1,2.5825764E1],"tree_param":{"num_deleted":"0","num_feature":"43","num_nodes":"23","size_leaf_vector":"1"}},{"base_weights":[-2.2347001E-2,5.1983457E-2,-2.695406E-1,1.45185245E-2,8.6738035E-2,-9.6934867E-1,-8.124416E-2,3.9328894E-1,-5.7572965E-2,-1.5203399E-2,-1.5498957E-1,-5.8594935E-2,5.708349E-2,1.5856823E-2,9.574134E-2,-3.9919876E-2,5.445682E-3,-8.085799E-3,8.1554286E-2],"categories":[],"categories_nodes":[],"categories_segments":[],"categories_sizes":[],"default_left":[0,0,0,0,0,0,0,0,0,0,0,0,0,0,0,0,0,0,0],"id":46,"left_children":[1,3,5,7,-1,9,11,13,15,-1,-1,-1,17,-1,-1,-1,-1,-1,-1],"loss_changes":[7.6461096E0,1.0223925E1,1.2515724E1,8.383809E0,0E0,1.0808777E1,5.7937803E0,6.708074E0,1.0911938E1,0E0,0E0,0E0,7.1275373E0,0E0,0E0,0E0,0E0,0E0,0E0],"parents":[2147483647,0,0,1,1,2,2,3,3,5,5,6,6,7,7,8,8,12,12],"right_children":[2,4,6,8,-1,10,12,14,16,-1,-1,-1,18,-1,-1,-1,-1,-1,-1],"split_conditions":[3.7189377E3,2.3291E4,4.915203E3,-7.0164E4,8.6738035E-2,3.5136355E4,2.9186E4,1.8666175E-5,-1.8388E4,-1.5203399E-2,-1.5498957E-1,-5.8594935E-2,1.60817E5,1.5856823E-2,9.574134E-2,-3.9919876E-2,5.445682E-3,-8.085799E-3,8.1554286E-2],"split_indices":[29,9,29,27,0,38,10,41,27,0,0,0,34,0,0,0,0,0,0],"split_type":[0,0,0,0,0,0,0,0,0,0,0,0,0,0,0,0,0,0,0],"sum_hessian":[4.1422308E2,3.179717E2,9.625137E1,3.050429E2,1.2928804E1,2.0217157E1,7.603422E1,4.912215E1,2.5592076E2,9.352102E0,1.0865055E1,1.5683655E1,6.0350563E1,3.633962E1,1.2782532E1,6.157358E1,1.9434718E2,5.1135235E1,9.215329E0],"tree_param":{"num_deleted":"0","num_feature":"43","num_nodes":"19","size_leaf_vector":"1"}},{"base_weights":[2.3051172E-3,2.6733873E-2,-8.200971E-2,-7.16157E-3,6.006186E-1,7.437953E-2,-4.2575592E-1,6.6977524E-4,8.6779736E-2,1.6422186E-3,6.642925E-2,-2.3552006E-2,-1.283685E-1],"categories":[],"categories_nodes":[],"categories_segments":[],"categories_sizes":[],"default_left":[0,0,0,0,0,0,0,0,0,0,0,0,0],"id":47,"left_children":[1,3,-1,5,7,9,11,-1,-1,-1,-1,-1,-1],"loss_changes":[8.685828E0,7.9097633E0,0E0,1.299586E1,4.191305E0,1.1290476E1,9.967915E0,0E0,0E0,0E0,0E0,0E0,0E0],"parents":[2147483647,0,0,1,1,3,3,4,4,5,5,6,6],"right_children":[2,4,-1,6,8,10,12,-1,-1,-1,-1,-1,-1],"split_conditions":[4.7278E4,2.03225E5,-8.200971E-2,3.7189377E3,-6.4856E4,2.8741548E3,2.9867E4,6.6977524E-4,8.6779736E-2,1.6422186E-3,6.642925E-2,-2.3552006E-2,-1.283685E-1],"split_indices":[1,18,0,29,25,29,1,0,0,0,0,0,0],"split_type":[0,0,0,0,0,0,0,0,0,0,0,0,0],"sum_hessian":[4.1275885E2,4.017341E2,1.1024736E1,3.7907712E2,2.2656994E1,3.1696112E2,6.2116E1,8.157424E0,1.4499571E1,2.9103384E2,2.592727E1,5.2512703E1,9.603296E0],"tree_param":{"num_deleted":"0","num_feature":"43","num_nodes":"13","size_leaf_vector":"1"}},{"base_weights":[-7.0633856E-3,-3.4800482E-1,6.0414314E-2,-6.914023E-1,3.1071502E-1,1.9446373E-1,-2.700121E-1,-3.326358E-1,-1.0961621E-1,9.1808036E-2,-3.7659921E-3,1.1767129E-1,7.538482E-1,-1.3969654E-1,-1.01346746E-1,-9.129261E-2,4.8903324E-2,5.555206E-2,3.6760704E-3,4.2850938E-2,1.3867179E-1,8.050375E-2,-2.7717117E-2],"categories":[],"categories_nodes":[],"categories_segments":[],"categories_sizes":[],"default_left":[0,0,0,0,0,0,0,0,0,0,0,0,0,0,0,0,0,0,0,0,0,0,0],"id":48,"left_children":[1,3,5,7,9,11,13,15,-1,-1,-1,17,19,21,-1,-1,-1,-1,-1,-1,-1,-1,-1],"loss_changes":[9.668044E0,1.5782654E1,1.5435874E1,7.5642967E0,5.678048E0,1.0532155E1,1.0368173E1,1.4412947E1,0E0,0E0,0E0,8.032502E0,6.0758724E0,1.3294506E1,0E0,0E0,0E0,0E0,0E0,0E0,0E0,0E0,0E0],"parents":[2147483647,0,0,1,1,2,2,3,3,4,4,5,5,6,6,7,7,11,11,12,12,13,13],"right_children":[2,4,6,8,10,12,14,16,-1,-1,-1,18,20,22,-1,-1,-1,-1,-1,-1,-1,-1,-1],"split_conditions":[1.401364E6,5.39E3,8.783E3,2.79E2,1.245092E6,1.328E3,2.030964E6,3.6698E4,-1.0961621E-1,9.1808036E-2,-3.7659921E-3,7.09E2,1.17702E5,8.6242E4,-1.01346746E-1,-9.129261E-2,4.8903324E-2,5.555206E-2,3.6760704E-3,4.2850938E-2,1.3867179E-1,8.050375E-2,-2.7717117E-2],"split_indices":[2,16,16,21,2,11,2,23,0,0,0,17,18,23,0,0,0,0,0,0,0,0,0],"split_type":[0,0,0,0,0,0,0,0,0,0,0,0,0,0,0,0,0,0,0,0,0,0,0],"sum_hessian":[4.1821976E2,6.9480774E1,3.4873898E2,4.5830914E1,2.364986E1,2.4843936E2,1.00299614E2,2.6307629E1,1.9523285E1,8.309273E0,1.5340588E1,2.1871397E2,2.9725388E1,8.6554474E1,1.374514E1,1.5150136E1,1.1157494E1,3.0833706E1,1.8788028E2,2.1206854E1,8.518534E0,1.152008E1,7.503439E1],"tree_param":{"num_deleted":"0","num_feature":"43","num_nodes":"23","size_leaf_vector":"1"}},{"base_weights":[-4.8816223E-3,-2.6146707E-1,1.0315037E-1,2.2013201E-1,-4.176589E-1,6.607495E-1,2.584508E-2,1.0907502E-1,-2.9678842E-1,-1.4550635E-1,-7.481116E-1,1.0669401E0,-1.2573312E-2,-4.7417688E-1,1.3081971E-1,-6.971244E-2,2.208859E-2,-4.0862456E-2,1.286543E-1,-1.0069203E-1,-2.1314427E-2,2.1073388E-1,4.0160242E-2,4.3413226E-2,-7.285828E-2,8.594731E-2,4.433967E-3],"categories":[],"categories_nodes":[],"categories_segments":[],"categories_sizes":[],"default_left":[0,0,0,0,0,0,0,0,0,0,0,0,0,0,0,0,0,0,0,0,0,0,0,0,0,0,0],"id":49,"left_children":[1,3,5,7,9,11,13,-1,15,17,19,21,-1,23,25,-1,-1,-1,-1,-1,-1,-1,-1,-1,-1,-1,-1],"loss_changes":[1.1534208E1,9.319172E0,1.2465401E1,1.4718915E1,8.262482E0,1.1533099E1,1.3408271E1,0E0,4.6372366E0,2.2428635E1,6.856264E0,1.7204664E1,0E0,1.2516426E1,1.3757064E1,0E0,0E0,0E0,0E0,0E0,0E0,0E0,0E0,0E0,0E0,0E0,0E0],"parents":[2147483647,0,0,1,1,2,2,3,3,4,4,5,5,6,6,8,8,9,9,10,10,11,11,13,13,14,14],"right_children":[2,4,6,8,10,12,14,-1,16,18,20,22,-1,24,26,-1,-1,-1,-1,-1,-1,-1,-1,-1,-1,-1,-1],"split_conditions":[2.558309E1,1.1220299E-6,3.25E2,2.7E1,4.08E2,8.972665E1,1.6080643E4,1.0907502E-1,1.002E3,3.49E2,2.36395E0,2.7E1,-1.2573312E-2,2.53E2,5.1655E4,-6.971244E-2,2.208859E-2,-4.0862456E-2,1.286543E-1,-1.0069203E-1,-2.1314427E-2,2.1073388E-1,4.0160242E-2,4.3413226E-2,-7.285828E-2,8.594731E-2,4.433967E-3],"split_indices":[39,39,21,5,14,39,28,0,1,14,39,1,0,32,18,0,0,0,0,0,0,0,0,0,0,0,0],"split_type":[0,0,0,0,0,0,0,0,0,0,0,0,0,0,0,0,0,0,0,0,0,0,0,0,0,0,0],"sum_hessian":[4.1516937E2,1.2344387E2,2.917255E2,2.9978844E1,9.346503E1,3.5257793E1,2.564677E2,1.0739254E1,1.923959E1,5.1528168E1,4.193686E1,2.3460947E1,1.1796846E1,4.4229084E1,2.1223863E2,1.0637283E1,8.602307E0,4.33601E1,8.168069E0,2.5693682E1,1.624318E1,8.17192E0,1.5289028E1,1.0629603E1,3.359948E1,2.0276709E1,1.9196191E2],"tree_param":{"num_deleted":"0","num_feature":"43","num_nodes":"27","size_leaf_vector":"1"}},{"base_weights":[4.724507E-3,1.8118261E-1,-1.7587286E-1,1.0528126E-1,1.8547234E-1,-6.55113E-1,3.035224E-3,-4.753319E-2,5.282205E-1,-9.1461696E-2,-1.4813706E-1,-2.0364586E-1,2.209088E-1,-5.0274868E-2,5.7141692E-3,8.378815E-2,5.429124E-3,2.044406E-2,-5.4253913E-2,6.300854E-2,-2.9617647E-2,6.788108E-2,4.616745E-3],"categories":[],"categories_nodes":[],"categories_segments":[],"categories_sizes":[],"default_left":[0,0,0,0,0,0,0,0,0,0,0,0,0,0,0,0,0,0,0,0,0,0,0],"id":50,"left_children":[1,3,5,7,-1,9,11,13,15,-1,17,19,21,-1,-1,-1,-1,-1,-1,-1,-1,-1,-1],"loss_changes":[1.301577E1,2.7822645E1,1.7371164E1,1.2919534E1,0E0,8.681786E0,6.5961895E0,7.767423E0,8.906247E0,0E0,3.41612E0,7.227846E0,6.0468416E0,0E0,0E0,0E0,0E0,0E0,0E0,0E0,0E0,0E0,0E0],"parents":[2147483647,0,0,1,1,2,2,3,3,5,5,6,6,7,7,8,8,10,10,11,11,12,12],"right_children":[2,4,6,8,-1,10,12,14,16,-1,18,20,22,-1,-1,-1,-1,-1,-1,-1,-1,-1,-1],"split_conditions":[1.164E3,1.256E3,1.2151E4,1.8827E4,1.8547234E-1,8.16E2,2.62E3,4.061E3,3.861E3,-9.1461696E-2,1.324E4,1.255E3,1.4277E4,-5.0274868E-2,5.7141692E-3,8.378815E-2,5.429124E-3,2.044406E-2,-5.4253913E-2,6.300854E-2,-2.9617647E-2,6.788108E-2,4.616745E-3],"split_indices":[12,8,0,34,0,9,8,15,16,0,22,6,22,0,0,0,0,0,0,0,0,0,0],"split_type":[0,0,0,0,0,0,0,0,0,0,0,0,0,0,0,0,0,0,0,0,0,0,0],"sum_hessian":[4.0837982E2,2.0700504E2,2.013748E2,1.9869069E2,8.3143425E0,5.4975655E1,1.4639914E2,1.4568451E2,5.300618E1,3.358724E1,2.1388414E1,7.475294E1,7.164621E1,2.6754446E1,1.1893006E2,2.9716208E1,2.3289974E1,1.1349388E1,1.0039025E1,8.285523E0,6.646741E1,1.8040312E1,5.36059E1],"tree_param":{"num_deleted":"0","num_feature":"43","num_nodes":"23","size_leaf_vector":"1"}},{"base_weights":[2.2419114E-2,-7.213248E-2,5.4226674E-2,1.0495568E-1,2.4171948E-2,3.1189448E-1,-3.6753748E-2,-1.026661E-2,9.300556E-2,-9.825153E-2,-6.348224E-4],"categories":[],"categories_nodes":[],"categories_segments":[],"categories_sizes":[],"default_left":[0,0,0,0,0,0,0,0,0,0,0],"id":51,"left_children":[1,-1,3,-1,5,7,9,-1,-1,-1,-1],"loss_changes":[1.0079964E1,0E0,1.2277815E1,0E0,6.699795E0,1.9204784E1,9.298054E0,0E0,0E0,0E0,0E0],"parents":[2147483647,0,0,2,2,4,4,5,5,6,6],"right_children":[2,-1,4,-1,6,8,10,-1,-1,-1,-1],"split_conditions":[2.4E1,-7.213248E-2,3.8E1,1.0495568E-1,4.0257E4,3.268961E0,4.731E4,-1.026661E-2,9.300556E-2,-9.825153E-2,-6.348224E-4],"split_indices":[32,0,32,0,20,39,20,0,0,0,0],"split_type":[0,0,0,0,0,0,0,0,0,0,0],"sum_hessian":[4.0574902E2,1.5502903E1,3.9024612E2,1.05787115E1,3.796674E2,6.679686E1,3.1287054E2,4.105437E1,2.574249E1,8.872867E0,3.0399768E2],"tree_param":{"num_deleted":"0","num_feature":"43","num_nodes":"11","size_leaf_vector":"1"}},{"base_weights":[-1.6141592E-2,-3.4813502E-1,7.267477E-2,6.6152373E-3,-7.446126E-1,5.89084E-1,1.9249868E-2,-4.8389244E-1,5.962831E-1,-1.0762548E-1,-2.782743E-1,-0E0,1.2889588E-1,-1.5860634E-1,2.3043421E-1,4.887673E-2,-9.169809E-2,1.2905528E-1,-4.7529023E-3,-8.284762E-2,3.0953782E-2,5.7265278E-2,-4.961466E-2,7.880091E-3,-4.638772E-2,4.0656198E-2,-6.285285E-2],"categories":[],"categories_nodes":[],"categories_segments":[],"categories_sizes":[],"default_left":[0,0,0,0,0,0,0,0,0,0,0,0,0,0,0,0,0,0,0,0,0,0,0,0,0,0,0],"id":52,"left_children":[1,3,5,7,9,11,13,15,17,-1,19,21,-1,23,25,-1,-1,-1,-1,-1,-1,-1,-1,-1,-1,-1,-1],"loss_changes":[1.2136316E1,1.2345556E1,8.818311E0,1.3233658E1,7.4737034E0,1.3729396E1,1.10229845E1,1.2316606E1,1.0710915E1,0E0,7.150276E0,5.5368347E0,0E0,1.2953862E1,2.4393524E1,0E0,0E0,0E0,0E0,0E0,0E0,0E0,0E0,0E0,0E0,0E0,0E0],"parents":[2147483647,0,0,1,1,2,2,3,3,4,4,5,5,6,6,7,7,8,8,10,10,11,11,13,13,14,14],"right_children":[2,4,6,8,10,12,14,16,18,-1,20,22,-1,24,26,-1,-1,-1,-1,-1,-1,-1,-1,-1,-1,-1,-1],"split_conditions":[2.36395E0,2.886E3,3.9305E4,3.777E3,1.204E3,3.643E3,2.0436E4,1.196E3,1.137E3,-1.0762548E-1,1.622384E6,8.67E2,1.2889588E-1,-2.496E3,1.798164E6,4.887673E-2,-9.169809E-2,1.2905528E-1,-4.7529023E-3,-8.284762E-2,3.0953782E-2,5.7265278E-2,-4.961466E-2,7.880091E-3,-4.638772E-2,4.0656198E-2,-6.285285E-2],"split_indices":[39,10,20,18,9,10,34,22,34,0,2,10,0,27,2,0,0,0,0,0,0,0,0,0,0,0,0],"split_type":[0,0,0,0,0,0,0,0,0,0,0,0,0,0,0,0,0,0,0,0,0,0,0,0,0,0,0],"sum_hessian":[4.100741E2,8.69236E1,3.2315048E2,4.5668873E1,4.1254726E1,3.0005629E1,2.9314487E2,2.4783665E1,2.088521E1,2.2003538E1,1.925119E1,1.7176374E1,1.2829254E1,1.587193E2,1.3442557E2,8.040464E0,1.67432E1,9.596624E0,1.1288585E1,9.79064E0,9.46055E0,8.038001E0,9.138373E0,9.1796745E1,6.692255E1,1.0990552E2,2.4520048E1],"tree_param":{"num_deleted":"0","num_feature":"43","num_nodes":"27","size_leaf_vector":"1"}},{"base_weights":[4.2378902E-2,-8.141513E-2,7.333234E-2,2.2214135E-2,4.8031336E-1,1.9704962E-1,-2.0370641E-1,-1.0469256E-2,6.239603E-1,2.524045E-2,-5.4482114E-2,-7.115839E-2,-6.692906E-4,8.26465E-2,7.592886E-3],"categories":[],"categories_nodes":[],"categories_segments":[],"categories_sizes":[],"default_left":[0,0,0,0,0,0,0,0,0,0,0,0,0,0,0],"id":53,"left_children":[1,-1,3,5,7,9,11,-1,13,-1,-1,-1,-1,-1,-1],"loss_changes":[1.1460583E1,0E0,8.212401E0,1.40016985E1,3.833702E0,1.1068532E1,1.6657726E1,0E0,4.8002443E0,0E0,0E0,0E0,0E0,0E0,0E0],"parents":[2147483647,0,0,2,2,3,3,4,4,5,5,6,6,8,8],"right_children":[2,-1,4,6,8,10,12,-1,14,-1,-1,-1,-1,-1,-1],"split_conditions":[2.4E1,-8.141513E-2,1.4284409E-2,1.2139E4,9.633E3,4.2198E4,1.899E3,-1.0469256E-2,3.105E4,2.524045E-2,-5.4482114E-2,-7.115839E-2,-6.692906E-4,8.26465E-2,7.592886E-3],"split_indices":[32,0,42,22,6,32,14,0,6,0,0,0,0,0,0],"split_type":[0,0,0,0,0,0,0,0,0,0,0,0,0,0,0],"sum_hessian":[4.1200067E2,1.3393906E1,3.9860678E2,3.5448703E2,4.4119743E1,2.0023703E2,1.5425E2,8.401654E0,3.571809E1,1.835577E2,1.6679329E1,4.0214024E1,1.1403599E2,2.4092974E1,1.1625115E1],"tree_param":{"num_deleted":"0","num_feature":"43","num_nodes":"15","size_leaf_vector":"1"}},{"base_weights":[3.8118348E-2,6.732266E-2,-6.596329E-2,1.7697884E-2,4.681783E-1,1.3190565E-1,-2.4061528E-1,9.4173E-2,7.138604E-2,-4.7697626E-2,2.0169023E-2,-1.1218049E-1,-1.22127E-2,3.4452677E-2,-4.4786382E-2],"categories":[],"categories_nodes":[],"categories_segments":[],"categories_sizes":[],"default_left":[0,0,0,0,0,0,0,0,0,0,0,0,0,0,0],"id":54,"left_children":[1,3,-1,5,7,9,11,-1,13,-1,-1,-1,-1,-1,-1],"loss_changes":[8.747441E0,7.7631326E0,0E0,1.0341315E1,8.947535E0,1.2845543E1,1.1094757E1,0E0,4.008317E0,0E0,0E0,0E0,0E0,0E0,0E0],"parents":[2147483647,0,0,1,1,3,3,4,4,5,5,6,6,8,8],"right_children":[2,4,-1,6,8,10,12,-1,14,-1,-1,-1,-1,-1,-1],"split_conditions":[6.012E3,4.987E3,-6.596329E-2,5.04E2,6.824E4,8.8E1,6.44E2,9.4173E-2,1.316E3,-4.7697626E-2,2.0169023E-2,-1.1218049E-1,-1.22127E-2,3.4452677E-2,-4.4786382E-2],"split_indices":[24,19,0,19,10,12,19,0,33,0,0,0,0,0,0],"split_type":[0,0,0,0,0,0,0,0,0,0,0,0,0,0,0],"sum_hessian":[4.0948868E2,3.9415723E2,1.5331441E1,3.5110266E2,4.3054577E1,2.4389459E2,1.0720806E2,1.8180527E1,2.4874048E1,2.7696466E1,2.1619812E2,1.0995786E1,9.621228E1,1.6357508E1,8.516541E0],"tree_param":{"num_deleted":"0","num_feature":"43","num_nodes":"15","size_leaf_vector":"1"}},{"base_weights":[-6.3374387E-3,-3.2351953E-1,7.55609E-2,-4.707102E-1,4.870451E-2,4.7859976E-1,1.9327708E-2,-2.1087685E-1,-1.1952834E-1,-7.343754E-2,1.088278E0,-5.1443136E-1,9.329956E-2,1.8792506E-2,-4.8552115E-2,-6.523421E-2,5.1064443E-2,4.985661E-2,1.5866348E-1,1.3405199E-2,-8.289477E-2,1.909388E-2,-2.778746E-2],"categories":[],"categories_nodes":[],"categories_segments":[],"categories_sizes":[],"default_left":[0,0,0,0,0,0,0,0,0,0,0,0,0,0,0,0,0,0,0,0,0,0,0],"id":55,"left_children":[1,3,5,7,-1,9,11,13,-1,15,17,19,21,-1,-1,-1,-1,-1,-1,-1,-1,-1,-1],"loss_changes":[1.0322739E1,1.0109002E1,7.0417957E0,1.4255154E1,0E0,1.2994576E1,1.08347845E1,6.676179E0,0E0,7.636942E0,5.7421474E0,8.17071E0,1.0356508E1,0E0,0E0,0E0,0E0,0E0,0E0,0E0,0E0,0E0,0E0],"parents":[2147483647,0,0,1,1,2,2,3,3,5,5,6,6,7,7,9,9,10,10,11,11,12,12],"right_children":[2,4,6,8,-1,10,12,14,-1,16,18,20,22,-1,-1,-1,-1,-1,-1,-1,-1,-1,-1],"split_conditions":[1.8E1,1.2831E4,3.3E1,3.546E3,4.870451E-2,-3.78E3,4.2193687E3,-2.4344E4,-1.1952834E-1,3.238E3,5.31E2,2.986E3,4.7937293E4,1.8792506E-2,-4.8552115E-2,-6.523421E-2,5.1064443E-2,4.985661E-2,1.5866348E-1,1.3405199E-2,-8.289477E-2,1.909388E-2,-2.778746E-2],"split_indices":[24,9,24,32,0,27,28,27,0,6,1,22,28,0,0,0,0,0,0,0,0,0,0],"split_type":[0,0,0,0,0,0,0,0,0,0,0,0,0,0,0,0,0,0,0,0,0,0,0],"sum_hessian":[3.958358E2,8.162642E1,3.1420938E2,6.96425E1,1.1983919E1,3.811299E1,2.7609637E2,5.274508E1,1.6897423E1,1.9869581E1,1.8243412E1,3.3334476E1,2.427619E2,2.2280457E1,3.0464622E1,1.0032266E1,9.837315E0,9.60063E0,8.642782E0,1.1802523E1,2.1531952E1,1.8962654E2,5.3135365E1],"tree_param":{"num_deleted":"0","num_feature":"43","num_nodes":"23","size_leaf_vector":"1"}},{"base_weights":[-7.4207117E-3,-3.7777504E-1,4.8300426E-2,-5.7042855E-1,5.679213E-2,4.8600265E-1,-2.7388457E-2,-8.123659E-1,4.347622E-2,-5.666263E-2,7.2559726E-1,-5.791858E-2,9.441434E-2,-3.7712898E-2,-1.3921183E-1,1.0149342E-1,-8.461496E-3,2.4566935E-2,-1.4777428E-2],"categories":[],"categories_nodes":[],"categories_segments":[],"categories_sizes":[],"default_left":[0,0,0,0,0,0,0,0,0,0,0,0,0,0,0,0,0,0,0],"id":56,"left_children":[1,3,5,7,-1,9,11,13,-1,-1,15,17,-1,-1,-1,-1,-1,-1,-1],"loss_changes":[8.2053385E0,9.843475E0,1.1437455E1,1.09681015E1,0E0,1.3298805E1,9.052501E0,9.450174E0,0E0,0E0,1.2242916E1,8.984597E0,0E0,0E0,0E0,0E0,0E0,0E0,0E0],"parents":[2147483647,0,0,1,1,2,2,3,3,5,5,6,6,7,7,10,10,11,11],"right_children":[2,4,6,8,-1,10,12,14,-1,-1,16,18,-1,-1,-1,-1,-1,-1,-1],"split_conditions":[-2.2888E4,1.4E1,-6.472E3,2.58352E5,5.679213E-2,3.13E2,2.77E2,6.53E2,4.347622E-2,-5.666263E-2,1.066E3,1.036E3,9.441434E-2,-3.7712898E-2,-1.3921183E-1,1.0149342E-1,-8.461496E-3,2.4566935E-2,-1.4777428E-2],"split_indices":[25,7,25,23,0,6,7,33,0,0,5,13,0,0,0,0,0,0,0],"split_type":[0,0,0,0,0,0,0,0,0,0,0,0,0,0,0,0,0,0,0],"sum_hessian":[3.9503638E2,5.2028755E1,3.4300763E2,4.3635536E1,8.393221E0,5.0871857E1,2.9213577E2,3.5482254E1,8.153281E0,9.051786E0,4.1820072E1,2.8390143E2,8.234356E0,2.2131538E1,1.3350716E1,2.9292784E1,1.25272875E1,6.696075E1,2.1694067E2],"tree_param":{"num_deleted":"0","num_feature":"43","num_nodes":"19","size_leaf_vector":"1"}},{"base_weights":[1.9685196E-2,-5.4834094E-2,5.6758605E-2,1.4716856E-1,-2.0535533E-1,-2.2498825E-1,2.3190002E-1,-1.1661655E-1,-9.417275E-2,-4.0506456E-2,6.0391437E-2,3.091497E-2,-1.8482719E-2,-6.672452E-2,8.0189025E-3],"categories":[],"categories_nodes":[],"categories_segments":[],"categories_sizes":[],"default_left":[0,0,0,0,0,0,0,0,0,0,0,0,0,0,0],"id":57,"left_children":[1,-1,3,5,7,9,11,-1,13,-1,-1,-1,-1,-1,-1],"loss_changes":[8.890271E0,0E0,8.958535E0,8.888536E0,1.0904514E1,9.245233E0,9.578458E0,0E0,9.757101E0,0E0,0E0,0E0,0E0,0E0,0E0],"parents":[2147483647,0,0,2,2,3,3,4,4,5,5,6,6,8,8],"right_children":[2,-1,4,6,8,10,12,-1,14,-1,-1,-1,-1,-1,-1],"split_conditions":[1.0851608E3,-5.4834094E-2,2.5523E4,1.404984E6,6.8204E4,1.14386E5,3.652864E3,-1.1661655E-1,6.95E3,-4.0506456E-2,6.0391437E-2,3.091497E-2,-1.8482719E-2,-6.672452E-2,8.0189025E-3],"split_indices":[38,0,22,2,23,23,29,0,0,0,0,0,0,0,0],"split_type":[0,0,0,0,0,0,0,0,0,0,0,0,0,0,0],"sum_hessian":[4.0138788E2,2.29872E1,3.784007E2,2.818117E2,9.6588974E1,5.190933E1,2.2990239E2,9.216228E0,8.737275E1,4.210358E1,9.80575E0,1.8777626E2,4.2126125E1,1.9915009E1,6.745773E1],"tree_param":{"num_deleted":"0","num_feature":"43","num_nodes":"15","size_leaf_vector":"1"}},{"base_weights":[1.4249007E-2,4.1897658E-1,-4.54157E-2,-0E0,1.0008314E0,-1.3921395E-1,3.7715343E-1,3.8428718E-1,-7.687953E-2,1.7324694E-1,1.2611906E-2,-9.198199E-2,-7.6901E-1,7.5383306E-1,1.154106E-1,7.946307E-2,-1.4758862E-2,-1.7772445E-2,2.4876783E-2,-1.231428E-1,-8.227624E-3,1.0536074E-1,1.9613495E-2,-1.1713064E-2,9.2094705E-2],"categories":[],"categories_nodes":[],"categories_segments":[],"categories_sizes":[],"default_left":[0,0,0,0,0,0,0,0,0,0,0,0,0,0,0,0,0,0,0,0,0,0,0,0,0],"id":58,"left_children":[1,3,5,7,9,11,13,15,-1,-1,-1,17,19,21,23,-1,-1,-1,-1,-1,-1,-1,-1,-1,-1],"loss_changes":[9.573189E0,1.2447607E1,1.3558016E1,9.322079E0,1.527166E1,8.220747E0,5.972788E0,5.1372957E0,0E0,0E0,0E0,9.049185E0,6.9163E0,4.820896E0,7.782313E0,0E0,0E0,0E0,0E0,0E0,0E0,0E0,0E0,0E0,0E0],"parents":[2147483647,0,0,1,1,2,2,3,3,4,4,5,5,6,6,7,7,11,11,12,12,13,13,14,14],"right_children":[2,4,6,8,10,12,14,16,-1,-1,-1,18,20,22,24,-1,-1,-1,-1,-1,-1,-1,-1,-1,-1],"split_conditions":[1.19E2,1.751E3,3.51357E5,2.058E3,5.639E3,5.102209E4,7.531E3,1.5235E6,-7.687953E-2,1.7324694E-1,1.2611906E-2,1.2019079E-6,9.633E3,1.66E3,6.9520725E-3,7.946307E-2,-1.4758862E-2,-1.7772445E-2,2.4876783E-2,-1.231428E-1,-8.227624E-3,1.0536074E-1,1.9613495E-2,-1.1713064E-2,9.2094705E-2],"split_indices":[12,17,15,22,22,28,6,2,0,0,0,41,6,37,40,0,0,0,0,0,0,0,0,0,0],"split_type":[0,0,0,0,0,0,0,0,0,0,0,0,0,0,0,0,0,0,0,0,0,0,0,0,0],"sum_hessian":[3.9394406E2,5.094924E1,3.4299484E2,2.9602837E1,2.1346403E1,2.8100577E2,6.1989067E1,2.0124039E1,9.478797E0,1.0725253E1,1.062115E1,2.6165015E2,1.9355602E1,2.5155188E1,3.683388E1,1.1023231E1,9.100808E0,2.0601654E2,5.5633625E1,1.0652579E1,8.703024E0,1.4850632E1,1.0304557E1,2.8691305E1,8.142576E0],"tree_param":{"num_deleted":"0","num_feature":"43","num_nodes":"25","size_leaf_vector":"1"}},{"base_weights":[4.1135855E-2,9.4170526E-2,-3.2215562E-1,7.7775517E-3,4.065401E-1,-7.766231E-1,1.7377943E-1,2.7718395E-1,-1.6807017E-1,5.757345E-1,-4.1036606E-2,-1.3277473E-1,-4.474396E-1,-3.335326E-2,9.5059305E-2,-5.121879E-2,3.6156066E-2,-7.597717E-2,-1.7865826E-3,4.1278727E-2,1.3070478E-1,-0E0,-8.4436074E-2],"categories":[],"categories_nodes":[],"categories_segments":[],"categories_sizes":[],"default_left":[0,0,0,0,0,0,0,0,0,0,0,0,0,0,0,0,0,0,0,0,0,0,0],"id":59,"left_children":[1,3,5,7,9,11,13,15,17,19,-1,-1,21,-1,-1,-1,-1,-1,-1,-1,-1,-1,-1],"loss_changes":[7.727401E0,9.433123E0,1.1580996E1,1.3100737E1,1.084685E1,5.296324E0,1.0824793E1,9.644716E0,1.5780214E1,6.749851E0,0E0,0E0,3.5489783E0,0E0,0E0,0E0,0E0,0E0,0E0,0E0,0E0,0E0,0E0],"parents":[2147483647,0,0,1,1,2,2,3,3,4,4,5,5,6,6,7,7,8,8,9,9,12,12],"right_children":[2,4,6,8,10,12,14,16,18,20,-1,-1,22,-1,-1,-1,-1,-1,-1,-1,-1,-1,-1],"split_conditions":[1.316E3,2.4633E4,5.06864E5,7.2E1,3.4978686E-4,-2.7156E4,1.9959335E-3,2.4E1,1.75E2,1.59212E5,-4.1036606E-2,-1.3277473E-1,3.8655215E4,-3.335326E-2,9.5059305E-2,-5.121879E-2,3.6156066E-2,-7.597717E-2,-1.7865826E-3,4.1278727E-2,1.3070478E-1,-0E0,-8.4436074E-2],"split_indices":[33,32,20,19,40,27,40,32,19,10,0,0,28,0,0,0,0,0,0,0,0,0,0],"split_type":[0,0,0,0,0,0,0,0,0,0,0,0,0,0,0,0,0,0,0,0,0,0,0],"sum_hessian":[4.0293185E2,3.5199503E2,5.0936832E1,2.7614462E2,7.5850395E1,2.6744596E1,2.4192236E1,1.0941665E2,1.6672798E2,6.333403E1,1.2516363E1,8.943604E0,1.7800993E1,1.4718238E1,9.473999E0,1.2472739E1,9.694391E1,3.1275515E1,1.3545247E2,5.442482E1,8.909211E0,8.994915E0,8.806078E0],"tree_param":{"num_deleted":"0","num_feature":"43","num_nodes":"23","size_leaf_vector":"1"}},{"base_weights":[2.3769366E-2,2.9499087E-1,-3.9137084E-2,-6.7581986E-3,6.336793E-1,-7.7006996E-1,3.177872E-2,2.5596666E-1,-6.303963E-2,1.6098711E-1,2.5704655E-1,-1.2906159E-2,-9.739919E-2,9.9393433E-1,-2.3873748E-2,-2.5955508E-3,9.328818E-2,7.116978E-2,-2.6286837E-2,3.6519382E-2,1.4983904E-1,5.3526584E-2,-8.593141E-3],"categories":[],"categories_nodes":[],"categories_segments":[],"categories_sizes":[],"default_left":[0,0,0,0,0,0,0,0,0,0,0,0,0,0,0,0,0,0,0,0,0,0,0],"id":60,"left_children":[1,3,5,7,9,11,13,15,-1,-1,17,-1,-1,19,21,-1,-1,-1,-1,-1,-1,-1,-1],"loss_changes":[6.857702E0,7.8368E0,1.6904675E1,7.009426E0,1.4276276E1,4.6674385E0,1.5952338E1,6.0751934E0,0E0,0E0,7.257988E0,0E0,0E0,5.594158E0,