{"learner":{"attributes":{"best_iteration":"124","best_score":"0.49124674388829787","scikit_learn":"{\"_estimator_type\": \"classifier\"}"},"feature_names":["full_max_6","some_max_6","allocstall","alloc_pgscan_ratio","pswpout","some_delta","full_delta","mem_min_6","pgscan_sum_10","some_ewm_6","workingset_refault","pgscan_sum_6","full_sum_2","some_sum_2","diff_some","pgscan_std_6","full_ewm_6","some_min_6","pgscan_direct","refault_sum_2","full_sum_6","diff_pgscan","diff_full","pgsteal_direct","full_sum_10","diff2_some","reclaim_efficiency","pgscan_sum_2","diff2_full","pswpin"],"feature_types":["float","float","int","float","int","int","int","float","float","float","int","float","float","float","float","float","float","float","int","float","float","float","float","int","float","float","float","float","float","int"],"gradient_booster":{"model":{"cats":{"enc":[],"feature_segments":[],"sorted_idx":[]},"gbtree_model_param":{"num_parallel_tree":"1","num_trees":"175"},"iteration_indptr":[0,1,2,3,4,5,6,7,8,9,10,11,12,13,14,15,16,17,18,19,20,21,22,23,24,25,26,27,28,29,30,31,32,33,34,35,36,37,38,39,40,41,42,43,44,45,46,47,48,49,50,51,52,53,54,55,56,57,58,59,60,61,62,63,64,65,66,67,68,69,70,71,72,73,74,75,76,77,78,79,80,81,82,83,84,85,86,87,88,89,90,91,92,93,94,95,96,97,98,99,100,101,102,103,104,105,106,107,108,109,110,111,112,113,114,115,116,117,118,119,120,121,122,123,124,125,126,127,128,129,130,131,132,133,134,135,136,137,138,139,140,141,142,143,144,145,146,147,148,149,150,151,152,153,154,155,156,157,158,159,160,161,162,163,164,165,166,167,168,169,170,171,172,173,174,175],"tree_info":[0,0,0,0,0,0,0,0,0,0,0,0,0,0,0,0,0,0,0,0,0,0,0,0,0,0,0,0,0,0,0,0,0,0,0,0,0,0,0,0,0,0,0,0,0,0,0,0,0,0,0,0,0,0,0,0,0,0,0,0,0,0,0,0,0,0,0,0,0,0,0,0,0,0,0,0,0,0,0,0,0,0,0,0,0,0,0,0,0,0,0,0,0,0,0,0,0,0,0,0,0,0,0,0,0,0,0,0,0,0,0,0,0,0,0,0,0,0,0,0,0,0,0,0,0,0,0,0,0,0,0,0,0,0,0,0,0,0,0,0,0,0,0,0,0,0,0,0,0,0,0,0,0,0,0,0,0,0,0,0,0,0,0,0,0,0,0,0,0,0,0,0,0,0,0],"trees":[{"base_weights":[-7.563554E-3,-6.7551726E-1,1.7041674E0,-1.2228023E0,2.5442398E-1,6.2125925E-2,1.0969411E-1,-8.2947396E-2,-1.5137238E-2,7.529655E-4,8.5759275E-2],"categories":[],"categories_nodes":[],"categories_segments":[],"categories_sizes":[],"default_left":[0,0,0,0,0,0,0,0,0,0,0],"id":0,"left_children":[1,3,5,7,9,-1,-1,-1,-1,-1,-1],"loss_changes":[1.1172198E3,3.5853076E2,6.8460693E0,4.538501E1,7.1141235E1,0E0,0E0,0E0,0E0,0E0,0E0],"parents":[2147483647,0,0,1,1,2,2,3,3,4,4],"right_children":[2,4,6,8,10,-1,-1,-1,-1,-1,-1],"split_conditions":[2.002804E-4,1.7774E4,7E0,1.2474E4,7.1765E4,6.2125925E-2,1.0969411E-1,-8.2947396E-2,-1.5137238E-2,7.529655E-4,8.5759275E-2],"split_indices":[3,0,2,5,5,0,0,0,0,0,0],"split_type":[0,0,0,0,0,0,0,0,0,0,0],"sum_hessian":[9.7275E2,7.00625E2,2.72125E2,4.4075E2,2.59875E2,2.2E1,2.50125E2,3.96875E2,4.3875E1,2.15375E2,4.45E1],"tree_param":{"num_deleted":"0","num_feature":"30","num_nodes":"11","size_leaf_vector":"1"}},{"base_weights":[-1.0661348E-2,-5.8650124E-1,1.5559022E0,-9.8511165E-1,3.6040667E-1,1.1426979E0,1.016643E-1,-9.331998E-2,-3.8681816E-2,4.334341E-3,7.049071E-2,4.6569962E-2,8.7156355E-2],"categories":[],"categories_nodes":[],"categories_segments":[],"categories_sizes":[],"default_left":[0,0,0,0,0,0,0,0,0,0,0,0,0],"id":1,"left_children":[1,3,5,7,9,11,-1,-1,-1,-1,-1,-1,-1],"loss_changes":[8.677851E2,2.6636118E2,4.0752563E0,9.051807E1,4.68199E1,2.5214386E0,0E0,0E0,0E0,0E0,0E0,0E0,0E0],"parents":[2147483647,0,0,1,1,2,2,3,3,4,4,5,5],"right_children":[2,4,6,8,10,12,-1,-1,-1,-1,-1,-1,-1],"split_conditions":[2.002804E-4,2.3223E4,7.924E3,3.49E2,4.9858E4,4.517E3,1.016643E-1,-9.331998E-2,-3.8681816E-2,4.334341E-3,7.049071E-2,4.6569962E-2,8.7156355E-2],"split_indices":[3,13,4,5,5,11,0,0,0,0,0,0,0],"split_type":[0,0,0,0,0,0,0,0,0,0,0,0,0],"sum_hessian":[9.575213E2,7.0112244E2,2.5639893E2,4.9345312E2,2.076693E2,4.3762894E1,2.1263603E2,2.031871E2,2.9026602E2,1.5235735E2,5.531195E1,2.0324785E1,2.343811E1],"tree_param":{"num_deleted":"0","num_feature":"30","num_nodes":"13","size_leaf_vector":"1"}},{"base_weights":[-1.2686501E-2,-9.039384E-1,9.131085E-1,-1.4017365E0,-3.9534083E-1,2.1595483E-1,1.4017255E0,-9.3794115E-2,-1.83128E-2,-3.498432E-2,4.70846E-2,-9.819238E-3,5.5371325E-2,3.9299063E-2,9.10055E-2],"categories":[],"categories_nodes":[],"categories_segments":[],"categories_sizes":[],"default_left":[0,0,0,0,0,0,0,0,0,0,0,0,0,0,0],"id":2,"left_children":[1,3,5,7,9,11,13,-1,-1,-1,-1,-1,-1,-1,-1],"loss_changes":[8.015251E2,1.2415097E2,1.6156699E2,2.6930206E1,4.808471E1,5.0360535E1,1.0280212E1,0E0,0E0,0E0,0E0,0E0,0E0,0E0,0E0],"parents":[2147483647,0,0,1,1,2,2,3,3,4,4,5,5,6,6],"right_children":[2,4,6,8,10,12,14,-1,-1,-1,-1,-1,-1,-1,-1],"split_conditions":[2.1009E4,2.478E3,4.4118E4,3.146E3,5.138E3,3.263E3,4.485E3,-9.3794115E-2,-1.83128E-2,-3.498432E-2,4.70846E-2,-9.819238E-3,5.5371325E-2,3.9299063E-2,9.10055E-2],"split_indices":[13,0,5,10,10,17,10,0,0,0,0,0,0,0,0],"split_type":[0,0,0,0,0,0,0,0,0,0,0,0,0,0,0],"sum_hessian":[9.668892E2,4.927292E2,4.7416E2,2.4712354E2,2.4560567E2,1.9667035E2,2.7748965E2,2.2569968E2,2.1423859E1,2.1573055E2,2.9875114E1,1.27240395E2,6.942995E1,2.0718122E1,2.567715E2],"tree_param":{"num_deleted":"0","num_feature":"30","num_nodes":"15","size_leaf_vector":"1"}},{"base_weights":[4.2959154E-2,-4.6980643E-1,1.4227209E0,-8.9151376E-1,2.1421681E-1,5.9826713E-2,1.4570541E0,-8.844803E-2,-3.5042368E-2,-4.3251505E-3,4.4850424E-2,6.285967E-2,9.354891E-2],"categories":[],"categories_nodes":[],"categories_segments":[],"categories_sizes":[],"default_left":[0,0,0,0,0,0,0,0,0,0,0,0,0],"id":3,"left_children":[1,3,5,7,9,-1,11,-1,-1,-1,-1,-1,-1],"loss_changes":[7.052617E2,2.101057E2,1.4789429E0,7.647775E1,4.015098E1,0E0,1.6201782E0,0E0,0E0,0E0,0E0,0E0,0E0],"parents":[2147483647,0,0,1,1,2,2,3,3,4,4,6,6],"right_children":[2,4,6,8,10,-1,12,-1,-1,-1,-1,-1,-1],"split_conditions":[2.002804E-4,4.7739585E3,4.4157607E-3,3.579106E2,1.004E3,5.9826713E-2,3.65E2,-8.844803E-2,-3.5042368E-2,-4.3251505E-3,4.4850424E-2,6.285967E-2,9.354891E-2],"split_indices":[3,16,3,16,29,0,29,0,0,0,0,0,0],"split_type":[0,0,0,0,0,0,0,0,0,0,0,0,0],"sum_hessian":[9.9215314E2,7.24222E2,2.6793112E2,4.4775937E2,2.7646262E2,2.2658628E1,2.4527249E2,1.7000945E2,2.7774994E2,1.7791951E2,9.854311E1,2.539782E1,2.1987468E2],"tree_param":{"num_deleted":"0","num_feature":"30","num_nodes":"13","size_leaf_vector":"1"}},{"base_weights":[-6.927772E-2,-8.0521494E-1,7.130368E-1,-1.3352981E0,-4.701168E-1,1.8448366E-1,1.2686635E0,-1.0060355E-1,-4.5071337E-2,-4.0730566E-2,2.5481282E-2,-5.2578557E-2,2.8279556E-2,3.6400177E-2,8.306622E-2],"categories":[],"categories_nodes":[],"categories_segments":[],"categories_sizes":[],"default_left":[0,0,0,0,0,0,0,0,0,0,0,0,0,0,0],"id":4,"left_children":[1,3,5,7,9,11,13,-1,-1,-1,-1,-1,-1,-1,-1],"loss_changes":[5.4205945E2,8.489444E1,1.3347546E2,2.9299347E1,4.8847374E1,6.614723E1,7.8645325E0,0E0,0E0,0E0,0E0,0E0,0E0,0E0,0E0],"parents":[2147483647,0,0,1,1,2,2,3,3,4,4,5,5,6,6],"right_children":[2,4,6,8,10,12,14,-1,-1,-1,-1,-1,-1,-1,-1],"split_conditions":[1.8739E4,4.5062744E2,2.72E2,1.55E2,1.134E3,1.7774E4,3.48E2,-1.0060355E-1,-4.5071337E-2,-4.0730566E-2,2.5481282E-2,-5.2578557E-2,2.8279556E-2,3.6400177E-2,8.306622E-2],"split_indices":[13,16,23,14,29,0,29,0,0,0,0,0,0,0,0],"split_type":[0,0,0,0,0,0,0,0,0,0,0,0,0,0,0],"sum_hessian":[9.3689056E2,4.828088E2,4.540818E2,1.8456178E2,2.98247E2,2.341804E2,2.1990138E2,1.24798225E2,5.976356E1,2.4747716E2,5.076985E1,4.7582363E1,1.8659805E2,2.021639E1,1.9968498E2],"tree_param":{"num_deleted":"0","num_feature":"30","num_nodes":"15","size_leaf_vector":"1"}},{"base_weights":[-3.5305973E-4,-8.383317E-1,7.105176E-1,-9.4665563E-1,8.0779485E-2,1.924666E-1,1.3462359E0,-8.493117E-2,-4.0498383E-2,-2.7251435E-3,4.7959168E-2,9.132858E-2,7.307939E-2],"categories":[],"categories_nodes":[],"categories_segments":[],"categories_sizes":[],"default_left":[0,0,0,0,0,0,0,0,0,0,0,0,0],"id":5,"left_children":[1,3,5,7,-1,9,11,-1,-1,-1,-1,-1,-1],"loss_changes":[5.7193134E2,1.04488556E2,1.7042462E2,5.0105957E1,0E0,3.9541428E1,1.3739929E0,0E0,0E0,0E0,0E0,0E0,0E0],"parents":[2147483647,0,0,1,1,2,2,3,3,5,5,6,6],"right_children":[2,4,6,8,-1,10,12,-1,-1,-1,-1,-1,-1],"split_conditions":[1.2479986E4,5E0,6E0,3.35E2,8.0779485E-2,4.730236E4,1.4179E4,-8.493117E-2,-4.0498383E-2,-2.7251435E-3,4.7959168E-2,9.132858E-2,7.307939E-2],"split_indices":[9,2,2,5,0,9,28,0,0,0,0,0,0],"split_type":[0,0,0,0,0,0,0,0,0,0,0,0,0],"sum_hessian":[9.5545624E2,4.3844217E2,5.1701404E2,4.1835464E2,2.0087547E1,2.8640344E2,2.3061064E2,1.7180951E2,2.4654512E2,2.042719E2,8.2131546E1,1.2904495E2,1.0156568E2],"tree_param":{"num_deleted":"0","num_feature":"30","num_nodes":"13","size_leaf_vector":"1"}},{"base_weights":[4.7801364E-2,-4.2374745E-1,1.3119256E0,-8.511633E-1,2.4021162E-1,1.05624E0,8.5118964E-2,-8.150849E-2,-3.775948E-2,-2.2690587E-3,5.0424498E-2,8.062672E-2,3.7744865E-2],"categories":[],"categories_nodes":[],"categories_segments":[],"categories_sizes":[],"default_left":[0,0,0,0,0,0,0,0,0,0,0,0,0],"id":6,"left_children":[1,3,5,7,9,11,-1,-1,-1,-1,-1,-1,-1],"loss_changes":[5.798791E2,2.0155109E2,6.300354E-1,4.674121E1,4.406952E1,4.150196E0,0E0,0E0,0E0,0E0,0E0,0E0,0E0],"parents":[2147483647,0,0,1,1,2,2,3,3,4,4,5,5],"right_children":[2,4,6,8,10,12,-1,-1,-1,-1,-1,-1,-1],"split_conditions":[4E0,1.3190935E4,6.1387355E-3,1.1678596E3,4.6264574E4,1.1475E4,8.5118964E-2,-8.150849E-2,-3.775948E-2,-2.2690587E-3,5.0424498E-2,8.062672E-2,3.7744865E-2],"split_indices":[2,9,3,9,9,22,0,0,0,0,0,0,0],"split_type":[0,0,0,0,0,0,0,0,0,0,0,0,0],"sum_hessian":[9.680534E2,7.059376E2,2.6211575E2,4.2924792E2,2.766897E2,5.1833088E1,2.1028267E2,1.4753116E2,2.8171677E2,1.8715309E2,8.953663E1,3.1445494E1,2.0387594E1],"tree_param":{"num_deleted":"0","num_feature":"30","num_nodes":"13","size_leaf_vector":"1"}},{"base_weights":[-1.6083047E-2,-4.6484578E-1,1.2468294E0,-9.3407804E-1,4.347068E-2,1.3183168E0,4.950638E-2,-6.5357715E-2,-6.4027533E-3,-6.494261E-2,9.12465E-3,6.3063174E-2,8.691759E-2],"categories":[],"categories_nodes":[],"categories_segments":[],"categories_sizes":[],"default_left":[0,0,0,0,0,0,0,0,0,0,0,0,0],"id":7,"left_children":[1,3,5,7,9,11,-1,-1,-1,-1,-1,-1,-1],"loss_changes":[5.352262E2,1.664232E2,5.900482E0,3.379361E1,3.7904617E1,2.002777E0,0E0,0E0,0E0,0E0,0E0,0E0,0E0],"parents":[2147483647,0,0,1,1,2,2,3,3,4,4,5,5],"right_children":[2,4,6,8,10,12,-1,-1,-1,-1,-1,-1,-1],"split_conditions":[8.621452E-4,3.863E4,2.3859E4,4.364E3,2E0,7.706E3,4.950638E-2,-6.5357715E-2,-6.4027533E-3,-6.494261E-2,9.12465E-3,6.3063174E-2,8.691759E-2],"split_indices":[3,24,22,10,6,10,0,0,0,0,0,0,0],"split_type":[0,0,0,0,0,0,0,0,0,0,0,0,0],"sum_hessian":[9.397871E2,6.943942E2,2.453929E2,3.6034644E2,3.340478E2,2.084763E2,3.6916603E1,3.1658545E2,4.3760986E1,2.7244312E1,3.068035E2,4.653934E1,1.6193695E2],"tree_param":{"num_deleted":"0","num_feature":"30","num_nodes":"13","size_leaf_vector":"1"}},{"base_weights":[2.475863E-3,-7.717404E-1,5.875183E-1,-1.141159E0,-4.7742584E-1,2.3547685E-1,1.1069227E0,-5.975611E-2,-9.528309E-2,-7.610147E-2,-1.4468173E-2,5.7726963E-3,6.504529E-2,3.7105944E-2,7.2308265E-2],"categories":[],"categories_nodes":[],"categories_segments":[],"categories_sizes":[],"default_left":[0,0,0,0,0,0,0,0,0,0,0,0,0,0,0],"id":8,"left_children":[1,3,5,7,9,11,13,-1,-1,-1,-1,-1,-1,-1,-1],"loss_changes":[4.13852E2,4.1644455E1,9.460722E1,9.352478E0,4.0004726E1,3.595932E1,4.1249695E0,0E0,0E0,0E0,0E0,0E0,0E0,0E0,0E0],"parents":[2147483647,0,0,1,1,2,2,3,3,4,4,5,5,6,6],"right_children":[2,4,6,8,10,12,14,-1,-1,-1,-1,-1,-1,-1,-1],"split_conditions":[4.0953037E3,8E0,2.91E2,6.43E2,1.42202E6,1.59212E5,-2.1481E4,-5.975611E-2,-9.528309E-2,-7.610147E-2,-1.4468173E-2,5.7726963E-3,6.504529E-2,3.7105944E-2,7.2308265E-2],"split_indices":[16,6,23,13,7,13,14,0,0,0,0,0,0,0,0],"split_type":[0,0,0,0,0,0,0,0,0,0,0,0,0,0,0],"sum_hessian":[9.090064E2,3.908821E2,5.1812427E2,1.7060643E2,2.2027567E2,3.1067795E2,2.0744633E2,1.2046317E2,5.0143265E1,5.2696415E1,1.6757925E2,2.6591782E2,4.476014E1,2.1512745E1,1.859336E2],"tree_param":{"num_deleted":"0","num_feature":"30","num_nodes":"15","size_leaf_vector":"1"}},{"base_weights":[4.3003634E-2,-6.644525E-1,6.31649E-1,-1.0168453E0,-2.2698632E-1,2.4531245E-1,1.0564402E0,-9.5288344E-2,-5.243415E-2,-2.52174E-3,-8.393874E-2,-3.4646317E-2,2.9433092E-2,6.024171E-2,8.074026E-2],"categories":[],"categories_nodes":[],"categories_segments":[],"categories_sizes":[],"default_left":[0,0,0,0,0,0,0,0,0,0,0,0,0,0,0],"id":9,"left_children":[1,3,5,7,9,11,13,-1,-1,-1,-1,-1,-1,-1,-1],"loss_changes":[3.8508063E2,6.421454E1,8.226004E1,1.8373795E1,3.9625015E1,4.905029E1,2.724701E0,0E0,0E0,0E0,0E0,0E0,0E0,0E0,0E0],"parents":[2147483647,0,0,1,1,2,2,3,3,4,4,5,5,6,6],"right_children":[2,4,6,8,10,12,14,-1,-1,-1,-1,-1,-1,-1,-1],"split_conditions":[1.309E3,4.5E1,1.7481923E-1,-3.94E2,7.56E2,1.380076E6,2.37768E5,-9.5288344E-2,-5.243415E-2,-2.52174E-3,-8.393874E-2,-3.4646317E-2,2.9433092E-2,6.024171E-2,8.074026E-2],"split_indices":[6,6,26,25,6,7,13,0,0,0,0,0,0,0,0],"split_type":[0,0,0,0,0,0,0,0,0,0,0,0,0,0,0],"sum_hessian":[9.199597E2,4.1760025E2,5.023595E2,2.2967476E2,1.8792548E2,2.648817E2,2.3747777E2,5.5009624E1,1.7466513E2,1.6290552E2,2.5019953E1,5.7623096E1,2.0725864E2,1.7921167E2,5.8266098E1],"tree_param":{"num_deleted":"0","num_feature":"30","num_nodes":"15","size_leaf_vector":"1"}},{"base_weights":[1.2870289E-2,-5.5002713E-1,6.014886E-1,-1.0406903E0,-4.0538988E-1,2.031723E-1,1.0624505E0,-7.687084E-2,-1.8499421E-2,5.9753537E-2,-3.1449392E-2,-2.6917554E-2,3.294403E-2,8.699305E-2,6.263098E-2],"categories":[],"categories_nodes":[],"categories_segments":[],"categories_sizes":[],"default_left":[0,0,0,0,0,0,0,0,0,0,0,0,0,0,0],"id":10,"left_children":[1,3,5,7,9,11,13,-1,-1,-1,-1,-1,-1,-1,-1],"loss_changes":[2.993056E2,3.193991E1,8.0594696E1,1.3928436E1,4.9467236E1,4.9956913E1,1.2437439E0,0E0,0E0,0E0,0E0,0E0,0E0,0E0,0E0],"parents":[2147483647,0,0,1,1,2,2,3,3,4,4,5,5,6,6],"right_children":[2,4,6,8,10,12,14,-1,-1,-1,-1,-1,-1,-1,-1],"split_conditions":[1.8739E4,1.02E2,4.45E2,4.5E1,2.74E2,4.34E2,1.997E3,-7.687084E-2,-1.8499421E-2,5.9753537E-2,-3.1449392E-2,-2.6917554E-2,3.294403E-2,8.699305E-2,6.263098E-2],"split_indices":[13,0,23,17,20,29,10,0,0,0,0,0,0,0,0],"split_type":[0,0,0,0,0,0,0,0,0,0,0,0,0,0,0],"sum_hessian":[8.984856E2,4.5923294E2,4.3925266E2,1.0155762E2,3.5767532E2,2.373177E2,2.0193495E2,7.964438E1,2.1913233E1,2.2865952E1,3.3480936E2,7.998379E1,1.5733392E2,2.3358374E1,1.7857658E2],"tree_param":{"num_deleted":"0","num_feature":"30","num_nodes":"15","size_leaf_vector":"1"}},{"base_weights":[-5.4361054E-4,-4.4559592E-1,7.3461115E-1,-1.1123238E0,-1.9196436E-1,-4.8541524E-3,9.0211576E-1,-7.611616E-2,-3.8290445E-2,-6.984275E-2,-5.864435E-3,3.1547762E-2,-5.770196E-2,4.607893E-2,6.537452E-2],"categories":[],"categories_nodes":[],"categories_segments":[],"categories_sizes":[],"default_left":[0,0,0,0,0,0,0,0,0,0,0,0,0,0,0],"id":11,"left_children":[1,3,5,7,9,11,13,-1,-1,-1,-1,-1,-1,-1,-1],"loss_changes":[2.9441272E2,9.4347626E1,4.214659E1,6.700943E0,3.699416E1,3.158265E1,5.049515E0,0E0,0E0,0E0,0E0,0E0,0E0,0E0,0E0],"parents":[2147483647,0,0,1,1,2,2,3,3,4,4,5,5,6,6],"right_children":[2,4,6,8,10,12,14,-1,-1,-1,-1,-1,-1,-1,-1],"split_conditions":[4.485E3,4.5062744E2,1.8745E4,4.34E2,1.1E1,4.02E2,6.1E2,-7.611616E-2,-3.8290445E-2,-6.984275E-2,-5.864435E-3,3.1547762E-2,-5.770196E-2,4.607893E-2,6.537452E-2],"split_indices":[10,16,0,29,29,17,23,0,0,0,0,0,0,0,0],"split_type":[0,0,0,0,0,0,0,0,0,0,0,0,0,0,0],"sum_hessian":[8.9507294E2,5.5813794E2,3.3693503E2,1.5182416E2,4.0631375E2,6.2441776E1,2.7449326E2,1.22373825E2,2.945034E1,3.674228E1,3.6957147E2,4.0642654E1,2.1799122E1,1.3517273E2,1.3932054E2],"tree_param":{"num_deleted":"0","num_feature":"30","num_nodes":"15","size_leaf_vector":"1"}},{"base_weights":[5.6246817E-3,-5.512301E-1,5.8209825E-1,-6.5797687E-1,6.353197E-2,3.0605882E-1,1.0002209E0,-4.917798E-2,-1.3160485E-2,3.5285935E-2,-7.4906694E-3,5.6167252E-2,7.883857E-2],"categories":[],"categories_nodes":[],"categories_segments":[],"categories_sizes":[],"default_left":[0,0,0,0,0,0,0,0,0,0,0,0,0],"id":12,"left_children":[1,3,5,7,-1,9,11,-1,-1,-1,-1,-1,-1],"loss_changes":[2.8840384E2,7.802353E1,5.0321655E1,2.4548737E1,0E0,2.998309E1,2.3650208E0,0E0,0E0,0E0,0E0,0E0,0E0],"parents":[2147483647,0,0,1,1,2,2,3,3,5,5,6,6],"right_children":[2,4,6,8,-1,10,12,-1,-1,-1,-1,-1,-1],"split_conditions":[4.6822E4,2E0,6E0,3.9289E4,6.353197E-2,3.6092E4,1.84301E5,-4.917798E-2,-1.3160485E-2,3.5285935E-2,-7.4906694E-3,5.6167252E-2,7.883857E-2],"split_indices":[1,2,2,24,0,0,1,0,0,0,0,0,0],"split_type":[0,0,0,0,0,0,0,0,0,0,0,0,0],"sum_hessian":[8.93551E2,4.5444113E2,4.391099E2,4.2665E2,2.7791124E1,2.667445E2,1.7236539E2,3.2913467E2,9.751533E1,1.6560033E2,1.0114418E2,1.3150415E2,4.086124E1],"tree_param":{"num_deleted":"0","num_feature":"30","num_nodes":"13","size_leaf_vector":"1"}},{"base_weights":[1.5145796E-2,-6.41663E-1,5.4428375E-1,-7.266261E-1,4.6136025E-2,2.29322E-1,1.0121093E0,-5.351321E-2,-1.5701441E-2,4.475839E-4,4.5897532E-2,5.1128134E-2,6.84887E-2],"categories":[],"categories_nodes":[],"categories_segments":[],"categories_sizes":[],"default_left":[0,0,0,0,0,0,0,0,0,0,0,0,0],"id":13,"left_children":[1,3,5,7,-1,9,11,-1,-1,-1,-1,-1,-1],"loss_changes":[3.0623502E2,4.7345978E1,7.140939E1,2.2589096E1,0E0,3.3097885E1,1.4213867E0,0E0,0E0,0E0,0E0,0E0,0E0],"parents":[2147483647,0,0,1,1,2,2,3,3,5,5,6,6],"right_children":[2,4,6,8,-1,10,12,-1,-1,-1,-1,-1,-1],"split_conditions":[2.22E2,1.6449E4,6E0,1.385E3,4.6136025E-2,8.8824E4,1.3523E4,-5.351321E-2,-1.5701441E-2,4.475839E-4,4.5897532E-2,5.1128134E-2,6.84887E-2],"split_indices":[4,28,2,10,0,20,4,0,0,0,0,0,0],"split_type":[0,0,0,0,0,0,0,0,0,0,0,0,0],"sum_hessian":[8.7634875E2,3.90708E2,4.8564075E2,3.6903372E2,2.1674295E1,2.9216586E2,1.9347487E2,2.8787775E2,8.1155975E1,2.0461514E2,8.755072E1,6.62407E1,1.2723418E2],"tree_param":{"num_deleted":"0","num_feature":"30","num_nodes":"13","size_leaf_vector":"1"}},{"base_weights":[1.8323995E-2,-3.0028567E-1,1.0549257E0,-9.26729E-1,-9.890147E-2,8.737182E-1,7.6462746E-2,-6.637155E-2,-3.688176E-2,-1.8837589E-3,-9.59274E-2,2.7566146E-2,6.1841376E-2],"categories":[],"categories_nodes":[],"categories_segments":[],"categories_sizes":[],"default_left":[0,0,0,0,0,0,0,0,0,0,0,0,0],"id":14,"left_children":[1,3,5,7,9,11,-1,-1,-1,-1,-1,-1,-1],"loss_changes":[2.8399683E2,8.272063E1,4.108795E0,6.048126E0,4.9430325E1,4.413803E0,0E0,0E0,0E0,0E0,0E0,0E0,0E0],"parents":[2147483647,0,0,1,1,2,2,3,3,4,4,5,5],"right_children":[2,4,6,8,10,12,-1,-1,-1,-1,-1,-1,-1],"split_conditions":[4.72255E-3,3.13E2,1.0315127E-2,4.5E1,2.345472E6,1.394956E6,7.6462746E-2,-6.637155E-2,-3.688176E-2,-1.8837589E-3,-9.59274E-2,2.7566146E-2,6.1841376E-2],"split_indices":[3,5,3,17,7,7,0,0,0,0,0,0,0],"split_type":[0,0,0,0,0,0,0,0,0,0,0,0,0],"sum_hessian":[8.546843E2,6.547305E2,1.9995381E2,1.5738538E2,4.9734515E2,1.03114136E2,9.6839676E1,1.0850874E2,4.8876633E1,4.7668048E2,2.0664663E1,2.4251951E1,7.886218E1],"tree_param":{"num_deleted":"0","num_feature":"30","num_nodes":"13","size_leaf_vector":"1"}},{"base_weights":[1.5356681E-2,-3.124199E-1,9.7212875E-1,-4.640965E-1,5.193015E-1,6.611446E-2,5.727185E-1,-6.1404597E-2,-2.181081E-2,4.774718E-2,-8.407562E-3,1.0221288E-2,5.6420628E-2],"categories":[],"categories_nodes":[],"categories_segments":[],"categories_sizes":[],"default_left":[0,0,0,0,0,0,0,0,0,0,0,0,0],"id":15,"left_children":[1,3,5,7,9,-1,11,-1,-1,-1,-1,-1,-1],"loss_changes":[2.6745297E2,8.06494E1,6.3339996E0,3.1397415E1,1.6234787E1,0E0,5.5974045E0,0E0,0E0,0E0,0E0,0E0,0E0],"parents":[2147483647,0,0,1,1,2,2,3,3,4,4,6,6],"right_children":[2,4,6,8,10,-1,12,-1,-1,-1,-1,-1,-1],"split_conditions":[3E0,9.5125E4,7.8304E4,1.02E2,-6.92E3,6.611446E-2,1.8992E4,-6.1404597E-2,-2.181081E-2,4.774718E-2,-8.407562E-3,1.0221288E-2,5.6420628E-2],"split_indices":[2,20,14,0,14,0,27,0,0,0,0,0,0],"split_type":[0,0,0,0,0,0,0,0,0,0,0,0,0],"sum_hessian":[8.4762683E2,6.322334E2,2.1539345E2,5.355897E2,9.664368E1,1.738262E2,4.1567245E1,9.38398E1,4.417499E2,7.0143135E1,2.6500542E1,2.0102198E1,2.146505E1],"tree_param":{"num_deleted":"0","num_feature":"30","num_nodes":"13","size_leaf_vector":"1"}},{"base_weights":[2.6245603E-2,-5.601636E-1,5.045355E-1,-6.5044725E-1,5.8439545E-2,-2.2840098E-2,8.1514466E-1,-4.826916E-2,7.336192E-3,5.140586E-2,-1.832681E-2,3.7327778E-2,6.517465E-2],"categories":[],"categories_nodes":[],"categories_segments":[],"categories_sizes":[],"default_left":[0,0,0,0,0,0,0,0,0,0,0,0,0],"id":16,"left_children":[1,3,5,7,-1,9,11,-1,-1,-1,-1,-1,-1],"loss_changes":[2.3370378E2,5.1941673E1,7.5326805E1,3.374524E1,0E0,4.0059032E1,1.3125931E1,0E0,0E0,0E0,0E0,0E0,0E0],"parents":[2147483647,0,0,1,1,2,2,3,3,5,5,6,6],"right_children":[2,4,6,8,-1,10,12,-1,-1,-1,-1,-1,-1],"split_conditions":[1.2743211E4,5.172036E-3,4.332E3,1.062E3,5.8439545E-2,4.9E1,6.160022E-3,-4.826916E-2,7.336192E-3,5.140586E-2,-1.832681E-2,3.7327778E-2,6.517465E-2],"split_indices":[9,3,4,29,0,29,3,0,0,0,0,0,0],"split_type":[0,0,0,0,0,0,0,0,0,0,0,0,0],"sum_hessian":[8.2835065E2,3.71844E2,4.5650662E2,3.5182468E2,2.0019323E1,1.6973773E2,2.867689E2,3.0338947E2,4.8435204E1,4.004567E1,1.2969206E2,1.512501E2,1.3551878E2],"tree_param":{"num_deleted":"0","num_feature":"30","num_nodes":"13","size_leaf_vector":"1"}},{"base_weights":[4.6885915E-2,-2.3832288E-1,1.0084842E0,-4.3568242E-1,2.9812947E-1,8.448208E-1,7.154448E-2,-3.262088E-2,8.791555E-3,2.9442059E-2,-5.1449183E-2,3.1021146E-2,5.9357587E-2],"categories":[],"categories_nodes":[],"categories_segments":[],"categories_sizes":[],"default_left":[0,0,0,0,0,0,0,0,0,0,0,0,0],"id":17,"left_children":[1,3,5,7,9,11,-1,-1,-1,-1,-1,-1,-1],"loss_changes":[2.2848734E2,6.832613E1,2.3739014E0,2.3832588E1,3.4807022E1,2.5438538E0,0E0,0E0,0E0,0E0,0E0,0E0,0E0],"parents":[2147483647,0,0,1,1,2,2,3,3,4,4,5,5],"right_children":[2,4,6,8,10,12,-1,-1,-1,-1,-1,-1,-1],"split_conditions":[4.72255E-3,1.03E3,1.0248902E-2,1.35222E5,1.97734E6,1.418188E6,7.154448E-2,-3.262088E-2,8.791555E-3,2.9442059E-2,-5.1449183E-2,3.1021146E-2,5.9357587E-2],"split_indices":[3,29,3,24,7,7,0,0,0,0,0,0,0],"split_type":[0,0,0,0,0,0,0,0,0,0,0,0,0],"sum_hessian":[8.2792456E2,6.395825E2,1.8834201E2,4.6801196E2,1.7157057E2,9.300696E1,9.533506E1,4.0699176E2,6.102023E1,1.4967975E2,2.1890821E1,2.4686796E1,6.832016E1],"tree_param":{"num_deleted":"0","num_feature":"30","num_nodes":"13","size_leaf_vector":"1"}},{"base_weights":[-1.782893E-2,-4.5727918E-1,5.381025E-1,-1.0515043E0,-2.7452466E-1,2.1917525E-1,9.109372E-1,-4.864003E-2,-8.038666E-2,1.5566355E-2,-3.69778E-2,-3.7981275E-2,2.6702413E-2,4.1098073E-2,7.290131E-2],"categories":[],"categories_nodes":[],"categories_segments":[],"categories_sizes":[],"default_left":[0,0,0,0,0,0,0,0,0,0,0,0,0,0,0],"id":18,"left_children":[1,3,5,7,9,11,13,-1,-1,-1,-1,-1,-1,-1,-1],"loss_changes":[1.9619986E2,4.814054E1,4.1707733E1,4.735916E0,5.805017E1,3.41454E1,9.01976E0,0E0,0E0,0E0,0E0,0E0,0E0,0E0,0E0],"parents":[2147483647,0,0,1,1,2,2,3,3,4,4,5,5,6,6],"right_children":[2,4,6,8,10,12,14,-1,-1,-1,-1,-1,-1,-1,-1],"split_conditions":[2.202E3,1.1124418E3,4.282655E-3,1.1E2,8.035E3,9.949926E3,1.0595145E-2,-4.864003E-2,-8.038666E-2,1.5566355E-2,-3.69778E-2,-3.7981275E-2,2.6702413E-2,4.1098073E-2,7.290131E-2],"split_indices":[4,9,3,24,20,9,3,0,0,0,0,0,0,0,0],"split_type":[0,0,0,0,0,0,0,0,0,0,0,0,0,0,0],"sum_hessian":[7.9814166E2,4.4609525E2,3.5204642E2,1.0254762E2,3.4354764E2,1.9162E2,1.6042642E2,5.189771E1,5.064991E1,1.2976279E2,2.1378484E2,3.7695244E1,1.5392476E2,8.477792E1,7.564849E1],"tree_param":{"num_deleted":"0","num_feature":"30","num_nodes":"15","size_leaf_vector":"1"}},{"base_weights":[2.3733608E-2,-3.6095288E-1,4.764097E-1,-9.1660684E-1,-1.2535204E-1,2.8794864E-1,8.709069E-1,-7.739071E-2,-4.848037E-2,1.3539117E-2,-3.1389773E-2,-2.9777288E-2,3.012752E-2,6.1636653E-2,1.8820973E-2],"categories":[],"categories_nodes":[],"categories_segments":[],"categories_sizes":[],"default_left":[0,0,0,0,0,0,0,0,0,0,0,0,0,0,0],"id":19,"left_children":[1,3,5,7,9,11,13,-1,-1,-1,-1,-1,-1,-1,-1],"loss_changes":[1.416614E2,5.7284145E1,2.7279266E1,4.0038834E0,4.0570496E1,3.8746292E1,7.2915726E0,0E0,0E0,0E0,0E0,0E0,0E0,0E0,0E0],"parents":[2147483647,0,0,1,1,2,2,3,3,4,4,5,5,6,6],"right_children":[2,4,6,8,10,12,14,-1,-1,-1,-1,-1,-1,-1,-1],"split_conditions":[8.566E3,4.5062744E2,5.736066E4,1.513816E6,2.79E2,1.380076E6,1.2792E4,-7.739071E-2,-4.848037E-2,1.3539117E-2,-3.1389773E-2,-2.9777288E-2,3.012752E-2,6.1636653E-2,1.8820973E-2],"split_indices":[5,16,9,7,8,7,22,0,0,0,0,0,0,0,0],"split_type":[0,0,0,0,0,0,0,0,0,0,0,0,0,0,0],"sum_hessian":[8.082852E2,4.370216E2,3.7126364E2,1.2825963E2,3.0876196E2,2.5377792E2,1.1748572E2,3.372119E1,9.453844E1,1.6222127E2,1.465407E2,5.078629E1,2.0299164E2,9.610255E1,2.1383171E1],"tree_param":{"num_deleted":"0","num_feature":"30","num_nodes":"15","size_leaf_vector":"1"}},{"base_weights":[-1.9481504E-2,-3.2115299E-1,9.535689E-1,-5.846574E-1,1.09416015E-1,8.295488E-1,6.896839E-2,-4.4383377E-2,-2.2159799E-3,-3.788195E-2,1.488348E-2,2.729911E-2,5.7768557E-2],"categories":[],"categories_nodes":[],"categories_segments":[],"categories_sizes":[],"default_left":[0,0,0,0,0,0,0,0,0,0,0,0,0],"id":20,"left_children":[1,3,5,7,9,11,-1,-1,-1,-1,-1,-1,-1],"loss_changes":[2.3470674E2,6.9460175E1,1.7385406E0,2.6210312E1,2.1969467E1,3.3927155E0,0E0,0E0,0E0,0E0,0E0,0E0,0E0],"parents":[2147483647,0,0,1,1,2,2,3,3,4,4,5,5],"right_children":[2,4,6,8,10,12,-1,-1,-1,-1,-1,-1,-1],"split_conditions":[6E0,7.1979E4,1.0595145E-2,2.733E3,4.8E1,1.2831E4,6.896839E-2,-4.4383377E-2,-2.2159799E-3,-3.788195E-2,1.488348E-2,2.729911E-2,5.7768557E-2],"split_indices":[2,24,3,4,6,4,0,0,0,0,0,0,0],"split_type":[0,0,0,0,0,0,0,0,0,0,0,0,0],"sum_hessian":[7.947052E2,6.0774603E2,1.8695917E2,3.7675977E2,2.3098627E2,1.1033284E2,7.662633E1,3.0554736E2,7.12124E1,3.3990986E1,1.9699529E2,2.4144655E1,8.618819E1],"tree_param":{"num_deleted":"0","num_feature":"30","num_nodes":"13","size_leaf_vector":"1"}},{"base_weights":[5.4231748E-2,-4.6176782E-1,4.3747276E-1,-2.642671E-1,-9.378221E-1,6.2711015E-3,5.547058E-1,-5.1741093E-2,3.9784415E-4,-9.1691315E-2,-2.3923043E-2,4.964301E-2,-3.1833135E-2,2.0261312E-2,4.690418E-2],"categories":[],"categories_nodes":[],"categories_segments":[],"categories_sizes":[],"default_left":[0,0,0,0,0,0,0,0,0,0,0,0,0,0,0],"id":21,"left_children":[1,3,5,7,9,11,13,-1,-1,-1,-1,-1,-1,-1,-1],"loss_changes":[1.5896681E2,3.17089E1,2.3239685E1,3.7671288E1,2.8153229E1,4.2208595E1,1.5903549E1,0E0,0E0,0E0,0E0,0E0,0E0,0E0,0E0],"parents":[2147483647,0,0,1,1,2,2,3,3,4,4,5,5,6,6],"right_children":[2,4,6,8,10,12,14,-1,-1,-1,-1,-1,-1,-1,-1],"split_conditions":[2E0,1.188E3,4.4491226E3,1.17E2,1.9183E4,3.8E1,8.922E3,-5.1741093E-2,3.9784415E-4,-9.1691315E-2,-2.3923043E-2,4.964301E-2,-3.1833135E-2,2.0261312E-2,4.690418E-2],"split_indices":[4,12,16,0,0,17,4,0,0,0,0,0,0,0,0],"split_type":[0,0,0,0,0,0,0,0,0,0,0,0,0,0,0],"sum_hessian":[7.9878973E2,3.4011572E2,4.58674E2,2.4275323E2,9.736249E1,9.872458E1,3.5994943E2,7.7468056E1,1.6528517E2,4.7930553E1,4.943194E1,3.872062E1,6.000396E1,1.687034E2,1.9124605E2],"tree_param":{"num_deleted":"0","num_feature":"30","num_nodes":"15","size_leaf_vector":"1"}},{"base_weights":[4.5794114E-2,-1.8700267E-1,8.2185435E-1,-6.918002E-1,-2.776781E-2,9.018932E-1,2.7046477E-2,-7.036853E-2,-6.4823013E-3,3.5051037E-2,-1.3039715E-2,3.4044456E-2,5.973142E-2],"categories":[],"categories_nodes":[],"categories_segments":[],"categories_sizes":[],"default_left":[0,0,0,0,0,0,0,0,0,0,0,0,0],"id":22,"left_children":[1,3,5,7,9,11,-1,-1,-1,-1,-1,-1,-1],"loss_changes":[1.4286269E2,4.880491E1,4.8502426E0,3.697458E1,4.990061E1,1.8578873E0,0E0,0E0,0E0,0E0,0E0,0E0,0E0],"parents":[2147483647,0,0,1,1,2,2,3,3,4,4,5,5],"right_children":[2,4,6,8,10,12,-1,-1,-1,-1,-1,-1,-1],"split_conditions":[2E0,3.57E2,2.3859E4,6.9025946E2,1.036E3,4.185E3,2.7046477E-2,-7.036853E-2,-6.4823013E-3,3.5051037E-2,-1.3039715E-2,3.4044456E-2,5.973142E-2],"split_indices":[2,5,22,16,5,10,0,0,0,0,0,0,0],"split_type":[0,0,0,0,0,0,0,0,0,0,0,0,0],"sum_hessian":[7.8528876E2,6.051112E2,1.8017754E2,1.4332472E2,4.6178653E2,1.4695372E2,3.3223824E1,8.114689E1,6.2177826E1,1.0742849E2,3.5435803E2,2.2914156E1,1.2403956E2],"tree_param":{"num_deleted":"0","num_feature":"30","num_nodes":"13","size_leaf_vector":"1"}},{"base_weights":[6.5163955E-2,-9.7649163E-1,2.1436064E-1,-3.4370776E-2,-7.628072E-2,2.735193E-1,-8.5478395E-2,-2.34149E-2,2.4025336E-2],"categories":[],"categories_nodes":[],"categories_segments":[],"categories_sizes":[],"default_left":[0,0,0,0,0,0,0,0,0],"id":23,"left_children":[1,3,5,-1,-1,7,-1,-1,-1],"loss_changes":[1.23633575E2,9.048515E0,6.601795E1,0E0,0E0,4.8918377E1,0E0,0E0,0E0],"parents":[2147483647,0,0,1,1,2,2,5,5],"right_children":[2,4,6,-1,-1,8,-1,-1,-1],"split_conditions":[1.0851608E3,8.15E2,2.650696E6,-3.4370776E-2,-7.628072E-2,1.316464E6,-8.5478395E-2,-2.34149E-2,2.4025336E-2],"split_indices":[9,1,7,0,0,7,0,0,0],"split_type":[0,0,0,0,0,0,0,0,0],"sum_hessian":[7.8965216E2,9.744877E1,6.9220337E2,3.8206932E1,5.924184E1,6.689399E2,2.326352E1,9.722152E1,5.717183E2],"tree_param":{"num_deleted":"0","num_feature":"30","num_nodes":"9","size_leaf_vector":"1"}},{"base_weights":[2.68509E-3,-4.351029E-1,4.2216802E-1,-5.685836E-1,5.849793E-2,3.1919256E-1,8.5054106E-1,-2.6527403E-2,-8.595251E-2,4.317603E-2,-2.303239E-2,2.7384562E-2,-6.3513685E-3,6.300518E-2,3.435434E-2],"categories":[],"categories_nodes":[],"categories_segments":[],"categories_sizes":[],"default_left":[0,0,0,0,0,0,0,0,0,0,0,0,0,0,0],"id":24,"left_children":[1,3,5,7,9,11,13,-1,-1,-1,-1,-1,-1,-1,-1],"loss_changes":[1.4065593E2,2.4825348E1,1.6737106E1,3.3143486E1,2.2794697E1,1.6217663E1,2.4256554E0,0E0,0E0,0E0,0E0,0E0,0E0,0E0,0E0],"parents":[2147483647,0,0,1,1,2,2,3,3,4,4,5,5,6,6],"right_children":[2,4,6,8,10,12,14,-1,-1,-1,-1,-1,-1,-1,-1],"split_conditions":[7.76E2,7.4496E4,1.9122E5,4.027E3,3.1716E4,4.0084675E3,2.398E3,-2.6527403E-2,-8.595251E-2,4.317603E-2,-2.303239E-2,2.7384562E-2,-6.3513685E-3,6.300518E-2,3.435434E-2],"split_indices":[4,1,13,12,0,15,22,0,0,0,0,0,0,0,0],"split_type":[0,0,0,0,0,0,0,0,0,0,0,0,0,0,0],"sum_hessian":[7.6077313E2,3.7207935E2,3.8869376E2,2.9284503E2,7.923433E1,3.1639197E2,7.2301796E1,2.5140605E2,4.1438972E1,3.15596E1,4.767473E1,2.4655893E2,6.983303E1,4.3917927E1,2.838387E1],"tree_param":{"num_deleted":"0","num_feature":"30","num_nodes":"15","size_leaf_vector":"1"}},{"base_weights":[-2.6219944E-2,-3.5436058E-1,4.1668037E-1,-9.028282E-1,-1.6774535E-1,2.9848364E-1,9.2422587E-1,-2.7006596E-2,-7.286808E-2,-5.1312367E-3,-7.7905916E-2,2.6887735E-2,-6.266473E-2,6.5708436E-2,3.7809614E-2],"categories":[],"categories_nodes":[],"categories_segments":[],"categories_sizes":[],"default_left":[0,0,0,0,0,0,0,0,0,0,0,0,0,0,0],"id":25,"left_children":[1,3,5,7,9,11,13,-1,-1,-1,-1,-1,-1,-1,-1],"loss_changes":[1.1103726E2,4.4599594E1,1.8970402E1,1.2742249E1,3.0382263E1,4.6990974E1,1.1758919E0,0E0,0E0,0E0,0E0,0E0,0E0,0E0,0E0],"parents":[2147483647,0,0,1,1,2,2,3,3,4,4,5,5,6,6],"right_children":[2,4,6,8,10,12,14,-1,-1,-1,-1,-1,-1,-1,-1],"split_conditions":[1.2474E4,2.33E2,3.3673E4,3.4E1,1.8066E4,4.717E4,1.537316E6,-2.7006596E-2,-7.286808E-2,-5.1312367E-3,-7.7905916E-2,2.6887735E-2,-6.266473E-2,6.5708436E-2,3.7809614E-2],"split_indices":[5,5,11,5,11,0,7,0,0,0,0,0,0,0,0],"split_type":[0,0,0,0,0,0,0,0,0,0,0,0,0,0,0],"sum_hessian":[7.587701E2,4.362446E2,3.2252545E2,1.0864562E2,3.27599E2,2.6435904E2,5.8166405E1,4.1199295E1,6.744633E1,3.0565683E2,2.1942173E1,2.4126828E2,2.3090773E1,3.7886497E1,2.0279907E1],"tree_param":{"num_deleted":"0","num_feature":"30","num_nodes":"15","size_leaf_vector":"1"}},{"base_weights":[5.0064143E-2,-1.0661097E-1,6.6649044E-1,-5.9713393E-1,3.1974167E-2,-8.703925E-3,7.991667E-1,-1.658842E-2,-6.78721E-2,8.377755E-2,-3.7631977E-3,2.070113E-2,5.5242438E-2],"categories":[],"categories_nodes":[],"categories_segments":[],"categories_sizes":[],"default_left":[0,0,0,0,0,0,0,0,0,0,0,0,0],"id":26,"left_children":[1,3,5,7,9,-1,11,-1,-1,-1,-1,-1,-1],"loss_changes":[7.309443E1,4.1148144E1,1.6733284E1,2.1035416E1,5.7608383E1,0E0,4.668579E0,0E0,0E0,0E0,0E0,0E0,0E0],"parents":[2147483647,0,0,1,1,2,2,3,3,4,4,6,6],"right_children":[2,4,6,8,10,-1,12,-1,-1,-1,-1,-1,-1],"split_conditions":[1.2176E4,5.794156E2,2.18E2,1.667896E6,1.13E2,-8.703925E-3,7.8E2,-1.658842E-2,-6.78721E-2,8.377755E-2,-3.7631977E-3,2.070113E-2,5.5242438E-2],"split_indices":[4,16,29,7,19,0,11,0,0,0,0,0,0],"split_type":[0,0,0,0,0,0,0,0,0,0,0,0,0],"sum_hessian":[7.5075024E2,5.997461E2,1.5100417E2,1.3087592E2,4.6887015E2,2.1194258E1,1.298099E2,8.0084625E1,5.0791286E1,2.9168932E1,4.3970123E2,2.189819E1,1.0791172E2],"tree_param":{"num_deleted":"0","num_feature":"30","num_nodes":"13","size_leaf_vector":"1"}},{"base_weights":[-2.3576528E-2,-2.5394768E-1,6.420522E-1,-7.979366E-1,-1.5442708E-1,7.671095E-1,2.563209E-1,-3.3866983E-2,-7.3161654E-2,1.62441E-2,-1.6425261E-2,5.2522648E-2,2.1740159E-2,3.6150515E-2,-5.940731E-3],"categories":[],"categories_nodes":[],"categories_segments":[],"categories_sizes":[],"default_left":[0,0,0,0,0,0,0,0,0,0,0,0,0,0,0],"id":27,"left_children":[1,3,5,7,9,11,13,-1,-1,-1,-1,-1,-1,-1,-1],"loss_changes":[1.1553115E2,3.0068691E1,8.901779E0,6.9503098E0,2.165958E1,3.8897324E0,6.0160084E0,0E0,0E0,0E0,0E0,0E0,0E0,0E0,0E0],"parents":[2147483647,0,0,1,1,2,2,3,3,4,4,5,5,6,6],"right_children":[2,4,6,8,10,12,14,-1,-1,-1,-1,-1,-1,-1,-1],"split_conditions":[4.7021E4,1.1124418E3,2.1966E4,8E0,1.561E3,8.094293E-1,4.266E3,-3.3866983E-2,-7.3161654E-2,1.62441E-2,-1.6425261E-2,5.2522648E-2,2.1740159E-2,3.6150515E-2,-5.940731E-3],"split_indices":[5,9,22,12,13,26,11,0,0,0,0,0,0,0,0],"split_type":[0,0,0,0,0,0,0,0,0,0,0,0,0,0,0],"sum_hessian":[7.482072E2,5.568877E2,1.9131952E2,8.3776054E1,4.7311163E2,1.4274957E2,4.856994E1,5.2899178E1,3.087688E1,9.7481445E1,3.756302E2,1.1923543E2,2.3514153E1,2.4834112E1,2.3735826E1],"tree_param":{"num_deleted":"0","num_feature":"30","num_nodes":"15","size_leaf_vector":"1"}},{"base_weights":[-2.7423155E-2,-2.2065456E-1,7.052443E-1,-8.425485E-1,-5.3797726E-2,5.691596E-2,3.2988748E-1,-6.3367315E-2,-2.3047313E-2,3.6445875E-3,-4.8838567E-2,3.863101E-2,-7.7963783E-3],"categories":[],"categories_nodes":[],"categories_segments":[],"categories_sizes":[],"default_left":[0,0,0,0,0,0,0,0,0,0,0,0,0],"id":28,"left_children":[1,3,5,7,9,-1,11,-1,-1,-1,-1,-1,-1],"loss_changes":[1.05260284E2,6.0912933E1,1.1395531E1,9.35611E0,3.8433525E1,0E0,7.98834E0,0E0,0E0,0E0,0E0,0E0,0E0],"parents":[2147483647,0,0,1,1,2,2,3,3,4,4,6,6],"right_children":[2,4,6,8,10,-1,12,-1,-1,-1,-1,-1,-1],"split_conditions":[4E0,5.794156E2,1.2792E4,1E1,7.4E1,5.691596E-2,3.317749E3,-6.3367315E-2,-2.3047313E-2,3.6445875E-3,-4.8838567E-2,3.863101E-2,-7.7963783E-3],"split_indices":[2,16,22,22,27,0,15,0,0,0,0,0,0],"split_type":[0,0,0,0,0,0,0,0,0,0,0,0,0],"sum_hessian":[7.381572E2,5.8533997E2,1.5281725E2,1.2196742E2,4.6337256E2,9.649521E1,5.6322044E1,8.748248E1,3.448494E1,4.0297934E2,6.039322E1,3.416763E1,2.2154415E1],"tree_param":{"num_deleted":"0","num_feature":"30","num_nodes":"13","size_leaf_vector":"1"}},{"base_weights":[-3.1966318E-3,-1.7648637E-1,6.94181E-1,-8.685808E-1,-6.465806E-2,4.6497524E-1,5.9851144E-2,-6.380268E-2,-2.2139046E-2,4.123153E-2,-8.954645E-3,1.6934969E-2,6.059762E-2],"categories":[],"categories_nodes":[],"categories_segments":[],"categories_sizes":[],"default_left":[0,0,0,0,0,0,0,0,0,0,0,0,0],"id":29,"left_children":[1,3,5,7,9,11,-1,-1,-1,-1,-1,-1,-1],"loss_changes":[8.953782E1,4.5822422E1,8.048508E0,5.7226486E0,2.9607754E1,7.643709E0,0E0,0E0,0E0,0E0,0E0,0E0,0E0],"parents":[2147483647,0,0,1,1,2,2,3,3,4,4,5,5],"right_children":[2,4,6,8,10,12,-1,-1,-1,-1,-1,-1,-1],"split_conditions":[5E0,1.1678596E3,1.0595145E-2,3.9E1,2.136929E3,2.9169E4,5.9851144E-2,-6.380268E-2,-2.2139046E-2,4.123153E-2,-8.954645E-3,1.6934969E-2,6.059762E-2],"split_indices":[2,9,3,17,9,27,0,0,0,0,0,0,0],"split_type":[0,0,0,0,0,0,0,0,0,0,0,0,0],"sum_hessian":[7.356361E2,5.905534E2,1.4508269E2,8.0124535E1,5.104289E2,8.095857E1,6.4124115E1,5.997023E1,2.0154305E1,4.8442257E1,4.6198663E2,6.09372E1,2.0021372E1],"tree_param":{"num_deleted":"0","num_feature":"30","num_nodes":"13","size_leaf_vector":"1"}},{"base_weights":[5.2199163E-2,-2.0660871E-1,4.3061715E-1,-1.1081915E-1,-6.696864E-2,2.6862988E-1,7.8108954E-1,-3.907219E-2,3.1083422E-3,-2.6628017E-2,2.4421742E-2,7.893236E-2,3.6605433E-2],"categories":[],"categories_nodes":[],"categories_segments":[],"categories_sizes":[],"default_left":[0,0,0,0,0,0,0,0,0,0,0,0,0],"id":30,"left_children":[1,3,5,7,-1,9,11,-1,-1,-1,-1,-1,-1],"loss_changes":[7.388973E1,3.6965218E1,1.6969036E1,3.3787643E1,0E0,1.8586067E1,7.5417023E0,0E0,0E0,0E0,0E0,0E0,0E0],"parents":[2147483647,0,0,1,1,2,2,3,3,5,5,6,6],"right_children":[2,4,6,8,-1,10,12,-1,-1,-1,-1,-1,-1],"split_conditions":[6.9162E4,1.385E3,1.47004E5,3.2240408E2,-6.696864E-2,-3.5895E4,3.2448E4,-3.907219E-2,3.1083422E-3,-2.6628017E-2,2.4421742E-2,7.893236E-2,3.6605433E-2],"split_indices":[1,17,1,16,0,14,0,0,0,0,0,0,0],"split_type":[0,0,0,0,0,0,0,0,0,0,0,0,0],"sum_hessian":[7.4886127E2,4.4504684E2,3.0381442E2,4.0288815E2,4.215869E1,2.1042152E2,9.33929E1,9.4572624E1,3.0831552E2,3.0669195E1,1.7975233E2,2.3474852E1,6.9918045E1],"tree_param":{"num_deleted":"0","num_feature":"30","num_nodes":"13","size_leaf_vector":"1"}},{"base_weights":[-1.5688596E-2,-1.9771533E-1,7.653605E-1,-8.9536697E-1,-7.5212866E-2,5.4118004E-2,2.0451102E-2,-4.6754103E-2,-7.3367E-2,3.4745276E-2,-1.1754002E-2],"categories":[],"categories_nodes":[],"categories_segments":[],"categories_sizes":[],"default_left":[0,0,0,0,0,0,0,0,0,0,0],"id":31,"left_children":[1,3,5,7,9,-1,-1,-1,-1,-1,-1],"loss_changes":[1.0330024E2,5.0217556E1,5.497177E0,1.8586884E0,3.6272976E1,0E0,0E0,0E0,0E0,0E0,0E0],"parents":[2147483647,0,0,1,1,2,2,3,3,4,4],"right_children":[2,4,6,8,10,-1,-1,-1,-1,-1,-1],"split_conditions":[4.72255E-3,3.2240408E2,2.1966E4,6.52E2,9.7E2,5.4118004E-2,2.0451102E-2,-4.6754103E-2,-7.3367E-2,3.4745276E-2,-1.1754002E-2],"split_indices":[3,16,22,25,13,0,0,0,0,0,0],"split_type":[0,0,0,0,0,0,0,0,0,0,0],"sum_hessian":[7.213071E2,5.8630835E2,1.3499878E2,8.555178E1,5.007566E2,1.0771016E2,2.728862E1,6.1301357E1,2.4250427E1,7.4680374E1,4.260762E2],"tree_param":{"num_deleted":"0","num_feature":"30","num_nodes":"11","size_leaf_vector":"1"}},{"base_weights":[-3.3065703E-2,-4.7729325E-1,2.8519943E-1,-8.836357E-1,-2.8571796E-1,8.9655854E-2,6.494974E-1,-3.948064E-2,-7.774083E-2,5.373629E-2,-3.0577436E-2,-4.0912412E-2,2.00654E-2,8.567743E-2,2.8988527E-2],"categories":[],"categories_nodes":[],"categories_segments":[],"categories_sizes":[],"default_left":[0,0,0,0,0,0,0,0,0,0,0,0,0,0,0],"id":32,"left_children":[1,3,5,7,9,11,13,-1,-1,-1,-1,-1,-1,-1,-1],"loss_changes":[9.9118904E1,2.2267242E1,2.8937527E1,6.8536224E0,4.8292503E1,4.685942E1,1.778133E1,0E0,0E0,0E0,0E0,0E0,0E0,0E0,0E0],"parents":[2147483647,0,0,1,1,2,2,3,3,4,4,5,5,6,6],"right_children":[2,4,6,8,10,12,14,-1,-1,-1,-1,-1,-1,-1,-1],"split_conditions":[2E0,2E0,1.30051E5,5.12E2,2.07E2,1.86E2,8.4E1,-3.948064E-2,-7.774083E-2,5.373629E-2,-3.0577436E-2,-4.0912412E-2,2.00654E-2,8.567743E-2,2.8988527E-2],"split_indices":[4,6,24,13,19,29,29,0,0,0,0,0,0,0,0],"split_type":[0,0,0,0,0,0,0,0,0,0,0,0,0,0,0],"sum_hessian":[6.9569305E2,2.9013705E2,4.05556E2,9.04549E1,1.9968216E2,2.65736E2,1.3981999E2,5.684031E1,3.361459E1,2.912976E1,1.705524E2,6.206998E1,2.0366602E2,2.5745476E1,1.1407452E2],"tree_param":{"num_deleted":"0","num_feature":"30","num_nodes":"15","size_leaf_vector":"1"}},{"base_weights":[6.8061665E-2,-2.9180822E-1,3.336485E-1,-7.9340374E-1,-8.9096464E-2,2.3387994E-1,9.3821913E-1,-6.337924E-2,-4.7837123E-3,7.064406E-3,-5.0738133E-2,9.22838E-3,6.2147E-2,3.978627E-2,6.679286E-2],"categories":[],"categories_nodes":[],"categories_segments":[],"categories_sizes":[],"default_left":[0,0,0,0,0,0,0,0,0,0,0,0,0,0,0],"id":33,"left_children":[1,3,5,7,9,11,13,-1,-1,-1,-1,-1,-1,-1,-1],"loss_changes":[6.976967E1,3.1348867E1,2.4908146E1,1.3889423E1,3.3097637E1,2.3553417E1,9.505272E-1,0E0,0E0,0E0,0E0,0E0,0E0,0E0,0E0],"parents":[2147483647,0,0,1,1,2,2,3,3,4,4,5,5,6,6],"right_children":[2,4,6,8,10,12,14,-1,-1,-1,-1,-1,-1,-1,-1],"split_conditions":[2E0,4.5062744E2,1.0315127E-2,3.87E2,1.11E2,2.03225E5,3.2103E4,-6.337924E-2,-4.7837123E-3,7.064406E-3,-5.0738133E-2,9.22838E-3,6.2147E-2,3.978627E-2,6.679286E-2],"split_indices":[4,16,3,14,22,1,5,0,0,0,0,0,0,0,0],"split_type":[0,0,0,0,0,0,0,0,0,0,0,0,0,0,0],"sum_hessian":[7.244435E2,3.0733246E2,4.1711102E2,8.6613045E1,2.207194E2,3.6056714E2,5.6543888E1,6.535332E1,2.125973E1,1.7368008E2,4.7039318E1,3.2626978E2,3.4297382E1,2.1070042E1,3.5473846E1],"tree_param":{"num_deleted":"0","num_feature":"30","num_nodes":"15","size_leaf_vector":"1"}},{"base_weights":[-2.754075E-2,-1.6541326E-1,5.5427885E-1,-3.7809208E-1,1.0031163E-1,5.4556478E-2,4.0716645E-1,-1.1689744E-2,-5.848535E-2,4.4529065E-2,-7.3523098E-3,1.0075527E-2,5.015684E-2],"categories":[],"categories_nodes":[],"categories_segments":[],"categories_sizes":[],"default_left":[0,0,0,0,0,0,0,0,0,0,0,0,0],"id":34,"left_children":[1,3,5,7,9,-1,11,-1,-1,-1,-1,-1,-1],"loss_changes":[5.599263E1,3.200151E1,5.588505E0,3.3118084E1,3.407246E1,0E0,9.044184E0,0E0,0E0,0E0,0E0,0E0,0E0],"parents":[2147483647,0,0,1,1,2,2,3,3,4,4,6,6],"right_children":[2,4,6,8,10,-1,12,-1,-1,-1,-1,-1,-1],"split_conditions":[4E0,1.41655205E4,4.2198E4,1.06E2,8.4E1,5.4556478E-2,1.44E2,-1.1689744E-2,-5.848535E-2,4.4529065E-2,-7.3523098E-3,1.0075527E-2,5.015684E-2],"split_indices":[2,9,5,22,29,0,2,0,0,0,0,0,0],"split_type":[0,0,0,0,0,0,0,0,0,0,0,0,0],"sum_hessian":[6.92187E2,5.609071E2,1.312799E2,3.11352E2,2.495551E2,3.7996372E1,9.328353E1,2.3427562E2,7.707638E1,6.445105E1,1.8510403E2,5.9513016E1,3.3770515E1],"tree_param":{"num_deleted":"0","num_feature":"30","num_nodes":"13","size_leaf_vector":"1"}},{"base_weights":[5.070036E-2,-2.7311304E-1,3.1416625E-1,-3.7685472E-1,5.6444034E-2,1.7178768E-1,7.079604E-1,-6.5661627E-3,-4.9672227E-2,1.686254E-2,-4.1242268E-2,3.0185891E-2,5.3912707E-2],"categories":[],"categories_nodes":[],"categories_segments":[],"categories_sizes":[],"default_left":[0,0,0,0,0,0,0,0,0,0,0,0,0],"id":35,"left_children":[1,3,5,7,-1,9,11,-1,-1,-1,-1,-1,-1],"loss_changes":[6.0431843E1,3.9587624E1,2.1640194E1,3.318582E1,0E0,2.4183012E1,2.7514381E0,0E0,0E0,0E0,0E0,0E0,0E0],"parents":[2147483647,0,0,1,1,2,2,3,3,5,5,6,6],"right_children":[2,4,6,8,-1,10,12,-1,-1,-1,-1,-1,-1],"split_conditions":[2.22E2,1.5897E4,6.160022E-3,1.6E1,5.6444034E-2,2.028004E6,1.0595145E-2,-6.5661627E-3,-4.9672227E-2,1.686254E-2,-4.1242268E-2,3.0185891E-2,5.3912707E-2],"split_indices":[4,28,3,28,0,7,3,0,0,0,0,0,0],"split_type":[0,0,0,0,0,0,0,0,0,0,0,0,0],"sum_hessian":[7.027085E2,3.150001E2,3.8770837E2,2.90833E2,2.416708E1,2.8708148E2,1.00626915E2,1.7814279E2,1.1269022E2,2.5807126E2,2.901021E1,4.4933968E1,5.5692944E1],"tree_param":{"num_deleted":"0","num_feature":"30","num_nodes":"13","size_leaf_vector":"1"}},{"base_weights":[-9.316355E-3,-1.3169563E-1,6.4637786E-1,-5.0563025E-1,-3.3652604E-2,5.167128E-2,3.7788126E-1,-5.5797897E-2,-0E0,6.563331E-2,-1.0486209E-2,2.6090958E-3,4.4364702E-2],"categories":[],"categories_nodes":[],"categories_segments":[],"categories_sizes":[],"default_left":[0,0,0,0,0,0,0,0,0,0,0,0,0],"id":36,"left_children":[1,3,5,7,9,-1,11,-1,-1,-1,-1,-1,-1],"loss_changes":[5.5327408E1,2.125486E1,4.6360054E0,2.3712543E1,6.787163E1,0E0,5.2578697E0,0E0,0E0,0E0,0E0,0E0,0E0],"parents":[2147483647,0,0,1,1,2,2,3,3,4,4,6,6],"right_children":[2,4,6,8,10,-1,12,-1,-1,-1,-1,-1,-1],"split_conditions":[7E0,3.49E2,1.4179E4,1.8168E4,3.83E2,5.167128E-2,1.18E2,-5.5797897E-2,-0E0,6.563331E-2,-1.0486209E-2,2.6090958E-3,4.4364702E-2],"split_indices":[2,5,28,24,19,0,2,0,0,0,0,0,0],"split_type":[0,0,0,0,0,0,0,0,0,0,0,0,0],"sum_hessian":[6.837865E2,5.777352E2,1.0605131E2,1.1803085E2,4.5970435E2,6.0520313E1,4.5530994E1,6.594201E1,5.2088844E1,4.905072E1,4.1065363E2,2.3961132E1,2.156986E1],"tree_param":{"num_deleted":"0","num_feature":"30","num_nodes":"13","size_leaf_vector":"1"}},{"base_weights":[4.815935E-2,-2.4308383E-1,2.4746847E-1,-5.7327833E-2,-8.078844E-2,1.0405501E-1,6.849957E-1,-6.448289E-2,3.1334716E-3,2.0599654E-2,-2.8192818E-2,5.5696707E-2,3.0169971E-2],"categories":[],"categories_nodes":[],"categories_segments":[],"categories_sizes":[],"default_left":[0,0,0,0,0,0,0,0,0,0,0,0,0],"id":37,"left_children":[1,3,5,7,-1,9,11,-1,-1,-1,-1,-1,-1],"loss_changes":[4.08913E1,5.568998E1,2.6067957E1,2.6166336E1,0E0,4.0236183E1,3.427822E0,0E0,0E0,0E0,0E0,0E0,0E0],"parents":[2147483647,0,0,1,1,2,2,3,3,5,5,6,6],"right_children":[2,4,6,8,-1,10,12,-1,-1,-1,-1,-1,-1],"split_conditions":[9.779115E3,3.75E2,1.566E3,3.319153E2,-8.078844E-2,3.6092E4,3.652864E3,-6.448289E-2,3.1334716E-3,2.0599654E-2,-2.8192818E-2,5.5696707E-2,3.0169971E-2],"split_indices":[9,17,18,9,0,0,15,0,0,0,0,0,0],"split_type":[0,0,0,0,0,0,0,0,0,0,0,0,0],"sum_hessian":[6.9845844E2,2.8334357E2,4.1511484E2,2.4267967E2,4.0663914E1,3.1470416E2,1.0041065E2,2.2512182E1,2.2016748E2,2.2445926E2,9.024491E1,4.5824074E1,5.458658E1],"tree_param":{"num_deleted":"0","num_feature":"30","num_nodes":"13","size_leaf_vector":"1"}},{"base_weights":[4.1705906E-2,-1.0877499E-1,5.1434046E-1,-2.0279919E-1,3.3689225E-1,2.3726565E-1,6.1727834E-1,9.721681E-3,-2.3967203E-2,4.077901E-2,-2.7797993E-2,3.2348435E-2,-5.9529957E-3,5.3699497E-2,2.534496E-2],"categories":[],"categories_nodes":[],"categories_segments":[],"categories_sizes":[],"default_left":[0,0,0,0,0,0,0,0,0,0,0,0,0,0,0],"id":38,"left_children":[1,3,5,7,9,11,13,-1,-1,-1,-1,-1,-1,-1,-1],"loss_changes":[5.0058266E1,2.2519703E1,4.5211487E0,2.887803E1,2.3873108E1,4.8723145E0,5.5760307E0,0E0,0E0,0E0,0E0,0E0,0E0,0E0,0E0],"parents":[2147483647,0,0,1,1,2,2,3,3,4,4,5,5,6,6],"right_children":[2,4,6,8,10,12,14,-1,-1,-1,-1,-1,-1,-1,-1],"split_conditions":[4.4118E4,2.408E4,6.9162E4,1.561E3,3.3562E4,5.5121E4,8.785E3,9.721681E-3,-2.3967203E-2,4.077901E-2,-2.7797993E-2,3.2348435E-2,-5.9529957E-3,5.3699497E-2,2.534496E-2],"split_indices":[5,25,5,13,0,5,11,0,0,0,0,0,0,0,0],"split_type":[0,0,0,0,0,0,0,0,0,0,0,0,0,0,0],"sum_hessian":[6.974795E2,5.299919E2,1.6748761E2,4.3878537E2,9.120652E1,4.7478188E1,1.2000943E2,1.471767E2,2.9160867E2,6.528225E1,2.5924274E1,2.5342913E1,2.2135275E1,5.2665123E1,6.734431E1],"tree_param":{"num_deleted":"0","num_feature":"30","num_nodes":"15","size_leaf_vector":"1"}},{"base_weights":[2.3979388E-2,-7.27727E-1,1.0692336E-1,6.9001955E-3,-6.9226824E-2,-5.9155263E-2,1.5016383E-1,3.986688E-2,2.5719735E-3],"categories":[],"categories_nodes":[],"categories_segments":[],"categories_sizes":[],"default_left":[0,0,0,0,0,0,0,0,0],"id":39,"left_children":[1,3,5,-1,-1,-1,7,-1,-1],"loss_changes":[4.1233345E1,2.1403854E1,2.7498734E1,0E0,0E0,0E0,3.0442003E1,0E0,0E0],"parents":[2147483647,0,0,1,1,2,2,6,6],"right_children":[2,4,6,-1,-1,-1,8,-1,-1],"split_conditions":[1.1678596E3,6.5714774E0,4E0,6.9001955E-3,-6.9226824E-2,-5.9155263E-2,1.83E3,3.986688E-2,2.5719735E-3],"split_indices":[9,16,17,0,0,0,13,0,0],"split_type":[0,0,0,0,0,0,0,0,0],"sum_hessian":[6.548255E2,6.339058E1,5.914349E2,2.016241E1,4.322817E1,2.1542349E1,5.698925E2,1.01931335E2,4.679612E2],"tree_param":{"num_deleted":"0","num_feature":"30","num_nodes":"9","size_leaf_vector":"1"}},{"base_weights":[-7.736971E-2,-3.727901E-1,1.9721988E-1,-4.6290925E-1,3.686214E-2,2.6365442E-3,6.809958E-1,-1.5920144E-2,-5.6514002E-2,9.4316555E-3,-8.458455E-2,7.8051626E-3,5.3349067E-2],"categories":[],"categories_nodes":[],"categories_segments":[],"categories_sizes":[],"default_left":[0,0,0,0,0,0,0,0,0,0,0,0,0],"id":40,"left_children":[1,3,5,7,-1,9,11,-1,-1,-1,-1,-1,-1],"loss_changes":[5.4141483E1,2.8542557E1,3.2519745E1,2.6661156E1,0E0,5.070319E1,9.287533E0,0E0,0E0,0E0,0E0,0E0,0E0],"parents":[2147483647,0,0,1,1,2,2,3,3,5,5,6,6],"right_children":[2,4,6,8,-1,10,12,-1,-1,-1,-1,-1,-1],"split_conditions":[3.2285E4,5E0,3.2031E4,5.841E3,3.686214E-2,1.9968E4,1.0323E5,-1.5920144E-2,-5.6514002E-2,9.4316555E-3,-8.458455E-2,7.8051626E-3,5.3349067E-2],"split_indices":[20,2,8,0,0,8,20,0,0,0,0,0,0],"split_type":[0,0,0,0,0,0,0,0,0,0,0,0,0],"sum_hessian":[6.618279E2,3.1870334E2,3.4312454E2,2.9250464E2,2.6198698E1,2.4630978E2,9.681475E1,2.0137396E2,9.113068E1,2.2370284E2,2.2606943E1,2.4048922E1,7.276583E1],"tree_param":{"num_deleted":"0","num_feature":"30","num_nodes":"13","size_leaf_vector":"1"}},{"base_weights":[4.5569696E-2,-6.104658E-1,1.3886464E-1,-7.899351E-1,-3.097037E-3,5.699383E-1,6.742585E-2,-1.685784E-2,-6.359205E-2,-8.666038E-3,6.777914E-2,-7.3202453E-3,2.218762E-2],"categories":[],"categories_nodes":[],"categories_segments":[],"categories_sizes":[],"default_left":[0,0,0,0,0,0,0,0,0,0,0,0,0],"id":41,"left_children":[1,3,5,7,-1,9,11,-1,-1,-1,-1,-1,-1],"loss_changes":[4.168602E1,8.369978E0,1.8261162E1,6.9945717E0,0E0,3.1286945E1,2.7465395E1,0E0,0E0,0E0,0E0,0E0,0E0],"parents":[2147483647,0,0,1,1,2,2,3,3,5,5,6,6],"right_children":[2,4,6,8,-1,10,12,-1,-1,-1,-1,-1,-1],"split_conditions":[7.3E1,1.1303E4,1.262E3,3.3E1,-3.097037E-3,6.52E2,1.3778E4,-1.685784E-2,-6.359205E-2,-8.666038E-3,6.777914E-2,-7.3202453E-3,2.218762E-2],"split_indices":[10,0,13,0,0,25,25,0,0,0,0,0,0],"split_type":[0,0,0,0,0,0,0,0,0,0,0,0,0],"sum_hessian":[6.744153E2,8.2430214E1,5.9198505E2,6.1661762E1,2.076845E1,8.193951E1,5.1004556E2,2.034983E1,4.131193E1,3.5031242E1,4.6908268E1,3.1122595E2,1.9881963E2],"tree_param":{"num_deleted":"0","num_feature":"30","num_nodes":"13","size_leaf_vector":"1"}},{"base_weights":[6.017757E-2,-1.1818536E-1,4.0618116E-1,-5.4482482E-2,-4.3529164E-2,-2.557619E-2,5.233408E-1,4.1978743E-2,-1.1977232E-2,4.0651362E-2,-1.9830901E-2],"categories":[],"categories_nodes":[],"categories_segments":[],"categories_sizes":[],"default_left":[0,0,0,0,0,0,0,0,0,0,0],"id":42,"left_children":[1,3,5,-1,7,-1,9,-1,-1,-1,-1],"loss_changes":[4.1652756E1,2.5029802E1,2.2455975E1,0E0,4.357656E1,0E0,2.222919E1,0E0,0E0,0E0,0E0],"parents":[2147483647,0,0,1,1,2,2,4,4,6,6],"right_children":[2,4,6,-1,8,-1,10,-1,-1,-1,-1],"split_conditions":[1.062E3,-2.5228E4,1.31896E6,-5.4482482E-2,-8.248E3,-2.557619E-2,1.944816E6,4.1978743E-2,-1.1977232E-2,4.0651362E-2,-1.9830901E-2],"split_indices":[29,14,7,0,14,0,7,0,0,0,0],"split_type":[0,0,0,0,0,0,0,0,0,0,0],"sum_hessian":[6.6889343E2,4.4198715E2,2.269063E2,3.772047E1,4.042667E2,2.773043E1,1.9917587E2,6.803691E1,3.3622977E2,1.7338147E2,2.5794397E1],"tree_param":{"num_deleted":"0","num_feature":"30","num_nodes":"11","size_leaf_vector":"1"}},{"base_weights":[-6.9162816E-2,-5.005218E-1,4.57528E-2,-8.594841E-1,-1.3356756E-1,6.801049E-2,-2.814034E-2,-7.32226E-2,-1.5932037E-2,1.595426E-2,-6.0781136E-2,-2.3260098E-2,7.017132E-3],"categories":[],"categories_nodes":[],"categories_segments":[],"categories_sizes":[],"default_left":[0,0,0,0,0,0,0,0,0,0,0,0,0],"id":43,"left_children":[1,3,5,7,9,-1,11,-1,-1,-1,-1,-1,-1],"loss_changes":[3.1677704E1,1.7406147E1,3.9244133E1,1.2098133E1,2.3341993E1,0E0,2.3057766E1,0E0,0E0,0E0,0E0,0E0,0E0],"parents":[2147483647,0,0,1,1,2,2,3,3,4,4,6,6],"right_children":[2,4,6,8,10,-1,12,-1,-1,-1,-1,-1,-1],"split_conditions":[1.98E2,1E1,2.07E2,7E0,5.3E1,6.801049E-2,4.3363643E3,-7.32226E-2,-1.5932037E-2,1.595426E-2,-6.0781136E-2,-2.3260098E-2,7.017132E-3],"split_indices":[12,28,19,12,12,0,16,0,0,0,0,0,0],"split_type":[0,0,0,0,0,0,0,0,0,0,0,0,0],"sum_hessian":[6.3252924E2,1.3189557E2,5.006337E2,6.515403E1,6.674154E1,3.1405651E1,4.6922803E2,4.1515438E1,2.3638592E1,4.6453304E1,2.0288233E1,1.3528165E2,3.3394638E2],"tree_param":{"num_deleted":"0","num_feature":"30","num_nodes":"13","size_leaf_vector":"1"}},{"base_weights":[1.0871659E-2,-1.6283435E-1,3.5650712E-1,-5.3622365E-1,-7.0484444E-3,1.9152752E-1,7.2021836E-1,1.7123228E-2,-6.147677E-2,2.7947519E-2,-1.6568376E-2,4.8118997E-2,1.2518197E-3,5.7354815E-2,2.292588E-2],"categories":[],"categories_nodes":[],"categories_segments":[],"categories_sizes":[],"default_left":[0,0,0,0,0,0,0,0,0,0,0,0,0,0,0],"id":44,"left_children":[1,3,5,7,9,11,13,-1,-1,-1,-1,-1,-1,-1,-1],"loss_changes":[3.8867783E1,2.497313E1,1.2706915E1,4.6661102E1,3.6238457E1,1.5072092E1,3.9704971E0,0E0,0E0,0E0,0E0,0E0,0E0,0E0,0E0],"parents":[2147483647,0,0,1,1,2,2,3,3,4,4,5,5,6,6],"right_children":[2,4,6,8,10,12,14,-1,-1,-1,-1,-1,-1,-1,-1],"split_conditions":[1.03E3,3.2E1,5.9022094E4,2.58E2,4.62E2,2.314E3,4.4994E4,1.7123228E-2,-6.147677E-2,2.7947519E-2,-1.6568376E-2,4.8118997E-2,1.2518197E-3,5.7354815E-2,2.292588E-2],"split_indices":[29,6,9,13,10,10,0,0,0,0,0,0,0,0,0],"split_type":[0,0,0,0,0,0,0,0,0,0,0,0,0,0,0],"sum_hessian":[6.409073E2,4.2699234E2,2.1391492E2,1.24038666E2,3.0295367E2,1.4948383E2,6.44311E1,4.4378784E1,7.965988E1,1.0905796E2,1.9389572E2,3.2379936E1,1.1710389E2,3.89478E1,2.54833E1],"tree_param":{"num_deleted":"0","num_feature":"30","num_nodes":"15","size_leaf_vector":"1"}},{"base_weights":[-8.8292025E-3,-3.3099383E-1,2.1867429E-1,4.1304886E-2,-6.672684E-1,1.1381012E-1,4.6497818E-2,-2.1947043E-2,5.884267E-2,-5.645617E-2,-9.780104E-5,4.774754E-2,1.9879495E-4],"categories":[],"categories_nodes":[],"categories_segments":[],"categories_sizes":[],"default_left":[0,0,0,0,0,0,0,0,0,0,0,0,0],"id":45,"left_children":[1,3,5,7,9,11,-1,-1,-1,-1,-1,-1,-1],"loss_changes":[4.7834583E1,3.3967545E1,2.0922901E1,4.6958202E1,2.2361317E1,2.3143923E1,0E0,0E0,0E0,0E0,0E0,0E0,0E0],"parents":[2147483647,0,0,1,1,2,2,3,3,4,4,5,5],"right_children":[2,4,6,8,10,12,-1,-1,-1,-1,-1,-1,-1],"split_conditions":[2E0,1.062393E3,9.079118E-3,6.290294E2,1.172E3,2.6E1,4.6497818E-2,-2.1947043E-2,5.884267E-2,-5.645617E-2,-9.780104E-5,4.774754E-2,1.9879495E-4],"split_indices":[4,16,3,16,17,17,0,0,0,0,0,0,0],"split_type":[0,0,0,0,0,0,0,0,0,0,0,0,0],"sum_hessian":[6.4662823E2,2.6749365E2,3.7913455E2,1.275917E2,1.3990196E2,3.1836304E2,6.07715E1,8.960243E1,3.7989265E1,1.024652E2,3.743675E1,4.435612E1,2.7400693E2],"tree_param":{"num_deleted":"0","num_feature":"30","num_nodes":"13","size_leaf_vector":"1"}},{"base_weights":[9.7127385E-2,-4.169829E-2,3.7646773E-1,-2.0870672E-1,1.9530946E-1,-8.230595E-3,4.4738227E-1,2.839866E-3,-4.1862186E-2,4.674694E-2,-5.9526623E-3,3.7542567E-2,5.684815E-3],"categories":[],"categories_nodes":[],"categories_segments":[],"categories_sizes":[],"default_left":[0,0,0,0,0,0,0,0,0,0,0,0,0],"id":46,"left_children":[1,3,5,7,9,-1,11,-1,-1,-1,-1,-1,-1],"loss_changes":[2.6376001E1,1.8111454E1,8.318949E0,3.1644596E1,3.0656473E1,0E0,1.0748028E1,0E0,0E0,0E0,0E0,0E0,0E0],"parents":[2147483647,0,0,1,1,2,2,3,3,4,4,6,6],"right_children":[2,4,6,8,10,-1,12,-1,-1,-1,-1,-1,-1],"split_conditions":[1.03E3,6.489283E3,-5.5067E4,6.636E3,8.4E1,-8.230595E-3,4.608E3,2.839866E-3,-4.1862186E-2,4.674694E-2,-5.9526623E-3,3.7542567E-2,5.684815E-3],"split_indices":[29,16,25,0,29,0,29,0,0,0,0,0,0],"split_type":[0,0,0,0,0,0,0,0,0,0,0,0,0],"sum_hessian":[6.74155E2,4.51165E2,2.2298999E2,2.6512115E2,1.8604385E2,2.6870056E1,1.9611993E2,1.7200275E2,9.3118416E1,6.3120575E1,1.2292328E2,1.3568298E2,6.0436943E1],"tree_param":{"num_deleted":"0","num_feature":"30","num_nodes":"13","size_leaf_vector":"1"}},{"base_weights":[2.6870111E-3,-6.672318E-2,7.8420347E-1,-1.507583E-1,5.6372136E-1,3.2798514E-2,5.754705E-2,-1.4280655E-3,-4.9143445E-2,1.0745975E-2,5.477123E-2],"categories":[],"categories_nodes":[],"categories_segments":[],"categories_sizes":[],"default_left":[0,0,0,0,0,0,0,0,0,0,0],"id":47,"left_children":[1,3,5,7,9,-1,-1,-1,-1,-1,-1],"loss_changes":[3.4710487E1,3.1135809E1,8.751755E-1,4.2010864E1,8.139048E0,0E0,0E0,0E0,0E0,0E0,0E0],"parents":[2147483647,0,0,1,1,2,2,3,3,4,4],"right_children":[2,4,6,8,10,-1,-1,-1,-1,-1,-1],"split_conditions":[1.0248902E-2,1.25723E5,4.212E3,3.1716E4,7.2251924E3,3.2798514E-2,5.754705E-2,-1.4280655E-3,-4.9143445E-2,1.0745975E-2,5.477123E-2],"split_indices":[3,20,14,0,15,0,0,0,0,0,0],"split_type":[0,0,0,0,0,0,0,0,0,0,0],"sum_hessian":[6.3031244E2,5.804119E2,4.990055E1,5.13654E2,6.675792E1,2.0988588E1,2.891196E1,4.296199E2,8.403407E1,3.1251713E1,3.5506207E1],"tree_param":{"num_deleted":"0","num_feature":"30","num_nodes":"11","size_leaf_vector":"1"}},{"base_weights":[1.7262127E-2,-2.1718425E-1,2.6799682E-1,-3.718899E-1,3.4867886E-1,-2.5393212E-1,3.5175094E-1,-3.0160863E-2,5.6995086E-2,4.7757E-2,-3.0045968E-2,-6.310016E-2,3.0308563E-2,3.2845635E-2,-4.855951E-3],"categories":[],"categories_nodes":[],"categories_segments":[],"categories_sizes":[],"default_left":[0,0,0,0,0,0,0,0,0,0,0,0,0,0,0],"id":48,"left_children":[1,3,5,7,9,11,13,-1,-1,-1,-1,-1,-1,-1,-1],"loss_changes":[3.8999935E1,3.0290136E1,1.4253206E1,3.9643112E1,2.6646046E1,2.6642868E1,2.09407E1,0E0,0E0,0E0,0E0,0E0,0E0,0E0,0E0],"parents":[2147483647,0,0,1,1,2,2,3,3,4,4,5,5,6,6],"right_children":[2,4,6,8,10,12,14,-1,-1,-1,-1,-1,-1,-1,-1],"split_conditions":[1.166E3,1.084E3,1.303392E6,4.4412E4,3.112E3,2.8741548E3,3.652864E3,-3.0160863E-2,5.6995086E-2,4.7757E-2,-3.0045968E-2,-6.310016E-2,3.0308563E-2,3.2845635E-2,-4.855951E-3],"split_indices":[4,29,7,25,29,15,15,0,0,0,0,0,0,0,0],"split_type":[0,0,0,0,0,0,0,0,0,0,0,0,0,0,0],"sum_hessian":[6.57363E2,3.395899E2,3.1777307E2,2.6739047E2,7.219943E1,4.3174595E1,2.7459848E2,2.4729135E2,2.009913E1,4.828066E1,2.3918777E1,2.1059752E1,2.2114841E1,1.9515033E2,7.944815E1],"tree_param":{"num_deleted":"0","num_feature":"30","num_nodes":"15","size_leaf_vector":"1"}},{"base_weights":[2.1291299E-2,-1.403504E-1,2.6869705E-1,9.293215E-2,-4.715853E-1,5.6876636E-1,-1.5695337E-3,-1.9046634E-2,1.8309621E-2,-4.3310087E-2,1.4732835E-2,5.0128743E-2,1.2252956E-2,-4.2401765E-2,1.2806474E-2],"categories":[],"categories_nodes":[],"categories_segments":[],"categories_sizes":[],"default_left":[0,0,0,0,0,0,0,0,0,0,0,0,0,0,0],"id":49,"left_children":[1,3,5,7,9,11,13,-1,-1,-1,-1,-1,-1,-1,-1],"loss_changes":[2.6047743E1,3.05389E1,2.0952984E1,1.8777958E1,2.6085106E1,1.0304192E1,1.972281E1,0E0,0E0,0E0,0E0,0E0,0E0,0E0,0E0],"parents":[2147483647,0,0,1,1,2,2,3,3,4,4,5,5,6,6],"right_children":[2,4,6,8,10,12,14,-1,-1,-1,-1,-1,-1,-1,-1],"split_conditions":[6.9162E4,7.561E3,3.6092E4,3.49E2,7.924E3,7.4E1,1.4444E4,-1.9046634E-2,1.8309621E-2,-4.3310087E-2,1.4732835E-2,5.0128743E-2,1.2252956E-2,-4.2401765E-2,1.2806474E-2],"split_indices":[1,0,0,5,4,27,12,0,0,0,0,0,0,0,0],"split_type":[0,0,0,0,0,0,0,0,0,0,0,0,0,0,0],"sum_hessian":[6.4460645E2,3.9008636E2,2.5452007E2,2.2949638E2,1.6058998E2,1.1979699E2,1.3472307E2,7.62941E1,1.5320229E2,1.2235599E2,3.8233997E1,7.18981E1,4.7898884E1,3.0576097E1,1.0414697E2],"tree_param":{"num_deleted":"0","num_feature":"30","num_nodes":"15","size_leaf_vector":"1"}},{"base_weights":[5.0840177E-2,-4.3773495E-2,5.463627E-1,7.914036E-2,-6.395276E-1,4.8001118E-2,-3.025193E-3,-3.9783675E-2,1.1352774E-2,-6.1007004E-2,1.55521035E-2],"categories":[],"categories_nodes":[],"categories_segments":[],"categories_sizes":[],"default_left":[0,0,0,0,0,0,0,0,0,0,0],"id":50,"left_children":[1,3,5,7,9,-1,-1,-1,-1,-1,-1],"loss_changes":[3.032678E1,3.9908703E1,1.3913544E1,3.346359E1,2.8604298E1,0E0,0E0,0E0,0E0,0E0,0E0],"parents":[2147483647,0,0,1,1,2,2,3,3,4,4],"right_children":[2,4,6,8,10,-1,-1,-1,-1,-1,-1],"split_conditions":[6.9162E4,4.5091E4,2.1966E4,1.0851608E3,1.95144E5,4.8001118E-2,-3.025193E-3,-3.9783675E-2,1.1352774E-2,-6.1007004E-2,1.55521035E-2],"split_indices":[5,13,22,9,24,0,0,0,0,0,0],"split_type":[0,0,0,0,0,0,0,0,0,0,0],"sum_hessian":[6.395642E2,5.3832623E2,1.01237976E2,4.4750272E2,9.0823494E1,7.33866E1,2.7851376E1,5.467934E1,3.928234E2,6.575849E1,2.5064999E1],"tree_param":{"num_deleted":"0","num_feature":"30","num_nodes":"11","size_leaf_vector":"1"}},{"base_weights":[4.6445936E-2,-5.779122E-1,1.18555084E-1,-6.748896E-2,1.0835657E-2,6.797237E-2,5.7500288E-2,-6.690947E-2,7.814587E-3],"categories":[],"categories_nodes":[],"categories_segments":[],"categories_sizes":[],"default_left":[0,0,0,0,0,0,0,0,0],"id":51,"left_children":[1,3,5,-1,-1,-1,7,-1,-1],"loss_changes":[2.9370897E1,2.6065563E1,3.447017E1,0E0,0E0,0E0,4.2477066E1,0E0,0E0],"parents":[2147483647,0,0,1,1,2,2,6,6],"right_children":[2,4,6,-1,-1,-1,8,-1,-1],"split_conditions":[2.031E3,1.98E2,1.13E2,-6.748896E-2,1.0835657E-2,6.797237E-2,8.1E1,-6.690947E-2,7.814587E-3],"split_indices":[1,14,19,0,0,0,10,0,0],"split_type":[0,0,0,0,0,0,0,0,0],"sum_hessian":[6.44991E2,6.515771E1,5.798333E2,3.8598595E1,2.6559114E1,3.2217575E1,5.476157E2,2.9202631E1,5.184131E2],"tree_param":{"num_deleted":"0","num_feature":"30","num_nodes":"9","size_leaf_vector":"1"}},{"base_weights":[-2.1062743E-2,5.185194E-1,-8.4941275E-2,-1.3546848E-2,9.641237E-1,-7.407232E-2,-2.6229618E-2,4.178695E-2,7.28474E-2,-1.8793702E-2,8.493442E-3],"categories":[],"categories_nodes":[],"categories_segments":[],"categories_sizes":[],"default_left":[0,0,0,0,0,0,0,0,0,0,0],"id":52,"left_children":[1,3,5,-1,7,-1,9,-1,-1,-1,-1],"loss_changes":[2.1941484E1,2.2606651E1,3.671792E1,0E0,9.6115875E-1,0E0,2.4300465E1,0E0,0E0,0E0,0E0],"parents":[2147483647,0,0,1,1,2,2,4,4,6,6],"right_children":[2,4,6,-1,8,-1,10,-1,-1,-1,-1],"split_conditions":[1.52E2,5.7E1,7.3E1,-1.3546848E-2,1.6E2,-7.407232E-2,4.8654595E3,4.178695E-2,7.28474E-2,-1.8793702E-2,8.493442E-3],"split_indices":[19,19,10,0,5,0,16,0,0,0,0],"split_type":[0,0,0,0,0,0,0,0,0,0,0],"sum_hessian":[6.293622E2,6.491648E1,5.6444574E2,2.4765005E1,4.0151478E1,2.6516706E1,5.37929E2,2.0118698E1,2.003278E1,1.993697E2,3.385593E2],"tree_param":{"num_deleted":"0","num_feature":"30","num_nodes":"11","size_leaf_vector":"1"}},{"base_weights":[6.2225774E-2,1.0661312E-1,-7.132626E-2,-5.06206E-2,1.5976143E-1,8.567607E-2,6.940682E-3],"categories":[],"categories_nodes":[],"categories_segments":[],"categories_sizes":[],"default_left":[0,0,0,0,0,0,0],"id":53,"left_children":[1,3,-1,-1,5,-1,-1],"loss_changes":[3.543808E1,3.1290752E1,0E0,0E0,3.521337E1,0E0,0E0],"parents":[2147483647,0,0,1,1,4,4],"right_children":[2,4,-1,-1,6,-1,-1],"split_conditions":[2.345472E6,5.5219044E1,-7.132626E-2,-5.06206E-2,6.08E2,8.567607E-2,6.940682E-3],"split_indices":[7,16,0,0,24,0,0],"split_type":[0,0,0,0,0,0,0],"sum_hessian":[6.52806E2,6.3145953E2,2.134651E1,3.2889656E1,5.985699E2,2.0852705E1,5.7771716E2],"tree_param":{"num_deleted":"0","num_feature":"30","num_nodes":"7","size_leaf_vector":"1"}},{"base_weights":[5.9525516E-2,-1.0009118E-2,5.4627065E-2,-5.009544E-1,1.296024E-1,-8.373805E-2,-8.467606E-3,4.156769E-2,2.864625E-3],"categories":[],"categories_nodes":[],"categories_segments":[],"categories_sizes":[],"default_left":[0,0,0,0,0,0,0,0,0],"id":54,"left_children":[1,3,-1,5,7,-1,-1,-1,-1],"loss_changes":[3.7050915E1,4.1334232E1,0E0,4.056417E1,2.097118E1,0E0,0E0,0E0,0E0],"parents":[2147483647,0,0,1,1,3,3,4,4],"right_children":[2,4,-1,6,8,-1,-1,-1,-1],"split_conditions":[1.0248902E-2,1.389072E6,5.4627065E-2,3.9289E4,1.432576E6,-8.373805E-2,-8.467606E-3,4.156769E-2,2.864625E-3],"split_indices":[3,7,0,24,7,0,0,0,0],"split_type":[0,0,0,0,0,0,0,0,0],"sum_hessian":[6.4521155E2,5.961947E2,4.9016876E1,1.3107053E2,4.6512415E2,3.7985905E1,9.3084625E1,6.071061E1,4.0441354E2],"tree_param":{"num_deleted":"0","num_feature":"30","num_nodes":"9","size_leaf_vector":"1"}},{"base_weights":[-4.1552555E-2,-1.3343306E-1,4.7988033E-1,-2.3503312E-1,2.500708E-1,-1.5973399E-4,6.551828E-1,-4.7623128E-2,-3.2621366E-3,-1.3743352E-2,3.3647086E-2,5.8913037E-2,2.4000837E-2],"categories":[],"categories_nodes":[],"categories_segments":[],"categories_sizes":[],"default_left":[0,0,0,0,0,0,0,0,0,0,0,0,0],"id":55,"left_children":[1,3,5,7,9,-1,11,-1,-1,-1,-1,-1,-1],"loss_changes":[2.9858213E1,2.0760044E1,7.9865074E0,4.033957E1,1.5521633E1,0E0,4.6227818E0,0E0,0E0,0E0,0E0,0E0,0E0],"parents":[2147483647,0,0,1,1,2,2,3,3,4,4,6,6],"right_children":[2,4,6,8,10,-1,12,-1,-1,-1,-1,-1,-1],"split_conditions":[7E0,1.9724E4,1.394956E6,1.42202E6,7.6816E4,-1.5973399E-4,7.832E4,-4.7623128E-2,-3.2621366E-3,-1.3743352E-2,3.3647086E-2,5.8913037E-2,2.4000837E-2],"split_indices":[2,25,7,7,1,0,1,0,0,0,0,0,0],"split_type":[0,0,0,0,0,0,0,0,0,0,0,0,0],"sum_hessian":[6.1647003E2,5.255778E2,9.089219E1,4.1637018E2,1.0920765E2,2.455103E1,6.634116E1,1.0525841E2,3.111118E2,4.1584774E1,6.762287E1,2.9478552E1,3.686261E1],"tree_param":{"num_deleted":"0","num_feature":"30","num_nodes":"13","size_leaf_vector":"1"}},{"base_weights":[-2.6358932E-2,-8.571754E-2,5.8055496E-1,2.4898332E-1,-1.6070642E-1,1.2277902E-2,4.999029E-2,-2.1953138E-2,4.1084792E-2,-3.838744E-2,-5.2868477E-3],"categories":[],"categories_nodes":[],"categories_segments":[],"categories_sizes":[],"default_left":[0,0,0,0,0,0,0,0,0,0,0],"id":56,"left_children":[1,3,5,7,9,-1,-1,-1,-1,-1,-1],"loss_changes":[2.232635E1,1.4241567E1,4.3027897E0,2.6076435E1,1.583506E1,0E0,0E0,0E0,0E0,0E0,0E0],"parents":[2147483647,0,0,1,1,2,2,3,3,4,4],"right_children":[2,4,6,8,10,-1,-1,-1,-1,-1,-1],"split_conditions":[1.9122E5,1.003E3,3.603E3,8.9E1,2.478E3,1.2277902E-2,4.999029E-2,-2.1953138E-2,4.1084792E-2,-3.838744E-2,-5.2868477E-3],"split_indices":[13,13,29,10,0,0,0,0,0,0,0],"split_type":[0,0,0,0,0,0,0,0,0,0,0],"sum_hessian":[6.122394E2,5.5943567E2,5.280368E1,1.0124542E2,4.5819025E2,2.0843416E1,3.1960262E1,4.1016373E1,6.022905E1,6.3394356E1,3.947959E2],"tree_param":{"num_deleted":"0","num_feature":"30","num_nodes":"11","size_leaf_vector":"1"}},{"base_weights":[3.214612E-2,-7.9689366E-1,1.01651326E-1,-6.596328E-2,-2.4137657E-2,8.455711E-2,4.5549948E-2,3.7852786E-2,6.8543384E-5],"categories":[],"categories_nodes":[],"categories_segments":[],"categories_sizes":[],"default_left":[0,0,0,0,0,0,0,0,0],"id":57,"left_children":[1,3,5,-1,-1,-1,7,-1,-1],"loss_changes":[3.6821495E1,4.410042E0,4.1287243E1,0E0,0E0,0E0,1.4123798E1,0E0,0E0],"parents":[2147483647,0,0,1,1,2,2,6,6],"right_children":[2,4,6,-1,-1,-1,8,-1,-1],"split_conditions":[1.17E2,3.85E2,2.45E2,-6.596328E-2,-2.4137657E-2,8.455711E-2,1.52E2,3.7852786E-2,6.8543384E-5],"split_indices":[0,25,0,0,0,0,19,0,0],"split_type":[0,0,0,0,0,0,0,0,0],"sum_hessian":[6.3194867E2,4.713758E1,5.848111E2,2.674353E1,2.0394053E1,2.299482E1,5.618163E2,3.9199253E1,5.2261707E2],"tree_param":{"num_deleted":"0","num_feature":"30","num_nodes":"9","size_leaf_vector":"1"}},{"base_weights":[1.3606527E-2,-8.458352E-2,5.421861E-1,3.5723904E-1,-2.3661798E-1,4.6746597E-2,8.315548E-3,-3.9595008E-2,4.4585433E-2,-4.3662865E-2,1.9368357E-3],"categories":[],"categories_nodes":[],"categories_segments":[],"categories_sizes":[],"default_left":[0,0,0,0,0,0,0,0,0,0,0],"id":58,"left_children":[1,3,5,7,9,-1,-1,-1,-1,-1,-1],"loss_changes":[3.247769E1,3.549845E1,8.031078E0,4.8906143E1,4.8766544E1,0E0,0E0,0E0,0E0,0E0,0E0],"parents":[2147483647,0,0,1,1,2,2,3,3,4,4],"right_children":[2,4,6,8,10,-1,-1,-1,-1,-1,-1],"split_conditions":[4.9742404E-3,5.56E2,1.8259E4,1.906E3,3.6698E4,4.6746597E-2,8.315548E-3,-3.9595008E-2,4.4585433E-2,-4.3662865E-2,1.9368357E-3],"split_indices":[3,19,28,1,1,0,0,0,0,0,0],"split_type":[0,0,0,0,0,0,0,0,0,0,0],"sum_hessian":[6.1788904E2,5.2229E2,9.559906E1,1.3281313E2,3.8947684E2,6.2184444E1,3.341462E1,3.4666744E1,9.814638E1,1.4167393E2,2.478029E2],"tree_param":{"num_deleted":"0","num_feature":"30","num_nodes":"11","size_leaf_vector":"1"}},{"base_weights":[8.9028195E-2,1.1434564E-3,6.2045515E-1,7.1229145E-2,-5.2557163E-2,8.462075E-1,1.4023066E-2,-1.9863326E-4,4.7152244E-2,7.821592E-2,2.7943665E-2],"categories":[],"categories_nodes":[],"categories_segments":[],"categories_sizes":[],"default_left":[0,0,0,0,0,0,0,0,0,0,0],"id":59,"left_children":[1,3,5,7,-1,9,-1,-1,-1,-1,-1],"loss_changes":[2.957169E1,3.2434326E1,7.5954933E0,2.5975042E1,0E0,7.9813995E0,0E0,0E0,0E0,0E0,0E0],"parents":[2147483647,0,0,1,1,2,2,3,3,5,5],"right_children":[2,4,6,8,-1,10,-1,-1,-1,-1,-1],"split_conditions":[4.987E3,1.971E3,-1.18E2,8.374116E-3,-5.2557163E-2,6.824E4,1.4023066E-2,-1.9863326E-4,4.7152244E-2,7.821592E-2,2.7943665E-2],"split_indices":[17,17,22,3,0,13,0,0,0,0,0],"split_type":[0,0,0,0,0,0,0,0,0,0,0],"sum_hessian":[6.3000574E2,5.425129E2,8.749281E1,5.0269876E2,3.981415E1,5.4071575E1,3.3421238E1,4.5500693E2,4.769184E1,2.4485483E1,2.958609E1],"tree_param":{"num_deleted":"0","num_feature":"30","num_nodes":"11","size_leaf_vector":"1"}},{"base_weights":[1.0622968E-1,-2.6295292E-1,2.0828716E-1,-7.090047E-1,4.8325114E-2,4.2755687E-1,-2.5277792E-2,-7.2641924E-2,6.967824E-3,5.2004296E-2,-2.67194E-2,1.3800446E-2,5.9957713E-2,7.905708E-3,-6.982156E-2],"categories":[],"categories_nodes":[],"categories_segments":[],"categories_sizes":[],"default_left":[0,0,0,0,0,0,0,0,0,0,0,0,0,0,0],"id":60,"left_children":[1,3,5,7,9,11,13,-1,-1,-1,-1,-1,-1,-1,-1],"loss_changes":[2.421153E1,1.9529839E1,2.57806E1,2.1924833E1,3.2241585E1,2.8090672E1,4.127287E1,0E0,0E0,0E0,0E0,0E0,0E0,0E0,0E0],"parents":[2147483647,0,0,1,1,2,2,3,3,4,4,5,5,6,6],"right_children":[2,4,6,8,10,12,14,-1,-1,-1,-1,-1,-1,-1,-1],"split_conditions":[1.380076E6,1.81E2,2.23E2,2.063E3,3.49E2,1.888876E6,1.940664E6,-7.2641924E-2,6.967824E-3,5.2004296E-2,-2.67194E-2,1.3800446E-2,5.9957713E-2,7.905708E-3,-6.982156E-2],"split_indices":[7,17,17,11,17,7,7,0,0,0,0,0,0,0,0],"split_type":[0,0,0,0,0,0,0,0,0,0,0,0,0,0,0],"sum_hessian":[6.3544604E2,1.3667288E2,4.987732E2,5.530346E1,8.1369415E1,2.566924E2,2.4208078E2,3.5145424E1,2.0158033E1,3.0275394E1,5.109402E1,1.8724141E2,6.945101E1,2.1398064E2,2.8100145E1],"tree_param":{"num_deleted":"0","num_feature":"30","num_nodes":"15","size_leaf_vector":"1"}},{"base_weights":[3.2579623E-2,-4.954357E-2,4.5942184E-1,-5.314429E-3,-4.8236094E-2,5.7514393E-1,1.1541577E-3,-2.359972E-2,4.8864633E-3,2.7539354E-2,4.7569484E-2],"categories":[],"categories_nodes":[],"categories_segments":[],"categories_sizes":[],"default_left":[0,0,0,0,0,0,0,0,0,0,0],"id":61,"left_children":[1,3,5,7,-1,9,-1,-1,-1,-1,-1],"loss_changes":[2.1542465E1,1.6449665E1,4.9683456E0,1.5311746E1,0E0,1.2890701E0,0E0,0E0,0E0,0E0,0E0],"parents":[2147483647,0,0,1,1,2,2,3,3,5,5],"right_children":[2,4,6,8,-1,10,-1,-1,-1,-1,-1],"split_conditions":[4E0,4.8839E4,7.8304E4,3.35E2,-4.8236094E-2,2.3732E4,1.1541577E-3,-2.359972E-2,4.8864633E-3,2.7539354E-2,4.7569484E-2],"split_indices":[2,8,14,5,0,8,0,0,0,0,0],"split_type":[0,0,0,0,0,0,0,0,0,0,0],"sum_hessian":[6.063308E2,5.0971524E2,9.661556E1,4.82392E2,2.7323227E1,7.582333E1,2.0792229E1,8.736627E1,3.9502573E2,4.8473736E1,2.73496E1],"tree_param":{"num_deleted":"0","num_feature":"30","num_nodes":"11","size_leaf_vector":"1"}},{"base_weights":[7.629662E-2,5.8831554E-3,5.9879845E-1,4.3497267E-1,-1.3586046E-1,2.157461E-2,4.8088085E-2,6.3283793E-3,9.8960206E-2,-5.826969E-2,-4.5732986E-3],"categories":[],"categories_nodes":[],"categories_segments":[],"categories_sizes":[],"default_left":[0,0,0,0,0,0,0,0,0,0,0],"id":62,"left_children":[1,3,5,7,9,-1,-1,-1,-1,-1,-1],"loss_changes":[2.2954502E1,3.380064E1,2.6653233E0,5.2552467E1,2.069495E1,0E0,0E0,0E0,0E0,0E0,0E0],"parents":[2147483647,0,0,1,1,2,2,3,3,4,4],"right_children":[2,4,6,8,10,-1,-1,-1,-1,-1,-1],"split_conditions":[7.0326123E-3,5.15E2,1.0315127E-2,1.88E2,1.82E2,2.157461E-2,4.8088085E-2,6.3283793E-3,9.8960206E-2,-5.826969E-2,-4.5732986E-3],"split_indices":[3,19,3,29,10,0,0,0,0,0,0],"split_type":[0,0,0,0,0,0,0,0,0,0,0],"sum_hessian":[6.205547E2,5.4883936E2,7.171536E1,1.3548824E2,4.1335114E2,3.1703934E1,4.0011425E1,1.0679643E2,2.8691801E1,2.7910627E1,3.854405E2],"tree_param":{"num_deleted":"0","num_feature":"30","num_nodes":"11","size_leaf_vector":"1"}},{"base_weights":[-5.989225E-2,-1.3982995E-1,3.7919912E-1,-1.1455629E-2,-6.7509437E-1,6.0838825E-1,2.3447128E-4,-3.679445E-2,4.6470314E-3,-7.086112E-2,-7.3847873E-3,1.8471653E-2,4.825658E-2],"categories":[],"categories_nodes":[],"categories_segments":[],"categories_sizes":[],"default_left":[0,0,0,0,0,0,0,0,0,0,0,0,0],"id":63,"left_children":[1,3,5,7,9,11,-1,-1,-1,-1,-1,-1,-1],"loss_changes":[2.1130781E1,3.483156E1,7.907444E0,2.0715244E1,2.476934E1,2.4636955E0,0E0,0E0,0E0,0E0,0E0,0E0,0E0],"parents":[2147483647,0,0,1,1,2,2,3,3,4,4,5,5],"right_children":[2,4,6,8,10,12,-1,-1,-1,-1,-1,-1,-1],"split_conditions":[7E0,3.3859E4,1.4179E4,1.316464E6,4.6264574E4,6.036E3,2.3447128E-4,-3.679445E-2,4.6470314E-3,-7.086112E-2,-7.3847873E-3,1.8471653E-2,4.825658E-2],"split_indices":[2,0,28,7,9,14,0,0,0,0,0,0,0],"split_type":[0,0,0,0,0,0,0,0,0,0,0,0,0],"sum_hessian":[5.945765E2,5.043914E2,9.018509E1,4.0864606E2,9.5745316E1,5.5025696E1,3.5159393E1,5.1562786E1,3.5708328E2,5.11582E1,4.4587116E1,2.1186613E1,3.383908E1],"tree_param":{"num_deleted":"0","num_feature":"30","num_nodes":"13","size_leaf_vector":"1"}},{"base_weights":[9.05657E-2,3.416862E-1,-1.1827383E-1,6.4857535E-2,6.480626E-1,3.724408E-2,-1.9752768E-1,-4.5882784E-2,2.4914669E-2,7.1258366E-2,2.2964908E-2,-1.7968282E-2,3.3387177E-2],"categories":[],"categories_nodes":[],"categories_segments":[],"categories_sizes":[],"default_left":[0,0,0,0,0,0,0,0,0,0,0,0,0],"id":64,"left_children":[1,3,5,7,9,-1,11,-1,-1,-1,-1,-1,-1],"loss_changes":[3.3098373E1,2.4141918E1,1.9829998E1,4.1592384E1,1.7880512E1,0E0,2.1024914E1,0E0,0E0,0E0,0E0,0E0,0E0],"parents":[2147483647,0,0,1,1,2,2,3,3,4,4,6,6],"right_children":[2,4,6,8,10,-1,12,-1,-1,-1,-1,-1,-1],"split_conditions":[-1.2E1,-1.859E3,-7E2,1.7774E4,5.949E3,3.724408E-2,8.4443E4,-4.5882784E-2,2.4914669E-2,7.1258366E-2,2.2964908E-2,-1.7968282E-2,3.3387177E-2],"split_indices":[22,25,28,0,0,0,25,0,0,0,0,0,0],"split_type":[0,0,0,0,0,0,0,0,0,0,0,0,0],"sum_hessian":[6.252718E2,2.8360263E2,3.4166916E2,1.5046529E2,1.3313734E2,3.263951E1,3.0902963E2,4.3536102E1,1.0692918E2,4.5817665E1,8.731967E1,2.7631097E2,3.2718666E1],"tree_param":{"num_deleted":"0","num_feature":"30","num_nodes":"13","size_leaf_vector":"1"}},{"base_weights":[3.9492506E-3,-9.272969E-2,4.674316E-1,3.5964972E-1,-2.6143447E-1,6.9748807E-1,1.3712348E-1,-2.6586443E-2,5.0305136E-2,-2.9228166E-2,1.1693396E-2,2.5782313E-2,5.182221E-2,-9.831953E-3,2.9010238E-2],"categories":[],"categories_nodes":[],"categories_segments":[],"categories_sizes":[],"default_left":[0,0,0,0,0,0,0,0,0,0,0,0,0,0,0],"id":65,"left_children":[1,3,5,7,9,11,13,-1,-1,-1,-1,-1,-1,-1,-1],"loss_changes":[2.7520153E1,3.881148E1,7.8141747E0,4.9234882E1,3.4558235E1,1.623991E0,4.7505856E0,0E0,0E0,0E0,0E0,0E0,0E0,0E0,0E0],"parents":[2147483647,0,0,1,1,2,2,3,3,4,4,5,5,6,6],"right_children":[2,4,6,8,10,12,14,-1,-1,-1,-1,-1,-1,-1,-1],"split_conditions":[4E0,5.32E2,8.896E3,5.2E1,1.14521E5,6.648E3,7.8E1,-2.6586443E-2,5.0305136E-2,-2.9228166E-2,1.1693396E-2,2.5782313E-2,5.182221E-2,-9.831953E-3,2.9010238E-2],"split_indices":[2,19,28,10,24,10,2,0,0,0,0,0,0,0,0],"split_type":[0,0,0,0,0,0,0,0,0,0,0,0,0,0,0],"sum_hessian":[6.06035E2,5.0252203E2,1.0351295E2,1.3568538E2,3.6683667E2,5.949025E1,4.4022697E1,4.909192E1,8.659347E1,2.5121979E2,1.1561687E2,2.1844324E1,3.7645927E1,2.35171E1,2.0505598E1],"tree_param":{"num_deleted":"0","num_feature":"30","num_nodes":"15","size_leaf_vector":"1"}},{"base_weights":[7.07841E-2,2.8549084E-1,-1.18550025E-1,-2.2341585E-2,3.7035987E-1,-2.3444375E-1,6.049699E-1,8.146419E-2,1.600888E-2,2.0701792E-2,-2.9933024E-2,2.2067115E-2,4.9737837E-2],"categories":[],"categories_nodes":[],"categories_segments":[],"categories_sizes":[],"default_left":[0,0,0,0,0,0,0,0,0,0,0,0,0],"id":66,"left_children":[1,3,5,-1,7,9,11,-1,-1,-1,-1,-1,-1],"loss_changes":[2.5633116E1,1.645379E1,2.841533E1,0E0,2.7246387E1,4.0651196E1,1.6785736E0,0E0,0E0,0E0,0E0,0E0,0E0],"parents":[2147483647,0,0,1,1,2,2,4,4,5,5,6,6],"right_children":[2,4,6,-1,8,10,12,-1,-1,-1,-1,-1,-1],"split_conditions":[-6E0,2.33E2,8.135169E-3,-2.2341585E-2,1.83E3,5.15E2,1.3288E4,8.146419E-2,1.600888E-2,2.0701792E-2,-2.9933024E-2,2.2067115E-2,4.9737837E-2],"split_indices":[22,5,3,0,13,19,19,0,0,0,0,0,0],"split_type":[0,0,0,0,0,0,0,0,0,0,0,0,0],"sum_hessian":[6.243149E2,2.9239914E2,3.3191577E2,3.3153034E1,2.592461E2,2.8739594E2,4.4519825E1,2.576709E1,2.3347902E2,8.64822E1,2.0091374E2,2.2004435E1,2.251539E1],"tree_param":{"num_deleted":"0","num_feature":"30","num_nodes":"13","size_leaf_vector":"1"}},{"base_weights":[6.1279606E-2,-6.6719085E-1,1.306882E-1,-6.732321E-2,7.248615E-4,7.097204E-2,8.416355E-2,-1.038759E-2,1.22210635E-2],"categories":[],"categories_nodes":[],"categories_segments":[],"categories_sizes":[],"default_left":[0,0,0,0,0,0,0,0,0],"id":67,"left_children":[1,3,5,-1,-1,-1,7,-1,-1],"loss_changes":[3.1395597E1,1.5264854E1,2.631866E1,0E0,0E0,0E0,1.5273181E1,0E0,0E0],"parents":[2147483647,0,0,1,1,2,2,6,6],"right_children":[2,4,6,-1,-1,-1,8,-1,-1],"split_conditions":[1.906E3,1.62E2,2.645E3,-6.732321E-2,7.248615E-4,7.097204E-2,3.7881E4,-1.038759E-2,1.22210635E-2],"split_indices":[1,29,1,0,0,0,24,0,0],"split_type":[0,0,0,0,0,0,0,0,0],"sum_hessian":[6.1317084E2,5.169653E1,5.614743E2,3.1573914E1,2.0122618E1,2.263336E1,5.3884094E2,1.6543262E2,3.7340833E2],"tree_param":{"num_deleted":"0","num_feature":"30","num_nodes":"9","size_leaf_vector":"1"}},{"base_weights":[-2.7957456E-2,4.3977052E-1,-8.362084E-2,4.5650046E-2,6.828164E-2,-5.45112E-2,-4.523026E-2,-1.7310394E-2,2.3678508E-2,2.1486098E-2,-1.0495901E-2],"categories":[],"categories_nodes":[],"categories_segments":[],"categories_sizes":[],"default_left":[0,0,0,0,0,0,0,0,0,0,0],"id":68,"left_children":[1,3,5,7,-1,-1,9,-1,-1,-1,-1],"loss_changes":[1.60516E1,1.6700485E1,1.662187E1,4.987873E0,0E0,0E0,2.532792E1,0E0,0E0,0E0,0E0],"parents":[2147483647,0,0,1,1,2,2,3,3,6,6],"right_children":[2,4,6,8,-1,-1,10,-1,-1,-1,-1],"split_conditions":[2.74E2,4.5E1,4E0,5E0,6.828164E-2,-5.45112E-2,6.1E1,-1.7310394E-2,2.3678508E-2,2.1486098E-2,-1.0495901E-2],"split_indices":[20,17,17,28,0,0,17,0,0,0,0],"split_type":[0,0,0,0,0,0,0,0,0,0,0],"sum_hessian":[6.086425E2,6.303244E1,5.456101E2,4.0782528E1,2.2249912E1,2.3139091E1,5.22471E2,2.0700535E1,2.0081995E1,1.24247314E2,3.982237E2],"tree_param":{"num_deleted":"0","num_feature":"30","num_nodes":"11","size_leaf_vector":"1"}},{"base_weights":[5.260681E-2,-5.8010256E-1,1.473121E-1,-2.0625086E-3,-7.634294E-2,-6.413651E-2,2.0056468E-1,1.4581643E-2,-1.5430302E-2,3.7666027E-2,4.5772E-3],"categories":[],"categories_nodes":[],"categories_segments":[],"categories_sizes":[],"default_left":[0,0,0,0,0,0,0,0,0,0,0],"id":69,"left_children":[1,3,5,7,-1,-1,9,-1,-1,-1,-1],"loss_changes":[3.706331E1,2.9795725E1,3.4092564E1,2.7981527E0,0E0,0E0,2.6306503E1,0E0,0E0,0E0,0E0],"parents":[2147483647,0,0,1,1,2,2,3,3,6,6],"right_children":[2,4,6,8,-1,-1,10,-1,-1,-1,-1],"split_conditions":[1.316464E6,1.24604E6,3.4E1,3.25E2,-7.634294E-2,-6.413651E-2,1.83E3,1.4581643E-2,-1.5430302E-2,3.7666027E-2,4.5772E-3],"split_indices":[7,7,20,8,0,0,13,0,0,0,0],"split_type":[0,0,0,0,0,0,0,0,0,0,0],"sum_hessian":[6.11779E2,7.815294E1,5.336261E2,4.231188E1,3.5841064E1,2.146057E1,5.121655E2,2.1354948E1,2.095693E1,1.2087456E2,3.9129095E2],"tree_param":{"num_deleted":"0","num_feature":"30","num_nodes":"11","size_leaf_vector":"1"}},{"base_weights":[7.274888E-2,-5.5640054E-1,1.2132871E-1,5.121084E-3,-6.6859804E-2,8.274632E-2,6.834809E-2,-3.9674193E-3,2.1165114E-2],"categories":[],"categories_nodes":[],"categories_segments":[],"categories_sizes":[],"default_left":[0,0,0,0,0,0,0,0,0],"id":70,"left_children":[1,3,5,-1,-1,-1,7,-1,-1],"loss_changes":[1.9527111E1,1.5383933E1,3.7482735E1,0E0,0E0,0E0,2.035622E1,0E0,0E0],"parents":[2147483647,0,0,1,1,2,2,6,6],"right_children":[2,4,6,-1,-1,-1,8,-1,-1],"split_conditions":[1.17E2,1.603044E6,2.45E2,5.121084E-3,-6.6859804E-2,8.274632E-2,1.03E3,-3.9674193E-3,2.1165114E-2],"split_indices":[0,7,0,0,0,0,29,0,0],"split_type":[0,0,0,0,0,0,0,0,0],"sum_hessian":[6.2930255E2,4.343604E1,5.858665E2,2.002481E1,2.3411226E1,2.257622E1,5.632903E2,3.794703E2,1.8381998E2],"tree_param":{"num_deleted":"0","num_feature":"30","num_nodes":"9","size_leaf_vector":"1"}},{"base_weights":[1.18888564E-1,-3.2806796E-1,1.798557E-1,2.1568697E-3,-4.46819E-2,6.4031565E-1,1.11733235E-1,4.5020767E-3,5.7993364E-2,2.0040859E-2,-6.77144E-3],"categories":[],"categories_nodes":[],"categories_segments":[],"categories_sizes":[],"default_left":[0,0,0,0,0,0,0,0,0,0,0],"id":71,"left_children":[1,3,5,-1,-1,7,9,-1,-1,-1,-1],"loss_changes":[1.7382622E1,1.0955086E1,1.736427E1,0E0,0E0,1.1497417E1,2.2654652E1,0E0,0E0,0E0,0E0],"parents":[2147483647,0,0,1,1,2,2,5,5,6,6],"right_children":[2,4,6,-1,-1,8,10,-1,-1,-1,-1],"split_conditions":[-2.4081E4,-5.1944E4,-4.291E3,2.1568697E-3,-4.46819E-2,4.6822E4,6.436E3,4.5020767E-3,5.7993364E-2,2.0040859E-2,-6.77144E-3],"split_indices":[14,14,22,0,0,1,13,0,0,0,0],"split_type":[0,0,0,0,0,0,0,0,0,0,0],"sum_hessian":[6.286833E2,7.416929E1,5.5451404E2,3.90956E1,3.507369E1,6.9078735E1,4.8543527E2,2.4270327E1,4.4808403E1,2.4867567E2,2.367596E2],"tree_param":{"num_deleted":"0","num_feature":"30","num_nodes":"11","size_leaf_vector":"1"}},{"base_weights":[3.2793254E-2,5.1611197E-1,-3.502935E-2,-1.4545202E-3,6.2485553E-2,-3.684495E-1,1.9648713E-1,-1.2857296E-2,-6.094344E-2,4.260968E-2,5.650565E-3],"categories":[],"categories_nodes":[],"categories_segments":[],"categories_sizes":[],"default_left":[0,0,0,0,0,0,0,0,0,0,0],"id":72,"left_children":[1,3,5,-1,-1,7,9,-1,-1,-1,-1],"loss_changes":[2.0003979E1,1.98205E1,4.1261845E1,0E0,0E0,2.1227428E1,1.6115295E1,0E0,0E0,0E0,0E0],"parents":[2147483647,0,0,1,1,2,2,5,5,6,6],"right_children":[2,4,6,-1,-1,8,10,-1,-1,-1,-1],"split_conditions":[2.07E2,3E0,1.861E4,-1.4545202E-3,6.2485553E-2,1.9145E4,6.5E1,-1.2857296E-2,-6.094344E-2,4.260968E-2,5.650565E-3],"split_indices":[19,6,0,0,0,20,29,0,0,0,0],"split_type":[0,0,0,0,0,0,0,0,0,0,0],"sum_hessian":[6.0127057E2,7.2611626E1,5.2865894E2,3.5150276E1,3.7461346E1,2.1639519E2,3.1226376E2,1.7303555E2,4.335964E1,5.3718174E1,2.585456E2],"tree_param":{"num_deleted":"0","num_feature":"30","num_nodes":"11","size_leaf_vector":"1"}},{"base_weights":[8.073137E-2,2.730649E-1,-2.945647E-2,5.5784404E-1,5.0437994E-2,-8.2389414E-1,7.612551E-2,1.690775E-2,8.01796E-2,-6.447389E-2,2.163965E-2,-2.0349257E-2,-7.3156625E-2,3.3757243E-2,-2.0738486E-3],"categories":[],"categories_nodes":[],"categories_segments":[],"categories_sizes":[],"default_left":[0,0,0,0,0,0,0,0,0,0,0,0,0,0,0],"id":73,"left_children":[1,3,5,7,9,11,13,-1,-1,-1,-1,-1,-1,-1,-1],"loss_changes":[1.3250237E1,1.4315985E1,3.363706E1,2.0005688E1,4.2565388E1,7.328146E0,1.8067684E1,0E0,0E0,0E0,0E0,0E0,0E0,0E0,0E0],"parents":[2147483647,0,0,1,1,2,2,3,3,4,4,5,5,6,6],"right_children":[2,4,6,8,10,12,14,-1,-1,-1,-1,-1,-1,-1,-1],"split_conditions":[-9.6E1,2.54E2,7E0,1.7961E6,1.861E4,1.3E1,7.2E1,1.690775E-2,8.01796E-2,-6.447389E-2,2.163965E-2,-2.0349257E-2,-7.3156625E-2,3.3757243E-2,-2.0738486E-3],"split_indices":[28,17,28,7,0,17,12,0,0,0,0,0,0,0,0],"split_type":[0,0,0,0,0,0,0,0,0,0,0,0,0,0,0],"sum_hessian":[6.1835376E2,2.245791E2,3.9377463E2,9.697507E1,1.2760404E2,4.4754726E1,3.490199E2,7.1605965E1,2.5369102E1,2.6251293E1,1.01352745E2,2.0153399E1,2.4601328E1,6.521071E1,2.838092E2],"tree_param":{"num_deleted":"0","num_feature":"30","num_nodes":"15","size_leaf_vector":"1"}},{"base_weights":[8.7167434E-2,-4.2065358E-1,1.7714281E-1,1.1478677E-1,-8.508692E-1,8.1583834E-1,7.746624E-2,-2.9395444E-2,4.4560373E-2,-3.1109735E-2,-6.450865E-2,7.763637E-2,-1.8930908E-3,-1.668824E-2,1.2036578E-2],"categories":[],"categories_nodes":[],"categories_segments":[],"categories_sizes":[],"default_left":[0,0,0,0,0,0,0,0,0,0,0,0,0,0,0],"id":74,"left_children":[1,3,5,7,9,11,13,-1,-1,-1,-1,-1,-1,-1,-1],"loss_changes":[2.8970745E1,2.2308508E1,3.4043922E1,1.6392508E1,2.3739395E0,2.6406338E1,1.8724228E1,0E0,0E0,0E0,0E0,0E0,0E0,0E0,0E0],"parents":[2147483647,0,0,1,1,2,2,3,3,4,4,5,5,6,6],"right_children":[2,4,6,8,10,12,14,-1,-1,-1,-1,-1,-1,-1,-1],"split_conditions":[3.35E2,5.9E1,5.15E2,2.5E1,1.496484E6,2.7E2,5.07E2,-2.9395444E-2,4.4560373E-2,-3.1109735E-2,-6.450865E-2,7.763637E-2,-1.8930908E-3,-1.668824E-2,1.2036578E-2],"split_indices":[5,5,19,5,7,28,6,0,0,0,0,0,0,0,0],"split_type":[0,0,0,0,0,0,0,0,0,0,0,0,0,0,0],"sum_hessian":[6.266697E2,9.301196E1,5.336577E2,4.1953323E1,5.105864E1,6.9947014E1,4.637107E2,2.1320911E1,2.063241E1,2.0199085E1,3.0859554E1,4.5927063E1,2.4019949E1,1.1533263E2,3.4837808E2],"tree_param":{"num_deleted":"0","num_feature":"30","num_nodes":"15","size_leaf_vector":"1"}},{"base_weights":[5.6206465E-2,-1.9497445E-1,1.9381167E-1,-6.377103E-2,-4.2013593E-2,3.4105688E-1,-4.4784866E-2,1.9194636E-2,-2.1111017E-2,-1.100665E-2,3.379706E-2,-4.143536E-2,1.9424902E-2],"categories":[],"categories_nodes":[],"categories_segments":[],"categories_sizes":[],"default_left":[0,0,0,0,0,0,0,0,0,0,0,0,0],"id":75,"left_children":[1,3,5,-1,7,9,11,-1,-1,-1,-1,-1,-1],"loss_changes":[2.1736197E1,2.8029003E1,1.4332614E1,0E0,1.9959402E1,2.6346937E1,3.5044777E1,0E0,0E0,0E0,0E0,0E0,0E0],"parents":[2147483647,0,0,1,1,2,2,4,4,5,5,6,6],"right_children":[2,4,6,-1,8,10,12,-1,-1,-1,-1,-1,-1],"split_conditions":[3.7881E4,-1.467E3,1.22E2,-6.377103E-2,5.15E2,-2.6756E4,1.0745E4,1.9194636E-2,-2.1111017E-2,-1.100665E-2,3.379706E-2,-4.143536E-2,1.9424902E-2],"split_indices":[24,14,22,0,19,14,14,0,0,0,0,0,0],"split_type":[0,0,0,0,0,0,0,0,0,0,0,0,0],"sum_hessian":[6.2227435E2,2.1962454E2,4.026498E2,3.2398952E1,1.8722559E2,2.4879488E2,1.5385493E2,8.5651955E1,1.0157362E2,6.936944E1,1.7942543E2,5.5677223E1,9.817772E1],"tree_param":{"num_deleted":"0","num_feature":"30","num_nodes":"13","size_leaf_vector":"1"}},{"base_weights":[8.239214E-2,6.269407E-1,3.0702358E-2,-6.3234377E-3,8.222817E-2,-5.0804365E-1,8.065814E-2,-5.1951747E-2,-3.965826E-3,1.4092453E-2,-8.429625E-3],"categories":[],"categories_nodes":[],"categories_segments":[],"categories_sizes":[],"default_left":[0,0,0,0,0,0,0,0,0,0,0],"id":76,"left_children":[1,3,5,-1,-1,7,9,-1,-1,-1,-1],"loss_changes":[1.718649E1,2.7048391E1,1.521756E1,0E0,0E0,6.729596E0,1.6226961E1,0E0,0E0,0E0,0E0],"parents":[2147483647,0,0,1,1,2,2,5,5,6,6],"right_children":[2,4,6,-1,-1,8,10,-1,-1,-1,-1],"split_conditions":[6.08E2,7.24E2,5.934E3,-6.3234377E-3,8.222817E-2,3.12E2,8.8945E4,-5.1951747E-2,-3.965826E-3,1.4092453E-2,-8.429625E-3],"split_indices":[24,25,24,0,0,14,24,0,0,0,0],"split_type":[0,0,0,0,0,0,0,0,0,0,0],"sum_hessian":[6.077245E2,5.0560375E1,5.571641E2,2.5342733E1,2.5217642E1,4.5521435E1,5.116427E2,2.5150227E1,2.0371206E1,3.0615063E2,2.0549208E2],"tree_param":{"num_deleted":"0","num_feature":"30","num_nodes":"11","size_leaf_vector":"1"}},{"base_weights":[-2.1841869E-2,3.999548E-2,-5.531813E-2,-5.490723E-2,-8.02849E-3,9.548772E-3,-1.1491943E-2],"categories":[],"categories_nodes":[],"categories_segments":[],"categories_sizes":[],"default_left":[0,0,0,0,0,0,0],"id":77,"left_children":[1,-1,3,-1,5,-1,-1],"loss_changes":[1.3179774E1,0E0,2.193241E1,0E0,1.5233646E1,0E0,0E0],"parents":[2147483647,0,0,2,2,4,4],"right_children":[2,-1,4,-1,6,-1,-1],"split_conditions":[8.15E2,3.999548E-2,1.906E3,-5.490723E-2,3.52E2,9.548772E-3,-1.1491943E-2],"split_indices":[1,0,1,0,17,0,0],"split_type":[0,0,0,0,0,0,0],"sum_hessian":[5.845493E2,2.6196667E1,5.5835266E2,2.8249817E1,5.3010284E2,2.7666367E2,2.5343916E2],"tree_param":{"num_deleted":"0","num_feature":"30","num_nodes":"7","size_leaf_vector":"1"}},{"base_weights":[1.0803469E-2,-3.5959303E-1,7.045891E-2,2.5231206E-1,-6.362669E-2,4.8015468E-2,2.4972748E-2,-3.270148E-2,7.003799E-2,-4.6704393E-2,4.0393635E-3],"categories":[],"categories_nodes":[],"categories_segments":[],"categories_sizes":[],"default_left":[0,0,0,0,0,0,0,0,0,0,0],"id":78,"left_children":[1,3,5,7,-1,-1,9,-1,-1,-1,-1],"loss_changes":[1.3516618E1,3.481243E1,1.6707846E1,3.2081818E1,0E0,0E0,1.5406104E1,0E0,0E0,0E0,0E0],"parents":[2147483647,0,0,1,1,2,2,3,3,6,6],"right_children":[2,4,6,8,-1,-1,10,-1,-1,-1,-1],"split_conditions":[9.2E1,9.8E1,1.38E2,3.1E1,-6.362669E-2,4.8015468E-2,2.12E2,-3.270148E-2,7.003799E-2,-4.6704393E-2,4.0393635E-3],"split_indices":[10,19,10,17,0,0,10,0,0,0,0],"split_type":[0,0,0,0,0,0,0,0,0,0,0],"sum_hessian":[6.0429364E2,8.214746E1,5.2214624E2,4.315924E1,3.8988216E1,2.9807602E1,4.9233862E2,2.314585E1,2.001339E1,2.2187063E1,4.7015155E2],"tree_param":{"num_deleted":"0","num_feature":"30","num_nodes":"11","size_leaf_vector":"1"}},{"base_weights":[2.237907E-2,-2.0581229E-1,1.8036233E-1,-3.0429867E-1,4.7297478E-2,4.0789524E-1,2.5727142E-2,1.1787891E-2,-3.647629E-2,3.689205E-2,-3.6725413E-2,-3.4753203E-2,1.2209515E-2],"categories":[],"categories_nodes":[],"categories_segments":[],"categories_sizes":[],"default_left":[0,0,0,0,0,0,0,0,0,0,0,0,0],"id":79,"left_children":[1,3,5,7,-1,9,11,-1,-1,-1,-1,-1,-1],"loss_changes":[2.2029644E1,2.4224842E1,1.2647941E1,3.1783905E1,0E0,2.7381638E1,2.1802692E1,0E0,0E0,0E0,0E0,0E0,0E0],"parents":[2147483647,0,0,1,1,2,2,3,3,5,5,6,6],"right_children":[2,4,6,8,-1,10,12,-1,-1,-1,-1,-1,-1],"split_conditions":[2E0,2.2857E6,3.85E3,9.7E2,4.7297478E-2,3.0483987E3,1.0424E4,1.1787891E-2,-3.647629E-2,3.689205E-2,-3.6725413E-2,-3.4753203E-2,1.2209515E-2],"split_indices":[4,7,6,13,0,15,6,0,0,0,0,0,0],"split_type":[0,0,0,0,0,0,0,0,0,0,0,0,0],"sum_hessian":[6.045735E2,2.4675409E2,3.5781937E2,2.2522444E2,2.1529646E1,1.4313647E2,2.1468289E2,8.1664925E1,1.4355952E2,1.21689835E2,2.1446646E1,4.7286057E1,1.6739684E2],"tree_param":{"num_deleted":"0","num_feature":"30","num_nodes":"13","size_leaf_vector":"1"}},{"base_weights":[2.9197576E-2,9.770846E-2,-5.2387655E-1,-2.7036443E-1,2.2809918E-1,-7.751435E-2,-1.2115401E-1,-3.2169785E-2,3.3720843E-2,4.069259E-2,5.344998E-3,3.2297984E-2,-5.2360147E-2],"categories":[],"categories_nodes":[],"categories_segments":[],"categories_sizes":[],"default_left":[0,0,0,0,0,0,0,0,0,0,0,0,0],"id":80,"left_children":[1,3,5,7,9,-1,11,-1,-1,-1,-1,-1,-1],"loss_changes":[2.303804E1,2.6049316E1,1.8988077E1,2.8853535E1,2.400642E1,0E0,2.182178E1,0E0,0E0,0E0,0E0,0E0,0E0],"parents":[2147483647,0,0,1,1,2,2,3,3,4,4,6,6],"right_children":[2,4,6,8,10,-1,12,-1,-1,-1,-1,-1,-1],"split_conditions":[1.940664E6,1.389072E6,2.122916E6,1.8742E4,5.15E2,-7.751435E-2,2.345472E6,-3.2169785E-2,3.3720843E-2,4.069259E-2,5.344998E-3,3.2297984E-2,-5.2360147E-2],"split_indices":[7,7,7,28,19,0,7,0,0,0,0,0,0],"split_type":[0,0,0,0,0,0,0,0,0,0,0,0,0],"sum_hessian":[6.007876E2,5.3622546E2,6.456215E1,1.3945645E2,3.9676898E2,2.1599123E1,4.2963024E1,1.07755775E2,3.1700676E1,9.7784096E1,2.989849E2,2.2933517E1,2.0029507E1],"tree_param":{"num_deleted":"0","num_feature":"30","num_nodes":"13","size_leaf_vector":"1"}},{"base_weights":[6.4727506E-3,-2.1087717E-1,2.3491627E-1,-4.3235475E-1,1.8228197E-2,5.464227E-1,-9.2626065E-3,2.7705785E-3,-4.8453666E-2,1.1837182E-2,-5.3742778E-2,6.3099384E-2,9.943329E-3,-4.7708765E-2,1.2052302E-2],"categories":[],"categories_nodes":[],"categories_segments":[],"categories_sizes":[],"default_left":[0,0,0,0,0,0,0,0,0,0,0,0,0,0,0],"id":81,"left_children":[1,3,5,7,9,11,13,-1,-1,-1,-1,-1,-1,-1,-1],"loss_changes":[2.9751396E1,1.5636774E1,2.2315458E1,2.5808018E1,2.3392813E1,2.275887E1,2.582567E1,0E0,0E0,0E0,0E0,0E0,0E0,0E0,0E0],"parents":[2147483647,0,0,1,1,2,2,3,3,4,4,5,5,6,6],"right_children":[2,4,6,8,10,12,14,-1,-1,-1,-1,-1,-1,-1,-1],"split_conditions":[1.997E3,3.9289E4,-1.2E1,2.71E2,2.1287E4,9.499E3,1.967E3,2.7705785E-3,-4.8453666E-2,1.1837182E-2,-5.3742778E-2,6.3099384E-2,9.943329E-3,-4.7708765E-2,1.2052302E-2],"split_indices":[10,24,22,19,12,19,4,0,0,0,0,0,0,0,0],"split_type":[0,0,0,0,0,0,0,0,0,0,0,0,0,0,0],"sum_hessian":[5.9291956E2,3.0362912E2,2.8929047E2,1.5377412E2,1.4985498E2,1.26271935E2,1.6301854E2,6.5023636E1,8.8750496E1,1.26827225E2,2.3027752E1,5.5786236E1,7.04857E1,3.3424046E1,1.295945E2],"tree_param":{"num_deleted":"0","num_feature":"30","num_nodes":"15","size_leaf_vector":"1"}},{"base_weights":[1.1158911E-1,2.4107046E-1,-8.478557E-2,-4.8038263E-2,3.051869E-1,-9.5566934E-1,1.0753642E-1,-7.2389883E-3,2.8220255E-2,-3.1372603E-2,-7.972453E-2,4.510042E-2,-8.796752E-3],"categories":[],"categories_nodes":[],"categories_segments":[],"categories_sizes":[],"default_left":[0,0,0,0,0,0,0,0,0,0,0,0,0],"id":82,"left_children":[1,3,5,-1,7,9,11,-1,-1,-1,-1,-1,-1],"loss_changes":[1.5736742E1,2.4673302E1,4.163013E1,0E0,2.191803E1,5.223076E0,3.1423048E1,0E0,0E0,0E0,0E0,0E0,0E0],"parents":[2147483647,0,0,1,1,2,2,4,4,5,5,6,6],"right_children":[2,4,6,-1,8,10,12,-1,-1,-1,-1,-1,-1],"split_conditions":[3.8E2,-2.2888E4,5.7296E4,-4.8038263E-2,2.1E1,2.18E2,8.5196E4,-7.2389883E-3,2.8220255E-2,-3.1372603E-2,-7.972453E-2,4.510042E-2,-8.796752E-3],"split_indices":[17,14,24,0,17,29,24,0,0,0,0,0,0],"split_type":[0,0,0,0,0,0,0,0,0,0,0,0,0],"sum_hessian":[6.1239484E2,3.691749E2,2.4321992E2,2.0601192E1,3.485737E2,4.269348E1,2.0052644E2,9.006687E1,2.5850684E2,2.0005327E1,2.2688154E1,5.6757866E1,1.4376857E2],"tree_param":{"num_deleted":"0","num_feature":"30","num_nodes":"13","size_leaf_vector":"1"}},{"base_weights":[5.150888E-2,1.05619475E-1,-3.2915968E-1,-6.2768824E-2,2.3947832E-1,1.5154459E-1,-7.729516E-2,1.862187E-2,-4.4321217E-2,2.624509E-2,-4.67447E-3,-1.7759789E-2,2.8093634E-2],"categories":[],"categories_nodes":[],"categories_segments":[],"categories_sizes":[],"default_left":[0,0,0,0,0,0,0,0,0,0,0,0,0],"id":83,"left_children":[1,3,5,7,9,11,-1,-1,-1,-1,-1,-1,-1],"loss_changes":[1.2779769E1,1.225477E1,3.42528E1,5.6810913E1,1.7316452E1,7.1649656E0,0E0,0E0,0E0,0E0,0E0,0E0,0E0],"parents":[2147483647,0,0,1,1,2,2,3,3,4,4,5,5],"right_children":[2,4,6,8,10,12,-1,-1,-1,-1,-1,-1,-1],"split_conditions":[4.4994E4,3.9289E4,1.56926E6,9.1E1,4.5091E4,1.882E3,-7.729516E-2,1.862187E-2,-4.4321217E-2,2.624509E-2,-4.67447E-3,-1.7759789E-2,2.8093634E-2],"split_indices":[0,24,7,17,13,25,0,0,0,0,0,0,0],"split_type":[0,0,0,0,0,0,0,0,0,0,0,0,0],"sum_hessian":[6.1174396E2,5.3715576E2,7.458822E1,2.3793874E2,2.99217E2,4.9783085E1,2.4805136E1,1.5329475E2,8.464398E1,1.8970029E2,1.0951671E2,2.0097326E1,2.9685759E1],"tree_param":{"num_deleted":"0","num_feature":"30","num_nodes":"13","size_leaf_vector":"1"}},{"base_weights":[4.948836E-2,-4.217081E-1,1.254581E-1,3.9316487E-2,-7.569985E-2,5.852755E-1,-2.3117442E-2,4.3944284E-2,-3.6496826E-2,6.671658E-2,2.2731248E-2,-4.675049E-2,3.1906678E-3],"categories":[],"categories_nodes":[],"categories_segments":[],"categories_sizes":[],"default_left":[0,0,0,0,0,0,0,0,0,0,0,0,0],"id":84,"left_children":[1,3,5,7,-1,9,11,-1,-1,-1,-1,-1,-1],"loss_changes":[2.143354E1,3.0588644E1,3.5249405E1,2.3559921E1,0E0,1.2681496E1,2.1341112E1,0E0,0E0,0E0,0E0,0E0,0E0],"parents":[2147483647,0,0,1,1,2,2,3,3,5,5,6,6],"right_children":[2,4,6,8,-1,10,12,-1,-1,-1,-1,-1,-1],"split_conditions":[3.13E2,1.4E1,1.234E3,-2.3E1,-7.569985E-2,4.9E1,2.46E2,4.3944284E-2,-3.6496826E-2,6.671658E-2,2.2731248E-2,-4.675049E-2,3.1906678E-3],"split_indices":[5,12,5,14,0,29,6,0,0,0,0,0,0],"split_type":[0,0,0,0,0,0,0,0,0,0,0,0,0],"sum_hessian":[5.9135767E2,8.062053E1,5.1073712E2,5.202815E1,2.8592382E1,1.2351481E2,3.872223E2,2.5168615E1,2.6859531E1,3.61727E1,8.734211E1,3.441412E1,3.528082E2],"tree_param":{"num_deleted":"0","num_feature":"30","num_nodes":"13","size_leaf_vector":"1"}},{"base_weights":[2.447518E-2,-8.628233E-2,2.3353852E-1,-0E0,-4.6151257E-1,5.0938743E-1,6.1189264E-2,-6.596265E-3,2.912095E-2,-6.4929985E-2,-1.1170125E-2,1.451179E-2,6.333839E-2,2.5033891E-2,-1.3025796E-2],"categories":[],"categories_nodes":[],"categories_segments":[],"categories_sizes":[],"default_left":[0,0,0,0,0,0,0,0,0,0,0,0,0,0,0],"id":85,"left_children":[1,3,5,7,9,11,13,-1,-1,-1,-1,-1,-1,-1,-1],"loss_changes":[1.37627325E1,1.2631027E1,9.686411E0,1.5836058E1,1.149993E1,1.0504032E1,1.21261635E1,0E0,0E0,0E0,0E0,0E0,0E0,0E0,0E0],"parents":[2147483647,0,0,1,1,2,2,3,3,4,4,5,5,6,6],"right_children":[2,4,6,8,10,12,14,-1,-1,-1,-1,-1,-1,-1,-1],"split_conditions":[2.5728795E4,4.1102E4,2.5513E4,5.229467E3,5.3739E4,1.4900994E4,9.374E3,-6.596265E-3,2.912095E-2,-6.4929985E-2,-1.1170125E-2,1.451179E-2,6.333839E-2,2.5033891E-2,-1.3025796E-2],"split_indices":[9,20,12,16,20,16,11,0,0,0,0,0,0,0,0],"split_type":[0,0,0,0,0,0,0,0,0,0,0,0,0,0,0],"sum_hessian":[5.865952E2,3.838124E2,2.027828E2,3.1345612E2,7.035628E1,7.620344E1,1.2657936E2,2.5664606E2,5.6810066E1,2.1184456E1,4.9171818E1,5.126915E1,2.493429E1,5.580463E1,7.0774734E1],"tree_param":{"num_deleted":"0","num_feature":"30","num_nodes":"15","size_leaf_vector":"1"}},{"base_weights":[5.1177252E-2,-4.0244195E-1,1.2851337E-1,1.1400226E-2,-5.5980716E-2,6.716947E-1,4.745304E-2,7.692642E-2,2.3033228E-2,-1.8271668E-2,1.6522525E-2],"categories":[],"categories_nodes":[],"categories_segments":[],"categories_sizes":[],"default_left":[0,0,0,0,0,0,0,0,0,0,0],"id":86,"left_children":[1,3,5,-1,-1,7,9,-1,-1,-1,-1],"loss_changes":[2.1164022E1,2.5857552E1,2.2562855E1,0E0,0E0,1.0369213E1,3.3424088E1,0E0,0E0,0E0,0E0],"parents":[2147483647,0,0,1,1,2,2,5,5,6,6],"right_children":[2,4,6,-1,-1,8,10,-1,-1,-1,-1],"split_conditions":[3.35E2,5.9E1,1.561E3,1.1400226E-2,-5.5980716E-2,4E0,1.166E3,7.692642E-2,2.3033228E-2,-1.8271668E-2,1.6522525E-2],"split_indices":[5,5,13,0,0,28,4,0,0,0,0],"split_type":[0,0,0,0,0,0,0,0,0,0,0],"sum_hessian":[5.9589294E2,8.5341385E1,5.1055157E2,3.9546158E1,4.5795223E1,6.421855E1,4.46333E2,2.0223392E1,4.3995155E1,1.7346158E2,2.7287146E2],"tree_param":{"num_deleted":"0","num_feature":"30","num_nodes":"11","size_leaf_vector":"1"}},{"base_weights":[7.647633E-2,3.4491575E-1,-1.2521214E-2,3.7332542E-2,9.889623E-1,4.3650374E-1,-9.138788E-2,3.5717208E-2,-2.603793E-2,8.743025E-2,2.5780786E-2,-1.5012013E-2,4.7758974E-2,-4.9914915E-2,4.499407E-4],"categories":[],"categories_nodes":[],"categories_segments":[],"categories_sizes":[],"default_left":[0,0,0,0,0,0,0,0,0,0,0,0,0,0,0],"id":87,"left_children":[1,3,5,7,9,11,13,-1,-1,-1,-1,-1,-1,-1,-1],"loss_changes":[1.4198067E1,2.9114237E1,1.5890782E1,2.5481884E1,1.0063801E1,1.5365214E1,2.6807457E1,0E0,0E0,0E0,0E0,0E0,0E0,0E0,0E0],"parents":[2147483647,0,0,1,1,2,2,3,3,4,4,5,5,6,6],"right_children":[2,4,6,8,10,12,14,-1,-1,-1,-1,-1,-1,-1,-1],"split_conditions":[5.98E2,1.19E2,4.9E1,-6E0,1.4E1,1.36E2,1.39E2,3.5717208E-2,-2.603793E-2,8.743025E-2,2.5780786E-2,-1.5012013E-2,4.7758974E-2,-4.9914915E-2,4.499407E-4],"split_indices":[19,29,29,22,28,17,29,0,0,0,0,0,0,0,0],"split_type":[0,0,0,0,0,0,0,0,0,0,0,0,0,0,0],"sum_hessian":[5.871843E2,1.4514047E2,4.4204382E2,9.9781006E1,4.535947E1,6.445735E1,3.775865E2,4.572849E1,5.4052513E1,2.4658728E1,2.0700745E1,2.1115622E1,4.334173E1,4.4568325E1,3.3301816E2],"tree_param":{"num_deleted":"0","num_feature":"30","num_nodes":"15","size_leaf_vector":"1"}},{"base_weights":[-3.841006E-2,-4.7675362E-1,3.4026578E-2,1.3341187E-1,-1.0497559E0,6.1766095E-2,-1.763993E-2,-2.7863884E-2,4.385178E-2,-4.0852E-2,-8.267733E-2,-4.2027645E-3,3.8954645E-2],"categories":[],"categories_nodes":[],"categories_segments":[],"categories_sizes":[],"default_left":[0,0,0,0,0,0,0,0,0,0,0,0,0],"id":88,"left_children":[1,3,5,7,9,-1,11,-1,-1,-1,-1,-1,-1],"loss_changes":[1.8992706E1,3.0039474E1,2.5553242E1,1.4930643E1,3.0261536E0,0E0,1.5655256E1,0E0,0E0,0E0,0E0,0E0,0E0],"parents":[2147483647,0,0,1,1,2,2,3,3,4,4,6,6],"right_children":[2,4,6,8,10,-1,12,-1,-1,-1,-1,-1,-1],"split_conditions":[3.35E2,5.5E1,4.16E2,2.5E1,1.179E3,6.1766095E-2,1.0595145E-2,-2.7863884E-2,4.385178E-2,-4.0852E-2,-8.267733E-2,-4.2027645E-3,3.8954645E-2],"split_indices":[5,5,5,5,0,0,3,0,0,0,0,0,0],"split_type":[0,0,0,0,0,0,0,0,0,0,0,0,0],"sum_hessian":[5.895878E2,8.2294495E1,5.0729337E2,4.048299E1,4.1811504E1,2.4300846E1,4.8299252E2,2.015467E1,2.032832E1,2.009625E1,2.1715256E1,4.5010815E2,3.2884357E1],"tree_param":{"num_deleted":"0","num_feature":"30","num_nodes":"13","size_leaf_vector":"1"}},{"base_weights":[6.951074E-2,2.7103564E-2,4.529272E-2,4.9940273E-1,-3.7159193E-2,6.132923E-3,6.4982936E-2,-4.892176E-3,4.2869274E-2],"categories":[],"categories_nodes":[],"categories_segments":[],"categories_sizes":[],"default_left":[0,0,0,0,0,0,0,0,0],"id":89,"left_children":[1,3,-1,5,7,-1,-1,-1,-1],"loss_changes":[1.7029621E1,1.7699017E1,0E0,1.4883413E1,1.5391366E1,0E0,0E0,0E0,0E0],"parents":[2147483647,0,0,1,1,3,3,4,4],"right_children":[2,4,-1,6,8,-1,-1,-1,-1],"split_conditions":[1.0595145E-2,2.74E2,4.529272E-2,3.0852917E2,1.66269E5,6.132923E-3,6.4982936E-2,-4.892176E-3,4.2869274E-2],"split_indices":[3,20,0,16,20,0,0,0,0],"split_type":[0,0,0,0,0,0,0,0,0],"sum_hessian":[6.0853973E2,5.73722E2,3.4817745E1,6.7344574E1,5.063774E2,4.017714E1,2.7167435E1,4.809345E2,2.5442904E1],"tree_param":{"num_deleted":"0","num_feature":"30","num_nodes":"9","size_leaf_vector":"1"}},{"base_weights":[1.927364E-2,2.7574354E-1,-1.0856426E-1,7.172292E-3,8.8271356E-1,-9.446126E-1,8.124547E-3,-1.1462274E-2,4.1139625E-2,9.469713E-2,3.0410556E-2,-7.946027E-2,-3.650837E-2,1.2593111E-2,-1.577054E-2],"categories":[],"categories_nodes":[],"categories_segments":[],"categories_sizes":[],"default_left":[0,0,0,0,0,0,0,0,0,0,0,0,0,0,0],"id":90,"left_children":[1,3,5,7,9,11,13,-1,-1,-1,-1,-1,-1,-1,-1],"loss_changes":[1.9845575E1,3.2711323E1,3.951939E1,1.807401E1,1.3958603E1,4.3497696E0,1.8097301E1,0E0,0E0,0E0,0E0,0E0,0E0,0E0,0E0],"parents":[2147483647,0,0,1,1,2,2,3,3,4,4,5,5,6,6],"right_children":[2,4,6,8,10,12,14,-1,-1,-1,-1,-1,-1,-1,-1],