{"learner":{"attributes":{"best_iteration":"50","best_score":"1.818897104594583","scikit_learn":"{\"_estimator_type\": \"regressor\"}"},"feature_names":["some_delta","full_delta","mem_available","pgscan_direct","pgsteal_direct","pgmajfault","workingset_refault","allocstall","pswpin","pswpout","some_sum_2","pgscan_sum_2","pgmaj_sum_2","some_max_2","some_min_2","some_sum_6","pgscan_sum_6","pgmaj_sum_6","some_max_6","some_min_6","some_sum_10","pgscan_sum_10","pgmaj_sum_10","some_max_10","some_min_10","diff_some","diff_pgscan","mem_drop","some_std_6","pgscan_std_6","some_lag_1","pgscan_lag_1","some_lag_2","pgscan_lag_2","some_lag_3","pgscan_lag_3","some_lag_4","pgscan_lag_4","some_ewm_6","pgscan_ewm_6","pgscan_per_mem","alloc_per_mem","swap_ratio"],"feature_types":["int","int","int","int","int","int","int","int","int","int","float","float","float","float","float","float","float","float","float","float","float","float","float","float","float","float","float","float","float","float","float","float","float","float","float","float","float","float","float","float","float","float","float"],"gradient_booster":{"model":{"cats":{"enc":[],"feature_segments":[],"sorted_idx":[]},"gbtree_model_param":{"num_parallel_tree":"1","num_trees":"101"},"iteration_indptr":[0,1,2,3,4,5,6,7,8,9,10,11,12,13,14,15,16,17,18,19,20,21,22,23,24,25,26,27,28,29,30,31,32,33,34,35,36,37,38,39,40,41,42,43,44,45,46,47,48,49,50,51,52,53,54,55,56,57,58,59,60,61,62,63,64,65,66,67,68,69,70,71,72,73,74,75,76,77,78,79,80,81,82,83,84,85,86,87,88,89,90,91,92,93,94,95,96,97,98,99,100,101],"tree_info":[0,0,0,0,0,0,0,0,0,0,0,0,0,0,0,0,0,0,0,0,0,0,0,0,0,0,0,0,0,0,0,0,0,0,0,0,0,0,0,0,0,0,0,0,0,0,0,0,0,0,0,0,0,0,0,0,0,0,0,0,0,0,0,0,0,0,0,0,0,0,0,0,0,0,0,0,0,0,0,0,0,0,0,0,0,0,0,0,0,0,0,0,0,0,0,0,0,0,0,0,0],"trees":[{"base_weights":[7.778196E0,6.7088375E0,9.476089E0,5.8367343E0,7.5853357E0,8.897578E0,1.0471818E1,5.52544E0,6.50361E0,6.6835694E0,7.8133945E0,9.356973E0,8.350648E0,9.426761E0,1.0892477E1,3.7465018E-1,2.7243218E-1,3.749523E-1,3.1714362E-1,3.1789076E-1,3.8737747E-1,3.8127455E-1,4.24405E-1,4.454701E-1,4.8363376E-1,3.438259E-1,4.3686554E-1,1.7787494E-1,4.7628722E-1,5.1679367E-1,5.5686945E-1],"categories":[],"categories_nodes":[],"categories_segments":[],"categories_sizes":[],"default_left":[0,0,0,0,0,0,0,0,0,0,0,0,0,0,0,0,0,0,0,0,0,0,0,0,0,0,0,0,0,0,0],"id":0,"left_children":[1,3,5,7,9,11,13,15,17,19,21,23,25,27,29,-1,-1,-1,-1,-1,-1,-1,-1,-1,-1,-1,-1,-1,-1,-1,-1],"loss_changes":[2.4900062E4,6.4059062E3,2.9642188E3,8.420156E2,8.1134375E2,7.658125E2,7.5078125E2,3.9517188E2,1.6577734E2,2.4601562E2,3.585E2,1.6928125E2,8.195625E2,2.936328E2,7.0984375E1,0E0,0E0,0E0,0E0,0E0,0E0,0E0,0E0,0E0,0E0,0E0,0E0,0E0,0E0,0E0,0E0],"parents":[2147483647,0,0,1,1,2,2,3,3,4,4,5,5,6,6,7,7,8,8,9,9,10,10,11,11,12,12,13,13,14,14],"right_children":[2,4,6,8,10,12,14,16,18,20,22,24,26,28,30,-1,-1,-1,-1,-1,-1,-1,-1,-1,-1,-1,-1,-1,-1,-1,-1],"split_conditions":[2E0,2.136929E3,2.9596E4,4.4E2,1.86E2,-5.6E2,7.0633525E-3,-5.7092E4,5.13E2,4.061542E-5,9.7332947E2,7.315325E3,2.332E3,1E1,1.3058E4,3.7465018E-1,2.7243218E-1,3.749523E-1,3.1714362E-1,3.1789076E-1,3.8737747E-1,3.8127455E-1,4.24405E-1,4.454701E-1,4.8363376E-1,3.438259E-1,4.3686554E-1,1.7787494E-1,4.7628722E-1,5.1679367E-1,5.5686945E-1],"split_indices":[9,38,0,36,0,27,42,27,17,42,39,28,10,34,9,0,0,0,0,0,0,0,0,0,0,0,0,0,0,0,0],"split_type":[0,0,0,0,0,0,0,0,0,0,0,0,0,0,0,0,0,0,0,0,0,0,0,0,0,0,0,0,0,0,0],"sum_hessian":[1.3749E4,8.439E3,5.31E3,4.234E3,4.205E3,3.365E3,1.945E3,2.893E3,1.341E3,8.55E2,3.35E3,1.82E3,1.545E3,5.65E2,1.38E3,1.05E2,2.788E3,1.8E2,1.161E3,6.6E2,1.95E2,2.63E3,7.2E2,7.65E2,1.055E3,3.25E2,1.22E3,1E1,5.55E2,4.35E2,9.45E2],"tree_param":{"num_deleted":"0","num_feature":"43","num_nodes":"31","size_leaf_vector":"1"}},{"base_weights":[7.399976E0,6.389296E0,8.996619E0,5.6494694E0,7.212574E0,8.538792E0,1.0531962E1,5.307418E0,6.3683796E0,6.430162E0,7.5250545E0,7.113112E0,8.792103E0,5.3142136E-1,9.365574E0,2.550067E-1,3.225083E-1,3.0344185E-1,3.4603688E-1,2.366401E-1,3.2770866E-1,3.6034706E-1,4.0095338E-1,4.3405205E-1,3.3297542E-1,4.1384465E-1,4.5224282E-1,3.2246E-1,4.899045E-1],"categories":[],"categories_nodes":[],"categories_segments":[],"categories_sizes":[],"default_left":[0,0,0,0,0,0,0,0,0,0,0,0,0,0,0,0,0,0,0,0,0,0,0,0,0,0,0,0,0],"id":1,"left_children":[1,3,5,7,9,11,13,15,17,19,21,23,25,-1,27,-1,-1,-1,-1,-1,-1,-1,-1,-1,-1,-1,-1,-1,-1],"loss_changes":[2.1977625E4,5.0535938E3,3.6272812E3,1.0497188E3,9.1740625E2,1.4097188E3,3.471875E1,6.753828E2,1.9114844E2,2.0697266E2,3.8401562E2,3.8232227E2,3.7409375E2,0E0,6.258496E1,0E0,0E0,0E0,0E0,0E0,0E0,0E0,0E0,0E0,0E0,0E0,0E0,0E0,0E0],"parents":[2147483647,0,0,1,1,2,2,3,3,4,4,5,5,6,6,7,7,8,8,9,9,10,10,11,11,12,12,14,14],"right_children":[2,4,6,8,10,12,14,16,18,20,22,24,26,-1,28,-1,-1,-1,-1,-1,-1,-1,-1,-1,-1,-1,-1,-1,-1],"split_conditions":[2E0,5.242E3,4E0,4.4E2,3.49E2,2.446E3,1.14872E5,5.8812094E0,8.13E2,1.2502618E-6,1.5198E4,1.452504E6,2.2241E4,5.3142136E-1,7.84E2,2.550067E-1,3.225083E-1,3.0344185E-1,3.4603688E-1,2.366401E-1,3.2770866E-1,3.6034706E-1,4.0095338E-1,4.3405205E-1,3.3297542E-1,4.1384465E-1,4.5224282E-1,3.2246E-1,4.899045E-1],"split_indices":[9,18,7,36,0,10,27,39,13,42,22,2,18,0,5,0,0,0,0,0,0,0,0,0,0,0,0,0,0],"split_type":[0,0,0,0,0,0,0,0,0,0,0,0,0,0,0,0,0,0,0,0,0,0,0,0,0,0,0,0,0],"sum_hessian":[1.3655E4,8.365E3,5.29E3,4.41E3,3.955E3,4.08E3,1.21E3,2.994E3,1.416E3,1.135E3,2.82E3,6.2E2,3.46E3,1.11E3,1E2,2.539E3,4.55E2,9.26E2,4.9E2,8E1,1.055E3,1.725E3,1.095E3,1.35E2,4.85E2,1.15E3,2.31E3,1.5E1,8.5E1],"tree_param":{"num_deleted":"0","num_feature":"43","num_nodes":"29","size_leaf_vector":"1"}},{"base_weights":[7.0020127E0,6.018127E0,8.544299E0,5.157417E0,6.8300138E0,8.124135E0,9.9236355E0,4.9134955E0,5.7420225E0,5.882617E0,7.1497335E0,7.8792796E0,9.141759E0,9.5750475E0,5.143787E-1,2.2880688E-1,2.6665285E-1,2.8933236E-1,1.482445E-1,2.0570688E-1,3.027972E-1,3.4468886E-1,3.808835E-1,3.3005443E-1,4.0198538E-1,3.9153084E-1,4.6290275E-1,4.890082E-1,4.4152108E-1],"categories":[],"categories_nodes":[],"categories_segments":[],"categories_sizes":[],"default_left":[0,0,0,0,0,0,0,0,0,0,0,0,0,0,0,0,0,0,0,0,0,0,0,0,0,0,0,0,0],"id":2,"left_children":[1,3,5,7,9,11,13,15,17,19,21,23,25,27,-1,-1,-1,-1,-1,-1,-1,-1,-1,-1,-1,-1,-1,-1,-1],"loss_changes":[2.0823938E4,5.8355938E3,3.021625E3,5.529531E2,1.2654688E3,9.50625E2,5.7585938E1,3.83375E2,1.301836E2,3.1001562E2,3.3242188E2,6.2646875E2,4.640625E1,1.1207031E1,0E0,0E0,0E0,0E0,0E0,0E0,0E0,0E0,0E0,0E0,0E0,0E0,0E0,0E0,0E0],"parents":[2147483647,0,0,1,1,2,2,3,3,4,4,5,5,6,6,7,7,8,8,9,9,10,10,11,11,12,12,13,13],"right_children":[2,4,6,8,10,12,14,16,18,20,22,24,26,28,-1,-1,-1,-1,-1,-1,-1,-1,-1,-1,-1,-1,-1,-1,-1],"split_conditions":[2E0,1.7410747E3,1.7570153E-6,4.4E2,5E0,2.37178E5,1.262158E-2,5.6E1,1.917E3,4E0,1.5198E4,7E0,1.4494E4,2.3328E4,5.143787E-1,2.2880688E-1,2.6665285E-1,2.8933236E-1,1.482445E-1,2.0570688E-1,3.027972E-1,3.4468886E-1,3.808835E-1,3.3005443E-1,4.0198538E-1,3.9153084E-1,4.6290275E-1,4.890082E-1,4.4152108E-1],"split_indices":[9,38,41,36,1,15,42,8,12,19,22,1,13,27,0,0,0,0,0,0,0,0,0,0,0,0,0,0,0],"split_type":[0,0,0,0,0,0,0,0,0,0,0,0,0,0,0,0,0,0,0,0,0,0,0,0,0,0,0,0,0],"sum_hessian":[1.3757E4,8.402E3,5.355E3,4.082E3,4.32E3,4.11E3,1.245E3,2.887E3,1.195E3,1.095E3,3.225E3,3.32E3,7.9E2,6.5E2,5.95E2,1.607E3,1.28E3,1.175E3,2E1,1E2,9.95E2,2.095E3,1.13E3,3.75E2,2.945E3,7E1,7.2E2,5E2,1.5E2],"tree_param":{"num_deleted":"0","num_feature":"43","num_nodes":"29","size_leaf_vector":"1"}},{"base_weights":[6.6580806E0,5.770933E0,8.0863085E0,4.9822745E0,6.498344E0,7.697374E0,9.437396E0,4.517904E0,5.322251E0,5.825348E0,6.835567E0,6.4899545E0,7.904096E0,9.089521E0,4.8569813E-1,2.1918733E-1,2.7790076E-1,1.3310991E-1,2.680437E-1,2.656783E-1,3.1530052E-1,3.2850063E-1,3.6790347E-1,3.6752078E-1,2.7264675E-1,3.8734767E-1,4.4087258E-1,4.625887E-1,3.673632E-1],"categories":[],"categories_nodes":[],"categories_segments":[],"categories_sizes":[],"default_left":[0,0,0,0,0,0,0,0,0,0,0,0,0,0,0,0,0,0,0,0,0,0,0,0,0,0,0,0,0],"id":3,"left_children":[1,3,5,7,9,11,13,15,17,19,21,23,25,27,-1,-1,-1,-1,-1,-1,-1,-1,-1,-1,-1,-1,-1,-1,-1],"loss_changes":[1.7572812E4,4.8897812E3,2.724375E3,6.257344E2,9.7134375E2,9.8084375E2,2.39375E1,2.186914E2,2.2882812E2,3.3333984E2,3.618125E2,5.038418E2,4.368125E2,8.330078E1,0E0,0E0,0E0,0E0,0E0,0E0,0E0,0E0,0E0,0E0,0E0,0E0,0E0,0E0,0E0],"parents":[2147483647,0,0,1,1,2,2,3,3,4,4,5,5,6,6,7,7,8,8,9,9,10,10,11,11,12,12,13,13],"right_children":[2,4,6,8,10,12,14,16,18,20,22,24,26,28,-1,-1,-1,-1,-1,-1,-1,-1,-1,-1,-1,-1,-1,-1,-1],"split_conditions":[2E0,1.7410747E3,2.1865676E-6,9.3E1,2.1E1,2.38E3,1.3523E4,5.3E1,1.309776E6,5.6E1,1.3589783E4,4.557E3,4.730236E4,1.33495E5,4.8569813E-1,2.1918733E-1,2.7790076E-1,1.3310991E-1,2.680437E-1,2.656783E-1,3.1530052E-1,3.2850063E-1,3.6790347E-1,3.6752078E-1,2.7264675E-1,3.8734767E-1,4.4087258E-1,4.625887E-1,3.673632E-1],"split_indices":[9,38,41,36,1,10,9,1,2,8,38,9,38,13,0,0,0,0,0,0,0,0,0,0,0,0,0,0,0],"split_type":[0,0,0,0,0,0,0,0,0,0,0,0,0,0,0,0,0,0,0,0,0,0,0,0,0,0,0,0,0],"sum_hessian":[1.3906E4,8.581E3,5.325E3,4.121E3,4.46E3,4.14E3,1.185E3,1.748E3,2.373E3,1.495E3,2.965E3,6.1E2,3.53E3,5.4E2,6.45E2,1.553E3,1.95E2,3.5E1,2.338E3,7.3E2,7.65E2,1.975E3,9.9E2,3.3E2,2.8E2,3.02E3,5.1E2,4.9E2,5E1],"tree_param":{"num_deleted":"0","num_feature":"43","num_nodes":"29","size_leaf_vector":"1"}},{"base_weights":[6.2903914E0,5.404762E0,7.704584E0,4.655713E0,6.0367303E0,7.3149605E0,8.997255E0,4.3994164E0,5.3868237E0,5.4586535E0,6.3588123E0,6.791253E0,7.6745124E0,9.062101E0,3.8618192E-1,2.602313E-1,2.148226E-1,2.4711917E-1,2.999848E-1,2.4900861E-1,2.9221934E-1,3.0516455E-1,3.4838542E-1,3.665306E-1,3.1266603E-1,3.621975E-1,4.0098295E-1,4.4404468E-1,4.7433087E-1],"categories":[],"categories_nodes":[],"categories_segments":[],"categories_sizes":[],"default_left":[0,0,0,0,0,0,0,0,0,0,0,0,0,0,0,0,0,0,0,0,0,0,0,0,0,0,0,0,0],"id":4,"left_children":[1,3,5,7,9,11,13,15,17,19,21,23,25,27,-1,-1,-1,-1,-1,-1,-1,-1,-1,-1,-1,-1,-1,-1,-1],"loss_changes":[1.717325E4,3.9736719E3,2.5973438E3,7.012422E2,8.174219E2,7.130156E2,2.9171875E1,2.1496484E2,2.4191211E2,2.7378906E2,4.131172E2,4.3616406E2,2.979375E2,2.84375E0,0E0,0E0,0E0,0E0,0E0,0E0,0E0,0E0,0E0,0E0,0E0,0E0,0E0,0E0,0E0],"parents":[2147483647,0,0,1,1,2,2,3,3,4,4,5,5,6,6,7,7,8,8,9,9,10,10,11,11,12,12,13,13],"right_children":[2,4,6,8,10,12,14,16,18,20,22,24,26,28,-1,-1,-1,-1,-1,-1,-1,-1,-1,-1,-1,-1,-1,-1,-1],"split_conditions":[2E0,1.5515591E3,1.7570153E-6,5.37E2,2.1E1,2.4006E4,1.54252E5,1E1,7.566969E2,5.2E1,1.0085E4,-1.388E3,3.48E2,8.9792295E-5,3.8618192E-1,2.602313E-1,2.148226E-1,2.4711917E-1,2.999848E-1,2.4900861E-1,2.9221934E-1,3.0516455E-1,3.4838542E-1,3.665306E-1,3.1266603E-1,3.621975E-1,4.0098295E-1,4.4404468E-1,4.7433087E-1],"split_indices":[9,38,41,36,1,18,27,30,38,8,17,27,8,41,0,0,0,0,0,0,0,0,0,0,0,0,0,0,0],"split_type":[0,0,0,0,0,0,0,0,0,0,0,0,0,0,0,0,0,0,0,0,0,0,0,0,0,0,0,0,0],"sum_hessian":[1.3745E4,8.455E3,5.29E3,3.873E3,4.582E3,4.07E3,1.22E3,2.873E3,1E3,1.646E3,2.936E3,1.665E3,2.405E3,1.155E3,6.5E1,3.2E2,2.553E3,5.85E2,4.15E2,7.41E2,9.05E2,2.076E3,8.6E2,8.25E2,8.4E2,1.08E3,1.325E3,8.25E2,3.3E2],"tree_param":{"num_deleted":"0","num_feature":"43","num_nodes":"29","size_leaf_vector":"1"}},{"base_weights":[6.0113783E0,5.1546273E0,7.3486977E0,4.544834E0,5.874096E0,7.000885E0,8.50898E0,4.295485E0,4.989832E0,5.080543E0,6.122258E0,5.548476E0,7.1388526E0,8.168976E0,4.3828902E-1,2.0063095E-1,2.3128305E-1,2.877365E-1,2.4352427E-1,1.2742543E-1,2.5882474E-1,2.9277703E-1,3.264403E-1,3.2034627E-1,2.3200622E-1,3.4665334E-1,3.9399943E-1,4.1307423E-1,2.9897168E-1],"categories":[],"categories_nodes":[],"categories_segments":[],"categories_sizes":[],"default_left":[0,0,0,0,0,0,0,0,0,0,0,0,0,0,0,0,0,0,0,0,0,0,0,0,0,0,0,0,0],"id":5,"left_children":[1,3,5,7,9,11,13,15,17,19,21,23,25,27,-1,-1,-1,-1,-1,-1,-1,-1,-1,-1,-1,-1,-1,-1,-1],"loss_changes":[1.5879906E4,3.6891562E3,2.1274062E3,4.869375E2,7.324531E2,7.963281E2,3.5484375E1,2.56E2,1.2080469E2,2.1222266E2,2.807422E2,2.5534473E2,5.252656E2,6.0785156E1,0E0,0E0,0E0,0E0,0E0,0E0,0E0,0E0,0E0,0E0,0E0,0E0,0E0,0E0,0E0],"parents":[2147483647,0,0,1,1,2,2,3,3,4,4,5,5,6,6,7,7,8,8,9,9,10,10,11,11,12,12,13,13],"right_children":[2,4,6,8,10,12,14,16,18,20,22,24,26,28,-1,-1,-1,-1,-1,-1,-1,-1,-1,-1,-1,-1,-1,-1,-1],"split_conditions":[2E0,2.5106973E3,1.7570153E-6,3.62E2,5E0,7E0,1.3103E4,5.8E1,5.13E2,3E0,1.4923E4,4.455E3,2.37178E5,1.0218E5,4.3828902E-1,2.0063095E-1,2.3128305E-1,2.877365E-1,2.4352427E-1,1.2742543E-1,2.5882474E-1,2.9277703E-1,3.264403E-1,3.2034627E-1,2.3200622E-1,3.4665334E-1,3.9399943E-1,4.1307423E-1,2.9897168E-1],"split_indices":[9,38,41,36,1,1,9,14,17,14,22,9,15,25,0,0,0,0,0,0,0,0,0,0,0,0,0,0,0],"split_type":[0,0,0,0,0,0,0,0,0,0,0,0,0,0,0,0,0,0,0,0,0,0,0,0,0,0,0,0,0],"sum_hessian":[1.3893E4,8.471E3,5.422E3,4.589E3,3.882E3,4.177E3,1.245E3,2.948E3,1.641E3,9.3E2,2.952E3,3.66E2,3.811E3,5.5E2,6.95E2,1.595E3,1.353E3,2.15E2,1.426E3,3.5E1,8.95E2,1.792E3,1.16E3,1.85E2,1.81E2,2.991E3,8.2E2,5.25E2,2.5E1],"tree_param":{"num_deleted":"0","num_feature":"43","num_nodes":"29","size_leaf_vector":"1"}},{"base_weights":[5.7497873E0,4.9618087E0,6.974285E0,4.2344933E0,5.5880427E0,6.646459E0,8.094831E0,3.986338E0,4.8574796E0,4.8546524E0,5.8313284E0,5.2286296E0,6.7997375E0,7.80055E0,4.1753894E-1,3.0008057E-1,1.960305E-1,2.4534889E-1,1.0355369E-1,1.7646955E-1,2.511823E-1,2.8208068E-1,3.1712076E-1,3.1254262E-1,2.2937012E-1,3.3065292E-1,3.7231E-1,3.9168814E-1,1.6476977E-1],"categories":[],"categories_nodes":[],"categories_segments":[],"categories_sizes":[],"default_left":[0,0,0,0,0,0,0,0,0,0,0,0,0,0,0,0,0,0,0,0,0,0,0,0,0,0,0,0,0],"id":6,"left_children":[1,3,5,7,9,11,13,15,17,19,21,23,25,27,-1,-1,-1,-1,-1,-1,-1,-1,-1,-1,-1,-1,-1,-1,-1],"loss_changes":[1.32601875E4,3.7958594E3,1.9258438E3,5.803594E2,7.742344E2,8.7121875E2,2.484375E1,3.4425E2,1.411289E2,2.3403906E2,2.9045312E2,2.4029785E2,4.0395312E2,6E1,0E0,0E0,0E0,0E0,0E0,0E0,0E0,0E0,0E0,0E0,0E0,0E0,0E0,0E0,0E0],"parents":[2147483647,0,0,1,1,2,2,3,3,4,4,5,5,6,6,7,7,8,8,9,9,10,10,11,11,12,12,13,13],"right_children":[2,4,6,8,10,12,14,16,18,20,22,24,26,28,-1,-1,-1,-1,-1,-1,-1,-1,-1,-1,-1,-1,-1,-1,-1],"split_conditions":[2E0,1.5515591E3,2.1865676E-6,4.4E2,2.33E2,1E1,1.4084E4,-5.7092E4,1.834E3,4E0,2.097E3,1.768E3,2.34359E5,2.0935E4,4.1753894E-1,3.0008057E-1,1.960305E-1,2.4534889E-1,1.0355369E-1,1.7646955E-1,2.511823E-1,2.8208068E-1,3.1712076E-1,3.1254262E-1,2.2937012E-1,3.3065292E-1,3.7231E-1,3.9168814E-1,1.6476977E-1],"split_indices":[9,38,41,36,0,1,9,27,12,19,6,17,15,3,0,0,0,0,0,0,0,0,0,0,0,0,0,0,0],"split_type":[0,0,0,0,0,0,0,0,0,0,0,0,0,0,0,0,0,0,0,0,0,0,0,0,0,0,0,0,0],"sum_hessian":[1.3779E4,8.387E3,5.392E3,3.884E3,4.503E3,4.177E3,1.215E3,2.783E3,1.101E3,1.127E3,3.376E3,4.11E2,3.766E3,5.8E2,6.35E2,8.5E1,2.698E3,1.081E3,2E1,1.3E2,9.97E2,2.471E3,9.05E2,1.55E2,2.56E2,2.931E3,8.35E2,5.75E2,5E0],"tree_param":{"num_deleted":"0","num_feature":"43","num_nodes":"29","size_leaf_vector":"1"}},{"base_weights":[5.4445763E0,4.6814647E0,6.6310234E0,4.052632E0,5.232238E0,6.3177385E0,7.740412E0,5.944206E0,3.9763536E0,4.6036005E0,5.5648546E0,5.8485026E0,6.63484E0,7.405723E0,7.9558063E0,4.240121E-1,2.622263E-1,1.832001E-1,2.1119015E-1,2.2596622E-1,3.095875E-1,2.6613292E-1,3.0306548E-1,3.0270255E-1,2.1151316E-1,3.2019016E-1,3.4882692E-1,3.7541932E-1,1.9732739E-1,3.9956212E-1,2.955416E-1],"categories":[],"categories_nodes":[],"categories_segments":[],"categories_sizes":[],"default_left":[0,0,0,0,0,0,0,0,0,0,0,0,0,0,0,0,0,0,0,0,0,0,0,0,0,0,0,0,0,0,0],"id":7,"left_children":[1,3,5,7,9,11,13,15,17,19,21,23,25,27,29,-1,-1,-1,-1,-1,-1,-1,-1,-1,-1,-1,-1,-1,-1,-1,-1],"loss_changes":[1.25310625E4,2.9037969E3,1.8365625E3,5.4515234E2,9.1428906E2,5.906719E2,2.540625E1,2.2208936E2,2.773672E2,1.8014453E2,3.198672E2,5.448125E2,1.5309375E2,1.4003906E2,2.8984375E0,0E0,0E0,0E0,0E0,0E0,0E0,0E0,0E0,0E0,0E0,0E0,0E0,0E0,0E0,0E0,0E0],"parents":[2147483647,0,0,1,1,2,2,3,3,4,4,5,5,6,6,7,7,8,8,9,9,10,10,11,11,12,12,13,13,14,14],"right_children":[2,4,6,8,10,12,14,16,18,20,22,24,26,28,30,-1,-1,-1,-1,-1,-1,-1,-1,-1,-1,-1,-1,-1,-1,-1,-1],"split_conditions":[2E0,6.403E3,4E0,-5.7092E4,2.1E1,1.322E3,1.3103E4,2E0,9.3E1,3.9282122E3,9.588E3,1.3103E4,2.59968E5,1.0218E5,2.88344E5,4.240121E-1,2.622263E-1,1.832001E-1,2.1119015E-1,2.2596622E-1,3.095875E-1,2.6613292E-1,3.0306548E-1,3.0270255E-1,2.1151316E-1,3.2019016E-1,3.4882692E-1,3.7541932E-1,1.9732739E-1,3.9956212E-1,2.955416E-1],"split_indices":[9,15,7,27,1,6,9,24,36,29,17,9,20,25,27,0,0,0,0,0,0,0,0,0,0,0,0,0,0,0,0],"split_type":[0,0,0,0,0,0,0,0,0,0,0,0,0,0,0,0,0,0,0,0,0,0,0,0,0,0,0,0,0,0,0],"sum_hessian":[1.3875E4,8.447E3,5.428E3,3.948E3,4.499E3,4.238E3,1.19E3,1.5E2,3.798E3,1.562E3,2.937E3,1.717E3,2.521E3,4.8E2,7.1E2,3E1,1.2E2,1.686E3,2.112E3,1.487E3,7.5E1,1.982E3,9.55E2,1.521E3,1.96E2,1.516E3,1.005E3,4.65E2,1.5E1,6.95E2,1.5E1],"tree_param":{"num_deleted":"0","num_feature":"43","num_nodes":"31","size_leaf_vector":"1"}},{"base_weights":[5.1995416E0,4.216955E0,6.015461E0,3.730199E0,4.7221546E0,5.3011165E0,6.5263143E0,3.15568E0,3.8802185E0,4.570433E0,5.7184534E0,4.993851E0,5.9671454E0,6.232378E0,7.341366E0,1.1313007E-1,1.754909E-1,2.1031599E-1,1.7565468E-1,1.3957915E-1,2.3218556E-1,1.2219752E-1,2.9195553E-1,1.851105E-1,2.5711536E-1,3.556463E-1,2.9325056E-1,3.000909E-1,3.371464E-1,2.273052E-1,3.6870208E-1],"categories":[],"categories_nodes":[],"categories_segments":[],"categories_sizes":[],"default_left":[0,0,0,0,0,0,0,0,0,0,0,0,0,0,0,0,0,0,0,0,0,0,0,0,0,0,0,0,0,0,0],"id":8,"left_children":[1,3,5,7,9,11,13,15,17,19,21,23,25,27,29,-1,-1,-1,-1,-1,-1,-1,-1,-1,-1,-1,-1,-1,-1,-1,-1],"loss_changes":[1.1019594E4,1.5194609E3,2.7102812E3,2.619922E2,4.3614062E2,6.123203E2,1.0029375E3,2.0211914E2,2.867422E2,3.3367578E2,1.4333398E2,3.936875E2,7.248828E1,3.3821875E2,7.086328E1,0E0,0E0,0E0,0E0,0E0,0E0,0E0,0E0,0E0,0E0,0E0,0E0,0E0,0E0,0E0,0E0],"parents":[2147483647,0,0,1,1,2,2,3,3,4,4,5,5,6,6,7,7,8,8,9,9,10,10,11,11,12,12,13,13,14,14],"right_children":[2,4,6,8,10,12,14,16,18,20,22,24,26,28,30,-1,-1,-1,-1,-1,-1,-1,-1,-1,-1,-1,-1,-1,-1,-1,-1],"split_conditions":[9.7E1,1.0851608E3,7.490092E-4,2.7E1,2.097E3,1.3190935E4,5E0,2.7E1,2.57E2,2.496587E2,1E1,7.5349304E2,1.32E2,2.0436E4,1.2202323E-3,1.1313007E-1,1.754909E-1,2.1031599E-1,1.7565468E-1,1.3957915E-1,2.3218556E-1,1.2219752E-1,2.9195553E-1,1.851105E-1,2.5711536E-1,3.556463E-1,2.9325056E-1,3.000909E-1,3.371464E-1,2.273052E-1,3.6870208E-1],"split_indices":[1,38,42,36,6,38,7,0,13,28,14,28,12,34,42,0,0,0,0,0,0,0,0,0,0,0,0,0,0,0,0],"split_type":[0,0,0,0,0,0,0,0,0,0,0,0,0,0,0,0,0,0,0,0,0,0,0,0,0,0,0,0,0,0,0],"sum_hessian":[1.3777E4,6.253E3,7.524E3,3.189E3,3.064E3,3.142E3,4.382E3,6.65E2,2.524E3,2.664E3,4E2,2.156E3,9.86E2,3.227E3,1.155E3,1.91E2,4.74E2,1.331E3,1.193E3,1.07E2,2.557E3,1.5E1,3.85E2,2.25E2,1.931E3,7.5E1,9.11E2,2.232E3,9.95E2,1.5E1,1.14E3],"tree_param":{"num_deleted":"0","num_feature":"43","num_nodes":"31","size_leaf_vector":"1"}},{"base_weights":[4.955133E0,4.2597585E0,6.0261226E0,3.6380167E0,4.7579103E0,5.7418E0,6.995181E0,4.4205785E0,3.5600696E0,4.2762413E0,5.0152926E0,5.354734E0,6.1443152E0,6.6281805E0,3.6016786E-1,2.4846509E-1,1.9355409E-1,1.7299454E-1,2.1824513E-1,2.1029642E-1,3.281295E-1,2.4029265E-1,2.7120256E-1,2.757602E-1,2.1543045E-1,2.9810357E-1,3.2783732E-1,3.3578163E-1,1.9123009E-1],"categories":[],"categories_nodes":[],"categories_segments":[],"categories_sizes":[],"default_left":[0,0,0,0,0,0,0,0,0,0,0,0,0,0,0,0,0,0,0,0,0,0,0,0,0,0,0,0,0],"id":9,"left_children":[1,3,5,7,9,11,13,15,17,19,21,23,25,27,-1,-1,-1,-1,-1,-1,-1,-1,-1,-1,-1,-1,-1,-1,-1],"loss_changes":[1.0115906E4,2.5404688E3,1.4350938E3,2.078789E2,5.4578906E2,6.123594E2,4.3390625E1,7.908008E1,2.5429688E2,2.2902148E2,2.2811719E2,3.3164453E2,1.12015625E2,8.383594E1,0E0,0E0,0E0,0E0,0E0,0E0,0E0,0E0,0E0,0E0,0E0,0E0,0E0,0E0,0E0],"parents":[2147483647,0,0,1,1,2,2,3,3,4,4,5,5,6,6,7,7,8,8,9,9,10,10,11,11,12,12,13,13],"right_children":[2,4,6,8,10,12,14,16,18,20,22,24,26,28,-1,-1,-1,-1,-1,-1,-1,-1,-1,-1,-1,-1,-1,-1,-1],"split_conditions":[2E0,5.323E3,2.1865676E-6,6.1E2,2.1E1,1.41655205E4,1.2831E4,3.8E1,1.5515591E3,5.432702E4,1.3589783E4,1.1208E4,7.3230667E-3,1.0218E5,3.6016786E-1,2.4846509E-1,1.9355409E-1,1.7299454E-1,2.1824513E-1,2.1029642E-1,3.281295E-1,2.4029265E-1,2.7120256E-1,2.757602E-1,2.1543045E-1,2.9810357E-1,3.2783732E-1,3.3578163E-1,1.9123009E-1],"split_indices":[9,15,41,23,1,38,9,30,38,28,38,9,42,25,0,0,0,0,0,0,0,0,0,0,0,0,0,0,0],"split_type":[0,0,0,0,0,0,0,0,0,0,0,0,0,0,0,0,0,0,0,0,0,0,0,0,0,0,0,0,0],"sum_hessian":[1.3618E4,8.26E3,5.358E3,3.678E3,4.582E3,4.148E3,1.21E3,3.28E2,3.35E3,1.602E3,2.98E3,2.122E3,2.026E3,4.5E2,7.6E2,1.6E2,1.68E2,2.984E3,3.66E2,1.557E3,4.5E1,1.979E3,1.001E3,1.836E3,2.86E2,1.416E3,6.1E2,4.35E2,1.5E1],"tree_param":{"num_deleted":"0","num_feature":"43","num_nodes":"29","size_leaf_vector":"1"}},{"base_weights":[4.700016E0,4.059339E0,5.7093296E0,3.5429811E0,4.5370145E0,5.4195476E0,6.6668377E0,4.844745E0,3.4907753E0,3.968663E0,4.7512345E0,5.1282206E0,5.854741E0,6.556804E0,7.2224774E0,1.4154844E-1,2.9839703E-1,1.6991554E-1,2.0447302E-1,8.83744E-2,2.0270316E-1,2.2736982E-1,2.5912794E-1,2.7236828E-1,2.2959895E-1,2.885724E-1,3.4640923E-1,3.3195052E-1,2.5729278E-1,1.9747347E-1,3.6443454E-1],"categories":[],"categories_nodes":[],"categories_segments":[],"categories_sizes":[],"default_left":[0,0,0,0,0,0,0,0,0,0,0,0,0,0,0,0,0,0,0,0,0,0,0,0,0,0,0,0,0,0,0],"id":10,"left_children":[1,3,5,7,9,11,13,15,17,19,21,23,25,27,29,-1,-1,-1,-1,-1,-1,-1,-1,-1,-1,-1,-1,-1,-1,-1,-1],"loss_changes":[8.7281875E3,2.026125E3,1.4201875E3,2.5307422E2,5.036797E2,4.8083594E2,2.5609375E1,3.2376636E2,1.9765234E2,2.1463477E2,2.4950781E2,3.8933984E2,1.0287891E2,8.366406E1,1.1481445E1,0E0,0E0,0E0,0E0,0E0,0E0,0E0,0E0,0E0,0E0,0E0,0E0,0E0,0E0,0E0,0E0],"parents":[2147483647,0,0,1,1,2,2,3,3,4,4,5,5,6,6,7,7,8,8,9,9,10,10,11,11,12,12,13,13,14,14],"right_children":[2,4,6,8,10,12,14,16,18,20,22,24,26,28,30,-1,-1,-1,-1,-1,-1,-1,-1,-1,-1,-1,-1,-1,-1,-1,-1],"split_conditions":[2E0,1.9378851E3,2.1865676E-6,-5.7092E4,5E0,2.855E3,1.1908194E4,1.19E2,6.403E3,2.496587E2,1.41655205E4,1.0072E4,1.03694E5,1.14872E5,5.4161577E-3,1.4154844E-1,2.9839703E-1,1.6991554E-1,2.0447302E-1,8.83744E-2,2.0270316E-1,2.2736982E-1,2.5912794E-1,2.7236828E-1,2.2959895E-1,2.885724E-1,3.4640923E-1,3.3195052E-1,2.5729278E-1,1.9747347E-1,3.6443454E-1],"split_indices":[9,38,41,27,1,6,29,8,15,28,38,27,0,27,42,0,0,0,0,0,0,0,0,0,0,0,0,0,0,0,0],"split_type":[0,0,0,0,0,0,0,0,0,0,0,0,0,0,0,0,0,0,0,0,0,0,0,0,0,0,0,0,0,0,0],"sum_hessian":[1.3534E4,8.282E3,5.252E3,3.984E3,4.298E3,4.037E3,1.215E3,1.5E2,3.834E3,1.182E3,3.116E3,2.426E3,1.611E3,1.025E3,1.9E2,5.5E1,9.5E1,3.327E3,5.07E2,4.5E1,1.137E3,2.124E3,9.92E2,1.515E3,9.11E2,1.501E3,1.1E2,9.65E2,6E1,5E0,1.85E2],"tree_param":{"num_deleted":"0","num_feature":"43","num_nodes":"31","size_leaf_vector":"1"}},{"base_weights":[4.4831305E0,3.671896E0,5.150665E0,3.30573E0,4.060423E0,4.4509234E0,5.574619E0,2.5049715E0,3.4176064E0,3.9201872E0,4.8193927E0,4.6104836E0,3.8815196E0,5.3488345E0,6.2732954E0,2.5958988E-1,1.1532221E-1,2.1998118E-1,1.6628705E-1,1.0581104E-1,1.9878821E-1,2.8089938E-1,2.2224815E-1,2.2116263E-1,2.568861E-1,1.644628E-1,2.2550543E-1,2.594624E-1,2.9289505E-1,3.1497604E-1,2.297426E-1],"categories":[],"categories_nodes":[],"categories_segments":[],"categories_sizes":[],"default_left":[0,0,0,0,0,0,0,0,0,0,0,0,0,0,0,0,0,0,0,0,0,0,0,0,0,0,0,0,0,0,0],"id":11,"left_children":[1,3,5,7,9,11,13,15,17,19,21,23,25,27,29,-1,-1,-1,-1,-1,-1,-1,-1,-1,-1,-1,-1,-1,-1,-1,-1],"loss_changes":[7.3032812E3,8.5478906E2,2.1742031E3,2.7304297E2,2.9517578E2,2.3591797E2,6.931406E2,1.9530469E2,2.3367188E2,2.4192188E2,1.1067383E2,1.9191406E2,2.1520508E2,2.5235938E2,1.9308594E1,0E0,0E0,0E0,0E0,0E0,0E0,0E0,0E0,0E0,0E0,0E0,0E0,0E0,0E0,0E0,0E0],"parents":[2147483647,0,0,1,1,2,2,3,3,4,4,5,5,6,6,7,7,8,8,9,9,10,10,11,11,12,12,13,13,14,14],"right_children":[2,4,6,8,10,12,14,16,18,20,22,24,26,28,30,-1,-1,-1,-1,-1,-1,-1,-1,-1,-1,-1,-1,-1,-1,-1,-1],"split_conditions":[9.7E1,1.0851608E3,4.866273E-4,1.5E1,1.411E3,2.3328E4,4E0,3.07E2,2E0,5.88E2,1.256E3,1.3378308E4,2.891E3,2.34359E5,2.88344E5,2.5958988E-1,1.1532221E-1,2.1998118E-1,1.6628705E-1,1.0581104E-1,1.9878821E-1,2.8089938E-1,2.2224815E-1,2.2116263E-1,2.568861E-1,1.644628E-1,2.2550543E-1,2.594624E-1,2.9289505E-1,3.1497604E-1,2.297426E-1],"split_indices":[1,38,42,36,6,27,7,23,14,18,5,38,14,15,27,0,0,0,0,0,0,0,0,0,0,0,0,0,0,0,0],"split_type":[0,0,0,0,0,0,0,0,0,0,0,0,0,0,0,0,0,0,0,0,0,0,0,0,0,0,0,0,0,0,0],"sum_hessian":[1.3522E4,6.107E3,7.415E3,3.149E3,2.958E3,2.802E3,4.613E3,3.89E2,2.76E3,2.502E3,4.56E2,2.183E3,6.19E2,3.493E3,1.12E3,2.5E1,3.64E2,2.32E2,2.528E3,7.6E1,2.426E3,1.41E2,3.15E2,1.618E3,5.65E2,3.22E2,2.97E2,2.668E3,8.25E2,1.1E3,2E1],"tree_param":{"num_deleted":"0","num_feature":"43","num_nodes":"31","size_leaf_vector":"1"}},{"base_weights":[4.284091E0,3.6901298E0,5.1151767E0,3.242364E0,4.1218524E0,4.7356753E0,5.632013E0,4.671898E0,3.1633089E0,4.2498283E0,3.2897747E0,4.035363E0,4.845386E0,5.324503E0,6.005952E0,1.3828473E-1,2.962134E-1,1.5636937E-1,2.2381817E-1,2.0260572E-1,2.4329773E-1,1.4979784E-1,2.1432407E-1,2.0601857E-1,1.3341351E-2,2.3650639E-1,2.7325282E-1,2.5531083E-1,2.8854442E-1,2.949983E-1,3.3059815E-1],"categories":[],"categories_nodes":[],"categories_segments":[],"categories_sizes":[],"default_left":[0,0,0,0,0,0,0,0,0,0,0,0,0,0,0,0,0,0,0,0,0,0,0,0,0,0,0,0,0,0,0],"id":12,"left_children":[1,3,5,7,9,11,13,15,17,19,21,23,25,27,29,-1,-1,-1,-1,-1,-1,-1,-1,-1,-1,-1,-1,-1,-1,-1,-1],"loss_changes":[6.6867344E3,1.5182734E3,1.0824375E3,4.2473438E2,4.146172E2,2.3079688E2,2.4183594E2,4.649751E2,1.5952344E2,4.0465234E2,1.4515479E2,1.4230127E2,1.746875E2,9.816016E1,2.8527344E1,0E0,0E0,0E0,0E0,0E0,0E0,0E0,0E0,0E0,0E0,0E0,0E0,0E0,0E0,0E0,0E0],"parents":[2147483647,0,0,1,1,2,2,3,3,4,4,5,5,6,6,7,7,8,8,9,9,10,10,11,11,12,12,13,13,14,14],"right_children":[2,4,6,8,10,12,14,16,18,20,22,24,26,28,30,-1,-1,-1,-1,-1,-1,-1,-1,-1,-1,-1,-1,-1,-1,-1,-1],"split_conditions":[2.668E3,5.708E3,4.621E3,-5.7092E4,3.534E4,2.93E2,2.1865676E-6,1.19E2,1.443E3,2E0,1.9632E4,1.993792E6,4.8536E4,2.8209E4,2.61E2,1.3828473E-1,2.962134E-1,1.5636937E-1,2.2381817E-1,2.0260572E-1,2.4329773E-1,1.4979784E-1,2.1432407E-1,2.0601857E-1,1.3341351E-2,2.3650639E-1,2.7325282E-1,2.5531083E-1,2.8854442E-1,2.949983E-1,3.3059815E-1],"split_indices":[0,15,9,27,27,6,41,8,8,9,21,2,32,34,7,0,0,0,0,0,0,0,0,0,0,0,0,0,0,0,0],"split_type":[0,0,0,0,0,0,0,0,0,0,0,0,0,0,0,0,0,0,0,0,0,0,0,0,0,0,0,0,0,0,0],"sum_hessian":[1.3585E4,7.926E3,5.659E3,3.895E3,4.031E3,3.269E3,2.39E3,2.01E2,3.694E3,3.49E3,5.41E2,4.48E2,2.821E3,1.32E3,1.07E3,8.1E1,1.2E2,3.599E3,9.5E1,2.648E3,8.42E2,4.21E2,1.2E2,4.38E2,1E1,2.386E3,4.35E2,8.95E2,4.25E2,9.2E2,1.5E2],"tree_param":{"num_deleted":"0","num_feature":"43","num_nodes":"31","size_leaf_vector":"1"}},{"base_weights":[4.0723157E0,3.5261652E0,4.9104867E0,2.96313E0,3.8636076E0,4.69559E0,5.629568E0,2.8507555E0,4.026921E0,3.2470481E0,3.9996414E0,4.425507E0,5.0143437E0,5.6908245E0,4.8052764E0,1.9639547E-1,1.3707024E-1,1.9087431E-1,3.2665545E-1,8.3303854E-2,1.6989212E-1,1.9513755E-1,2.3191236E-1,2.2980757E-1,1.8597294E-1,2.9043087E-1,2.4633066E-1,2.8088993E-1,3.1265634E-1,1.493618E-1,2.6369593E-1],"categories":[],"categories_nodes":[],"categories_segments":[],"categories_sizes":[],"default_left":[0,0,0,0,0,0,0,0,0,0,0,0,0,0,0,0,0,0,0,0,0,0,0,0,0,0,0,0,0,0,0],"id":13,"left_children":[1,3,5,7,9,11,13,15,17,19,21,23,25,27,29,-1,-1,-1,-1,-1,-1,-1,-1,-1,-1,-1,-1,-1,-1,-1,-1],"loss_changes":[6.168125E3,1.5431484E3,7.96E2,3.5506836E2,4.1529688E2,3.3060938E2,3.326172E1,3.1624805E2,1.26765625E2,2.155459E2,2.4004688E2,2.5110938E2,1.0110156E2,1.0125E1,6.0952393E1,0E0,0E0,0E0,0E0,0E0,0E0,0E0,0E0,0E0,0E0,0E0,0E0,0E0,0E0,0E0,0E0],"parents":[2147483647,0,0,1,1,2,2,3,3,4,4,5,5,6,6,7,7,8,8,9,9,10,10,11,11,12,12,13,13,14,14],"right_children":[2,4,6,8,10,12,14,16,18,20,22,24,26,28,30,-1,-1,-1,-1,-1,-1,-1,-1,-1,-1,-1,-1,-1,-1,-1,-1],"split_conditions":[5E0,9.123E3,1.8392485E-6,5.8812094E0,5E1,1.5938512E4,1.22236E5,2E0,1.384E3,2.6277216E2,1.055E4,9.168E3,-8.0944E4,1.0146608E4,9.84E2,1.9639547E-1,1.3707024E-1,1.9087431E-1,3.2665545E-1,8.3303854E-2,1.6989212E-1,1.9513755E-1,2.3191236E-1,2.2980757E-1,1.8597294E-1,2.9043087E-1,2.4633066E-1,2.8088993E-1,3.1265634E-1,1.493618E-1,2.6369593E-1],"split_indices":[9,20,41,39,14,38,27,14,32,28,0,9,27,39,5,0,0,0,0,0,0,0,0,0,0,0,0,0,0,0,0],"split_type":[0,0,0,0,0,0,0,0,0,0,0,0,0,0,0,0,0,0,0,0,0,0,0,0,0,0,0,0,0,0,0],"sum_hessian":[1.3513E4,8.185E3,5.328E3,3.071E3,5.114E3,4.108E3,1.22E3,2.781E3,2.9E2,9.29E2,4.185E3,2.232E3,1.876E3,1.13E3,9E1,2.53E2,2.528E3,2.7E2,2E1,8.2E1,8.47E2,3.64E3,5.45E2,1.793E3,4.39E2,1.8E2,1.696E3,1.01E3,1.2E2,2E1,7E1],"tree_param":{"num_deleted":"0","num_feature":"43","num_nodes":"31","size_leaf_vector":"1"}},{"base_weights":[3.857332E0,3.1705918E0,4.4262085E0,2.8534799E0,3.4635088E0,4.0932074E0,5.019974E0,4.124768E0,2.795855E0,3.2432554E0,3.905857E0,3.7905123E0,4.40605E0,4.626323E0,5.349153E0,1.0050823E-1,2.541884E-1,1.3561477E-1,1.7858265E-1,1.713835E-1,1.3425708E-1,2.1264993E-1,1.6562113E-1,1.7657857E-1,2.0718615E-1,2.3198114E-1,2.0077674E-1,2.3279586E-1,1.052912E-1,2.6404485E-1,3.0412078E-1],"categories":[],"categories_nodes":[],"categories_segments":[],"categories_sizes":[],"default_left":[0,0,0,0,0,0,0,0,0,0,0,0,0,0,0,0,0,0,0,0,0,0,0,0,0,0,0,0,0,0,0],"id":14,"left_children":[1,3,5,7,9,11,13,15,17,19,21,23,25,27,29,-1,-1,-1,-1,-1,-1,-1,-1,-1,-1,-1,-1,-1,-1,-1,-1],"loss_changes":[5.2799688E3,5.601836E2,1.4436875E3,2.0432617E2,2.973203E2,4.325625E2,3.186797E2,2.4458716E2,1.7320508E2,2.0992773E2,2.0249023E2,2.0621094E2,1.931211E2,8.037305E1,3.8867188E1,0E0,0E0,0E0,0E0,0E0,0E0,0E0,0E0,0E0,0E0,0E0,0E0,0E0,0E0,0E0,0E0],"parents":[2147483647,0,0,1,1,2,2,3,3,4,4,5,5,6,6,7,7,8,8,9,9,10,10,11,11,12,12,13,13,14,14],"right_children":[2,4,6,8,10,12,14,16,18,20,22,24,26,28,30,-1,-1,-1,-1,-1,-1,-1,-1,-1,-1,-1,-1,-1,-1,-1,-1],"split_conditions":[9.7E1,3.62E2,1.808E4,-5.7092E4,1.7098647E-4,3.820357E-4,7.3230667E-3,1.13E2,2.2E1,4.37E2,1.86E3,4.239E3,5.876E3,2.3126E4,2.61E2,1.0050823E-1,2.541884E-1,1.3561477E-1,1.7858265E-1,1.713835E-1,1.3425708E-1,2.1264993E-1,1.6562113E-1,1.7657857E-1,2.0718615E-1,2.3198114E-1,2.0077674E-1,2.3279586E-1,1.052912E-1,2.6404485E-1,3.0412078E-1],"split_indices":[1,36,0,27,42,42,42,8,1,12,27,32,27,12,7,0,0,0,0,0,0,0,0,0,0,0,0,0,0,0,0],"split_type":[0,0,0,0,0,0,0,0,0,0,0,0,0,0,0,0,0,0,0,0,0,0,0,0,0,0,0,0,0,0,0],"sum_hessian":[1.3552E4,6.143E3,7.409E3,2.955E3,3.188E3,4.752E3,2.657E3,1.25E2,2.83E3,2.134E3,1.054E3,2.422E3,2.33E3,1.217E3,1.44E3,4E1,8.5E1,2.559E3,2.71E2,1.6E3,5.34E2,6.61E2,3.93E2,1.404E3,1.018E3,1.451E3,8.79E2,1.202E3,1.5E1,1.325E3,1.15E2],"tree_param":{"num_deleted":"0","num_feature":"43","num_nodes":"31","size_leaf_vector":"1"}},{"base_weights":[3.7032602E0,3.1970284E0,4.466051E0,2.7676075E0,3.5613756E0,4.2623296E0,5.135846E0,3.394858E0,2.6792905E0,3.411186E0,4.109869E0,3.812879E0,4.445758E0,5.0560927E0,2.8507063E-1,2.127563E-1,1.5956044E-1,1.3008174E-1,1.751837E-1,1.8073252E-1,1.51423E-1,1.8716937E-1,2.2275937E-1,2.079051E-1,1.6156983E-1,2.147334E-1,2.425092E-1,2.586772E-1,2.347292E-1],"categories":[],"categories_nodes":[],"categories_segments":[],"categories_sizes":[],"default_left":[0,0,0,0,0,0,0,0,0,0,0,0,0,0,0,0,0,0,0,0,0,0,0,0,0,0,0,0,0],"id":15,"left_children":[1,3,5,7,9,11,13,15,17,19,21,23,25,27,-1,-1,-1,-1,-1,-1,-1,-1,-1,-1,-1,-1,-1,-1,-1],"loss_changes":[5.179828E3,1.2552578E3,7.0909375E2,1.9626172E2,3.4546875E2,3.2179688E2,2.6300781E1,6.538916E1,1.9922852E2,2.561875E2,1.008291E2,2.2691602E2,1.566211E2,2.1472656E1,0E0,0E0,0E0,0E0,0E0,0E0,0E0,0E0,0E0,0E0,0E0,0E0,0E0,0E0,0E0],"parents":[2147483647,0,0,1,1,2,2,3,3,4,4,5,5,6,6,7,7,8,8,9,9,10,10,11,11,12,12,13,13],"right_children":[2,4,6,8,10,12,14,16,18,20,22,24,26,28,-1,-1,-1,-1,-1,-1,-1,-1,-1,-1,-1,-1,-1,-1,-1],"split_conditions":[2E0,5.872E3,2.1865676E-6,1E1,1.997E3,2.728E3,2.61E2,3.4E1,1.7890212E3,6.85E2,6.104E3,4.835E3,3.39133E5,7.8304E4,2.8507063E-1,2.127563E-1,1.5956044E-1,1.3008174E-1,1.751837E-1,1.8073252E-1,1.51423E-1,1.8716937E-1,2.2275937E-1,2.079051E-1,1.6156983E-1,2.147334E-1,2.425092E-1,2.586772E-1,2.347292E-1],"split_indices":[9,15,41,30,6,0,7,36,38,12,21,9,20,25,0,0,0,0,0,0,0,0,0,0,0,0,0,0,0],"split_type":[0,0,0,0,0,0,0,0,0,0,0,0,0,0,0,0,0,0,0,0,0,0,0,0,0,0,0,0,0],"sum_hessian":[1.3452E4,8.089E3,5.363E3,3.717E3,4.372E3,4.118E3,1.245E3,4.54E2,3.263E3,3.438E3,9.34E2,1.2E3,2.918E3,1.1E3,1.45E2,8.3E1,3.71E2,2.986E3,2.77E2,2.239E3,1.199E3,4.59E2,4.75E2,7.49E2,4.51E2,2.133E3,7.85E2,8.2E2,2.8E2],"tree_param":{"num_deleted":"0","num_feature":"43","num_nodes":"29","size_leaf_vector":"1"}},{"base_weights":[3.5344307E0,2.9310403E0,4.0075417E0,3.9289653E0,2.8276556E0,3.7328246E0,4.5641932E0,3.5900013E0,4.996474E0,2.5925078E0,3.1712327E0,4.341812E0,3.6494925E0,4.4140863E0,5.0205393E0,2.261635E-1,1.5193439E-1,9.5084146E-2,2.7755246E-1,9.724328E-2,1.3593648E-1,1.7393278E-1,1.3642925E-1,4.325058E-2,2.1849155E-1,1.6496581E-1,1.89517E-1,2.4234255E-1,2.0926212E-1,2.395302E-1,2.781708E-1],"categories":[],"categories_nodes":[],"categories_segments":[],"categories_sizes":[],"default_left":[0,0,0,0,0,0,0,0,0,0,0,0,0,0,0,0,0,0,0,0,0,0,0,0,0,0,0,0,0,0,0],"id":16,"left_children":[1,3,5,7,9,11,13,15,17,19,21,23,25,27,29,-1,-1,-1,-1,-1,-1,-1,-1,-1,-1,-1,-1,-1,-1,-1,-1],"loss_changes":[3.7537656E3,5.868086E2,1.1125234E3,1.7732422E2,4.162461E2,2.348125E2,1.4389844E2,1.9902637E2,2.0838428E2,2.5003125E2,2.8014453E2,5.3268555E1,2.0207812E2,1.6133594E2,4.6708984E1,0E0,0E0,0E0,0E0,0E0,0E0,0E0,0E0,0E0,0E0,0E0,0E0,0E0,0E0,0E0,0E0],"parents":[2147483647,0,0,1,1,2,2,3,3,4,4,5,5,6,6,7,7,8,8,9,9,10,10,11,11,12,12,13,13,14,14],"right_children":[2,4,6,8,10,12,14,16,18,20,22,24,26,28,30,-1,-1,-1,-1,-1,-1,-1,-1,-1,-1,-1,-1,-1,-1,-1,-1],"split_conditions":[4.2776187E3,-3.7268E4,2.2017E4,1.845048E6,4.297E3,-4.6728E4,3.694E5,1.478308E6,5.242499E2,2E1,4.318E3,4.8E1,9.7E1,-4.4332E4,8.6E1,2.261635E-1,1.5193439E-1,9.5084146E-2,2.7755246E-1,9.724328E-2,1.3593648E-1,1.7393278E-1,1.3642925E-1,4.325058E-2,2.1849155E-1,1.6496581E-1,1.89517E-1,2.4234255E-1,2.0926212E-1,2.395302E-1,2.781708E-1],"split_indices":[38,27,0,2,15,27,15,2,38,36,22,12,1,27,7,0,0,0,0,0,0,0,0,0,0,0,0,0,0,0,0],"split_type":[0,0,0,0,0,0,0,0,0,0,0,0,0,0,0,0,0,0,0,0,0,0,0,0,0,0,0,0,0,0,0],"sum_hessian":[1.3192E4,5.801E3,7.391E3,5.41E2,5.26E3,4.954E3,2.437E3,4.14E2,1.27E2,3.128E3,2.132E3,5.9E2,4.364E3,1.842E3,5.95E2,1.51E2,2.63E2,2E1,1.07E2,5.13E2,2.615E3,1.254E3,8.78E2,5E0,5.85E2,1.259E3,3.105E3,6.3E2,1.212E3,4.25E2,1.7E2],"tree_param":{"num_deleted":"0","num_feature":"43","num_nodes":"31","size_leaf_vector":"1"}},{"base_weights":[3.399648E0,2.9608023E0,4.071928E0,2.5764225E0,3.2770326E0,3.8820767E0,4.6711965E0,2.5441718E0,4.5369325E0,3.1382244E0,3.8117654E0,4.080558E0,3.5188687E0,4.7959847E0,4.27186E0,1.6766275E-1,1.2394386E-1,1.0542121E-1,2.5348267E-1,1.6180503E-1,1.275182E-1,2.5782415E-1,1.8457213E-1,1.9385444E-1,2.1682826E-1,1.6572687E-1,2.1620214E-1,2.4070679E-1,1.407347E-1,1.9367789E-1,2.4449985E-1],"categories":[],"categories_nodes":[],"categories_segments":[],"categories_sizes":[],"default_left":[0,0,0,0,0,0,0,0,0,0,0,0,0,0,0,0,0,0,0,0,0,0,0,0,0,0,0,0,0,0,0],"id":17,"left_children":[1,3,5,7,9,11,13,15,17,19,21,23,25,27,29,-1,-1,-1,-1,-1,-1,-1,-1,-1,-1,-1,-1,-1,-1,-1,-1],"loss_changes":[3.873625E3,9.602344E2,5.726172E2,2.156211E2,3.1178125E2,2.7E2,4.0697266E1,1.7854102E2,6.2335205E1,1.9116797E2,1.25052734E2,1.1524219E2,2.160586E2,1.9529297E1,5.5520508E1,0E0,0E0,0E0,0E0,0E0,0E0,0E0,0E0,0E0,0E0,0E0,0E0,0E0,0E0,0E0,0E0],"parents":[2147483647,0,0,1,1,2,2,3,3,4,4,5,5,6,6,7,7,8,8,9,9,10,10,11,11,12,12,13,13,14,14],"right_children":[2,4,6,8,10,12,14,16,18,20,22,24,26,28,30,-1,-1,-1,-1,-1,-1,-1,-1,-1,-1,-1,-1,-1,-1,-1,-1],"split_conditions":[2E0,1.7352E4,2.1865676E-6,6.181331E1,2.097E3,1.0848E4,2.7664E4,2E0,1.0851608E3,3.6692E4,1.68E2,1.7875182E4,2.41197E5,5.8796E4,5.621E3,1.6766275E-1,1.2394386E-1,1.0542121E-1,2.5348267E-1,1.6180503E-1,1.275182E-1,2.5782415E-1,1.8457213E-1,1.9385444E-1,2.1682826E-1,1.6572687E-1,2.1620214E-1,2.4070679E-1,1.407347E-1,1.9367789E-1,2.4449985E-1],"split_indices":[9,20,41,39,6,27,27,14,38,27,32,28,15,17,8,0,0,0,0,0,0,0,0,0,0,0,0,0,0,0,0],"split_type":[0,0,0,0,0,0,0,0,0,0,0,0,0,0,0,0,0,0,0,0,0,0,0,0,0,0,0,0,0,0,0],"sum_hessian":[1.3172E4,7.973E3,5.199E3,3.603E3,4.37E3,3.954E3,1.245E3,3.547E3,5.6E1,3.475E3,8.95E2,2.55E3,1.404E3,9.4E2,3.05E2,2.61E2,3.286E3,1.1E1,4.5E1,2.975E3,5E2,7E1,8.25E2,1.43E3,1.12E3,1.124E3,2.8E2,9.3E2,1E1,1.9E2,1.15E2],"tree_param":{"num_deleted":"0","num_feature":"43","num_nodes":"31","size_leaf_vector":"1"}},{"base_weights":[3.2264802E0,2.831989E0,3.8253343E0,2.4214447E0,3.0657578E0,3.4903693E0,4.133429E0,3.118866E0,2.3217227E0,2.7517936E0,3.2691956E0,3.7356079E0,3.016098E0,3.9555295E0,4.4745536E0,2.5643784E-1,1.460452E-1,1.0842609E-1,1.3964751E-1,1.3188265E-1,1.8273455E-1,2.0583652E-1,1.6077973E-1,2.0614414E-1,1.7728968E-1,1.751957E-1,1.3475744E-1,2.3801318E-1,1.9525485E-1,1.7205165E-1,2.2708419E-1],"categories":[],"categories_nodes":[],"categories_segments":[],"categories_sizes":[],"default_left":[0,0,0,0,0,0,0,0,0,0,0,0,0,0,0,0,0,0,0,0,0,0,0,0,0,0,0,0,0,0,0],"id":18,"left_children":[1,3,5,7,9,11,13,15,17,19,21,23,25,27,29,-1,-1,-1,-1,-1,-1,-1,-1,-1,-1,-1,-1,-1,-1,-1,-1],"loss_changes":[3.124625E3,7.6047656E2,5.285781E2,1.9459961E2,3.1602734E2,2.8243555E2,1.4767578E2,1.2784961E2,1.7753906E2,1.9698047E2,1.2630859E2,1.069375E2,1.2583447E2,5.396289E1,4.816797E1,0E0,0E0,0E0,0E0,0E0,0E0,0E0,0E0,0E0,0E0,0E0,0E0,0E0,0E0,0E0,0E0],"parents":[2147483647,0,0,1,1,2,2,3,3,4,4,5,5,6,6,7,7,8,8,9,9,10,10,11,11,12,12,13,13,14,14],"right_children":[2,4,6,8,10,12,14,16,18,20,22,24,26,28,30,-1,-1,-1,-1,-1,-1,-1,-1,-1,-1,-1,-1,-1,-1,-1,-1],"split_conditions":[2E0,7.972E3,2.855E3,1E1,2.1E1,1.0072E4,1.3103E4,4.67E2,2.491293E-1,1.11353E5,1.133E3,-2.7856E4,3.138E3,5E0,2.8579E4,2.5643784E-1,1.460452E-1,1.0842609E-1,1.3964751E-1,1.3188265E-1,1.8273455E-1,2.0583652E-1,1.6077973E-1,2.0614414E-1,1.7728968E-1,1.751957E-1,1.3475744E-1,2.3801318E-1,1.9525485E-1,1.7205165E-1,2.2708419E-1],"split_indices":[9,20,6,30,1,27,9,22,39,23,22,27,9,19,13,0,0,0,0,0,0,0,0,0,0,0,0,0,0,0,0],"split_type":[0,0,0,0,0,0,0,0,0,0,0,0,0,0,0,0,0,0,0,0,0,0,0,0,0,0,0,0,0,0,0],"sum_hessian":[1.3274E4,8.006E3,5.268E3,2.909E3,5.097E3,2.53E3,2.738E3,3.6E2,2.549E3,2.01E3,3.087E3,1.663E3,8.67E2,1.808E3,9.3E2,3E1,3.3E2,1.928E3,6.21E2,1.788E3,2.22E2,1.79E2,2.908E3,5.4E2,1.123E3,3.4E2,5.27E2,1.01E2,1.707E3,6E1,8.7E2],"tree_param":{"num_deleted":"0","num_feature":"43","num_nodes":"31","size_leaf_vector":"1"}},{"base_weights":[3.088928E0,2.551899E0,3.5028527E0,2.3602939E0,2.9171066E0,3.26705E0,3.9974427E0,2.2083013E0,2.7602696E0,4.8152056E0,2.8593009E0,2.2576792E0,3.3156512E0,2.809672E0,4.0606937E0,1.6375875E-1,1.06131315E-1,2.4894023E-1,1.3474491E-1,2.6088625E-1,2.8729618E-2,1.1859516E-1,1.5554038E-1,2.1149842E-1,9.992811E-2,1.7338386E-1,1.5295766E-1,2.4805379E-1,1.23200215E-1,1.5296666E-1,2.0534407E-1],"categories":[],"categories_nodes":[],"categories_segments":[],"categories_sizes":[],"default_left":[0,0,0,0,0,0,0,0,0,0,0,0,0,0,0,0,0,0,0,0,0,0,0,0,0,0,0,0,0,0,0],"id":19,"left_children":[1,3,5,7,9,11,13,15,17,19,21,23,25,27,29,-1,-1,-1,-1,-1,-1,-1,-1,-1,-1,-1,-1,-1,-1,-1,-1],"loss_changes":[2.8831016E3,3.8921094E2,8.429453E2,2.1974219E2,1.9898047E2,2.3626172E2,1.6573438E2,2.3957324E2,1.3388916E2,9.201074E1,2.238789E2,1.0948767E2,1.7392188E2,7.8504944E1,9.055078E1,0E0,0E0,0E0,0E0,0E0,0E0,0E0,0E0,0E0,0E0,0E0,0E0,0E0,0E0,0E0,0E0],"parents":[2147483647,0,0,1,1,2,2,3,3,4,4,5,5,6,6,7,7,8,8,9,9,10,10,11,11,12,12,13,13,14,14],"right_children":[2,4,6,8,10,12,14,16,18,20,22,24,26,28,30,-1,-1,-1,-1,-1,-1,-1,-1,-1,-1,-1,-1,-1,-1,-1,-1],"split_conditions":[9.7E1,6.955914E0,4.5871027E-3,8.91E2,1.095E3,1.906E3,8.11E2,2E0,3.34E2,1.2831E4,5.2E1,-1.53292E5,7.196E3,1.13E2,4.705587E3,1.6375875E-1,1.06131315E-1,2.4894023E-1,1.3474491E-1,2.6088625E-1,2.8729618E-2,1.1859516E-1,1.5554038E-1,2.1149842E-1,9.992811E-2,1.7338386E-1,1.5295766E-1,2.4805379E-1,1.23200215E-1,1.5296666E-1,2.0534407E-1],"split_indices":[1,39,42,36,22,18,6,14,17,9,8,27,27,12,28,0,0,0,0,0,0,0,0,0,0,0,0,0,0,0,0],"split_type":[0,0,0,0,0,0,0,0,0,0,0,0,0,0,0,0,0,0,0,0,0,0,0,0,0,0,0,0,0,0,0],"sum_hessian":[1.3012E4,5.667E3,7.345E3,3.722E3,1.945E3,4.979E3,2.366E3,2.702E3,1.02E3,5.5E1,1.89E3,2.31E2,4.748E3,1.22E2,2.244E3,1.98E2,2.504E3,2.7E1,9.93E2,5E1,5E0,6.47E2,1.243E3,2.5E1,2.06E2,2.973E3,1.775E3,1.5E1,1.07E2,1.02E2,2.142E3],"tree_param":{"num_deleted":"0","num_feature":"43","num_nodes":"31","size_leaf_vector":"1"}},{"base_weights":[2.9345517E0,2.5602896E0,3.4779508E0,2.2978115E0,2.927666E0,3.31248E0,4.0555353E0,3.1411412E0,2.2434664E0,2.7439272E0,3.3386152E0,3.4866502E0,3.0220554E0,2.582567E0,4.085172E0,8.6746186E-2,1.8412861E-1,1.0112703E-1,1.20774984E-1,1.4394309E-1,1.1197337E-1,1.0704048E-1,1.6973938E-1,1.6448325E-1,1.8476693E-1,1.3348182E-1,1.6904859E-1,1.7675073E-1,4.7665954E-2,2.054714E-1,1.2891845E-1],"categories":[],"categories_nodes":[],"categories_segments":[],"categories_sizes":[],"default_left":[0,0,0,0,0,0,0,0,0,0,0,0,0,0,0,0,0,0,0,0,0,0,0,0,0,0,0,0,0,0,0],"id":20,"left_children":[1,3,5,7,9,11,13,15,17,19,21,23,25,27,29,-1,-1,-1,-1,-1,-1,-1,-1,-1,-1,-1,-1,-1,-1,-1,-1],"loss_changes":[2.6378047E3,7.3640234E2,4.929414E2,1.9879102E2,2.3260938E2,1.9772266E2,4.0164062E1,1.9863892E2,1.5558984E2,1.4442578E2,5.8586914E1,9.3E1,1.8718457E2,3.6527267E1,3.083789E1,0E0,0E0,0E0,0E0,0E0,0E0,0E0,0E0,0E0,0E0,0E0,0E0,0E0,0E0,0E0,0E0],"parents":[2147483647,0,0,1,1,2,2,3,3,4,4,5,5,6,6,7,7,8,8,9,9,10,10,11,11,12,12,13,13,14,14],"right_children":[2,4,6,8,10,12,14,16,18,20,22,24,26,28,30,-1,-1,-1,-1,-1,-1,-1,-1,-1,-1,-1,-1,-1,-1,-1,-1],"split_conditions":[2E0,3.6E1,5E0,-4.5632E4,1.4923E4,6.444E3,1.2202323E-3,9.2E1,1.87E2,2.1036E4,7.5E1,2.592313E-3,2.208E3,9.48E2,2.88344E5,8.6746186E-2,1.8412861E-1,1.0112703E-1,1.20774984E-1,1.4394309E-1,1.1197337E-1,1.0704048E-1,1.6973938E-1,1.6448325E-1,1.8476693E-1,1.3348182E-1,1.6904859E-1,1.7675073E-1,4.7665954E-2,2.054714E-1,1.2891845E-1],"split_indices":[9,1,7,27,22,27,42,8,36,27,19,42,6,9,27,0,0,0,0,0,0,0,0,0,0,0,0,0,0,0,0],"split_type":[0,0,0,0,0,0,0,0,0,0,0,0,0,0,0,0,0,0,0,0,0,0,0,0,0,0,0,0,0,0,0],"sum_hessian":[1.3016E4,7.711E3,5.305E3,4.502E3,3.209E3,4.129E3,1.176E3,2.69E2,4.233E3,2.223E3,9.86E2,2.574E3,1.555E3,2.5E1,1.151E3,7.6E1,1.93E2,1.859E3,2.374E3,1.75E3,4.73E2,4.6E1,9.4E2,1.333E3,1.241E3,7.89E2,7.66E2,1.5E1,1E1,1.131E3,2E1],"tree_param":{"num_deleted":"0","num_feature":"43","num_nodes":"31","size_leaf_vector":"1"}},{"base_weights":[2.8257067E0,2.5414472E0,3.4197931E0,2.2072237E0,2.8079498E0,3.2858152E0,3.9220152E0,2.8009374E0,2.0777955E0,2.9440718E0,2.4803271E0,2.8837152E0,3.369364E0,3.9996803E0,3.3526201E0,1.2732941E-1,2.1123934E-1,1.1001494E-1,8.0345616E-2,1.3942188E-1,1.619931E-1,2.0959432E-1,1.21014774E-1,2.1489063E-1,1.3311812E-1,1.6032624E-1,1.768654E-1,2.0125456E-1,1.2785436E-1,5.8279872E-2,1.721921E-1],"categories":[],"categories_nodes":[],"categories_segments":[],"categories_sizes":[],"default_left":[0,0,0,0,0,0,0,0,0,0,0,0,0,0,0,0,0,0,0,0,0,0,0,0,0,0,0,0,0,0,0],"id":21,"left_children":[1,3,5,7,9,11,13,15,17,19,21,23,25,27,29,-1,-1,-1,-1,-1,-1,-1,-1,-1,-1,-1,-1,-1,-1,-1,-1],"loss_changes":[2.166164E3,7.697383E2,2.6671094E2,2.9123047E2,2.0826562E2,1.0035156E2,2.4416016E1,2.3845117E2,1.7969336E2,1.4771094E2,1.3601855E2,1.6753174E2,6.242578E1,1.6983398E1,1.76698E1,0E0,0E0,0E0,0E0,0E0,0E0,0E0,0E0,0E0,0E0,0E0,0E0,0E0,0E0,0E0,0E0],"parents":[2147483647,0,0,1,1,2,2,3,3,4,4,5,5,6,6,7,7,8,8,9,9,10,10,11,11,12,12,13,13,14,14],"right_children":[2,4,6,8,10,12,14,16,18,20,22,24,26,28,30,-1,-1,-1,-1,-1,-1,-1,-1,-1,-1,-1,-1,-1,-1,-1,-1],"split_conditions":[1.944E3,2.0003153E3,1.4E1,1.022E3,1.0848E4,4.705587E3,4.876E4,1.0851608E3,7.12E2,3.5E1,1.245092E6,1.302E3,2.807E3,2.40444E5,4.24E3,1.2732941E-1,2.1123934E-1,1.1001494E-1,8.0345616E-2,1.3942188E-1,1.619931E-1,2.0959432E-1,1.21014774E-1,2.1489063E-1,1.3311812E-1,1.6032624E-1,1.768654E-1,2.0125456E-1,1.2785436E-1,5.8279872E-2,1.721921E-1],"split_indices":[6,38,7,22,27,28,22,38,12,9,2,13,9,27,17,0,0,0,0,0,0,0,0,0,0,0,0,0,0,0,0],"split_type":[0,0,0,0,0,0,0,0,0,0,0,0,0,0,0,0,0,0,0,0,0,0,0,0,0,0,0,0,0,0,0],"sum_hessian":[1.2881E4,8.716E3,4.165E3,3.871E3,4.845E3,3.294E3,8.71E2,6.89E2,3.182E3,3.417E3,1.428E3,5.73E2,2.721E3,7.61E2,1.1E2,5.87E2,1.02E2,2.522E3,6.6E2,2.246E3,1.171E3,4.6E1,1.382E3,7.5E1,4.98E2,1.392E3,1.329E3,7.46E2,1.5E1,5E0,1.05E2],"tree_param":{"num_deleted":"0","num_feature":"43","num_nodes":"31","size_leaf_vector":"1"}},{"base_weights":[2.7139244E0,2.0690231E0,2.9663312E0,3.0506027E0,2.0035818E0,2.6654482E0,3.204701E0,5.31671E0,2.6683114E0,1.9582134E0,3.233765E0,2.8145256E0,2.4209316E0,2.972544E0,3.5081446E0,2.877179E-1,1.2587255E-1,1.17189996E-1,2.5971958E-1,7.1628354E-2,1.01950586E-1,9.54469E-2,1.8312909E-1,1.7930941E-1,1.3753965E-1,1.2334736E-1,5.1311176E-2,1.7551878E-1,1.4530908E-1,6.202184E-2,1.7694107E-1],"categories":[],"categories_nodes":[],"categories_segments":[],"categories_sizes":[],"default_left":[0,0,0,0,0,0,0,0,0,0,0,0,0,0,0,0,0,0,0,0,0,0,0,0,0,0,0,0,0,0,0],"id":22,"left_children":[1,3,5,7,9,11,13,15,17,19,21,23,25,27,29,-1,-1,-1,-1,-1,-1,-1,-1,-1,-1,-1,-1,-1,-1,-1,-1],"loss_changes":[2.0653516E3,2.2360352E2,6.4683594E2,1.7733643E2,1.8084082E2,1.402539E2,3.480625E2,2.2664246E1,1.4446216E2,1.3459473E2,5.9488037E1,1.1289453E2,9.601758E1,9.2484375E1,1.4845312E2,0E0,0E0,0E0,0E0,0E0,0E0,0E0,0E0,0E0,0E0,0E0,0E0,0E0,0E0,0E0,0E0],"parents":[2147483647,0,0,1,1,2,2,3,3,4,4,5,5,6,6,7,7,8,8,9,9,10,10,11,11,12,12,13,13,14,14],"right_children":[2,4,6,8,10,12,14,16,18,20,22,24,26,28,30,-1,-1,-1,-1,-1,-1,-1,-1,-1,-1,-1,-1,-1,-1,-1,-1],"split_conditions":[1.7352E4,5.81E2,9.779115E3,6.048621E-8,2.136929E3,2.416E3,4.621E3,1.598948E6,5.94E2,1.7E1,1.55E3,1.133E3,2.34784E5,2.3E2,8.6E1,2.877179E-1,1.2587255E-1,1.17189996E-1,2.5971958E-1,7.1628354E-2,1.01950586E-1,9.54469E-2,1.8312909E-1,1.7930941E-1,1.3753965E-1,1.2334736E-1,5.1311176E-2,1.7551878E-1,1.4530908E-1,6.202184E-2,1.7694107E-1],"split_indices":[20,22,38,39,38,27,9,2,6,36,17,22,20,12,6,0,0,0,0,0,0,0,0,0,0,0,0,0,0,0,0],"split_type":[0,0,0,0,0,0,0,0,0,0,0,0,0,0,0,0,0,0,0,0,0,0,0,0,0,0,0,0,0,0,0],"sum_hessian":[1.2728E4,3.583E3,9.145E3,2.21E2,3.362E3,4.048E3,5.097E3,3E1,1.91E2,3.245E3,1.17E2,2.508E3,1.54E3,2.894E3,2.203E3,2.5E1,5E0,1.71E2,2E1,4.35E2,2.81E3,3E1,8.7E1,1.87E2,2.321E3,1.49E3,5E1,3.12E2,2.582E3,3E1,2.173E3],"tree_param":{"num_deleted":"0","num_feature":"43","num_nodes":"31","size_leaf_vector":"1"}},{"base_weights":[2.6086004E0,2.353903E0,3.1175396E0,1.9302427E0,2.5553474E0,2.9753668E0,3.479726E0,1.9944476E0,1.1915632E0,2.6076977E0,1.8905581E0,2.8624933E0,3.2386262E0,3.3165348E0,3.7724102E0,8.522671E-2,1.0981852E-1,6.259346E-2,-1.0406986E-2,1.0651232E-1,1.338363E-1,8.726738E-2,1.604556E-1,1.9749884E-1,1.4090772E-1,1.6406856E-1,6.759014E-2,1.701182E-1,1.1694278E-1,1.690009E-1,1.9829749E-1],"categories":[],"categories_nodes":[],"categories_segments":[],"categories_sizes":[],"default_left":[0,0,0,0,0,0,0,0,0,0,0,0,0,0,0,0,0,0,0,0,0,0,0,0,0,0,0,0,0,0,0],"id":23,"left_children":[1,3,5,7,9,11,13,15,17,19,21,23,25,27,29,-1,-1,-1,-1,-1,-1,-1,-1,-1,-1,-1,-1,-1,-1,-1,-1],"loss_changes":[1.6521016E3,7.233711E2,2.0877344E2,1.2801367E2,1.9591406E2,8.14043E1,4.395215E1,1.4420703E2,1.9188446E1,1.704414E2,7.546887E1,9.229492E1,6.881738E1,5.666797E1,1.7833008E1,0E0,0E0,0E0,0E0,0E0,0E0,0E0,0E0,0E0,0E0,0E0,0E0,0E0,0E0,0E0,0E0],"parents":[2147483647,0,0,1,1,2,2,3,3,4,4,5,5,6,6,7,7,8,8,9,9,10,10,11,11,12,12,13,13,14,14],"right_children":[2,4,6,8,10,12,14,16,18,20,22,24,26,28,30,-1,-1,-1,-1,-1,-1,-1,-1,-1,-1,-1,-1,-1,-1,-1,-1],"split_conditions":[1.944E3,7.972E3,2.1865676E-6,6.528E3,6.3968E4,2.6783E4,1.982E3,7.7E1,4.6204E4,5.2E1,1.34866E5,9.77E2,2.361864E6,7.4212E4,3.072E3,8.522671E-2,1.0981852E-1,6.259346E-2,-1.0406986E-2,1.0651232E-1,1.338363E-1,8.726738E-2,1.604556E-1,1.9749884E-1,1.4090772E-1,1.6406856E-1,6.759014E-2,1.701182E-1,1.1694278E-1,1.690009E-1,1.9829749E-1],"split_indices":[6,20,41,20,27,34,31,36,27,0,23,17,2,27,12,0,0,0,0,0,0,0,0,0,0,0,0,0,0,0,0],"split_type":[0,0,0,0,0,0,0,0,0,0,0,0,0,0,0,0,0,0,0,0,0,0,0,0,0,0,0,0,0,0,0],"sum_hessian":[1.2805E4,8.538E3,4.267E3,2.755E3,5.783E3,3.071E3,1.196E3,2.533E3,2.22E2,5.358E3,4.25E2,2.158E3,9.13E2,7.76E2,4.2E2,1.044E3,1.489E3,2.13E2,9E0,6.81E2,4.677E3,3.85E2,4E1,8.1E1,2.077E3,8.92E2,2.1E1,7.11E2,6.5E1,1.45E2,2.75E2],"tree_param":{"num_deleted":"0","num_feature":"43","num_nodes":"31","size_leaf_vector":"1"}},{"base_weights":[2.4998229E0,2.2429106E0,2.9299157E0,1.985094E0,2.4404476E0,2.7207274E0,3.1472492E0,3.2022383E0,1.9248096E0,2.5207264E0,2.0043604E0,3.079328E0,2.6148293E0,3.0232532E0,3.3961947E0,8.281886E-2,2.081155E-1,1.2306049E-1,9.302782E-2,1.1559343E-1,1.3671845E-1,1.4190361E-1,8.968318E-2,9.1862686E-2,1.6222611E-1,1.1269436E-1,1.3630931E-1,1.5369241E-1,1.09026246E-1,1.8948838E-1,1.6309339E-1],"categories":[],"categories_nodes":[],"categories_segments":[],"categories_sizes":[],"default_left":[0,0,0,0,0,0,0,0,0,0,0,0,0,0,0,0,0,0,0,0,0,0,0,0,0,0,0,0,0,0,0],"id":24,"left_children":[1,3,5,7,9,11,13,15,17,19,21,23,25,27,29,-1,-1,-1,-1,-1,-1,-1,-1,-1,-1,-1,-1,-1,-1,-1,-1],"loss_changes":[1.3829531E3,3.9602734E2,2.0457422E2,2.445586E2,1.5052734E2,8.263086E1,6.0054688E1,2.2998572E2,1.0751758E2,1.6094922E2,1.1705737E2,1.04740234E2,6.819824E1,5.8606445E1,2.6901367E1,0E0,0E0,0E0,0E0,0E0,0E0,0E0,0E0,0E0,0E0,0E0,0E0,0E0,0E0,0E0,0E0],"parents":[2147483647,0,0,1,1,2,2,3,3,4,4,5,5,6,6,7,7,8,8,9,9,10,10,11,11,12,12,13,13,14,14],"right_children":[2,4,6,8,10,12,14,16,18,20,22,24,26,28,30,-1,-1,-1,-1,-1,-1,-1,-1,-1,-1,-1,-1,-1,-1,-1,-1],"split_conditions":[4.382E3,1.7352E4,4.621E3,-5.7092E4,3.1044E4,-3.7268E4,1.9610077E-5,1.19E2,1E1,1E2,1.3002E4,4.82E2,6.527E3,1.1398E4,2.1894485E3,8.281886E-2,2.081155E-1,1.2306049E-1,9.302782E-2,1.1559343E-1,1.3671845E-1,1.4190361E-1,8.968318E-2,9.1862686E-2,1.6222611E-1,1.1269436E-1,1.3630931E-1,1.5369241E-1,1.09026246E-1,1.8948838E-1,1.6309339E-1],"split_indices":[0,20,9,27,27,27,41,8,30,1,15,12,22,4,29,0,0,0,0,0,0,0,0,0,0,0,0,0,0,0,0],"split_type":[0,0,0,0,0,0,0,0,0,0,0,0,0,0,0,0,0,0,0,0,0,0,0,0,0,0,0,0,0,0,0],"sum_hessian":[1.2579E4,7.879E3,4.7E3,3.423E3,4.456E3,2.402E3,2.298E3,1.59E2,3.264E3,3.759E3,6.97E2,5.41E2,1.861E3,1.543E3,7.55E2,6.2E1,9.7E1,3.45E2,2.919E3,1.907E3,1.852E3,1.38E2,5.59E2,6.5E1,4.76E2,4.44E2,1.417E3,1.453E3,9E1,1.85E2,5.7E2],"tree_param":{"num_deleted":"0","num_feature":"43","num_nodes":"31","size_leaf_vector":"1"}},{"base_weights":[2.4081576E0,2.0354016E0,2.6557395E0,2.7837315E0,1.9818023E0,2.4199312E0,2.859749E0,4.4485674E0,2.535244E0,1.8336167E0,2.2355735E0,2.5113096E0,2.0738306E0,3.0932572E0,2.7225175E0,1.1074364E-1,2.5371286E-1,1.02106035E-1,1.7188202E-1,1.1917937E-1,8.739802E-2,1.24229334E-1,9.176094E-2,1.1903228E-1,1.3710015E-1,9.5521376E-2,1.4867823E-1,1.3731223E-1,1.5918165E-1,1.2810631E-1,1.500087E-1],"categories":[],"categories_nodes":[],"categories_segments":[],"categories_sizes":[],"default_left":[0,0,0,0,0,0,0,0,0,0,0,0,0,0,0,0,0,0,0,0,0,0,0,0,0,0,0,0,0,0,0],"id":25,"left_children":[1,3,5,7,9,11,13,15,17,19,21,23,25,27,29,-1,-1,-1,-1,-1,-1,-1,-1,-1,-1,-1,-1,-1,-1,-1,-1],"loss_changes":[1.1575938E3,1.96E2,3.5682422E2,1.26196045E2,1.7235156E2,1.0562695E2,1.2090625E2,4.6731384E1,1.228147E2,1.3556738E2,1.673789E2,7.672656E1,1.0277246E2,3.748633E1,1.0585156E2,0E0,0E0,0E0,0E0,0E0,0E0,0E0,0E0,0E0,0E0,0E0,0E0,0E0,0E0,0E0,0E0],"parents":[2147483647,0,0,1,1,2,2,3,3,4,4,5,5,6,6,7,7,8,8,9,9,10,10,11,11,12,12,13,13,14,14],"right_children":[2,4,6,8,10,12,14,16,18,20,22,24,26,28,30,-1,-1,-1,-1,-1,-1,-1,-1,-1,-1,-1,-1,-1,-1,-1,-1],"split_conditions":[4.8E1,-4.6728E4,6.61E2,1.322E3,1.7410747E3,2.2584E4,-2.6524E4,4.2E1,4.404E3,1.5E1,1.524E3,6.283E3,1.808E4,9.237956E3,1.5623E4,1.1074364E-1,2.5371286E-1,1.02106035E-1,1.7188202E-1,1.1917937E-1,8.739802E-2,1.24229334E-1,9.176094E-2,1.1903228E-1,1.3710015E-1,9.5521376E-2,1.4867823E-1,1.3731223E-1,1.5918165E-1,1.2810631E-1,1.500087E-1],"split_indices":[1,27,9,22,38,27,27,5,21,32,21,32,0,28,36,0,0,0,0,0,0,0,0,0,0,0,0,0,0,0,0],"split_type":[0,0,0,0,0,0,0,0,0,0,0,0,0,0,0,0,0,0,0,0,0,0,0,0,0,0,0,0,0,0,0],"sum_hessian":[1.2606E4,5.035E3,7.571E3,3.33E2,4.702E3,3.518E3,4.053E3,4.1E1,2.92E2,2.974E3,1.728E3,2.778E3,7.4E2,1.492E3,2.561E3,1E1,3.1E1,1.91E2,1.01E2,3.97E2,2.577E3,1.062E3,6.66E2,1.781E3,9.97E2,6.29E2,1.11E2,3.15E2,1.177E3,1.63E3,9.31E2],"tree_param":{"num_deleted":"0","num_feature":"43","num_nodes":"31","size_leaf_vector":"1"}},{"base_weights":[2.2977073E0,2.1004305E0,2.7062416E0,1.8340924E0,2.2706125E0,2.4430788E0,2.8615377E0,2.1590242E0,1.6876246E0,2.3241663E0,1.5008545E0,3.1898298E0,2.3521814E0,2.883769E0,9.982584E-1,1.03128195E-1,2.3016663E-1,7.186401E-2,9.50476E-2,1.4516255E-1,1.1368437E-1,5.9148014E-2,1.0945002E-1,1.8985115E-1,1.1061817E-1,6.9995776E-2,1.2068728E-1,1.3732256E-1,1.5963921E-1,1.8972076E-2,7.742171E-2],"categories":[],"categories_nodes":[],"categories_segments":[],"categories_sizes":[],"default_left":[0,0,0,0,0,0,0,0,0,0,0,0,0,0,0,0,0,0,0,0,0,0,0,0,0,0,0,0,0,0,0],"id":26,"left_children":[1,3,5,7,9,11,13,15,17,19,21,23,25,27,29,-1,-1,-1,-1,-1,-1,-1,-1,-1,-1,-1,-1,-1,-1,-1,-1],"loss_changes":[9.7901953E2,3.6926953E2,1.5500977E2,1.4926562E2,2.0340039E2,9.260547E1,1.0008594E2,2.2491064E2,1.15760254E2,1.3024023E2,6.9263306E1,8.4773315E1,7.397705E1,9.5234375E1,9.773872E0,0E0,0E0,0E0,0E0,0E0,0E0,0E0,0E0,0E0,0E0,0E0,0E0,0E0,0E0,0E0,0E0],"parents":[2147483647,0,0,1,1,2,2,3,3,4,4,5,5,6,6,7,7,8,8,9,9,10,10,11,11,12,12,13,13,14,14],"right_children":[2,4,6,8,10,12,14,16,18,20,22,24,26,28,30,-1,-1,-1,-1,-1,-1,-1,-1,-1,-1,-1,-1,-1,-1,-1,-1],"split_conditions":[1.997E3,5.708E3,2.1136E4,7.09E2,6.6632E4,1.736E3,2.88344E5,3.56E2,3.4817174E-5,-4.942E4,1.002E3,7.597E3,1.6029993E3,4.658E4,4E0,1.03128195E-1,2.3016663E-1,7.186401E-2,9.50476E-2,1.4516255E-1,1.1368437E-1,5.9148014E-2,1.0945002E-1,1.8985115E-1,1.1061817E-1,6.9995776E-2,1.2068728E-1,1.3732256E-1,1.5963921E-1,1.8972076E-2,7.742171E-2],"split_indices":[6,15,13,17,27,10,27,8,42,27,19,22,28,14,7,0,0,0,0,0,0,0,0,0,0,0,0,0,0,0,0],"split_type":[0,0,0,0,0,0,0,0,0,0,0,0,0,0,0,0,0,0,0,0,0,0,0,0,0,0,0,0,0,0,0],"sum_hessian":[1.2223E4,8.247E3,3.976E3,3.22E3,5.027E3,1.482E3,2.494E3,9.96E2,2.224E3,4.698E3,3.29E2,1.57E2,1.325E3,2.464E3,3E1,9.6E2,3.6E1,1.027E3,1.197E3,3.72E2,4.326E3,2.27E2,1.02E2,9.5E1,6.2E1,8.2E1,1.243E3,1.713E3,7.51E2,1.5E1,1.5E1],"tree_param":{"num_deleted":"0","num_feature":"43","num_nodes":"31","size_leaf_vector":"1"}},{"base_weights":[2.203951E0,1.9648298E0,2.5527797E0,2.544145E0,1.8895924E0,2.4523501E0,2.9114974E0,3.8266153E0,2.3890533E0,1.6250105E0,2.0446517E0,1.3589445E0,2.4857786E0,3.057476E0,2.535495E0,2.1354495E-1,8.439159E-2,7.043759E-2,1.2649988E-1,1.1955126E-1,7.681516E-2,8.812458E-2,1.0846777E-1,1.5115179E-2,8.1784315E-2,1.6445309E-1,1.2232353E-1,9.772185E-2,1.5493467E-1,8.735721E-2,1.377949E-1],"categories":[],"categories_nodes":[],"categories_segments":[],"categories_sizes":[],"default_left":[0,0,0,0,0,0,0,0,0,0,0,0,0,0,0,0,0,0,0,0,0,0,0,0,0,0,0,0,0,0,0],"id":27,"left_children":[1,3,5,7,9,11,13,15,17,19,21,23,25,27,29,-1,-1,-1,-1,-1,-1,-1,-1,-1,-1,-1,-1,-1,-1,-1,-1],"loss_changes":[1.0262578E3,3.1480273E2,1.7342578E2,1.5751172E2,2.6310352E2,1.400293E2,5.173633E1,7.6765625E1,1.0008203E2,1.5956055E2,1.3990625E2,3.41093E1,1.1187305E2,2.9038086E1,4.894629E1,0E0,0E0,0E0,0E0,0E0,0E0,0E0,0E0,0E0,0E0,0E0,0E0,0E0,0E0,0E0,0E0],"parents":[2147483647,0,0,1,1,2,2,3,3,4,4,5,5,6,6,7,7,8,8,9,9,10,10,11,11,12,12,13,13,14,14],"right_children":[2,4,6,8,10,12,14,16,18,20,22,24,26,28,30,-1,-1,-1,-1,-1,-1,-1,-1,-1,-1,-1,-1,-1,-1,-1,-1],"split_conditions":[9.779115E3,-3.7268E4,6E0,1.4E1,7.972E3,6E2,2.4864E4,1.019E3,1.1E2,3.5E1,4.97E2,4.7851E4,1.44E2,9.1E1,1.0767E4,2.1354495E-1,8.439159E-2,7.043759E-2,1.2649988E-1,1.1955126E-1,7.681516E-2,8.812458E-2,1.0846777E-1,1.5115179E-2,8.1784315E-2,1.6445309E-1,1.2232353E-1,9.772185E-2,1.5493467E-1,8.735721E-2,1.377949E-1],"split_indices":[38,27,7,36,20,13,27,32,6,10,34,18,12,30,6,0,0,0,0,0,0,0,0,0,0,0,0,0,0,0,0],"split_type":[0,0,0,0,0,0,0,0,0,0,0,0,0,0,0,0,0,0,0,0,0,0,0,0,0,0,0,0,0,0,0],"sum_hessian":[1.2368E4,7.342E3,5.026E3,8.4E2,6.502E3,3.933E3,1.093E3,8.8E1,7.52E2,2.407E3,4.095E3,1.18E2,3.815E3,7.82E2,3.11E2,7.2E1,1.6E1,9.6E1,6.56E2,2.47E2,2.16E3,1.26E3,2.835E3,2.5E1,9.3E1,1.74E2,3.641E3,3E1,7.52E2,7E1,2.41E2],"tree_param":{"num_deleted":"0","num_feature":"43","num_nodes":"31","size_leaf_vector":"1"}},{"base_weights":[2.107181E0,1.8941245E0,2.426287E0,1.7030365E0,2.0605025E0,2.3804967E0,2.9767475E0,2.0437245E0,1.5515449E0,2.656667E0,2.00927E0,2.243485E0,2.5320263E0,2.0203068E0,3.05868E0,9.163334E-2,1.5397075E-1,6.9206394E-2,9.0639584E-2,2.8622964E-2,1.3852584E-1,4.2419977E-2,1.0184933E-1,8.563231E-3,1.12877205E-1,1.02725305E-1,1.3080244E-1,4.774028E-2,1.1128112E-1,1.7222767E-1,1.3989808E-1],"categories":[],"categories_nodes":[],"categories_segments":[],"categories_sizes":[],"default_left":[0,0,0,0,0,0,0,0,0,0,0,0,0,0,0,0,0,0,0,0,0,0,0,0,0,0,0,0,0,0,0],"id":28,"left_children":[1,3,5,7,9,11,13,15,17,19,21,23,25,27,29,-1,-1,-1,-1,-1,-1,-1,-1,-1,-1,-1,-1,-1,-1,-1,-1],"loss_changes":[8.163281E2,2.2658203E2,1.14197266E2,1.7091602E2,1.12396484E2,8.6583984E1,2.2072021E1,2.2054395E2,9.969141E1,6.997754E1,1.1278516E2,6.798047E1,7.89375E1,4.557373E0,2.354126E1,0E0,0E0,0E0,0E0,0E0,0E0,0E0,0E0,0E0,0E0,0E0,0E0,0E0,0E0,0E0,0E0],"parents":[2147483647,0,0,1,1,2,2,3,3,4,4,5,5,6,6,7,7,8,8,9,9,10,10,11,11,12,12,13,13,14,14],"right_children":[2,4,6,8,10,12,14,16,18,20,22,24,26,28,30,-1,-1,-1,-1,-1,-1,-1,-1,-1,-1,-1,-1,-1,-1,-1,-1],"split_conditions":[9.779115E3,5.708E3,1.1908194E4,7.09E2,2E0,2.939E3,9.684E3,1.1902701E-4,2.8935707E-1,7.2064336E-7,1.9172453E-6,-1.34822E5,1.46E2,1.71E2,2.0934E4,9.163334E-2,1.5397075E-1,6.9206394E-2,9.0639584E-2,2.8622964E-2,1.3852584E-1,4.2419977E-2,1.0184933E-1,8.563231E-3,1.12877205E-1,1.02725305E-1,1.3080244E-1,4.774028E-2,1.1128112E-1,1.7222767E-1,1.3989808E-1],"split_indices":[38,15,29,17,24,9,0,42,39,42,42,25,8,1,1,0,0,0,0,0,0,0,0,0,0,0,0,0,0,0,0],"split_type":[0,0,0,0,0,0,0,0,0,0,0,0,0,0,0,0,0,0,0,0,0,0,0,0,0,0,0,0,0,0,0],"sum_hessian":[1.208E4,7.248E3,4.832E3,3.379E3,3.869E3,4.466E3,3.66E2,1.036E3,2.343E3,3.02E2,3.567E3,2.354E3,2.112E3,3.1E1,3.35E2,8.63E2,1.73E2,1.432E3,9.11E2,1.6E1,2.86E2,8.4E1,3.483E3,1.6E1,2.338E3,3.2E2,1.792E3,6E0,2.5E1,1.3E2,2.05E2],"tree_param":{"num_deleted":"0","num_feature":"43","num_nodes":"31","size_leaf_vector":"1"}},{"base_weights":[2.0233126E0,1.7967317E0,2.3176384E0,1.5420461E0,1.9356093E0,2.46094E0,2.0929518E0,2.4668217E0,1.4730085E0,1.0579484E0,1.9660002E0,2.2406456E0,2.5658364E0,1.8193713E0,2.3467824E0,1.0326924E-1,2.2648402E-1,1.1300603E-1,7.0679866E-2,2.8603697E-2,7.5790025E-2,1.3776346E-1,9.715425E-2,1.3781711E-1,1.0220734E-1,1.2594776E-1,1.5300326E-1,7.692005E-2,1.0394534E-1,9.8248385E-2,1.2855037E-1],"categories":[],"categories_nodes":[],"categories_segments":[],"categories_sizes":[],"default_left":[0,0,0,0,0,0,0,0,0,0,0,0,0,0,0,0,0,0,0,0,0,0,0,0,0,0,0,0,0,0,0],"id":29,"left_children":[1,3,5,7,9,11,13,15,17,19,21,23,25,27,29,-1,-1,-1,-1,-1,-1,-1,-1,-1,-1,-1,-1,-1,-1,-1,-1],"loss_changes":[7.9522266E2,2.3651172E2,1.6223828E2,1.4907129E2,1.14552734E2,6.718555E1,1.3676953E2,1.2662268E2,1.0090723E2,3.2070404E1,7.078906E1,9.856348E1,4.1433594E1,6.826782E1,8.4643555E1,0E0,0E0,0E0,0E0,0E0,0E0,0E0,0E0,0E0,0E0,0E0,0E0,0E0,0E0,0E0,0E0],"parents":[2147483647,0,0,1,1,2,2,3,3,4,4,5,5,6,6,7,7,8,8,9,9,10,10,11,11,12,12,13,13,14,14],"right_children":[2,4,6,8,10,12,14,16,18,20,22,24,26,28,30,-1,-1,-1,-1,-1,-1,-1,-1,-1,-1,-1,-1,-1,-1,-1,-1],"split_conditions":[6.374844E-4,7.972E3,2.016E3,5.81E2,1.2502618E-6,9.779115E3,2.5141E4,6.7E1,-3.8436E4,5E1,1.4E1,1.768E3,1.1602702E4,2.795E3,9.78E2,1.0326924E-1,2.2648402E-1,1.1300603E-1,7.0679866E-2,2.8603697E-2,7.5790025E-2,1.3776346E-1,9.715425E-2,1.3781711E-1,1.0220734E-1,1.2594776E-1,1.5300326E-1,7.692005E-2,1.0394534E-1,9.8248385E-2,1.2855037E-1],"split_indices":[42,20,27,22,42,38,13,14,27,14,12,17,29,32,8,0,0,0,0,0,0,0,0,0,0,0,0,0,0,0,0],"split_type":[0,0,0,0,0,0,0,0,0,0,0,0,0,0,0,0,0,0,0,0,0,0,0,0,0,0,0,0,0,0,0],"sum_hessian":[1.1992E4,6.78E3,5.212E3,2.397E3,4.383E3,3.176E3,2.036E3,1.64E2,2.233E3,1.48E2,4.235E3,1.032E3,2.144E3,9.84E2,1.052E3,1.39E2,2.5E1,1.54E2,2.079E3,7.3E1,7.5E1,1.16E2,4.119E3,2.81E2,7.51E2,1.964E3,1.8E2,4.76E2,5.08E2,3.93E2,6.59E2],"tree_param":{"num_deleted":"0","num_feature":"43","num_nodes":"31","size_leaf_vector":"1"}},{"base_weights":[1.9638727E0,1.599413E0,2.1067207E0,1.9451921E0,1.4572222E0,1.9567593E0,2.2803473E0,1.8344386E0,4.0761204E0,1.3629858E0,1.979625E0,2.0759E0,1.6551526E0,3.0600927E0,2.2416244E0,1.2109747E-1,7.872269E-2,2.4112414E-1,8.440159E-2,5.757932E-2,7.5960636E-2,8.358582E-2,1.403362E-1,4.902528E-2,1.0507207E-1,7.120457E-2,9.719705E-2,2.0545399E-1,1.3490129E-1,1.0178395E-1,1.213756E-1],"categories":[],"categories_nodes":[],"categories_segments":[],"categories_sizes":[],"default_left":[0,0,0,0,0,0,0,0,0,0,0,0,0,0,0,0,0,0,0,0,0,0,0,0,0,0,0,0,0,0,0],"id":30,"left_children":[1,3,5,7,9,11,13,15,17,19,21,23,25,27,29,-1,-1,-1,-1,-1,-1,-1,-1,-1,-1,-1,-1,-1,-1,-1,-1],"loss_changes":[6.2501953E2,1.642373E2,2.209336E2,2.2534302E2,1.1595508E2,1.6367969E2,1.137793E2,1.3967188E2,7.6762695E1,6.572046E1,8.832434E1,9.099219E1,8.530884E1,5.9256226E1,1.4111914E2,0E0,0E0,0E0,0E0,0E0,0E0,0E0,0E0,0E0,0E0,0E0,0E0,0E0,0E0,0E0,0E0],"parents":[2147483647,0,0,1,1,2,2,3,3,4,4,5,5,6,6,7,7,8,8,9,9,10,10,11,11,12,12,13,13,14,14],"right_children":[2,4,6,8,10,12,14,16,18,20,22,24,26,28,30,-1,-1,-1,-1,-1,-1,-1,-1,-1,-1,-1,-1,-1,-1,-1,-1],"split_conditions":[1.7410747E3,7.09E2,3.98E2,2.73E2,4.7364035E0,1.4852E4,4.16E2,2E0,4.4022455E2,3.0279221E-5,5.8E1,1.3798575E-6,7.0193E4,5.3E1,2.5721E4,1.2109747E-1,7.872269E-2,2.4112414E-1,8.440159E-2,5.757932E-2,7.5960636E-2,8.358582E-2,1.403362E-1,4.902528E-2,1.0507207E-1,7.120457E-2,9.719705E-2,2.0545399E-1,1.3490129E-1,1.0178395E-1,1.213756E-1],"split_indices":[38,17,8,8,39,27,5,19,38,42,19,42,23,19,13,0,0,0,0,0,0,0,0,0,0,0,0,0,0,0,0],"split_type":[0,0,0,0,0,0,0,0,0,0,0,0,0,0,0,0,0,0,0,0,0,0,0,0,0,0,0,0,0,0,0],"sum_hessian":[1.2076E4,3.404E3,8.672E3,9.88E2,2.416E3,4.66E3,4.012E3,9.41E2,4.7E1,2.05E3,3.66E2,3.336E3,1.324E3,1.86E2,3.826E3,2.86E2,6.55E2,3.5E1,1.2E1,8.75E2,1.175E3,2.69E2,9.7E1,7.7E1,3.259E3,7.39E2,5.85E2,4.5E1,1.41E2,1.821E3,2.005E3],"tree_param":{"num_deleted":"0","num_feature":"43","num_nodes":"31","size_leaf_vector":"1"}},{"base_weights":[1.860537E0,1.7018393E0,2.1762395E0,1.45795E0,1.8328978E0,1.9657016E0,2.3035336E0,1.9086925E0,1.3850052E0,1.87975E0,1.2372977E0,2.3301804E0,1.7901983E0,2.3184087E0,1.1326443E0,1.4520046E-1,7.872809E-2,6.258902E-2,8.071197E-2,1.2531948E-1,9.199451E-2,5.362286E-2,1.08209684E-1,9.6014306E-2,1.3065839E-1,9.643565E-2,7.487313E-2,1.0385747E-1,1.19873084E-1,1.3382898E-1,1.7032359E-2],"categories":[],"categories_nodes":[],"categories_segments":[],"categories_sizes":[],"default_left":[0,0,0,0,0,0,0,0,0,0,0,0,0,0,0,0,0,0,0,0,0,0,0,0,0,0,0,0,0,0,0],"id":31,"left_children":[1,3,5,7,9,11,13,15,17,19,21,23,25,27,29,-1,-1,-1,-1,-1,-1,-1,-1,-1,-1,-1,-1,-1,-1,-1,-1],"loss_changes":[5.910586E2,2.4983203E2,1.0144336E2,8.810254E1,1.4082227E2,9.155859E1,4.001367E1,1.22352295E2,7.062158E1,1.1394922E2,5.5109924E1,5.078589E1,3.808789E1,4.1033203E1,3.913865E1,0E0,0E0,0E0,0E0,0E0,0E0,0E0,0E0,0E0,0E0,0E0,0E0,0E0,0E0,0E0,0E0],"parents":[2147483647,0,0,1,1,2,2,3,3,4,4,5,5,6,6,7,7,8,8,9,9,10,10,11,11,12,12,13,13,14,14],"right_children":[2,4,6,8,10,12,14,16,18,20,22,24,26,28,30,-1,-1,-1,-1,-1,-1,-1,-1,-1,-1,-1,-1,-1,-1,-1,-1],"split_conditions":[1.997E3,1.1678596E3,1.8831443E4,1.6376677E2,6.3968E4,8.05E2,2.88344E5,5.4E1,1E0,-7.0164E4,1.341E3,4.2193687E3,-1.28E2,4.485E3,4.94E2,1.4520046E-1,7.872809E-2,6.258902E-2,8.071197E-2,1.2531948E-1,9.199451E-2,5.362286E-2,1.08209684E-1,9.6014306E-2,1.3065839E-1,9.643565E-2,7.487313E-2,1.0385747E-1,1.19873084E-1,1.3382898E-1,1.7032359E-2],"split_indices":[6,38,28,38,27,30,27,10,1,27,6,28,27,6,31,0,0,0,0,0,0,0,0,0,0,0,0,0,0,0,0],"split_type":[0,0,0,0,0,0,0,0,0,0,0,0,0,0,0,0,0,0,0,0,0,0,0,0,0,0,0,0,0,0,0],"sum_hessian":[1.1878E4,7.909E3,3.969E3,2.769E3,5.14E3,1.502E3,2.467E3,3.82E2,2.387E3,4.763E3,3.77E2,4.84E2,1.018E3,2.435E3,3.2E1,9.4E1,2.88E2,1.514E3,8.73E2,2.81E2,4.482E3,3.22E2,5.5E1,2.01E2,2.83E2,6.87E2,3.31E2,6.08E2,1.827E3,1E1,2.2E1],"tree_param":{"num_deleted":"0","num_feature":"43","num_nodes":"31","size_leaf_vector":"1"}},{"base_weights":[1.8043807E0,1.4832906E0,1.9368408E0,1.4531425E0,2.744285E0,1.8195845E0,2.1359615E0,1.4370533E0,3.10798E0,3.1410978E0,5.109065E-1,2.3401837E0,1.7654502E0,2.0627236E0,2.3719754E0,1.0124897E-1,6.969769E-2,1.9252777E-1,6.9935046E-2,6.0237266E-2,1.731788E-1,4.7109824E-2,5.5537904E-3,1.6327854E-1,1.0527688E-1,7.334304E-2,9.276028E-2,1.0868984E-1,9.091914E-2,7.7697664E-2,1.2176275E-1],"categories":[],"categories_nodes":[],"categories_segments":[],"categories_sizes":[],"default_left":[0,0,0,0,0,0,0,0,0,0,0,0,0,0,0,0,0,0,0,0,0,0,0,0,0,0,0,0,0,0,0],"id":32,"left_children":[1,3,5,7,9,11,13,15,17,19,21,23,25,27,29,-1,-1,-1,-1,-1,-1,-1,-1,-1,-1,-1,-1,-1,-1,-1,-1],"loss_changes":[4.9011328E2,1.2454443E2,1.8735938E2,8.334131E1,6.715613E1,1.4124219E2,4.714258E1,8.007471E1,3.3436646E1,3.6572876E1,2.0317762E0,9.768213E1,1.2263867E2,5.874707E1,3.267285E1,0E0,0E0,0E0,0E0,0E0,0E0,0E0,0E0,0E0,0E0,0E0,0E0,0E0,0E0,0E0,0E0],"parents":[2147483647,0,0,1,1,2,2,3,3,4,4,5,5,6,6,7,7,8,8,9,9,10,10,11,11,12,12,13,13,14,14],"right_children":[2,4,6,8,10,12,14,16,18,20,22,24,26,28,30,-1,-1,-1,-1,-1,-1,-1,-1,-1,-1,-1,-1,-1,-1,-1,-1],"split_conditions":[5E0,1.443E3,2.3249E4,2.5653E5,6.951E3,-5.7092E4,3.51357E5,1.507E3,3.01872E5,3.585E3,1E0,2.4E1,3.51E2,1.5972E4,6.367E3,1.0124897E-1,6.969769E-2,1.9252777E-1,6.9935046E-2,6.0237266E-2,1.731788E-1,4.7109824E-2,5.5537904E-3,1.6327854E-1,1.0527688E-1,7.334304E-2,9.276028E-2,1.0868984E-1,9.091914E-2,7.7697664E-2,1.2176275E-1],"split_indices":[1,8,13,15,15,27,15,20,15,20,1,19,34,27,14,0,0,0,0,0,0,0,0,0,0,0,0,0,0,0,0],"split_type":[0,0,0,0,0,0,0,0,0,0,0,0,0,0,0,0,0,0,0,0,0,0,0,0,0,0,0,0,0,0,0],"sum_hessian":[1.1598E4,3.391E3,8.207E3,3.314E3,7.7E1,5.172E3,3.035E3,3.284E3,3E1,6.5E1,1.2E1,4.83E2,4.689E3,2.324E3,7.11E2,2.21E2,3.063E3,2E1,1E1,1E1,5.5E1,5E0,7E0,9.5E1,3.88E2,1.088E3,3.601E3,1.592E3,7.32E2,5.3E1,6.58E2],"tree_param":{"num_deleted":"0","num_feature":"43","num_nodes":"31","size_leaf_vector":"1"}},{"base_weights":[1.7338048E0,1.39265E0,1.8611642E0,2.1608639E0,1.3150572E0,1.731595E0,2.001475E0,1.2221332E0,2.4975052E0,2.1599083E0,1.245457E0,2.1884475E0,1.6812478E0,2.2822254E0,1.9366248E0,3.4460727E-2,2.0215039E-1,2.022227E-1,1.0163324E-1,1.360256E-1,4.831868E-2,4.2182446E-2,6.625459E-2,9.895938E-2,1.502975E-1,8.560363E-2,5.357021E-2,1.0975015E-1,1.4609386E-1,1.2961796E-1,9.456746E-2],"categories":[],"categories_nodes":[],"categories_segments":[],"categories_sizes":[],"default_left":[0,0,0,0,0,0,0,0,0,0,0,0,0,0,0,0,0,0,0,0,0,0,0,0,0,0,0,0,0,0,0],"id":33,"left_children":[1,3,5,7,9,11,13,15,17,19,21,23,25,27,29,-1,-1,-1,-1,-1,-1,-1,-1,-1,-1,-1,-1,-1,-1,-1,-1],"loss_changes":[4.9414453E2,1.8243018E2,1.4754688E2,8.63241E1,1.6343701E2,9.568945E1,6.782129E1,1.1249412E2,1.4074097E2,1.4018964E2,8.2436035E1,6.659924E1,7.140723E1,3.452832E1,9.110742E1,0E0,0E0,0E0,0E0,0E0,0E0,0E0,0E0,0E0,0E0,0E0,0E0,0E0,0E0,0E0,0E0],"parents":[2147483647,0,0,1,1,2,2,3,3,4,4,5,5,6,6,7,7,8,8,9,9,10,10,11,11,12,12,13,13,14,14],"right_children":[2,4,6,8,10,12,14,16,18,20,22,24,26,28,30,-1,-1,-1,-1,-1,-1,-1,-1,-1,-1,-1,-1,-1,-1,-1,-1],"split_conditions":[1.6243E4,-3.7268E4,1.3190935E4,1.13E2,3.5E1,5.13E2,-6.1832E4,2.986E3,1.322E3,1.373E3,3.6E1,4.5E2,8.8532E4,6.665515E4,2.3E2,3.4460727E-2,2.0215039E-1,2.022227E-1,1.0163324E-1,1.360256E-1,4.831868E-2,4.2182446E-2,6.625459E-2,9.895938E-2,1.502975E-1,8.560363E-2,5.357021E-2,1.0975015E-1,1.4609386E-1,1.2961796E-1,9.456746E-2],"split_indices":[20,27,38,8,10,17,27,22,22,22,0,17,27,28,12,0,0,0,0,0,0,0,0,0,0,0,0,0,0,0,0],"split_type":[0,0,0,0,0,0,0,0,0,0,0,0,0,0,0,0,0,0,0,0,0,0,0,0,0,0,0,0,0,0,0],"sum_hessian":[1.1439E4,3.113E3,8.326E3,2.83E2,2.83E3,4.336E3,3.99E3,7.6E1,2.07E2,2.13E2,2.617E3,4.26E2,3.91E3,7.42E2,3.248E3,6.5E1,1.1E1,4.6E1,1.61E2,1.44E2,6.9E1,4.35E2,2.182E3,3.42E2,8.4E1,3.72E3,1.9E2,6.57E2,8.5E1,2.06E2,3.042E3],"tree_param":{"num_deleted":"0","num_feature":"43","num_nodes":"31","size_leaf_vector":"1"}},{"base_weights":[1.6751788E0,1.4708823E0,1.8476936E0,2.0045738E0,1.4130352E0,1.9122499E0,1.6130364E0,3.1753726E0,1.7792363E0,1.3003762E0,1.6084099E0,3.8768365E0,1.9031923E0,1.2861314E0,1.9105812E0,1.3540036E-2,1.866706E-1,4.833129E-2,9.794121E-2,1.2613834E-1,6.3564025E-2,1.034328E-1,7.4864276E-2,2.1867767E-1,9.447263E-2,9.139297E-2,1.05298854E-1,3.3354558E-2,7.172785E-2,9.11541E-2,1.2489771E-1],"categories":[],"categories_nodes":[],"categories_segments":[],"categories_sizes":[],"default_left":[0,0,0,0,0,0,0,0,0,0,0,0,0,0,0,0,0,0,0,0,0,0,0,0,0,0,0,0,0,0,0],"id":34,"left_children":[1,3,5,7,9,11,13,15,17,19,21,23,25,27,29,-1,-1,-1,-1,-1,-1,-1,-1,-1,-1,-1,-1,-1,-1,-1,-1],"loss_changes":[3.953164E2,1.567461E2,8.933203E1,1.2682263E2,1.0056055E2,7.74043E1,1.2639624E2,1.2825775E2,5.9836304E1,1.021167E2,8.379834E1,1.1840576E1,6.873242E1,5.726941E1,3.0630127E1,0E0,0E0,0E0,0E0,0E0,0E0,0E0,0E0,0E0,0E0,0E0,0E0,0E0,0E0,0E0,0E0],"parents":[2147483647,0,0,1,1,2,2,3,3,4,4,5,5,6,6,7,7,8,8,9,9,10,10,11,11,12,12,13,13,14,14],"right_children":[2,4,6,8,10,12,14,16,18,20,22,24,26,28,30,-1,-1,-1,-1,-1,-1,-1,-1,-1,-1,-1,-1,-1,-1,-1,-1],"split_conditions":[2.9262E4,-3.9964E4,3.2444E4,3E0,1.7E1,4.8985932E-12,1.7521E4,1.72E2,5.5E1,8.696435E1,7.4E1,2.728E3,1.2537E5,5.489438E-5,6.7316303E-3,1.3540036E-2,1.866706E-1,4.833129E-2,9.794121E-2,1.2613834E-1,6.3564025E-2,1.034328E-1,7.4864276E-2,2.1867767E-1,9.447263E-2,9.139297E-2,1.05298854E-1,3.3354558E-2,7.172785E-2,9.11541E-2,1.2489771E-1],"split_indices":[15,27,27,24,1,39,0,5,32,38,1,0,23,42,40,0,0,0,0,0,0,0,0,0,0,0,0,0,0,0,0],"split_type":[0,0,0,0,0,0,0,0,0,0,0,0,0,0,0,0,0,0,0,0,0,0,0,0,0,0,0,0,0,0,0],"sum_hessian":[1.1302E4,5.179E3,6.123E3,5.03E2,4.676E3,4.796E3,1.327E3,7.9E1,4.24E2,2.971E3,1.705E3,2E1,4.776E3,6.35E2,6.92E2,1.3E1,6.6E1,7.8E1,3.46E2,6.7E1,2.904E3,3.28E2,1.377E3,1.5E1,5E0,3.49E3,1.286E3,1.24E2,5.11E2,6.06E2,8.6E1],"tree_param":{"num_deleted":"0","num_feature":"43","num_nodes":"31","size_leaf_vector":"1"}},{"base_weights":[1.6079968E0,1.2525028E0,1.705455E0,2.3901749E0,1.1978415E0,1.6165922E0,1.9136379E0,9.1881734E-1,3.3056095E0,1.1779141E0,3.1454175E0,1.6491599E0,1.1121598E0,8.510573E-1,1.9336524E0,9.857561E-2,1.5144432E-2,1.9700688E-1,1.12742506E-1,6.2373467E-2,2.7856713E-2,1.8202737E-2,2.16663E-1,8.027473E-2,9.689876E-2,-5.636949E-2,5.786189E-2,6.1859727E-2,-3.2822978E-2,1.0507919E-1,9.11287E-2],"categories":[],"categories_nodes":[],"categories_segments":[],"categories_sizes":[],"default_left":[0,0,0,0,0,0,0,0,0,0,0,0,0,0,0,0,0,0,0,0,0,0,0,0,0,0,0,0,0,0,0],"id":35,"left_children":[1,3,5,7,9,11,13,15,17,19,21,23,25,27,29,-1,-1,-1,-1,-1,-1,-1,-1,-1,-1,-1,-1,-1,-1,-1,-1],"loss_changes":[3.90625E2,1.4882446E2,1.6121875E2,1.4604968E2,8.6484375E1,1.0048242E2,5.4583008E1,2.770435E1,3.583423E1,9.899634E1,7.39406E1,7.0487305E1,3.987216E1,3.0557774E1,4.4407227E1,0E0,0E0,0E0,0E0,0E0,0E0,0E0,0E0,0E0,0E0,0E0,0E0,0E0,0E0,0E0,0E0],"parents":[2147483647,0,0,1,1,2,2,3,3,4,4,5,5,6,6,7,7,8,8,9,9,10,10,11,11,12,12,13,13,14,14],"right_children":[2,4,6,8,10,12,14,16,18,20,22,24,26,28,30,-1,-1,-1,-1,-1,-1,-1,-1,-1,-1,-1,-1,-1,-1,-1,-1],"split_conditions":[8.669E3,-6.4824E4,4.185E3,1.19E2,1.8723894E3,7.4212E4,9.1E1,1E0,1.365E3,6.528E3,5.9765155E2,1.2537E5,3.2E1,9.512E3,3.92E2,9.857561E-2,1.5144432E-2,1.9700688E-1,1.12742506E-1,6.2373467E-2,2.7856713E-2,1.8202737E-2,2.16663E-1,8.027473E-2,9.689876E-2,-5.636949E-2,5.786189E-2,6.1859727E-2,-3.2822978E-2,1.0507919E-1,9.11287E-2],"split_indices":[20,27,6,8,38,27,8,19,17,20,28,23,34,27,19,0,0,0,0,0,0,0,0,0,0,0,0,0,0,0,0],"split_type":[0,0,0,0,0,0,0,0,0,0,0,0,0,0,0,0,0,0,0,0,0,0,0,0,0,0,0,0,0,0,0],"sum_hessian":[1.1344E4,2.444E3,8.9E3,1.1E2,2.334E3,6.244E3,2.656E3,4.3E1,6.7E1,2.312E3,2.2E1,5.863E3,3.81E2,5E1,2.606E3,1.5E1,2.8E1,4E1,2.7E1,2.078E3,2.34E2,7E0,1.5E1,5.099E3,7.64E2,7E0,3.74E2,4E1,1E1,1.03E3,1.576E3],"tree_param":{"num_deleted":"0","num_feature":"43","num_nodes":"31","size_leaf_vector":"1"}},{"base_weights":[1.5363282E0,1.4254515E0,1.7531656E0,1.2171249E0,1.5078821E0,2.599119E0,1.7314241E0,1.8091917E0,1.1000714E0,6.3092315E-1,1.5269938E0,1.9641194E0,3.3231642E0,1.6693289E0,2.0261781E0,1.3927616E-1,5.9552778E-2,4.771711E-2,7.8961246E-2,1.0765958E-1,1.68942E-2,8.613341E-2,7.1327984E-2,4.360805E-2,1.10336974E-1,1.9253778E-1,1.3162826E-1,8.7856136E-2,7.3082946E-2,1.0295539E-1,3.5975676E-2],"categories":[],"categories_nodes":[],"categories_segments":[],"categories_sizes":[],"default_left":[0,0,0,0,0,0,0,0,0,0,0,0,0,0,0,0,0,0,0,0,0,0,0,0,0,0,0,0,0,0,0],"id":36,"left_children":[1,3,5,7,9,11,13,15,17,19,21,23,25,27,29,-1,-1,-1,-1,-1,-1,-1,-1,-1,-1,-1,-1,-1,-1,-1,-1],"loss_changes":[2.6157422E2,1.2294238E2,6.341211E1,1.41177E2,8.619141E1,3.478308E1,6.261328E1,2.0147668E2,1.1910962E2,4.943088E1,9.747363E1,1.1278961E1,4.152832E0,5.1825195E1,2.5176025E1,0E0,0E0,0E0,0E0,0E0,0E0,0E0,0E0,0E0,0E0,0E0,0E0,0E0,0E0,0E0,0E0],"parents":[2147483647,0,0,1,1,2,2,3,3,4,4,5,5,6,6,7,7,8,8,9,9,10,10,11,11,12,12,13,13,14,14],"right_children":[2,4,6,8,10,12,14,16,18,20,22,24,26,28,30,-1,-1,-1,-1,-1,-1,-1,-1,-1,-1,-1,-1,-1,-1,-1,-1],"split_conditions":[2.097E3,7.566969E2,1.921E3,4.8E1,1.2502618E-6,6.85E2,1.65253E5,1.5627972E2,1.319331E-4,1.1E1,2.17E2,1.7912E4,2.49E2,2.5764E4,2.88344E5,1.3927616E-1,5.9552778E-2,4.771711E-2,7.8961246E-2,1.0765958E-1,1.68942E-2,8.613341E-2,7.1327984E-2,4.360805E-2,1.10336974E-1,1.9253778E-1,1.3162826E-1,8.7856136E-2,7.3082946E-2,1.0295539E-1,3.5975676E-2],"split_indices":[6,38,22,13,42,12,10,38,42,34,12,15,25,22,27,0,0,0,0,0,0,0,0,0,0,0,0,0,0,0,0],"split_type":[0,0,0,0,0,0,0,0,0,0,0,0,0,0,0,0,0,0,0,0,0,0,0,0,0,0,0,0,0,0,0],"sum_hessian":[1.0996E4,7.281E3,3.715E3,2.069E3,5.212E3,9E1,3.625E3,3.39E2,1.73E3,1.12E2,5.1E3,5E1,4E1,3E3,6.25E2,1.3E2,2.09E2,1.329E3,4.01E2,1.7E1,9.5E1,1.724E3,3.376E3,1E1,4E1,2E1,2E1,2.103E3,8.97E2,6.09E2,1.6E1],"tree_param":{"num_deleted":"0","num_feature":"43","num_nodes":"31","size_leaf_vector":"1"}},{"base_weights":[1.4997995E0,1.3698442E0,1.6839852E0,1.814313E0,1.3177353E0,2.221457E0,1.6421651E0,2.3565166E0,1.3841208E0,1.1379309E0,1.4223908E0,-3.3701006E-2,2.297692E0,1.4081211E0,1.7278298E0,7.170378E-2,1.3530368E-1,6.713746E-2,1.8440089E-1,6.0599316E-2,2.523671E-2,9.592678E-2,6.8225734E-2,1.459729E-1,9.761828E-2,1.5301977E-1,6.876927E-2,9.381622E-2,8.208152E-2],"categories":[],"categories_nodes":[],"categories_segments":[],"categories_sizes":[],"default_left":[0,0,0,0,0,0,0,0,0,0,0,0,0,0,0,0,0,0,0,0,0,0,0,0,0,0,0,0,0],"id":37,"left_children":[1,3,5,7,9,11,13,15,17,19,21,-1,23,25,27,-1,-1,-1,-1,-1,-1,-1,-1,-1,-1,-1,-1,-1,-1],"loss_changes":[2.5814648E2,1.4536328E2,9.715723E1,1.5217627E2,1.0587402E2,7.278845E1,8.108008E1,9.0504395E1,3.028833E1,9.825171E1,1.0085889E2,0E0,6.1232544E1,5.625122E1,3.568457E1,0E0,0E0,0E0,0E0,0E0,0E0,0E0,0E0,0E0,0E0,0E0,0E0,0E0,0E0],"parents":[2147483647,0,0,1,1,2,2,3,3,4,4,5,5,6,6,7,7,8,8,9,9,10,10,12,12,13,13,14,14],"right_children":[2,4,6,8,10,12,14,16,18,20,22,-1,24,26,28,-1,-1,-1,-1,-1,-1,-1,-1,-1,-1,-1,-1,-1,-1],"split_conditions":[9.779115E3,-3.9964E4,2.3E2,2.3E1,8.669E3,1.52E2,6.656159E-4,1.19E2,2.32049E5,6.528E3,2.4494284E-6,-3.3701006E-2,1.75E2,1.874E3,-3.132E4,7.170378E-2,1.3530368E-1,6.713746E-2,1.8440089E-1,6.0599316E-2,2.523671E-2,9.592678E-2,6.8225734E-2,1.459729E-1,9.761828E-2,1.5301977E-1,6.876927E-2,9.381622E-2,8.208152E-2],"split_indices":[38,27,12,24,20,13,42,8,20,20,39,0,19,22,27,0,0,0,0,0,0,0,0,0,0,0,0,0,0],"split_type":[0,0,0,0,0,0,0,0,0,0,0,0,0,0,0,0,0,0,0,0,0,0,0,0,0,0,0,0,0],"sum_hessian":[1.0893E4,6.392E3,4.501E3,6.67E2,5.725E3,3.21E2,4.18E3,2.93E2,3.74E2,2.111E3,3.614E3,8E0,3.13E2,1.125E3,3.055E3,8.2E1,2.11E2,3.69E2,5E0,1.889E3,2.22E2,3.74E2,3.24E3,1.09E2,2.04E2,2E1,1.105E3,1.114E3,1.941E3],"tree_param":{"num_deleted":"0","num_feature":"43","num_nodes":"29","size_leaf_vector":"1"}},{"base_weights":[1.4509467E0,1.1458738E0,1.5270975E0,1.9657997E0,1.0628326E0,6.3798636E-1,1.5431061E0,2.1203012E0,-5.9733367E-1,1.7745283E0,9.9544114E-1,-9.4009526E-2,7.3512685E-1,1.5113939E0,1.8041487E0,2.735264E-4,1.1133192E-1,-8.011348E-2,1.6754381E-2,1.526014E-1,5.7362497E-2,4.176972E-2,5.9895124E-2,2.411578E-2,7.597602E-2,7.789549E-2,6.3815854E-2,1.6309713E-1,8.8724844E-2],"categories":[],"categories_nodes":[],"categories_segments":[],"categories_sizes":[],"default_left":[0,0,0,0,0,0,0,0,0,0,0,0,0,0,0,0,0,0,0,0,0,0,0,0,0,0,0,0,0],"id":38,"left_children":[1,3,5,7,9,11,13,15,17,19,21,-1,23,25,27,-1,-1,-1,-1,-1,-1,-1,-1,-1,-1,-1,-1,-1,-1],"loss_changes":[2.4951172E2,1.4515381E2,1.2207422E2,7.982837E1,9.244214E1,3.918329E1,6.7365234E1,4.1818115E1,1.1907902E1,1.3150635E2,5.7186523E1,0E0,2.8812462E1,8.074609E1,3.3303223E1,0E0,0E0,0E0,0E0,0E0,0E0,0E0,0E0,0E0,0E0,0E0,0E0,0E0,0E0],"parents":[2147483647,0,0,1,1,2,2,3,3,4,4,5,5,6,6,7,7,8,8,9,9,10,10,12,12,13,13,14,14],"right_children":[2,4,6,8,10,12,14,16,18,20,22,-1,24,26,28,-1,-1,-1,-1,-1,-1,-1,-1,-1,-1,-1,-1,-1,-1],"split_conditions":[3.445E3,2E0,1.3798575E-6,9.91061E0,7.38E2,3E0,1.36119E5,8E0,6.5E1,2.8E1,1.3E1,-9.4009526E-2,5.954E3,3.2444E4,1.24E2,2.735264E-4,1.1133192E-1,-8.011348E-2,1.6754381E-2,1.526014E-1,5.7362497E-2,4.176972E-2,5.9895124E-2,2.411578E-2,7.597602E-2,7.789549E-2,6.3815854E-2,1.6309713E-1,8.8724844E-2],"split_indices":[15,14,42,39,22,14,10,36,12,12,24,0,22,27,5,0,0,0,0,0,0,0,0,0,0,0,0,0,0],"split_type":[0,0,0,0,0,0,0,0,0,0,0,0,0,0,0,0,0,0,0,0,0,0,0,0,0,0,0,0,0],"sum_hessian":[1.0826E4,2.166E3,8.66E3,1.97E2,1.969E3,1.54E2,8.506E3,1.86E2,1.1E1,1.68E2,1.801E3,5E0,1.49E2,7.591E3,9.15E2,9E0,1.77E2,5E0,6E0,5.4E1,1.14E2,1.009E3,7.92E2,1.14E2,3.5E1,6.332E3,1.259E3,1.6E1,8.99E2],"tree_param":{"num_deleted":"0","num_feature":"43","num_nodes":"29","size_leaf_vector":"1"}},{"base_weights":[1.3711499E0,1.2404515E0,1.5301942E0,1.1258276E0,1.4511089E0,3.4055834E0,1.5178937E0,1.5901335E0,1.0497385E0,2.9562106E0,1.4134377E0,4.973151E-2,2.1359582E-1,7.910187E-1,1.5503802E0,1.2710598E-1,6.329351E-2,7.4850745E-2,4.9295615E-2,5.308134E-2,1.6025673E-1,3.7126064E-2,7.457211E-2,9.070158E-2,8.666269E-3,1.0743792E-1,7.567861E-2],"categories":[],"categories_nodes":[],"categories_segments":[],"categories_sizes":[],"default_left":[0,0,0,0,0,0,0,0,0,0,0,0,0,0,0,0,0,0,0,0,0,0,0,0,0,0,0],"id":39,"left_children":[1,3,5,7,9,11,13,15,17,19,21,-1,-1,23,25,-1,-1,-1,-1,-1,-1,-1,-1,-1,-1,-1,-1],"loss_changes":[2.0918555E2,1.3301465E2,1.0003613E2,1.2606201E2,1.0679785E2,5.5796326E1,1.0607617E2,1.5321802E2,8.723096E1,1.8336212E1,9.9099365E1,0E0,0E0,1.2397277E2,9.2368164E1,0E0,0E0,0E0,0E0,0E0,0E0,0E0,0E0,0E0,0E0,0E0,0E0],"parents":[2147483647,0,0,1,1,2,2,3,3,4,4,5,5,6,6,7,7,8,8,9,9,10,10,13,13,14,14],"right_children":[2,4,6,8,10,12,14,16,18,20,22,-1,-1,24,26,-1,-1,-1,-1,-1,-1,-1,-1,-1,-1,-1,-1],"split_conditions":[8.952532E3,5.8812094E0,9.1E1,3.3E1,1.022E3,2.6E1,6E2,6.048621E-8,2E1,2E1,2.8E1,4.973151E-2,2.1359582E-1,3.51E2,1.4E2,1.2710598E-1,6.329351E-2,7.4850745E-2,4.9295615E-2,5.308134E-2,1.6025673E-1,3.7126064E-2,7.457211E-2,9.070158E-2,8.666269E-3,1.0743792E-1,7.567861E-2],"split_indices":[28,39,10,12,22,10,13,39,32,6,14,0,0,21,12,0,0,0,0,0,0,0,0,0,0,0,0],"split_type":[0,0,0,0,0,0,0,0,0,0,0,0,0,0,0,0,0,0,0,0,0,0,0,0,0,0,0],"sum_hessian":[1.0167E4,5.586E3,4.581E3,3.622E3,1.964E3,2.8E1,4.553E3,5.07E2,3.115E3,4.6E1,1.918E3,8E0,2E1,1.96E2,4.357E3,1.27E2,3.8E2,3.86E2,2.729E3,6E0,4E1,2.01E2,1.717E3,7.3E1,1.23E2,2.49E2,4.108E3],"tree_param":{"num_deleted":"0","num_feature":"43","num_nodes":"27","size_leaf_vector":"1"}},{"base_weights":[1.3253787E0,1.0802866E0,1.3990016E0,1.0889288E0,-1.257021E-1,4.8792168E-1,1.4096246E0,1.4889209E0,1.0169278E0,2.4861519E-1,1.03709474E-1,1.9208996E0,1.3874428E0,6.997787E-2,2.0979913E-1,4.586136E-2,7.014435E-2,2.1601044E-2,-2.6434228E-2,1.7954281E-1,8.52569E-2,6.667245E-2,7.858236E-2],"categories":[],"categories_nodes":[],"categories_segments":[],"categories_sizes":[],"default_left":[0,0,0,0,0,0,0,0,0,0,0,0,0,0,0,0,0,0,0,0,0,0,0],"id":40,"left_children":[1,3,5,7,-1,9,11,13,15,17,-1,19,21,-1,-1,-1,-1,-1,-1,-1,-1,-1,-1],"loss_changes":[1.8433203E2,7.674219E1,7.584375E1,6.6836426E1,0E0,3.4555233E1,8.586035E1,8.089844E1,7.6288574E1,1.1908754E1,0E0,1.0972839E2,7.2336914E1,0E0,0E0,0E0,0E0,0E0,0E0,0E0,0E0,0E0,0E0],"parents":[2147483647,0,0,1,1,2,2,3,3,5,5,6,6,7,7,8,8,9,9,11,11,12,12],"right_children":[2,4,6,8,-1,10,12,14,16,18,-1,20,22,-1,-1,-1,-1,-1,-1,-1,-1,-1,-1],"split_conditions":[4.297E3,3.918E3,1.3798575E-6,4.8E1,-1.257021E-1,1.2481E4,4.3E1,2.5E1,4.7364035E0,3.7962E4,1.03709474E-1,6.048621E-8,1.0076E4,6.997787E-2,2.0979913E-1,4.586136E-2,7.014435E-2,2.1601044E-2,-2.6434228E-2,1.7954281E-1,8.52569E-2,6.667245E-2,7.858236E-2],"split_indices":[15,18,42,13,0,32,12,19,39,15,0,39,25,0,0,0,0,0,0,0,0,0,0],"split_type":[0,0,0,0,0,0,0,0,0,0,0,0,0,0,0,0,0,0,0,0,0,0,0],"sum_hessian":[1.0312E4,2.386E3,7.926E3,2.381E3,5E0,9.2E1,7.834E3,3.6E2,2.021E3,8.1E1,1.1E1,3.22E2,7.512E3,3.5E2,1E1,1.609E3,4.12E2,6.6E1,1.5E1,3.5E1,2.87E2,5.816E3,1.696E3],"tree_param":{"num_deleted":"0","num_feature":"43","num_nodes":"23","size_leaf_vector":"1"}},{"base_weights":[1.2914153E0,1.054298E0,1.3749053E0,1.686553E0,1.0049038E0,1.5343922E0,1.3227595E0,7.9410094E-1,2.146932E0,1.3444697E0,9.0147364E-1,1.5049244E-1,1.516655E0,1.2792205E0,1.5706253E0,2.122332E-2,2.2323206E-1,1.532734E-1,6.181106E-2,1.1524226E-1,5.9699196E-2,1.1089261E-1,4.301757E-2,1.3265222E-1,7.4878246E-2,7.151296E-2,5.9439447E-2,-2.4563815E-2,7.954711E-2],"categories":[],"categories_nodes":[],"categories_segments":[],"categories_sizes":[],"default_left":[0,0,0,0,0,0,0,0,0,0,0,0,0,0,0,0,0,0,0,0,0,0,0,0,0,0,0,0,0],"id":41,"left_children":[1,3,5,7,9,11,13,15,17,19,21,-1,23,25,27,-1,-1,-1,-1,-1,-1,-1,-1,-1,-1,-1,-1,-1,-1],"loss_changes":[2.0108594E2,8.148193E1,6.0658203E1,7.688727E1,8.569946E1,4.363379E1,5.936914E1,8.851883E1,1.01181885E2,8.028784E1,1.0090637E2,0E0,3.5506348E1,6.4501465E1,3.645752E1,0E0,0E0,0E0,0E0,0E0,0E0,0E0,0E0,0E0,0E0,0E0,0E0,0E0,0E0],"parents":[2147483647,0,0,1,1,2,2,3,3,4,4,5,5,6,6,7,7,8,8,9,9,10,10,12,12,13,13,14,14],"right_children":[2,4,6,8,10,12,14,16,18,20,22,-1,24,26,28,-1,-1,-1,-1,-1,-1,-1,-1,-1,-1,-1,-1,-1,-1],"split_conditions":[1.5515591E3,-3.9964E4,-3.1948E4,9.2E1,2.9E1,5.132E3,4.9858E4,3.726E3,4.078E3,6E0,1.71E2,1.5049244E-1,1E1,1.15E2,7.69E2,2.122332E-2,2.2323206E-1,1.532734E-1,6.181106E-2,1.1524226E-1,5.9699196E-2,1.1089261E-1,4.301757E-2,1.3265222E-1,7.4878246E-2,7.151296E-2,5.9439447E-2,-2.4563815E-2,7.954711E-2],"split_indices":[38,27,27,8,32,23,32,22,20,0,17,0,14,5,10,0,0,0,0,0,0,0,0,0,0,0,0,0,0],"split_type":[0,0,0,0,0,0,0,0,0,0,0,0,0,0,0,0,0,0,0,0,0,0,0,0,0,0,0,0,0],"sum_hessian":[1.0242E4,2.671E3,7.571E3,1.91E2,2.48E3,1.858E3,5.713E3,6.6E1,1.25E2,5.76E2,1.904E3,2E1,1.838E3,4.865E3,8.48E2,6.1E1,5E0,6.1E1,6.4E1,7.6E1,5E2,5.6E1,1.848E3,2.8E1,1.81E3,1.816E3,3.049E3,8E0,8.4E2],"tree_param":{"num_deleted":"0","num_feature":"43","num_nodes":"29","size_leaf_vector":"1"}},{"base_weights":[1.2435162E0,1.1215367E0,1.3975896E0,1.7794616E0,1.1027898E0,1.8453363E0,1.362269E0,3.3716526E0,1.5197891E0,9.5128757E-1,1.1855724E0,1.9310732E0,-1.161701E-1,6.178179E-1,1.3886851E0,1.9246769E-1,7.5958714E-2,6.1212968E-2,1.3319036E-1,8.740794E-2,4.461815E-2,6.0807317E-2,2.9175946E-2,9.9720284E-2,-1.1083662E-2,5.3265937E-2,6.749779E-3,6.191631E-2,7.2789356E-2],"categories":[],"categories_nodes":[],"categories_segments":[],"categories_sizes":[],"default_left":[0,0,0,0,0,0,0,0,0,0,0,0,0,0,0,0,0,0,0,0,0,0,0,0,0,0,0,0,0],"id":42,"left_children":[1,3,5,7,9,11,13,15,17,19,21,23,-1,25,27,-1,-1,-1,-1,-1,-1,-1,-1,-1,-1,-1,-1,-1,-1],"loss_changes":[1.8976465E2,6.79917E1,6.833203E1,5.8884583E1,6.813916E1,1.2096472E2,8.104443E1,1.2198853E1,4.2330444E1,9.0349365E1,6.497168E1,4.424768E1,0E0,3.1065342E1,3.8598145E1,0E0,0E0,0E0,0E0,0E0,0E0,0E0,0E0,0E0,0E0,0E0,0E0,0E0,0E0],"parents":[2147483647,0,0,1,1,2,2,3,3,4,4,5,5,6,6,7,7,8,8,9,9,10,10,11,11,13,13,14,14],"right_children":[2,4,6,8,10,12,14,16,18,20,22,24,-1,26,28,-1,-1,-1,-1,-1,-1,-1,-1,-1,-1,-1,-1,-1,-1],"split_conditions":[9.615128E3,3E0,2.3E2,1.380682E-7,8.669E3,2.361864E6,3.27E2,1.84E3,4.51E2,5.81E2,1.2481E4,6.12E4,-1.161701E-1,2.873E3,3.48E2,1.9246769E-1,7.5958714E-2,6.1212968E-2,1.3319036E-1,8.740794E-2,4.461815E-2,6.0807317E-2,2.9175946E-2,9.9720284E-2,-1.1083662E-2,5.3265937E-2,6.749779E-3,6.191631E-2,7.2789356E-2],"split_indices":[38,32,12,39,20,2,12,0,34,22,32,27,0,21,8,0,0,0,0,0,0,0,0,0,0,0,0,0,0],"split_type":[0,0,0,0,0,0,0,0,0,0,0,0,0,0,0,0,0,0,0,0,0,0,0,0,0,0,0,0,0],"sum_hessian":[1.0193E4,5.694E3,4.499E3,1.55E2,5.539E3,3.25E2,4.174E3,2E1,1.35E2,1.962E3,3.577E3,3.19E2,6E0,1.44E2,4.03E3,1.5E1,5E0,1.09E2,2.6E1,1.33E2,1.829E3,3.403E3,1.74E2,3.1E2,9E0,7.4E1,7E1,1.25E3,2.78E3],"tree_param":{"num_deleted":"0","num_feature":"43","num_nodes":"29","size_leaf_vector":"1"}},{"base_weights":[1.1757759E0,7.6186234E-1,1.2186115E0,6.3990337E-1,1.4826337E0,1.457412E0,1.1593668E0,1.2962127E0,4.8230034E-1,2.8050382E0,1.0392809E0,1.984475E-1,1.4337622E0,1.6479996E0,1.131342E0,8.172842E-2,1.5062693E-4,2.9791081E-2,-6.4003663E-3,1.9338917E-2,1.7186931E-1,1.2533622E-2,7.712022E-2,1.9706283E-2,7.37565E-2,2.1486154E-2,9.031437E-2,4.82479E-2,6.1695397E-2],"categories":[],"categories_nodes":[],"categories_segments":[],"categories_sizes":[],"default_left":[0,0,0,0,0,0,0,0,0,0,0,0,0,0,0,0,0,0,0,0,0,0,0,0,0,0,0,0,0],"id":43,"left_children":[1,3,5,7,9,11,13,15,17,19,21,-1,23,25,27,-1,-1,-1,-1,-1,-1,-1,-1,-1,-1,-1,-1,-1,-1],"loss_changes":[1.7452637E2,8.076605E1,1.25038086E2,8.184259E1,7.526346E1,9.949707E1,9.641211E1,6.721579E1,4.4879807E1,4.8751038E1,3.9904335E1,0E0,7.513965E1,7.382153E1,1.1480469E2,0E0,0E0,0E0,0E0,0E0,0E0,0E0,0E0,0E0,0E0,0E0,0E0,0E0,0E0],"parents":[2147483647,0,0,1,1,2,2,3,3,4,4,5,5,6,6,7,7,8,8,9,9,10,10,12,12,13,13,14,14],"right_children":[2,4,6,8,10,12,14,16,18,20,22,-1,24,26,28,-1,-1,-1,-1,-1,-1,-1,-1,-1,-1,-1,-1,-1,-1],"split_conditions":[4.2E1,3.664E3,-3.7268E4,2E0,1.4E1,4.8E1,1.8E1,1.283E3,1.608E4,1.5E1,2.2017E4,1.984475E-1,3.9403152E-5,3.8E1,4.7364035E0,8.172842E-2,1.5062693E-4,2.9791081E-2,-6.4003663E-3,1.9338917E-2,1.7186931E-1,1.2533622E-2,7.712022E-2,1.9706283E-2,7.37565E-2,2.1486154E-2,9.031437E-2,4.82479E-2,6.1695397E-2],"split_indices":[0,36,27,14,12,0,6,22,23,10,23,0,42,36,39,0,0,0,0,0,0,0,0,0,0,0,0,0,0],"split_type":[0,0,0,0,0,0,0,0,0,0,0,0,0,0,0,0,0,0,0,0,0,0,0,0,0,0,0,0,0],"sum_hessian":[9.906E3,9.31E2,8.975E3,7.98E2,1.33E2,1.779E3,7.196E3,1.53E2,6.45E2,3.2E1,1.01E2,1.5E1,1.764E3,3.87E2,6.809E3,1.21E2,3.2E1,5.44E2,1.01E2,7E0,2.5E1,4E1,6.1E1,6.8E1,1.696E3,4.5E1,3.42E2,2.601E3,4.208E3],"tree_param":{"num_deleted":"0","num_feature":"43","num_nodes":"29","size_leaf_vector":"1"}},{"base_weights":[1.144214E0,9.27405E-1,1.2101259E0,1.4049532E0,8.64615E-1,1.1261487E0,1.2993072E0,2.0597155E0,8.2774794E-1,3.868629E-1,9.3693006E-1,1.1610138E0,4.9459627E-1,2.0501473E0,1.2669936E0,1.9335382E-1,7.521429E-2,-8.5191846E-2,4.670422E-2,-4.5788307E-2,3.0756867E-2,7.163933E-2,4.3123644E-2,6.2305897E-2,4.6536136E-2,-5.4765802E-2,3.3263415E-2,3.45884E-2,1.14785984E-1,-1.5984109E-2,6.454305E-2],"categories":[],"categories_nodes":[],"categories_segments":[],"categories_sizes":[],"default_left":[0,0,0,0,0,0,0,0,0,0,0,0,0,0,0,0,0,0,0,0,0,0,0,0,0,0,0,0,0,0,0],"id":44,"left_children":[1,3,5,7,9,11,13,15,17,19,21,23,25,27,29,-1,-1,-1,-1,-1,-1,-1,-1,-1,-1,-1,-1,-1,-1,-1,-1],"loss_changes":[1.3752344E2,6.662488E1,5.4073242E1,9.70246E1,6.891345E1,8.390234E1,8.453662E1,1.1611676E2,3.9471718E1,7.96302E1,6.292334E1,7.000098E1,5.577044E1,4.7149475E1,1.3150195E2,0E0,0E0,0E0,0E0,0E0,0E0,0E0,0E0,0E0,0E0,0E0,0E0,0E0,0E0,0E0,0E0],"parents":[2147483647,0,0,1,1,2,2,3,3,4,4,5,5,6,6,7,7,8,8,9,9,10,10,11,11,12,12,13,13,14,14],"right_children":[2,4,6,8,10,12,14,16,18,20,22,24,26,28,30,-1,-1,-1,-1,-1,-1,-1,-1,-1,-1,-1,-1,-1,-1,-1,-1],"split_conditions":[1.0851608E3,1.1E1,1.2743211E4,2.32137E2,2.3E1,6.6632E4,1.89E2,7E0,7E0,1.5E1,6.048621E-8,3.51E2,4.1E1,8.86E2,1.678E3,1.9335382E-1,7.521429E-2,-8.5191846E-2,4.670422E-2,-4.5788307E-2,3.0756867E-2,7.163933E-2,4.3123644E-2,6.2305897E-2,4.6536136E-2,-5.4765802E-2,3.3263415E-2,3.45884E-2,1.14785984E-1,-1.5984109E-2,6.454305E-2],"split_indices":[38,32,38,38,36,27,12,8,36,5,39,21,8,34,10,0,0,0,0,0,0,0,0,0,0,0,0,0,0,0,0],"split_type":[0,0,0,0,0,0,0,0,0,0,0,0,0,0,0,0,0,0,0,0,0,0,0,0,0,0,0,0,0,0,0],"sum_hessian":[9.716E3,2.269E3,7.447E3,2.61E2,2.008E3,3.843E3,3.604E3,1.21E2,1.4E2,2.65E2,1.743E3,3.641E3,2.02E2,1.46E2,3.458E3,2.7E1,9.4E1,5E0,1.35E2,3.9E1,2.26E2,2.25E2,1.518E3,2.655E3,9.86E2,1.9E1,1.83E2,2.3E1,1.23E2,5.1E1,3.407E3],"tree_param":{"num_deleted":"0","num_feature":"43","num_nodes":"31","size_leaf_vector":"1"}},{"base_weights":[1.1116984E0,8.912228E-1,1.1679369E0,1.6108149E0,7.696937E-1,1.8996939E-1,1.1807528E0,2.2199225E0,1.1219531E0,6.402849E-1,1.1740255E0,3.3432907E-1,-1.0553602E-1,1.6408691E0,1.1550435E0,1.9722618E-3,1.24808505E-1,-8.3312646E-2,6.314524E-2,3.1047199E-2,1.3933218E-1,8.877846E-2,4.3426756E-2,6.5132454E-3,6.2853925E-2,1.2935998E-1,7.111399E-2,5.5154808E-2,6.66743E-2],"categories":[],"categories_nodes":[],"categories_segments":[],"categories_sizes":[],"default_left":[0,0,0,0,0,0,0,0,0,0,0,0,0,0,0,0,0,0,0,0,0,0,0,0,0,0,0,0,0],"id":45,"left_children":[1,3,5,7,9,11,13,15,17,19,21,23,-1,25,27,-1,-1,-1,-1,-1,-1,-1,-1,-1,-1,-1,-1,-1,-1],"loss_changes":[1.1756152E2,1.692273E2,9.528125E1,8.084833E1,8.6552734E1,3.3740715E1,8.692285E1,7.433954E1,6.415831E1,5.0608337E1,7.2434875E1,1.7586021E1,0E0,7.783508E1,6.444336E1,0E0,0E0,0E0,0E0,0E0,0E0,0E0,0E0,0E0,0E0,0E0,0E0,0E0,0E0],"parents":[2147483647,0,0,1,1,2,2,3,3,4,4,5,5,6,6,7,7,8,8,9,9,10,10,11,11,13,13,14,14],"right_children":[2,4,6,8,10,12,14,16,18,20,22,24,-1,26,28,-1,-1,-1,-1,-1,-1,-1,-1,-1,-1,-1,-1,-1,-1],"split_conditions":[7.972E3,1.2E1,1.2502618E-6,2.32137E2,1.319331E-4,2.2018E4,6.7899673E-6,6.451563E1,7E0,5.9E2,4.28E2,2.989E3,-1.0553602E-1,3E0,1.2537E5,1.9722618E-3,1.24808505E-1,-8.3312646E-2,6.314524E-2,3.1047199E-2,1.3933218E-1,8.877846E-2,4.3426756E-2,6.5132454E-3,6.2853925E-2,1.2935998E-1,7.111399E-2,5.5154808E-2,6.66743E-2],"split_indices":[20,32,42,38,42,18,42,28,36,14,10,32,0,24,23,0,0,0,0,0,0,0,0,0,0,0,0,0,0],"split_type":[0,0,0,0,0,0,0,0,0,0,0,0,0,0,0,0,0,0,0,0,0,0,0,0,0,0,0,0,0],"sum_hessian":[9.581E3,1.951E3,7.63E3,2.8E2,1.671E3,9.9E1,7.531E3,1.23E2,1.57E2,1.268E3,4.03E2,9.4E1,5E0,3.95E2,7.136E3,1.4E1,1.09E2,7E0,1.5E2,1.258E3,1E1,1.34E2,2.69E2,7.8E1,1.6E1,7.2E1,3.23E2,5.533E3,1.603E3],"tree_param":{"num_deleted":"0","num_feature":"43","num_nodes":"29","size_leaf_vector":"1"}},{"base_weights":[1.0693333E0,8.817354E-1,1.1465471E0,7.785447E-1,1.184121E0,1.3038502E0,1.1105545E0,7.558959E-1,2.3610022E0,2.1507795E0,9.6802664E-1,9.7521114E-1,1.4809481E0,3.0001685E-1,1.1228161E0,3.501891E-2,6.4512104E-2,5.237251E-2,1.4033812E-1,1.2884288E-1,6.880024E-2,4.4218183E-2,1.1889189E-1,1.3774025E-1,4.4226747E-2,7.810002E-2,1.9651247E-2,-4.7967386E-2,3.4221824E-2,3.814022E-2,5.703357E-2],"categories":[],"categories_nodes":[],"categories_segments":[],"categories_sizes":[],"default_left":[0,0,0,0,0,0,0,0,0,0,0,0,0,0,0,0,0,0,0,0,0,0,0,0,0,0,0,0,0,0,0],"id":46,"left_children":[1,3,5,7,9,11,13,15,17,19,21,23,25,27,29,-1,-1,-1,-1,-1,-1,-1,-1,-1,-1,-1,-1,-1,-1,-1,-1],"loss_changes":[1.377998E2,8.634497E1,3.6782227E1,7.291846E1,1.4612659E2,7.158545E1,5.4550293E1,6.0156982E1,1.36549835E1,3.8643738E1,6.6335205E1,6.884616E1,7.114429E1,4.1295574E1,3.3999023E1,0E0,0E0,0E0,0E0,0E0,0E0,0E0,0E0,0E0,0E0,0E0,0E0,0E0,0E0,0E0,0E0],"parents":[2147483647,0,0,1,1,2,2,3,3,4,4,5,5,6,6,7,7,8,8,9,9,10,10,11,11,12,12,13,13,14,14],"right_children":[2,4,6,8,10,12,14,16,18,20,22,24,26,28,30,-1,-1,-1,-1,-1,-1,-1,-1,-1,-1,-1,-1,-1,-1,-1,-1],"split_conditions":[7E0,2.38E2,1.036E3,4.87E2,3.6E1,-7.496E3,3.445E3,9.948403E3,2.805E3,5.9765155E2,2.28539E5,3E0,6.3968E4,1.3E1,1.376E3,3.501891E-2,6.4512104E-2,5.237251E-2,1.4033812E-1,1.2884288E-1,6.880024E-2,4.4218183E-2,1.1889189E-1,1.3774025E-1,4.4226747E-2,7.810002E-2,1.9651247E-2,-4.7967386E-2,3.4221824E-2,3.814022E-2,5.703357E-2],"split_indices":[1,6,0,25,34,27,15,28,22,28,15,32,27,19,0,0,0,0,0,0,0,0,0,0,0,0,0,0,0,0,0],"split_type":[0,0,0,0,0,0,0,0,0,0,0,0,0,0,0,0,0,0,0,0,0,0,0,0,0,0,0,0,0,0,0],"sum_hessian":[9.596E3,2.802E3,6.794E3,2.092E3,7.1E2,1.258E3,5.536E3,2.064E3,2.8E1,1.28E2,5.82E2,4.43E2,8.15E2,8.3E1,5.453E3,1.872E3,1.92E2,8E0,2E1,8.1E1,4.7E1,5.51E2,3.1E1,2E1,4.23E2,7.58E2,5.7E1,1.9E1,6.4E1,2.6E2,5.193E3],"tree_param":{"num_deleted":"0","num_feature":"43","num_nodes":"31","size_leaf_vector":"1"}},{"base_weights":[1.0195706E0,7.882904E-1,1.0862029E0,8.239183E-1,-1.0562582E-1,1.9806542E-1,1.0977051E0,1.2662011E0,7.5550145E-1,-1.2080109E-1,1.7929459E-1,-8.0285214E-2,4.091199E-1,1.3622848E0,1.0566661E0,1.02508225E-1,5.0229322E-2,2.851148E-2,4.9749274E-2,1.8026818E-2,-5.6924213E-2,1.2410545E-1,1.2364085E-2,5.706976E-2,8.4941104E-2,6.6028475E-3,5.3520173E-2],"categories":[],"categories_nodes":[],"categories_segments":[],"categories_sizes":[],"default_left":[0,0,0,0,0,0,0,0,0,0,0,0,0,0,0,0,0,0,0,0,0,0,0,0,0,0,0],"id":47,"left_children":[1,3,5,7,9,11,13,15,17,-1,19,-1,21,23,25,-1,-1,-1,-1,-1,-1,-1,-1,-1,-1,-1,-1],"loss_changes":[1.428916E2,6.6817505E1,7.369629E1,5.9753662E1,5.3977448E1,3.632247E1,7.600781E1,5.26008E1,7.6745544E1,0E0,1.7767738E1,0E0,2.7629833E1,6.891797E1,7.8475586E1,0E0,0E0,0E0,0E0,0E0,0E0,0E0,0E0,0E0,0E0,0E0,0E0],"parents":[2147483647,0,0,1,1,2,2,3,3,4,4,5,5,6,6,7,7,8,8,10,10,12,12,13,13,14,14],"right_children":[2,4,6,8,10,12,14,16,18,-1,20,-1,22,24,26,-1,-1,-1,-1,-1,-1,-1,-1,-1,-1,-1,-1],"split_conditions":[1.1124418E3,3.918E3,1.3798575E-6,1.2E1,5.59E3,3E0,1.272E3,1.4864269E-6,1.3E1,-1.2080109E-1,3.14E2,-8.0285214E-2,1.02E2,1.671552E6,1.348E3,1.02508225E-1,5.0229322E-2,2.851148E-2,4.9749274E-2,1.8026818E-2,-5.6924213E-2,1.2410545E-1,1.2364085E-2,5.706976E-2,8.4941104E-2,6.6028475E-3,5.3520173E-2],"split_indices":[38,18,42,32,20,24,17,39,24,0,30,0,17,2,18,0,0,0,0,0,0,0,0,0,0,0,0],"split_type":[0,0,0,0,0,0,0,0,0,0,0,0,0,0,0,0,0,0,0,0,0,0,0,0,0,0,0],"sum_hessian":[9.339E3,2.092E3,7.247E3,2.012E3,8E1,9.3E1,7.154E3,2.67E2,1.745E3,8E0,7.2E1,9E0,8.4E1,9.56E2,6.198E3,6.5E1,2.02E2,9.86E2,7.59E2,6.4E1,8E0,5E0,7.9E1,5.8E2,3.76E2,9.1E1,6.107E3],"tree_param":{"num_deleted":"0","num_feature":"43","num_nodes":"27","size_leaf_vector":"1"}},{"base_weights":[1.001174E0,1.2166086E0,9.548049E-1,1.7233263E0,1.1142479E0,8.5620594E-1,1.1149136E0,1.0765651E0,2.4244585E0,1.2396105E-1,1.144091E0,1.2752013E0,8.3078635E-1,1.33539E0,1.0187869E0,9.659877E-2,3.0048106E-2,1.3669628E-1,3.6712058E-2,1.6667696E-2,-2.8471574E-2,-1.5771294E-2,5.7818193E-2,1.0015179E-1,3.514221E-2,1.7428892E-2,4.2893156E-2,4.1686844E-2,7.451207E-2,3.6394384E-2,5.389536E-2],"categories":[],"categories_nodes":[],"categories_segments":[],"categories_sizes":[],"default_left":[0,0,0,0,0,0,0,0,0,0,0,0,0,0,0,0,0,0,0,0,0,0,0,0,0,0,0,0,0,0,0],"id":48,"left_children":[1,3,5,7,9,11,13,15,17,19,21,23,25,27,29,-1,-1,-1,-1,-1,-1,-1,-1,-1,-1,-1,-1,-1,-1,-1,-1],"loss_changes":[9.315137E1,8.451929E1,1.21856445E2,1.2355658E2,4.092871E1,5.0141113E1,6.126465E1,5.8390503E1,6.721362E1,6.264255E0,2.4684204E1,1.12464905E2,5.9040527E1,6.820569E1,3.463452E1,0E0,0E0,0E0,0E0,0E0,0E0,0E0,0E0,0E0,0E0,0E0,0E0,0E0,0E0,0E0,0E0],"parents":[2147483647,0,0,1,1,2,2,3,3,4,4,5,5,6,6,7,7,8,8,9,9,10,10,11,11,12,12,13,13,14,14],"right_children":[2,4,6,8,10,12,14,16,18,20,22,24,26,28,30,-1,-1,-1,-1,-1,-1,-1,-1,-1,-1,-1,-1,-1,-1,-1,-1],"split_conditions":[-3.9964E4,1.568E3,4.176E3,1.666504E6,7.469742E-5,1.6376677E2,4.46E2,6E0,8.07E2,-5.0768E4,4.653E3,4.8E1,9.82E2,2.2E1,8.11E2,9.659877E-2,3.0048106E-2,1.3669628E-1,3.6712058E-2,1.6667696E-2,-2.8471574E-2,-1.5771294E-2,5.7818193E-2,1.0015179E-1,3.514221E-2,1.7428892E-2,4.2893156E-2,4.1686844E-2,7.451207E-2,3.6394384E-2,5.389536E-2],"split_indices":[27,13,34,2,42,38,12,24,12,27,15,13,23,24,6,0,0,0,0,0,0,0,0,0,0,0,0,0,0,0,0],"split_type":[0,0,0,0,0,0,0,0,0,0,0,0,0,0,0,0,0,0,0,0,0,0,0,0,0,0,0,0,0,0,0],"sum_hessian":[9.462E3,1.671E3,7.791E3,2.78E2,1.393E3,4.826E3,2.965E3,1.46E2,1.32E2,4.1E1,1.352E3,2.73E2,4.553E3,8.96E2,2.069E3,5.1E1,9.5E1,1.11E2,2.1E1,3.2E1,9E0,1.1E1,1.341E3,1.19E2,1.54E2,2.43E2,4.31E3,2.13E2,6.83E2,3.52E2,1.717E3],"tree_param":{"num_deleted":"0","num_feature":"43","num_nodes":"31","size_leaf_vector":"1"}},{"base_weights":[9.540264E-1,8.555767E-1,1.0917761E0,1.1917623E0,8.201159E-1,1.4392617E0,1.0523949E0,1.9044936E0,9.551496E-1,8.2505333E-1,-1.2358412E0,2.56021E-1,1.6218661E0,5.0208205E-1,1.0741392E0,1.7050063E-3,1.1074921E-1,1.04879014E-1,4.4326495E-2,3.404491E-2,4.4844475E-2,-1.3123123E-1,5.8403895E-3,1.2435535E-1,-1.3057597E-3,9.1386415E-2,4.7079194E-2,-5.6304146E-2,3.92099E-2,9.227854E-2,5.266116E-2],"categories":[],"categories_nodes":[],"categories_segments":[],"categories_sizes":[],"default_left":[0,0,0,0,0,0,0,0,0,0,0,0,0,0,0,0,0,0,0,0,0,0,0,0,0,0,0,0,0,0,0],"id":49,"left_children":[1,3,5,7,9,11,13,15,17,19,21,23,25,27,29,-1,-1,-1,-1,-1,-1,-1,-1,-1,-1,-1,-1,-1,-1,-1,-1],"loss_changes":[1.23649414E2,6.285132E1,5.0661133E1,8.390198E1,5.0333008E1,8.301416E1,4.0526855E1,7.287277E1,2.8023438E1,4.946631E1,2.3099798E1,3.367297E1,4.491693E1,6.193995E1,5.1222656E1,0E0,0E0,0E0,0E0,0E0,0E0,0E0,0E0,0E0,0E0,0E0,0E0,0E0,0E0,0E0,0E0],"parents":[2147483647,0,0,1,1,2,2,3,3,4,4,5,5,6,6,7,7,8,8,9,9,10,10,11,11,12,12,13,13,14,14],"right_children":[2,4,6,8,10,12,14,16,18,20,22,24,26,28,30,-1,-1,-1,-1,-1,-1,-1,-1,-1,-1,-1,-1,-1,-1,-1,-1],"split_conditions":[4.9486E4,-5.5108E4,2.17E2,8.5E1,1.34156E5,2.965E3,1.04E2,1.19E2,2.06E2,1.87E2,1.2474E4,3.38E2,8.974E3,7.51E2,8.603E3,1.7050063E-3,1.1074921E-1,1.04879014E-1,4.4326495E-2,3.404491E-2,4.4844475E-2,-1.3123123E-1,5.8403895E-3,1.2435535E-1,-1.3057597E-3,9.1386415E-2,4.7079194E-2,-5.6304146E-2,3.92099E-2,9.227854E-2,5.266116E-2],"split_indices":[23,27,12,14,15,18,6,8,0,36,0,21,10,32,15,0,0,0,0,0,0,0,0,0,0,0,0,0,0,0,0],"split_type":[0,0,0,0,0,0,0,0,0,0,0,0,0,0,0,0,0,0,0,0,0,0,0,0,0,0,0,0,0,0,0],"sum_hessian":[9.2E3,5.37E3,3.83E3,5.09E2,4.861E3,3.86E2,3.444E3,1.25E2,3.84E2,4.85E3,1.1E1,5.2E1,3.34E2,1.32E2,3.312E3,1.8E1,1.07E2,2E1,3.64E2,1.617E3,3.233E3,5E0,6E0,5E0,4.7E1,2.55E2,7.9E1,1.9E1,1.13E2,8.5E1,3.227E3],"tree_param":{"num_deleted":"0","num_feature":"43","num_nodes":"31","size_leaf_vector":"1"}},{"base_weights":[9.296817E-1,7.799279E-1,1.003112E0,8.147132E-1,3.6900897E-2,1.2530984E0,9.6558726E-1,7.673383E-1,1.6233338E0,7.876487E-1,-1.5896675E-1,2.6971395E0,1.1447222E0,9.0053713E-1,1.0881599E0,3.737993E-2,1.0973268E-1,8.927553E-2,1.7735822E-2,2.444055E-2,8.926259E-2,-9.487052E-2,1.9392122E-3,1.5885158E-1,4.657773E-2,4.885956E-2,8.6376704E-2,2.7691334E-2,4.7173914E-2,7.287817E-2,5.1427152E-2],"categories":[],"categories_nodes":[],"categories_segments":[],"categories_sizes":[],"default_left":[0,0,0,0,0,0,0,0,0,0,0,0,0,0,0,0,0,0,0,0,0,0,0,0,0,0,0,0,0,0,0],"id":50,"left_children":[1,3,5,7,9,11,13,15,17,19,21,23,25,27,29,-1,-1,-1,-1,-1,-1,-1,-1,-1,-1,-1,-1,-1,-1,-1,-1],"loss_changes":[9.814014E1,7.664856E1,5.525537E1,1.07196045E2,1.9892403E1,1.19380615E2,4.0753418E1,7.362927E1,3.1248108E1,7.247343E0,3.70438E1,4.238324E1,6.951312E1,5.057251E1,3.828955E1,0E0,0E0,0E0,0E0,0E0,0E0,0E0,0E0,0E0,0E0,0E0,0E0,0E0,0E0,0E0,0E0],"parents":[2147483647,0,0,1,1,2,2,3,3,4,4,5,5,6,6,7,7,8,8,9,9,10,10,11,11,12,12,13,13,14,14],"right_children":[2,4,6,8,10,12,14,16,18,20,22,24,26,28,30,-1,-1,-1,-1,-1,-1,-1,-1,-1,-1,-1,-1,-1,-1,-1,-1],"split_conditions":[1.6E1,2.939E3,1.7E2,1.0496601E-3,4E1,6.048621E-8,2.51779E5,1.3442E4,4.66E2,1.33E2,3.49E2,3.5826568E-5,9.99E3,5.882475E-5,1.72E2,3.737993E-2,1.0973268E-1,8.927553E-2,1.7735822E-2,2.444055E-2,8.926259E-2,-9.487052E-2,1.9392122E-3,1.5885158E-1,4.657773E-2,4.885956E-2,8.6376704E-2,2.7691334E-2,4.7173914E-2,7.287817E-2,5.1427152E-2],"split_indices":[1,9,12,42,32,39,20,16,14,6,32,42,34,42,5,0,0,0,0,0,0,0,0,0,0,0,0,0,0,0,0],"split_type":[0,0,0,0,0,0,0,0,0,0,0,0,0,0,0,0,0,0,0,0,0,0,0,0,0,0,0,0,0,0,0],"sum_hessian":[9.011E3,