{"learner":{"attributes":{"best_iteration":"11","best_score":"0.48837790026902345","scikit_learn":"{\"_estimator_type\": \"classifier\"}"},"feature_names":["full_max_6","some_max_6","allocstall","alloc_pgscan_ratio","pswpout","some_delta","full_delta","mem_min_6","pgscan_sum_10","some_ewm_6","workingset_refault","pgscan_sum_6","full_sum_2","some_sum_2","diff_some","pgscan_std_6","full_ewm_6","some_min_6","pgscan_direct","refault_sum_2","full_sum_6","diff_pgscan","diff_full","pgsteal_direct","full_sum_10","diff2_some","reclaim_efficiency","pgscan_sum_2","diff2_full","pswpin"],"feature_types":["float","float","int","float","int","int","int","float","float","float","int","float","float","float","float","float","float","float","int","float","float","float","float","int","float","float","float","float","float","int"],"gradient_booster":{"model":{"cats":{"enc":[],"feature_segments":[],"sorted_idx":[]},"gbtree_model_param":{"num_parallel_tree":"1","num_trees":"62"},"iteration_indptr":[0,1,2,3,4,5,6,7,8,9,10,11,12,13,14,15,16,17,18,19,20,21,22,23,24,25,26,27,28,29,30,31,32,33,34,35,36,37,38,39,40,41,42,43,44,45,46,47,48,49,50,51,52,53,54,55,56,57,58,59,60,61,62],"tree_info":[0,0,0,0,0,0,0,0,0,0,0,0,0,0,0,0,0,0,0,0,0,0,0,0,0,0,0,0,0,0,0,0,0,0,0,0,0,0,0,0,0,0,0,0,0,0,0,0,0,0,0,0,0,0,0,0,0,0,0,0,0,0],"trees":[{"base_weights":[2.2745522E-2,-5.8002603E-1,1.634116E0,-1.0216928E0,2.1303228E-1,1.0689649E-1,1.2351288E0,-1.0110192E-1,-4.971037E-2,-6.751084E-2,2.8747236E-2,5.0445188E-2,1.0164525E-1],"categories":[],"categories_nodes":[],"categories_segments":[],"categories_sizes":[],"default_left":[0,0,0,0,0,0,0,0,0,0,0,0,0],"id":0,"left_children":[1,3,5,7,9,-1,11,-1,-1,-1,-1,-1,-1],"loss_changes":[9.472521E2,2.4912193E2,4.1047363E0,5.891913E1,8.3071335E1,0E0,5.973091E0,0E0,0E0,0E0,0E0,0E0,0E0],"parents":[2147483647,0,0,1,1,2,2,3,3,4,4,6,6],"right_children":[2,4,6,8,10,-1,12,-1,-1,-1,-1,-1,-1],"split_conditions":[2E0,1.7774E4,2.1966E4,1.02E2,1.712E3,1.0689649E-1,1.18E2,-1.0110192E-1,-4.971037E-2,-6.751084E-2,2.8747236E-2,5.0445188E-2,1.0164525E-1],"split_indices":[2,0,22,0,12,0,2,0,0,0,0,0,0],"split_type":[0,0,0,0,0,0,0,0,0,0,0,0,0],"sum_hessian":[9.70625E2,7.0725E2,2.63375E2,4.54E2,2.5325E2,2.1425E2,4.9125E1,1.20625E2,3.33375E2,3.95E1,2.1375E2,2.6625E1,2.25E1],"tree_param":{"num_deleted":"0","num_feature":"30","num_nodes":"13","size_leaf_vector":"1"}},{"base_weights":[3.255247E-2,-5.6078273E-1,1.6136684E0,-9.9446434E-1,3.320158E-1,7.152882E-2,1.0346245E-1,-8.918834E-2,-4.36802E-2,-9.3578035E-3,4.926459E-2],"categories":[],"categories_nodes":[],"categories_segments":[],"categories_sizes":[],"default_left":[0,0,0,0,0,0,0,0,0,0,0],"id":1,"left_children":[1,3,5,7,9,-1,-1,-1,-1,-1,-1],"loss_changes":[9.3150116E2,2.802873E2,1.7729492E0,6.028244E1,5.2774834E1,0E0,0E0,0E0,0E0,0E0,0E0],"parents":[2147483647,0,0,1,1,2,2,3,3,4,4],"right_children":[2,4,6,8,10,-1,-1,-1,-1,-1,-1],"split_conditions":[4E0,2.2299E4,4.185E3,3.13E2,4.164E3,7.152882E-2,1.0346245E-1,-8.918834E-2,-4.36802E-2,-9.3578035E-3,4.926459E-2],"split_indices":[2,13,10,5,4,0,0,0,0,0,0],"split_type":[0,0,0,0,0,0,0,0,0,0,0],"sum_hessian":[9.883147E2,7.1950745E2,2.6880725E2,4.8421484E2,2.3529262E2,2.8057316E1,2.4074994E2,1.9233789E2,2.9187695E2,1.1507967E2,1.20212944E2],"tree_param":{"num_deleted":"0","num_feature":"30","num_nodes":"11","size_leaf_vector":"1"}},{"base_weights":[-3.0686652E-2,-5.9709615E-1,1.4856477E0,-1.0288019E0,3.1844923E-1,1.3089209E0,1.03337236E-1,-9.415451E-2,-4.8936725E-2,3.161328E-2,-4.4326816E-2,4.9613193E-2,8.977557E-2],"categories":[],"categories_nodes":[],"categories_segments":[],"categories_sizes":[],"default_left":[0,0,0,0,0,0,0,0,0,0,0,0,0],"id":2,"left_children":[1,3,5,7,9,11,-1,-1,-1,-1,-1,-1,-1],"loss_changes":[8.3094037E2,2.7918872E2,3.6133423E0,5.3924255E1,4.484384E1,6.930908E0,0E0,0E0,0E0,0E0,0E0,0E0,0E0],"parents":[2147483647,0,0,1,1,2,2,3,3,4,4,5,5],"right_children":[2,4,6,8,10,12,-1,-1,-1,-1,-1,-1,-1],"split_conditions":[2.2271715E-4,1.5938512E4,1.0248902E-2,1.0851608E3,4.717E4,3.0761E4,1.03337236E-1,-9.415451E-2,-4.8936725E-2,3.161328E-2,-4.4326816E-2,4.9613193E-2,8.977557E-2],"split_indices":[3,9,3,9,0,0,0,0,0,0,0,0,0],"split_type":[0,0,0,0,0,0,0,0,0,0,0,0,0],"sum_hessian":[9.629806E2,7.020302E2,2.609504E2,4.7700366E2,2.2502655E2,1.3682545E2,1.2412495E2,1.5744221E2,3.1956143E2,1.9119516E2,3.383139E1,3.0598463E1,1.06227E2],"tree_param":{"num_deleted":"0","num_feature":"30","num_nodes":"13","size_leaf_vector":"1"}},{"base_weights":[2.0224953E-2,-9.7766525E-1,8.880671E-1,-1.521235E0,-6.3411736E-1,-2.4759018E-1,1.1581373E0,-8.070875E-2,-1.1009996E-1,-4.5431104E-2,3.1685732E-2,-5.9539787E-2,4.2624276E-2,3.8133714E-2,8.330188E-2],"categories":[],"categories_nodes":[],"categories_segments":[],"categories_sizes":[],"default_left":[0,0,0,0,0,0,0,0,0,0,0,0,0,0,0],"id":3,"left_children":[1,3,5,7,9,11,13,-1,-1,-1,-1,-1,-1,-1,-1],"loss_changes":[8.352794E2,8.18396E1,1.5896432E2,5.0136414E0,3.0731567E1,6.781815E1,3.8639038E1,0E0,0E0,0E0,0E0,0E0,0E0,0E0,0E0],"parents":[2147483647,0,0,1,1,2,2,3,3,4,4,5,5,6,6],"right_children":[2,4,6,8,10,12,14,-1,-1,-1,-1,-1,-1,-1,-1],"split_conditions":[5.18E2,4.5062744E2,1.3190935E4,2.87E2,4.4412E4,4.212E3,4.485E3,-8.070875E-2,-1.1009996E-1,-4.5431104E-2,3.1685732E-2,-5.9539787E-2,4.2624276E-2,3.8133714E-2,8.330188E-2],"split_indices":[4,16,9,24,25,14,10,0,0,0,0,0,0,0,0],"split_type":[0,0,0,0,0,0,0,0,0,0,0,0,0,0,0],"sum_hessian":[9.6001587E2,4.4636472E2,5.136511E2,1.7008694E2,2.7627777E2,9.862426E1,4.1502686E2,9.447617E1,7.561077E1,2.5606168E2,2.0216099E1,5.611328E1,4.2510975E1,1.03630135E2,3.1139673E2],"tree_param":{"num_deleted":"0","num_feature":"30","num_nodes":"15","size_leaf_vector":"1"}},{"base_weights":[1.6625589E-2,-5.086955E-1,8.7810725E-2,-9.52859E-1,1.7336448E-1,-6.841938E-2,-9.573347E-3,4.235645E-3,7.260212E-2],"categories":[],"categories_nodes":[],"categories_segments":[],"categories_sizes":[],"default_left":[0,0,0,0,0,0,0,0,0],"id":4,"left_children":[1,3,-1,5,7,-1,-1,-1,-1],"loss_changes":[7.0552655E2,2.1278046E2,0E0,4.82825E1,2.89696E1,0E0,0E0,0E0,0E0],"parents":[2147483647,0,0,1,1,3,3,4,4],"right_children":[2,4,-1,6,8,-1,-1,-1,-1],"split_conditions":[4E0,4.560959E3,8.7810725E-2,1.084E3,8.952E4,-6.841938E-2,-9.573347E-3,4.235645E-3,7.260212E-2],"split_indices":[2,16,0,29,5,0,0,0,0],"split_type":[0,0,0,0,0,0,0,0,0],"sum_hessian":[9.611878E2,6.984613E2,2.6272647E2,4.2263693E2,2.758244E2,3.575766E2,6.506033E1,2.5129166E2,2.4532736E1],"tree_param":{"num_deleted":"0","num_feature":"30","num_nodes":"9","size_leaf_vector":"1"}},{"base_weights":[2.2613408E-2,-5.1352304E-1,8.550262E-2,-1.0003885E0,4.4535518E-2,-1.0616096E-1,-5.632188E-2,-8.429086E-2,1.0569558E-2],"categories":[],"categories_nodes":[],"categories_segments":[],"categories_sizes":[],"default_left":[0,0,0,0,0,0,0,0,0],"id":5,"left_children":[1,3,-1,5,7,-1,-1,-1,-1],"loss_changes":[7.0449036E2,1.8972885E2,0E0,2.2589722E1,5.7547752E1,0E0,0E0,0E0,0E0],"parents":[2147483647,0,0,1,1,3,3,4,4],"right_children":[2,4,-1,6,8,-1,-1,-1,-1],"split_conditions":[4E0,3.9289E4,8.550262E-2,-3.63E3,1.1E2,-1.0616096E-1,-5.632188E-2,-8.429086E-2,1.0569558E-2],"split_indices":[2,24,0,25,10,0,0,0,0],"split_type":[0,0,0,0,0,0,0,0,0],"sum_hessian":[9.7047546E2,6.950507E2,2.7542474E2,3.704866E2,3.2456412E2,4.1288456E1,3.2919815E2,2.4972525E1,2.995916E2],"tree_param":{"num_deleted":"0","num_feature":"30","num_nodes":"9","size_leaf_vector":"1"}},{"base_weights":[5.6704186E-2,-6.895747E-1,8.663514E-1,-9.4213223E-1,-4.8872147E-2,3.0149928E-1,1.1966586E0,-8.274123E-2,-4.262358E-2,-2.6267914E-2,4.471033E-2,4.35805E-3,5.3930294E-2,4.722101E-2,8.209667E-2],"categories":[],"categories_nodes":[],"categories_segments":[],"categories_sizes":[],"default_left":[0,0,0,0,0,0,0,0,0,0,0,0,0,0,0],"id":6,"left_children":[1,3,5,7,9,11,13,-1,-1,-1,-1,-1,-1,-1,-1],"loss_changes":[5.9291736E2,8.2429855E1,8.701288E1,3.458896E1,4.2549606E1,2.2909735E1,1.3462036E1,0E0,0E0,0E0,0E0,0E0,0E0,0E0,0E0],"parents":[2147483647,0,0,1,1,2,2,3,3,4,4,5,5,6,6],"right_children":[2,4,6,8,10,12,14,-1,-1,-1,-1,-1,-1,-1,-1],"split_conditions":[8.825E3,9.779115E3,8.051E3,1.1678596E3,1.166E3,1.27699E5,1.2167E4,-8.274123E-2,-4.262358E-2,-2.6267914E-2,4.471033E-2,4.35805E-3,5.3930294E-2,4.722101E-2,8.209667E-2],"split_indices":[5,9,4,9,4,24,19,0,0,0,0,0,0,0,0],"split_type":[0,0,0,0,0,0,0,0,0,0,0,0,0,0,0],"sum_hessian":[9.7667944E2,5.0829922E2,4.683802E2,3.6377304E2,1.4452618E2,1.743695E2,2.9401068E2,1.4316873E2,2.2060431E2,9.796184E1,4.656434E1,1.2525162E2,4.9117886E1,6.584359E1,2.281671E2],"tree_param":{"num_deleted":"0","num_feature":"30","num_nodes":"15","size_leaf_vector":"1"}},{"base_weights":[1.3525223E-3,-7.0792043E-1,8.051552E-1,-1.2771858E0,-3.706677E-1,2.3944972E-1,1.1692648E0,-9.1521874E-2,-5.9535548E-2,7.0690904E-3,-4.6697892E-2,1.5473804E-3,7.332141E-2,7.835592E-2,5.4409962E-2],"categories":[],"categories_nodes":[],"categories_segments":[],"categories_sizes":[],"default_left":[0,0,0,0,0,0,0,0,0,0,0,0,0,0,0],"id":7,"left_children":[1,3,5,7,9,11,13,-1,-1,-1,-1,-1,-1,-1,-1],"loss_changes":[5.27286E2,9.333313E1,8.8670715E1,8.327972E0,5.7238297E1,3.463205E1,4.55249E0,0E0,0E0,0E0,0E0,0E0,0E0,0E0,0E0],"parents":[2147483647,0,0,1,1,2,2,3,3,4,4,5,5,6,6],"right_children":[2,4,6,8,10,12,14,-1,-1,-1,-1,-1,-1,-1,-1],"split_conditions":[8.825E3,3.35E2,4.7021E4,4.5062744E2,1.181E3,4E0,2.1966E4,-9.1521874E-2,-5.9535548E-2,7.0690904E-3,-4.6697892E-2,1.5473804E-3,7.332141E-2,7.835592E-2,5.4409962E-2],"split_indices":[5,5,5,16,5,2,22,0,0,0,0,0,0,0,0],"split_type":[0,0,0,0,0,0,0,0,0,0,0,0,0,0,0],"sum_hessian":[9.2021594E2,4.8889453E2,4.313214E2,1.796892E2,3.0920535E2,1.7032578E2,2.6099564E2,1.0864947E2,7.103973E1,1.3597903E2,1.7322632E2,1.4030013E2,3.002565E1,1.9703403E2,6.396162E1],"tree_param":{"num_deleted":"0","num_feature":"30","num_nodes":"15","size_leaf_vector":"1"}},{"base_weights":[3.4907717E-2,-4.0451267E-1,1.1938735E0,-1.1265278E0,-1.5490073E-1,4.4166088E-2,1.2561101E0,-8.310501E-2,-4.225116E-2,-2.537349E-2,1.5779987E-2,8.244172E-2,5.7603564E-2],"categories":[],"categories_nodes":[],"categories_segments":[],"categories_sizes":[],"default_left":[0,0,0,0,0,0,0,0,0,0,0,0,0],"id":8,"left_children":[1,3,5,7,9,-1,11,-1,-1,-1,-1,-1,-1],"loss_changes":[4.8324902E2,1.2359289E2,6.072052E0,1.4422363E1,5.3016613E1,0E0,2.485199E0,0E0,0E0,0E0,0E0,0E0,0E0],"parents":[2147483647,0,0,1,1,2,2,3,3,4,4,6,6],"right_children":[2,4,6,8,10,-1,12,-1,-1,-1,-1,-1,-1],"split_conditions":[2.2271715E-4,3.13E2,4.9742404E-3,5.6E1,9.535E3,4.4166088E-2,2.3859E4,-8.310501E-2,-4.225116E-2,-2.537349E-2,1.5779987E-2,8.244172E-2,5.7603564E-2],"split_indices":[3,5,3,29,12,0,22,0,0,0,0,0,0],"split_type":[0,0,0,0,0,0,0,0,0,0,0,0,0],"sum_hessian":[9.4405884E2,6.853781E2,2.5868073E2,1.7415515E2,5.1122296E2,3.2369926E1,2.263108E2,1.1672483E2,5.7430317E1,3.1630963E2,1.9491333E2,1.8417215E2,4.2138653E1],"tree_param":{"num_deleted":"0","num_feature":"30","num_nodes":"13","size_leaf_vector":"1"}},{"base_weights":[2.405339E-2,-3.4782037E-1,1.1540871E0,-1.1766475E0,-1.1229068E-1,1.0227513E0,8.150986E-2,-1.3505269E-2,-8.226304E-2,-1.7721312E-2,2.8650342E-2,2.5050059E-2,7.209427E-2],"categories":[],"categories_nodes":[],"categories_segments":[],"categories_sizes":[],"default_left":[0,0,0,0,0,0,0,0,0,0,0,0,0],"id":9,"left_children":[1,3,5,7,9,11,-1,-1,-1,-1,-1,-1,-1],"loss_changes":[3.899429E2,1.3594135E2,1.9385376E0,2.02518E1,5.3885174E1,9.942108E0,0E0,0E0,0E0,0E0,0E0,0E0,0E0],"parents":[2147483647,0,0,1,1,2,2,3,3,4,4,5,5],"right_children":[2,4,6,8,10,12,-1,-1,-1,-1,-1,-1,-1],"split_conditions":[4E0,3.2240408E2,1.19E2,5E0,1.498E3,1.3966E6,8.150986E-2,-1.3505269E-2,-8.226304E-2,-1.7721312E-2,2.8650342E-2,2.5050059E-2,7.209427E-2],"split_indices":[2,16,2,29,29,7,0,0,0,0,0,0,0],"split_type":[0,0,0,0,0,0,0,0,0,0,0,0,0],"sum_hessian":[9.229125E2,6.953452E2,2.2756728E2,1.520003E2,5.433449E2,1.3074086E2,9.682642E1,2.0280369E1,1.3171992E2,4.187516E2,1.245933E2,2.4544342E1,1.0619651E2],"tree_param":{"num_deleted":"0","num_feature":"30","num_nodes":"13","size_leaf_vector":"1"}},{"base_weights":[-9.733019E-2,-7.797922E-1,6.0587204E-1,-1.2802963E0,-5.4413265E-1,3.6204476E-3,8.503744E-1,-8.558064E-2,-5.509877E-2,-4.4988394E-3,-5.3402696E-2,3.199602E-2,-1.4461485E-2,2.3959607E-2,6.259977E-2],"categories":[],"categories_nodes":[],"categories_segments":[],"categories_sizes":[],"default_left":[0,0,0,0,0,0,0,0,0,0,0,0,0,0,0],"id":10,"left_children":[1,3,5,7,9,11,13,-1,-1,-1,-1,-1,-1,-1,-1],"loss_changes":[4.170475E2,5.0622833E1,6.2928726E1,2.6046753E0,4.4446922E1,1.551276E1,2.0852707E1,0E0,0E0,0E0,0E0,0E0,0E0,0E0,0E0],"parents":[2147483647,0,0,1,1,2,2,3,3,4,4,5,5,6,6],"right_children":[2,4,6,8,10,12,14,-1,-1,-1,-1,-1,-1,-1,-1],"split_conditions":[1.166E3,3.579106E2,1.975244E4,4.5E1,8.4E1,3.8E1,8.242E3,-8.558064E-2,-5.509877E-2,-4.4988394E-3,-5.3402696E-2,3.199602E-2,-1.4461485E-2,2.3959607E-2,6.259977E-2],"split_indices":[4,16,9,17,17,17,4,0,0,0,0,0,0,0,0],"split_type":[0,0,0,0,0,0,0,0,0,0,0,0,0,0,0],"sum_hessian":[8.6435187E2,4.386272E2,4.2572467E2,1.374283E2,3.011989E2,1.2366022E2,3.0206445E2,1.0761125E2,2.9817041E1,1.2088999E2,1.8030891E2,3.852822E1,8.5131996E1,7.641711E1,2.2564735E2],"tree_param":{"num_deleted":"0","num_feature":"30","num_nodes":"15","size_leaf_vector":"1"}},{"base_weights":[1.4702126E-2,-3.1798387E-1,1.0904858E0,-4.1417488E-1,9.3261087E-1,4.088545E-2,7.172089E-2,-6.2320586E-2,-1.6425828E-2,4.0836506E-2,7.3457025E-2],"categories":[],"categories_nodes":[],"categories_segments":[],"categories_sizes":[],"default_left":[0,0,0,0,0,0,0,0,0,0,0],"id":11,"left_children":[1,3,5,7,9,-1,-1,-1,-1,-1,-1],"loss_changes":[3.2164813E2,8.341746E1,3.8830566E0,5.5823135E1,1.8347893E0,0E0,0E0,0E0,0E0,0E0,0E0],"parents":[2147483647,0,0,1,1,2,2,3,3,4,4],"right_children":[2,4,6,8,10,-1,-1,-1,-1,-1,-1],"split_conditions":[4E0,7.1765E4,1.4E1,2.098E3,1.03694E5,4.088545E-2,7.172089E-2,-6.2320586E-2,-1.6425828E-2,4.0836506E-2,7.3457025E-2],"split_indices":[2,5,2,1,5,0,0,0,0,0,0],"split_type":[0,0,0,0,0,0,0,0,0,0,0],"sum_hessian":[8.93545E2,6.834614E2,2.1008354E2,6.359718E2,4.748963E1,2.8093365E1,1.8199017E2,1.2810754E2,5.0786423E2,2.5857864E1,2.163177E1],"tree_param":{"num_deleted":"0","num_feature":"30","num_nodes":"11","size_leaf_vector":"1"}},{"base_weights":[-4.78108E-2,-3.868641E-1,7.086537E-1,-1.2102399E0,-1.9380185E-1,3.1910524E-1,9.8129404E-1,-8.648697E-2,-3.850553E-2,3.475641E-2,-1.8396737E-2,4.4648446E-2,5.8071194E-3,3.7256595E-2,6.608678E-2],"categories":[],"categories_nodes":[],"categories_segments":[],"categories_sizes":[],"default_left":[0,0,0,0,0,0,0,0,0,0,0,0,0,0,0],"id":12,"left_children":[1,3,5,7,9,11,13,-1,-1,-1,-1,-1,-1,-1,-1],"loss_changes":[2.1870644E2,9.310743E1,2.735698E1,9.836761E0,3.6764046E1,9.892027E0,3.3011017E0,0E0,0E0,0E0,0E0,0E0,0E0,0E0,0E0],"parents":[2147483647,0,0,1,1,2,2,3,3,4,4,5,5,6,6],"right_children":[2,4,6,8,10,12,14,-1,-1,-1,-1,-1,-1,-1,-1],"split_conditions":[1.19E4,1.906E3,6.51E2,2.42E2,1.35E2,5.0862E4,1.1513E4,-8.648697E-2,-3.850553E-2,3.475641E-2,-1.8396737E-2,4.4648446E-2,5.8071194E-3,3.7256595E-2,6.608678E-2],"split_indices":[6,1,23,29,19,13,19,0,0,0,0,0,0,0,0],"split_type":[0,0,0,0,0,0,0,0,0,0,0,0,0,0,0],"sum_hessian":[8.4773676E2,5.861543E2,2.6158246E2,1.09226265E2,4.7692804E2,1.0966316E2,1.5191928E2,8.2073326E1,2.7152943E1,5.533478E1,4.2159326E2,3.8068604E1,7.159456E1,2.8703966E1,1.2321532E2],"tree_param":{"num_deleted":"0","num_feature":"30","num_nodes":"15","size_leaf_vector":"1"}},{"base_weights":[9.612865E-3,-6.392649E-1,4.806323E-1,-9.6198994E-1,-2.1836634E-1,1.7172833E-1,9.333451E-1,-8.319753E-2,-2.8637188E-2,1.303885E-2,-5.681192E-2,-3.3677814E-3,4.6450775E-2,6.342885E-2,3.6650237E-2],"categories":[],"categories_nodes":[],"categories_segments":[],"categories_sizes":[],"default_left":[0,0,0,0,0,0,0,0,0,0,0,0,0,0,0],"id":13,"left_children":[1,3,5,7,9,11,13,-1,-1,-1,-1,-1,-1,-1,-1],"loss_changes":[2.7123804E2,5.0209793E1,7.155224E1,3.8029984E1,4.9340797E1,4.012895E1,4.7528534E0,0E0,0E0,0E0,0E0,0E0,0E0,0E0,0E0],"parents":[2147483647,0,0,1,1,2,2,3,3,4,4,5,5,6,6],"right_children":[2,4,6,8,10,12,14,-1,-1,-1,-1,-1,-1,-1,-1],"split_conditions":[9.779115E3,1.01E2,1.8440196E-1,1.2579E4,7.2E1,4.3450863E4,2.3859E4,-8.319753E-2,-2.8637188E-2,1.303885E-2,-5.681192E-2,-3.3677814E-3,4.6450775E-2,6.342885E-2,3.6650237E-2],"split_indices":[9,14,26,24,17,9,22,0,0,0,0,0,0,0,0],"split_type":[0,0,0,0,0,0,0,0,0,0,0,0,0,0,0],"sum_hessian":[8.8262714E2,3.708141E2,5.1181302E2,2.0827159E2,1.625425E2,3.0601852E2,2.0579448E2,1.1783193E2,9.043967E1,1.0123004E2,6.1312458E1,2.2062593E2,8.539261E1,1.6259178E2,4.3202694E1],"tree_param":{"num_deleted":"0","num_feature":"30","num_nodes":"15","size_leaf_vector":"1"}},{"base_weights":[-6.3138055E-3,-3.4357932E-1,1.0011048E0,-5.8928525E-1,3.5103807E-1,3.795341E-2,1.0374138E0,-6.925465E-2,-2.4567205E-2,-1.8482411E-2,3.9347745E-2,6.912901E-2,5.279847E-2],"categories":[],"categories_nodes":[],"categories_segments":[],"categories_sizes":[],"default_left":[0,0,0,0,0,0,0,0,0,0,0,0,0],"id":14,"left_children":[1,3,5,7,9,-1,11,-1,-1,-1,-1,-1,-1],"loss_changes":[2.8707892E2,1.08543434E2,1.7243347E0,4.6834427E1,3.0650433E1,0E0,6.9226074E-1,0E0,0E0,0E0,0E0,0E0,0E0],"parents":[2147483647,0,0,1,1,2,2,3,3,4,4,6,6],"right_children":[2,4,6,8,10,-1,12,-1,-1,-1,-1,-1,-1],"split_conditions":[4E0,1.03E3,1.2E1,4.247E3,2.7368E4,3.795341E-2,7.673E3,-6.925465E-2,-2.4567205E-2,-1.8482411E-2,3.9347745E-2,6.912901E-2,5.279847E-2],"split_indices":[2,29,2,24,24,0,18,0,0,0,0,0,0],"split_type":[0,0,0,0,0,0,0,0,0,0,0,0,0],"sum_hessian":[8.401829E2,6.305262E2,2.0965674E2,4.6612762E2,1.6439854E2,2.1004675E1,1.8865207E2,1.2464433E2,3.4148328E2,4.940487E1,1.1499368E2,1.3056348E2,5.8088593E1],"tree_param":{"num_deleted":"0","num_feature":"30","num_nodes":"13","size_leaf_vector":"1"}},{"base_weights":[8.026757E-2,-5.7206595E-1,5.674098E-1,-1.0123205E0,-3.4200478E-1,2.857822E-1,9.998511E-1,-3.168336E-2,-7.3171824E-2,-4.1285357E-3,-7.334019E-2,9.758721E-3,6.1754018E-2,5.305423E-2,7.28978E-2],"categories":[],"categories_nodes":[],"categories_segments":[],"categories_sizes":[],"default_left":[0,0,0,0,0,0,0,0,0,0,0,0,0,0,0],"id":15,"left_children":[1,3,5,7,9,11,13,-1,-1,-1,-1,-1,-1,-1,-1],"loss_changes":[2.76874E2,3.7032364E1,6.013452E1,9.001877E0,5.6820915E1,2.7516283E1,2.9608765E0,0E0,0E0,0E0,0E0,0E0,0E0,0E0,0E0],"parents":[2147483647,0,0,1,1,2,2,3,3,4,4,5,5,6,6],"right_children":[2,4,6,8,10,12,14,-1,-1,-1,-1,-1,-1,-1,-1],"split_conditions":[4.0953037E3,2.6847507E2,2.2271715E-4,1.4E1,2.91E2,6.874557E4,1.0315127E-2,-3.168336E-2,-7.3171824E-2,-4.1285357E-3,-7.334019E-2,9.758721E-3,6.1754018E-2,5.305423E-2,7.28978E-2],"split_indices":[16,16,3,29,17,9,3,0,0,0,0,0,0,0,0],"split_type":[0,0,0,0,0,0,0,0,0,0,0,0,0,0,0],"sum_hessian":[8.6642487E2,3.7014948E2,4.9627536E2,1.2453808E2,2.4561137E2,3.0271628E2,1.9355908E2,3.2183144E1,9.2354935E1,1.8624046E2,5.9370922E1,2.5789328E2,4.4823E1,1.0915299E2,8.440609E1],"tree_param":{"num_deleted":"0","num_feature":"30","num_nodes":"15","size_leaf_vector":"1"}},{"base_weights":[4.4713777E-2,-4.7355956E-1,4.3203953E-1,-6.2040234E-1,4.1711918E-1,1.1579801E-1,5.8229316E-2,-5.8071554E-2,-1.9758204E-2,6.8455435E-2,-1.9286618E-2,-5.9715717E-4,4.7309756E-2],"categories":[],"categories_nodes":[],"categories_segments":[],"categories_sizes":[],"default_left":[0,0,0,0,0,0,0,0,0,0,0,0,0],"id":16,"left_children":[1,3,5,7,9,11,-1,-1,-1,-1,-1,-1,-1],"loss_changes":[1.7090869E2,4.824086E1,7.6914185E1,2.8913239E1,2.6952572E1,2.4492973E1,0E0,0E0,0E0,0E0,0E0,0E0,0E0],"parents":[2147483647,0,0,1,1,2,2,3,3,4,4,5,5],"right_children":[2,4,6,8,10,12,-1,-1,-1,-1,-1,-1,-1],"split_conditions":[9.949926E3,1.256E3,4.06E2,6.9025946E2,7.2E1,5.9022094E4,5.8229316E-2,-5.8071554E-2,-1.9758204E-2,6.8455435E-2,-1.9286618E-2,-5.9715717E-4,4.7309756E-2],"split_indices":[9,29,23,16,17,9,0,0,0,0,0,0,0],"split_type":[0,0,0,0,0,0,0,0,0,0,0,0,0],"sum_hessian":[8.4632306E2,3.6164383E2,4.8467923E2,3.1109854E2,5.0545273E1,2.987774E2,1.8590182E2,1.5172295E2,1.5937561E2,2.5674753E1,2.4870522E1,2.5144911E2,4.7328285E1],"tree_param":{"num_deleted":"0","num_feature":"30","num_nodes":"13","size_leaf_vector":"1"}},{"base_weights":[1.50663955E-2,-2.3262182E-1,8.880831E-1,-3.7271765E-1,4.3111685E-1,2.6762277E-2,9.4770455E-1,-4.0798344E-2,-4.830694E-3,-1.4941413E-2,4.0502947E-2,6.8467714E-2,5.00602E-2],"categories":[],"categories_nodes":[],"categories_segments":[],"categories_sizes":[],"default_left":[0,0,0,0,0,0,0,0,0,0,0,0,0],"id":17,"left_children":[1,3,5,7,9,-1,11,-1,-1,-1,-1,-1,-1],"loss_changes":[1.7962956E2,6.050565E1,4.163788E0,4.425052E1,1.703079E1,0E0,1.7447968E0,0E0,0E0,0E0,0E0,0E0,0E0],"parents":[2147483647,0,0,1,1,2,2,3,3,4,4,6,6],"right_children":[2,4,6,8,10,-1,12,-1,-1,-1,-1,-1,-1],"split_conditions":[4E0,1.27699E5,3.98E2,1.88E2,1.2562E4,2.6762277E-2,9.7236E4,-4.0798344E-2,-4.830694E-3,-1.4941413E-2,4.0502947E-2,6.8467714E-2,5.00602E-2],"split_indices":[2,24,29,29,12,0,24,0,0,0,0,0,0],"split_type":[0,0,0,0,0,0,0,0,0,0,0,0,0],"sum_hessian":[8.251462E2,6.4379785E2,1.8134833E2,5.324698E2,1.1132803E2,2.2948324E1,1.5840001E2,2.7138678E2,2.61083E2,2.7111456E1,8.4216576E1,7.135039E1,8.7049614E1],"tree_param":{"num_deleted":"0","num_feature":"30","num_nodes":"13","size_leaf_vector":"1"}},{"base_weights":[-4.6764117E-2,-2.9827103E-1,8.1692E-1,-4.4164732E-1,6.664821E-1,5.380725E-1,7.1456335E-2,-6.900577E-2,-1.9424146E-2,2.1204302E-2,7.8431025E-2,1.8851336E-2,6.31585E-2],"categories":[],"categories_nodes":[],"categories_segments":[],"categories_sizes":[],"default_left":[0,0,0,0,0,0,0,0,0,0,0,0,0],"id":18,"left_children":[1,3,5,7,9,11,-1,-1,-1,-1,-1,-1,-1],"loss_changes":[1.7561076E2,8.724322E1,1.5437325E1,4.663662E1,1.4918022E1,1.0872099E1,0E0,0E0,0E0,0E0,0E0,0E0,0E0],"parents":[2147483647,0,0,1,1,2,2,3,3,4,4,5,5],"right_children":[2,4,6,8,10,12,-1,-1,-1,-1,-1,-1,-1],"split_conditions":[4E0,4.5405895E4,1.0595145E-2,1.17E2,1.2029048E4,1.1394345E4,7.1456335E-2,-6.900577E-2,-1.9424146E-2,2.1204302E-2,7.8431025E-2,1.8851336E-2,6.31585E-2],"split_indices":[2,9,3,0,15,15,0,0,0,0,0,0,0],"split_type":[0,0,0,0,0,0,0,0,0,0,0,0,0],"sum_hessian":[8.0328375E2,6.2323944E2,1.8004431E2,5.436513E2,7.958811E1,1.0035915E2,7.968516E1,8.6642525E1,4.570088E2,5.3379326E1,2.6208786E1,6.934206E1,3.1017096E1],"tree_param":{"num_deleted":"0","num_feature":"30","num_nodes":"13","size_leaf_vector":"1"}},{"base_weights":[-4.6248805E-2,-4.1358817E-1,5.8258444E-1,-8.6291325E-1,-1.8711105E-1,3.5932696E-1,9.1317457E-1,-6.305258E-2,3.4152046E-3,1.7820157E-2,-2.304682E-2,4.4278722E-2,-2.561602E-3,4.870739E-2,6.884546E-2],"categories":[],"categories_nodes":[],"categories_segments":[],"categories_sizes":[],"default_left":[0,0,0,0,0,0,0,0,0,0,0,0,0,0,0],"id":19,"left_children":[1,3,5,7,9,11,13,-1,-1,-1,-1,-1,-1,-1,-1],"loss_changes":[1.8720532E2,5.1705025E1,2.138958E1,2.3346008E1,2.9826014E1,2.5706772E1,1.296402E0,0E0,0E0,0E0,0E0,0E0,0E0,0E0,0E0],"parents":[2147483647,0,0,1,1,2,2,3,3,4,4,5,5,6,6],"right_children":[2,4,6,8,10,12,14,-1,-1,-1,-1,-1,-1,-1,-1],"split_conditions":[4.185E3,8E0,6.1387355E-3,5.67E2,4.9E1,5.03E2,1.44E2,-6.305258E-2,3.4152046E-3,1.7820157E-2,-2.304682E-2,4.4278722E-2,-2.561602E-3,4.870739E-2,6.884546E-2],"split_indices":[10,6,3,29,29,17,2,0,0,0,0,0,0,0,0],"split_type":[0,0,0,0,0,0,0,0,0,0,0,0,0,0,0],"sum_hessian":[8.054264E2,5.0898093E2,2.964455E2,1.6851709E2,3.4046384E2,1.796455E2,1.168E2,1.4514056E2,2.3376524E1,9.421234E1,2.4625148E2,9.518454E1,8.4460945E1,7.51157E1,4.16843E1],"tree_param":{"num_deleted":"0","num_feature":"30","num_nodes":"15","size_leaf_vector":"1"}},{"base_weights":[8.745078E-2,-3.8969085E-1,4.5579496E-1,-4.883017E-1,3.8111206E-2,-4.883632E-2,5.153524E-1,-1.9544752E-2,-6.1215736E-2,1.9364132E-2,5.0157495E-2],"categories":[],"categories_nodes":[],"categories_segments":[],"categories_sizes":[],"default_left":[0,0,0,0,0,0,0,0,0,0,0],"id":20,"left_children":[1,3,5,7,-1,-1,9,-1,-1,-1,-1],"loss_changes":[1.4569154E2,3.6336876E1,3.5428986E1,2.7859924E1,0E0,0E0,2.5945992E1,0E0,0E0,0E0,0E0],"parents":[2147483647,0,0,1,1,2,2,3,3,6,6],"right_children":[2,4,6,8,-1,-1,10,-1,-1,-1,-1],"split_conditions":[2E0,2.8457E4,1.82E2,1.188E3,3.8111206E-2,-4.883632E-2,1.1861E4,-1.9544752E-2,-6.1215736E-2,1.9364132E-2,5.0157495E-2],"split_indices":[4,25,12,12,0,0,4,0,0,0,0],"split_type":[0,0,0,0,0,0,0,0,0,0,0],"sum_hessian":[8.238279E2,3.587078E2,4.651201E2,3.2756015E2,3.114765E1,2.0141777E1,4.4497833E2,2.4423018E2,8.332998E1,2.627009E2,1.8227744E2],"tree_param":{"num_deleted":"0","num_feature":"30","num_nodes":"11","size_leaf_vector":"1"}},{"base_weights":[5.696814E-2,-9.600886E-1,2.4516596E-1,-5.376664E-1,-7.566057E-2,5.7810143E-2,8.785029E-1,-5.4724958E-2,-3.7306806E-3,-1.0461258E-3,4.8558626E-2,6.3084655E-2,4.166148E-2],"categories":[],"categories_nodes":[],"categories_segments":[],"categories_sizes":[],"default_left":[0,0,0,0,0,0,0,0,0,0,0,0,0],"id":21,"left_children":[1,3,5,7,-1,9,11,-1,-1,-1,-1,-1,-1],"loss_changes":[1.5312877E2,1.1972076E1,7.991266E1,8.042716E0,0E0,2.836385E1,2.9390945E0,0E0,0E0,0E0,0E0,0E0,0E0],"parents":[2147483647,0,0,1,1,2,2,3,3,5,5,6,6],"right_children":[2,4,6,8,-1,10,12,-1,-1,-1,-1,-1,-1],"split_conditions":[4.5062744E2,1.1E2,9E0,3.6E1,-7.566057E-2,7.1765E4,4.000425E3,-5.4724958E-2,-3.7306806E-3,-1.0461258E-3,4.8558626E-2,6.3084655E-2,4.166148E-2],"split_indices":[16,24,2,24,0,5,15,0,0,0,0,0,0],"split_type":[0,0,0,0,0,0,0,0,0,0,0,0,0],"sum_hessian":[7.945419E2,1.2269143E2,6.7185046E2,4.8381878E1,7.430955E1,5.202975E2,1.5155293E2,2.7172884E1,2.1208996E1,4.7307556E2,4.7221943E1,8.814087E1,6.3412064E1],"tree_param":{"num_deleted":"0","num_feature":"30","num_nodes":"13","size_leaf_vector":"1"}},{"base_weights":[-2.6084743E-2,-4.9755916E-1,3.8860926E-1,-9.1540444E-1,-2.660815E-1,1.6842473E-1,7.7041435E-1,-6.809971E-2,-1.5380049E-2,5.4384854E-2,-2.9521333E-2,5.490185E-2,4.3946984E-3,3.6182627E-2,6.5664895E-2],"categories":[],"categories_nodes":[],"categories_segments":[],"categories_sizes":[],"default_left":[0,0,0,0,0,0,0,0,0,0,0,0,0,0,0],"id":22,"left_children":[1,3,5,7,9,11,13,-1,-1,-1,-1,-1,-1,-1,-1],"loss_changes":[1.5344676E2,3.5019394E1,3.4806824E1,1.4663216E1,5.731218E1,1.857731E1,6.9520187E0,0E0,0E0,0E0,0E0,0E0,0E0,0E0,0E0],"parents":[2147483647,0,0,1,1,2,2,3,3,4,4,5,5,6,6],"right_children":[2,4,6,8,10,12,14,-1,-1,-1,-1,-1,-1,-1,-1],"split_conditions":[1.2479986E4,3.35E2,2.2271715E-4,7.438E3,4.95E2,2.9E1,1.0049365E-2,-6.809971E-2,-1.5380049E-2,5.4384854E-2,-2.9521333E-2,5.490185E-2,4.3946984E-3,3.6182627E-2,6.5664895E-2],"split_indices":[9,5,3,20,5,29,3,0,0,0,0,0,0,0,0],"split_type":[0,0,0,0,0,0,0,0,0,0,0,0,0,0,0],"sum_hessian":[7.796898E2,3.6482468E2,4.1486514E2,1.2777366E2,2.3705103E2,2.6514606E2,1.4971909E2,1.00043106E2,2.7730549E1,3.541518E1,2.0163585E2,3.00381E1,2.3510796E2,9.3182236E1,5.653685E1],"tree_param":{"num_deleted":"0","num_feature":"30","num_nodes":"15","size_leaf_vector":"1"}},{"base_weights":[1.8076688E-3,-4.93639E-1,4.633209E-1,-1.0624051E0,-4.012963E-1,2.4516012E-1,7.89193E-1,-3.6722485E-2,-8.886257E-2,-4.3666255E-2,-1.4887293E-2,2.236302E-2,-1.9665824E-2,4.2666677E-2,6.7305975E-2],"categories":[],"categories_nodes":[],"categories_segments":[],"categories_sizes":[],"default_left":[0,0,0,0,0,0,0,0,0,0,0,0,0,0,0],"id":23,"left_children":[1,3,5,7,9,11,13,-1,-1,-1,-1,-1,-1,-1,-1],"loss_changes":[1.781933E2,1.8922379E1,2.8284874E1,7.0662155E0,1.5526478E1,1.5844202E1,3.4623795E0,0E0,0E0,0E0,0E0,0E0,0E0,0E0,0E0],"parents":[2147483647,0,0,1,1,2,2,3,3,4,4,5,5,6,6],"right_children":[2,4,6,8,10,12,14,-1,-1,-1,-1,-1,-1,-1,-1],"split_conditions":[1.8739E4,-1.859E3,3.59E2,1.3403E4,5.032E3,1.4179E4,2.37768E5,-3.6722485E-2,-8.886257E-2,-4.3666255E-2,-1.4887293E-2,2.236302E-2,-1.9665824E-2,4.2666677E-2,6.7305975E-2],"split_indices":[13,25,23,24,24,28,13,0,0,0,0,0,0,0,0],"split_type":[0,0,0,0,0,0,0,0,0,0,0,0,0,0,0],"sum_hessian":[7.742987E2,3.732214E2,4.0107733E2,4.9031357E1,3.2419003E2,2.4255638E2,1.5852094E2,2.3619553E1,2.5411802E1,1.11833015E2,2.1235703E2,2.0257802E2,3.9978374E1,1.2135667E2,3.7164276E1],"tree_param":{"num_deleted":"0","num_feature":"30","num_nodes":"15","size_leaf_vector":"1"}},{"base_weights":[-5.425833E-2,-1.0293176E0,1.0706397E-1,-3.4642518E-2,-7.243098E-2,-1.064546E-1,8.027741E-1,4.7066707E-2,-1.2939856E-2,5.861027E-2,3.5209876E-2],"categories":[],"categories_nodes":[],"categories_segments":[],"categories_sizes":[],"default_left":[0,0,0,0,0,0,0,0,0,0,0],"id":24,"left_children":[1,3,5,-1,-1,7,9,-1,-1,-1,-1],"loss_changes":[1.2113984E2,5.4705887E0,9.837621E1,0E0,0E0,4.4388836E1,3.985649E0,0E0,0E0,0E0,0E0],"parents":[2147483647,0,0,1,1,2,2,5,5,6,6],"right_children":[2,4,6,-1,-1,8,10,-1,-1,-1,-1],"split_conditions":[3.579106E2,4E0,7E0,-3.4642518E-2,-7.243098E-2,1.413E3,1.4179E4,4.7066707E-2,-1.2939856E-2,5.861027E-2,3.5209876E-2],"split_indices":[16,17,2,0,0,20,28,0,0,0,0],"split_type":[0,0,0,0,0,0,0,0,0,0,0],"sum_hessian":[7.6425354E2,1.0709366E2,6.571599E2,2.567537E1,8.141829E1,5.0397937E2,1.5318053E2,5.1401535E1,4.5257785E2,9.342907E1,5.9751465E1],"tree_param":{"num_deleted":"0","num_feature":"30","num_nodes":"11","size_leaf_vector":"1"}},{"base_weights":[5.0945535E-2,-2.5879642E-1,4.7161958E-1,-7.1599036E-1,-1.4050588E-1,-2.842164E-1,5.814582E-1,-7.036619E-2,2.607547E-2,-3.7033167E-2,3.856969E-3,1.8627275E-2,-5.2232243E-2,-9.2823047E-4,4.270629E-2],"categories":[],"categories_nodes":[],"categories_segments":[],"categories_sizes":[],"default_left":[0,0,0,0,0,0,0,0,0,0,0,0,0,0,0],"id":25,"left_children":[1,3,5,7,9,11,13,-1,-1,-1,-1,-1,-1,-1,-1],"loss_changes":[1.000603E2,2.3716894E1,2.7454231E1,4.324185E1,3.264956E1,1.4446237E1,1.7592255E1,0E0,0E0,0E0,0E0,0E0,0E0,0E0,0E0],"parents":[2147483647,0,0,1,1,2,2,3,3,4,4,5,5,6,6],"right_children":[2,4,6,8,10,12,14,-1,-1,-1,-1,-1,-1,-1,-1],"split_conditions":[2.733E3,1.380076E6,1.179E3,2.873E3,3.49E2,9.42E2,1.320316E6,-7.036619E-2,2.607547E-2,-3.7033167E-2,3.856969E-3,1.8627275E-2,-5.2232243E-2,-9.2823047E-4,4.270629E-2],"split_indices":[4,7,6,11,5,8,7,0,0,0,0,0,0,0,0],"split_type":[0,0,0,0,0,0,0,0,0,0,0,0,0,0,0],"sum_hessian":[7.6254486E2,4.3944263E2,3.2310223E2,8.804811E1,3.5139453E2,4.0449493E1,2.8265274E2,6.469152E1,2.335659E1,1.0751288E2,2.4388165E2,2.0022255E1,2.042724E1,4.1643784E1,2.4100896E2],"tree_param":{"num_deleted":"0","num_feature":"30","num_nodes":"15","size_leaf_vector":"1"}},{"base_weights":[4.686973E-3,-1.5856066E-1,7.6894915E-1,-8.1927013E-1,-4.538111E-2,8.872456E-1,1.5545418E-2,-9.439407E-3,-6.6068016E-2,3.2501757E-2,-9.331193E-3,4.4089597E-2,6.362975E-2],"categories":[],"categories_nodes":[],"categories_segments":[],"categories_sizes":[],"default_left":[0,0,0,0,0,0,0,0,0,0,0,0,0],"id":26,"left_children":[1,3,5,7,9,11,-1,-1,-1,-1,-1,-1,-1],"loss_changes":[9.357415E1,4.604823E1,7.6101685E0,1.398502E1,3.1399385E1,1.1100998E0,0E0,0E0,0E0,0E0,0E0,0E0,0E0],"parents":[2147483647,0,0,1,1,2,2,3,3,4,4,5,5],"right_children":[2,4,6,8,10,12,-1,-1,-1,-1,-1,-1,-1],"split_conditions":[4.72255E-3,1.1124418E3,2.5058E4,4E0,3.83E2,1.0595145E-2,1.5545418E-2,-9.439407E-3,-6.6068016E-2,3.2501757E-2,-9.331193E-3,4.4089597E-2,6.362975E-2],"split_indices":[3,9,22,17,19,3,0,0,0,0,0,0,0],"split_type":[0,0,0,0,0,0,0,0,0,0,0,0,0],"sum_hessian":[7.435813E2,6.1386237E2,1.2971895E2,8.780376E1,5.260586E2,1.0433221E2,2.5386738E1,2.4156147E1,6.364761E1,8.030512E1,4.4575348E2,4.9808125E1,5.4524082E1],"tree_param":{"num_deleted":"0","num_feature":"30","num_nodes":"13","size_leaf_vector":"1"}},{"base_weights":[6.2164895E-2,-6.399731E-1,2.0821059E-1,-9.5710987E-1,-6.635233E-2,8.538295E-2,6.958367E-1,-1.1250605E-2,-7.895559E-2,-4.6052836E-2,3.3354506E-2,4.4816956E-2,-2.3727617E-3,5.8727626E-2,1.8567422E-2],"categories":[],"categories_nodes":[],"categories_segments":[],"categories_sizes":[],"default_left":[0,0,0,0,0,0,0,0,0,0,0,0,0,0,0],"id":27,"left_children":[1,3,5,7,9,11,13,-1,-1,-1,-1,-1,-1,-1,-1],"loss_changes":[7.756711E1,2.3471436E1,3.7333786E1,1.9435188E1,2.0691423E1,3.945681E1,1.165044E1,0E0,0E0,0E0,0E0,0E0,0E0,0E0,0E0],"parents":[2147483647,0,0,1,1,2,2,3,3,4,4,5,5,6,6],"right_children":[2,4,6,8,10,12,14,-1,-1,-1,-1,-1,-1,-1,-1],"split_conditions":[3.13E2,5.6E1,6.9162E4,9.1E1,4.5062744E2,1.561E3,1.3731E4,-1.1250605E-2,-7.895559E-2,-4.6052836E-2,3.3354506E-2,4.4816956E-2,-2.3727617E-3,5.8727626E-2,1.8567422E-2],"split_indices":[5,29,5,13,16,13,22,0,0,0,0,0,0,0,0],"split_type":[0,0,0,0,0,0,0,0,0,0,0,0,0,0,0],"sum_hessian":[7.504523E2,1.2791368E2,6.225386E2,8.1376465E1,4.6537216E1,4.993478E2,1.2319076E2,2.4115019E1,5.726145E1,2.1861244E1,2.4675972E1,8.01043E1,4.192435E2,7.438446E1,4.88063E1],"tree_param":{"num_deleted":"0","num_feature":"30","num_nodes":"15","size_leaf_vector":"1"}},{"base_weights":[2.4139047E-2,-4.237417E-1,3.245647E-1,-7.28073E-1,-1.1524216E-1,1.3212794E-1,7.280521E-1,-1.9937502E-2,-7.656643E-2,9.610329E-3,-7.570375E-2,-3.5092458E-2,1.8797237E-2,3.2442067E-2,5.970232E-2],"categories":[],"categories_nodes":[],"categories_segments":[],"categories_sizes":[],"default_left":[0,0,0,0,0,0,0,0,0,0,0,0,0,0,0],"id":28,"left_children":[1,3,5,7,9,11,13,-1,-1,-1,-1,-1,-1,-1,-1],"loss_changes":[1.0179904E2,2.8290329E1,3.494287E1,3.0214066E1,4.6069935E1,3.674019E1,5.935585E0,0E0,0E0,0E0,0E0,0E0,0E0,0E0,0E0],"parents":[2147483647,0,0,1,1,2,2,3,3,4,4,5,5,6,6],"right_children":[2,4,6,8,10,12,14,-1,-1,-1,-1,-1,-1,-1,-1],"split_conditions":[9.779115E3,1.19E2,6E0,2.71E2,3.75E2,-2.8654E4,9.60452E-3,-1.9937502E-2,-7.656643E-2,9.610329E-3,-7.570375E-2,-3.5092458E-2,1.8797237E-2,3.2442067E-2,5.970232E-2],"split_indices":[9,29,2,19,17,25,3,0,0,0,0,0,0,0,0],"split_type":[0,0,0,0,0,0,0,0,0,0,0,0,0,0,0],"sum_hessian":[7.512767E2,3.0112122E2,4.501555E2,1.5002025E2,1.5110098E2,3.067851E2,1.4337038E2,8.439221E1,6.562803E1,1.22616356E2,2.8484632E1,5.9017246E1,2.4776785E2,7.871461E1,6.465577E1],"tree_param":{"num_deleted":"0","num_feature":"30","num_nodes":"15","size_leaf_vector":"1"}},{"base_weights":[-4.799608E-2,-2.4076456E-1,7.536685E-1,-3.941635E-1,1.5165927E-1,5.803936E-1,5.8554474E-2,-2.9546391E-2,1.2014044E-2,2.1253603E-2,-5.717448E-2,2.2566078E-2,4.879601E-2],"categories":[],"categories_nodes":[],"categories_segments":[],"categories_sizes":[],"default_left":[0,0,0,0,0,0,0,0,0,0,0,0,0],"id":29,"left_children":[1,3,5,7,9,11,-1,-1,-1,-1,-1,-1,-1],"loss_changes":[1.1252834E2,3.5493988E1,3.4269714E0,1.9911194E1,3.427833E1,2.8849773E0,0E0,0E0,0E0,0E0,0E0,0E0,0E0],"parents":[2147483647,0,0,1,1,2,2,3,3,4,4,5,5],"right_children":[2,4,6,8,10,12,-1,-1,-1,-1,-1,-1,-1],"split_conditions":[4.9423394E-3,1.03E3,1.0595145E-2,2.8457E4,1.944816E6,1.596896E6,5.8554474E-2,-2.9546391E-2,1.2014044E-2,2.1253603E-2,-5.717448E-2,2.2566078E-2,4.879601E-2],"split_indices":[3,29,3,25,7,7,0,0,0,0,0,0,0],"split_type":[0,0,0,0,0,0,0,0,0,0,0,0,0],"sum_hessian":[7.2272455E2,5.838717E2,1.3885281E2,4.2000684E2,1.6386487E2,7.621061E1,6.26422E1,3.7053815E2,4.9468678E1,1.4048164E2,2.3383226E1,3.949273E1,3.6717884E1],"tree_param":{"num_deleted":"0","num_feature":"30","num_nodes":"13","size_leaf_vector":"1"}},{"base_weights":[6.0582433E-2,-1.2887539E-1,4.1897613E-1,3.5957955E-2,-1.9405444E-1,9.373237E-2,3.1049657E-1,1.6763163E-3,-2.9340146E-2,-1.2529419E-3,4.0831827E-2],"categories":[],"categories_nodes":[],"categories_segments":[],"categories_sizes":[],"default_left":[0,0,0,0,0,0,0,0,0,0,0],"id":30,"left_children":[1,3,5,-1,7,-1,9,-1,-1,-1,-1],"loss_changes":[5.0259956E1,2.2528723E1,2.919344E1,0E0,2.7220112E1,0E0,2.6867697E1,0E0,0E0,0E0,0E0],"parents":[2147483647,0,0,1,1,2,2,4,4,6,6],"right_children":[2,4,6,-1,8,-1,10,-1,-1,-1,-1],"split_conditions":[4.185E3,-1.4941E4,2.775E3,3.5957955E-2,4.62E2,9.373237E-2,6.3911E4,1.6763163E-3,-2.9340146E-2,-1.2529419E-3,4.0831827E-2],"split_indices":[10,22,5,0,10,0,5,0,0,0,0],"split_type":[0,0,0,0,0,0,0,0,0,0,0],"sum_hessian":[7.34268E2,4.8094077E2,2.5332726E2,3.9218903E1,4.4172186E2,2.0641619E1,2.3268564E2,2.4611151E2,1.9561034E2,1.1938174E2,1.133039E2],"tree_param":{"num_deleted":"0","num_feature":"30","num_nodes":"11","size_leaf_vector":"1"}},{"base_weights":[5.663431E-2,-3.7151536E-1,3.5783374E-1,-1.8069142E-1,-8.482244E-1,8.281092E-2,5.551561E-1,-2.7317844E-2,4.521822E-2,-8.581242E-2,-1.8268626E-2,2.2883337E-2,-3.0805629E-2,4.8084702E-2,1.7779965E-2],"categories":[],"categories_nodes":[],"categories_segments":[],"categories_sizes":[],"default_left":[0,0,0,0,0,0,0,0,0,0,0,0,0,0,0],"id":31,"left_children":[1,3,5,7,9,11,13,-1,-1,-1,-1,-1,-1,-1,-1],"loss_changes":[9.60838E1,2.7669315E1,2.3592133E1,5.2502335E1,2.4676231E1,3.0808775E1,1.4315681E1,0E0,0E0,0E0,0E0,0E0,0E0,0E0,0E0],"parents":[2147483647,0,0,1,1,2,2,3,3,4,4,5,5,6,6],"right_children":[2,4,6,8,10,12,14,-1,-1,-1,-1,-1,-1,-1,-1],"split_conditions":[2E0,3.26E2,4.185E3,1E2,5.319193E3,1.559E3,3.626E3,-2.7317844E-2,4.521822E-2,-8.581242E-2,-1.8268626E-2,2.2883337E-2,-3.0805629E-2,4.8084702E-2,1.7779965E-2],"split_indices":[4,6,10,6,16,10,22,0,0,0,0,0,0,0,0],"split_type":[0,0,0,0,0,0,0,0,0,0,0,0,0,0,0],"sum_hessian":[7.3973517E2,3.0512268E2,4.346125E2,2.2004094E2,8.508174E1,1.8300444E2,2.5160806E2,1.7228595E2,4.7754993E1,4.205135E1,4.3030388E1,1.23251465E2,5.9752975E1,1.3773163E2,1.1387643E2],"tree_param":{"num_deleted":"0","num_feature":"30","num_nodes":"15","size_leaf_vector":"1"}},{"base_weights":[-2.8334951E-2,-2.1552983E-1,6.7790735E-1,-8.417584E-1,-1.1119521E-1,7.841692E-1,3.8521454E-1,-3.9118854E-3,-7.171971E-2,5.7464443E-2,-1.0264555E-2,6.1124984E-2,3.611266E-2,4.2800345E-2,2.9269645E-3],"categories":[],"categories_nodes":[],"categories_segments":[],"categories_sizes":[],"default_left":[0,0,0,0,0,0,0,0,0,0,0,0,0,0,0],"id":32,"left_children":[1,3,5,7,9,11,13,-1,-1,-1,-1,-1,-1,-1,-1],"loss_changes":[9.2123825E1,3.580189E1,3.906929E0,1.8489178E1,2.6498121E1,3.0737534E0,4.3043623E0,0E0,0E0,0E0,0E0,0E0,0E0,0E0,0E0],"parents":[2147483647,0,0,1,1,2,2,3,3,4,4,5,5,6,6],"right_children":[2,4,6,8,10,12,14,-1,-1,-1,-1,-1,-1,-1,-1],"split_conditions":[1E0,1.0851608E3,1.954E3,4E0,1.84E2,6.418338E-1,2.248E3,-3.9118854E-3,-7.171971E-2,5.7464443E-2,-1.0264555E-2,6.1124984E-2,3.611266E-2,4.2800345E-2,2.9269645E-3],"split_indices":[2,9,17,17,13,26,22,0,0,0,0,0,0,0,0],"split_type":[0,0,0,0,0,0,0,0,0,0,0,0,0,0,0],"sum_hessian":[6.9143225E2,5.4779266E2,1.4363956E2,7.605828E1,4.717344E2,1.0262096E2,4.101861E1,2.231375E1,5.374453E1,2.1458015E1,4.502764E2,4.847936E1,5.4141598E1,2.0442968E1,2.057564E1],"tree_param":{"num_deleted":"0","num_feature":"30","num_nodes":"15","size_leaf_vector":"1"}},{"base_weights":[-3.2938454E-2,-1.7610821E-1,6.1967725E-1,-3.047511E-1,3.5093102E-1,5.8474332E-2,4.856009E-1,-1.0026208E-1,-1.4377741E-2,6.2864146E-4,4.7673933E-2,1.3208269E-2,4.3277163E-2],"categories":[],"categories_nodes":[],"categories_segments":[],"categories_sizes":[],"default_left":[0,0,0,0,0,0,0,0,0,0,0,0,0],"id":33,"left_children":[1,3,5,7,9,-1,11,-1,-1,-1,-1,-1,-1],"loss_changes":[6.5363815E1,3.9130226E1,4.4589767E0,4.4080936E1,1.590177E1,0E0,4.972761E0,0E0,0E0,0E0,0E0,0E0,0E0],"parents":[2147483647,0,0,1,1,2,2,3,3,4,4,6,6],"right_children":[2,4,6,8,10,-1,12,-1,-1,-1,-1,-1,-1],"split_conditions":[4.9742404E-3,8.5455E4,-2.3065E4,-3.7419E4,3.2031E4,5.8474332E-2,8.887334E-3,-1.0026208E-1,-1.4377741E-2,6.2864146E-4,4.7673933E-2,1.3208269E-2,4.3277163E-2],"split_indices":[3,20,25,25,8,0,3,0,0,0,0,0,0],"split_type":[0,0,0,0,0,0,0,0,0,0,0,0,0],"sum_hessian":[6.937936E2,5.703197E2,1.2347392E2,4.5929077E2,1.110289E2,3.2871334E1,9.0602585E1,2.252228E1,4.367685E2,6.2106094E1,4.8922806E1,4.1075157E1,4.952743E1],"tree_param":{"num_deleted":"0","num_feature":"30","num_nodes":"13","size_leaf_vector":"1"}},{"base_weights":[-6.042736E-3,-1.4078596E-1,6.063834E-1,-7.034562E-2,-6.8149135E-2,5.5121824E-2,4.8246285E-1,1.5416566E-2,-1.4962007E-2,3.94306E-2,1.9104158E-3],"categories":[],"categories_nodes":[],"categories_segments":[],"categories_sizes":[],"default_left":[0,0,0,0,0,0,0,0,0,0,0],"id":34,"left_children":[1,3,5,-1,7,-1,9,-1,-1,-1,-1],"loss_changes":[5.62302E1,3.989688E1,3.3759232E0,0E0,2.8418556E1,0E0,5.9469643E0,0E0,0E0,0E0,0E0],"parents":[2147483647,0,0,1,1,2,2,4,4,6,6],"right_children":[2,4,6,-1,8,-1,10,-1,-1,-1,-1],"split_conditions":[6E0,3.8E1,-3.877E3,-7.034562E-2,6.3E1,5.5121824E-2,4.8172E4,1.5416566E-2,-1.4962007E-2,3.94306E-2,1.9104158E-3],"split_indices":[2,20,28,0,17,0,12,0,0,0,0],"split_type":[0,0,0,0,0,0,0,0,0,0,0],"sum_hessian":[6.7580884E2,5.5535583E2,1.20453E2,3.5997627E1,5.193582E2,3.3172306E1,8.728069E1,1.8251302E2,3.3684518E2,6.479296E1,2.2487738E1],"tree_param":{"num_deleted":"0","num_feature":"30","num_nodes":"11","size_leaf_vector":"1"}},{"base_weights":[6.1755605E-2,-5.58033E-1,1.8156901E-1,-7.818519E-2,-2.6328066E-1,9.550338E-2,6.098639E-1,-5.302365E-2,9.894088E-3,4.1199807E-2,-2.311407E-4,6.55261E-2,2.702714E-2],"categories":[],"categories_nodes":[],"categories_segments":[],"categories_sizes":[],"default_left":[0,0,0,0,0,0,0,0,0,0,0,0,0],"id":35,"left_children":[1,3,5,-1,7,9,11,-1,-1,-1,-1,-1,-1],"loss_changes":[5.3524223E1,2.3227856E1,2.211911E1,0E0,2.1405277E1,2.8459715E1,6.922413E0,0E0,0E0,0E0,0E0,0E0,0E0],"parents":[2147483647,0,0,1,1,2,2,4,4,5,5,6,6],"right_children":[2,4,6,-1,8,10,12,-1,-1,-1,-1,-1,-1],"split_conditions":[4E0,-3.49E2,1.4694E4,-7.818519E-2,6.568771E2,1.561E3,-9.08E2,-5.302365E-2,9.894088E-3,4.1199807E-2,-2.311407E-4,6.55261E-2,2.702714E-2],"split_indices":[6,14,4,0,9,13,22,0,0,0,0,0,0],"split_type":[0,0,0,0,0,0,0,0,0,0,0,0,0],"sum_hessian":[7.144117E2,1.1438643E2,6.0002527E2,3.2025894E1,8.236054E1,5.0189105E2,9.813422E1,3.374587E1,4.861467E1,7.351976E1,4.2837128E2,2.5113684E1,7.302054E1],"tree_param":{"num_deleted":"0","num_feature":"30","num_nodes":"13","size_leaf_vector":"1"}},{"base_weights":[1.4346525E-2,-9.584878E-2,6.221537E-1,-4.5390256E-2,-7.998684E-2,7.577055E-3,7.414209E-1,-1.784287E-2,1.6285777E-2,5.6614317E-2,2.6235422E-2],"categories":[],"categories_nodes":[],"categories_segments":[],"categories_sizes":[],"default_left":[0,0,0,0,0,0,0,0,0,0,0],"id":36,"left_children":[1,3,5,7,-1,-1,9,-1,-1,-1,-1],"loss_changes":[4.6236744E1,3.481225E1,6.0769844E0,4.1521122E1,0E0,0E0,3.7291603E0,0E0,0E0,0E0,0E0],"parents":[2147483647,0,0,1,1,2,2,3,3,6,6],"right_children":[2,4,6,8,-1,-1,10,-1,-1,-1,-1],"split_conditions":[6.160022E-3,2.650696E6,1.38404E6,1.614324E6,-7.998684E-2,7.577055E-3,4.2431E4,-1.784287E-2,1.6285777E-2,5.6614317E-2,2.6235422E-2],"split_indices":[3,7,7,7,0,0,12,0,0,0,0],"split_type":[0,0,0,0,0,0,0,0,0,0,0],"sum_hessian":[6.829049E2,5.79331E2,1.035739E2,5.577617E2,2.1569284E1,2.0898554E1,8.267535E1,3.1275955E2,2.4500218E2,5.1878574E1,3.079677E1],"tree_param":{"num_deleted":"0","num_feature":"30","num_nodes":"11","size_leaf_vector":"1"}},{"base_weights":[5.2618753E-2,-8.571918E-2,6.1516386E-1,-1.693188E-1,6.641199E-1,8.721488E-1,3.4439704E-1,-7.2361015E-2,-6.8414966E-3,5.685509E-2,1.2563571E-2,3.9508037E-2,7.8732125E-2,-9.4951745E-3,3.4591503E-2],"categories":[],"categories_nodes":[],"categories_segments":[],"categories_sizes":[],"default_left":[0,0,0,0,0,0,0,0,0,0,0,0,0,0,0],"id":37,"left_children":[1,3,5,7,9,11,13,-1,-1,-1,-1,-1,-1,-1,-1],"loss_changes":[5.493584E1,3.574726E1,9.068401E0,2.9996975E1,6.1096745E0,4.9293747E0,7.725816E0,0E0,0E0,0E0,0E0,0E0,0E0,0E0,0E0],"parents":[2147483647,0,0,1,1,2,2,3,3,4,4,5,5,6,6],"right_children":[2,4,6,8,10,12,14,-1,-1,-1,-1,-1,-1,-1,-1],"split_conditions":[2.2518E4,5.9022094E4,1.3731E4,-3.4095E4,1.537316E6,1.1475E4,1.3058E4,-7.2361015E-2,-6.8414966E-3,5.685509E-2,1.2563571E-2,3.9508037E-2,7.8732125E-2,-9.4951745E-3,3.4591503E-2],"split_indices":[14,9,22,14,7,22,4,0,0,0,0,0,0,0,0],"split_type":[0,0,0,0,0,0,0,0,0,0,0,0,0,0,0],"sum_hessian":[6.9960626E2,5.62686E2,1.3692026E2,5.0777762E2,5.490839E1,6.774886E1,6.917139E1,2.6675314E1,4.811023E2,3.4375637E1,2.0532755E1,4.5402E1,2.2346865E1,2.053229E1,4.86391E1],"tree_param":{"num_deleted":"0","num_feature":"30","num_nodes":"15","size_leaf_vector":"1"}},{"base_weights":[-1.8261084E-2,-1.1644558E-1,5.092861E-1,-7.571591E-2,-6.451949E-2,6.5585165E-3,7.150597E-1,2.0304741E-2,-1.640586E-2,2.9486183E-2,5.644749E-2],"categories":[],"categories_nodes":[],"categories_segments":[],"categories_sizes":[],"default_left":[0,0,0,0,0,0,0,0,0,0,0],"id":38,"left_children":[1,3,5,-1,7,-1,9,-1,-1,-1,-1],"loss_changes":[3.5214237E1,3.2518948E1,8.65608E0,0E0,4.2655106E1,0E0,2.3542328E0,0E0,0E0,0E0,0E0],"parents":[2147483647,0,0,1,1,2,2,4,4,6,6],"right_children":[2,4,6,-1,8,-1,10,-1,-1,-1,-1],"split_conditions":[1.1E1,-8.1486E4,1.2831E4,-7.571591E-2,-9.6E1,6.5585165E-3,1.17E2,2.0304741E-2,-1.640586E-2,2.9486183E-2,5.644749E-2],"split_indices":[2,25,4,0,28,0,2,0,0,0,0],"split_type":[0,0,0,0,0,0,0,0,0,0,0],"sum_hessian":[6.735776E2,5.6939087E2,1.0418672E2,2.3624834E1,5.4576605E2,3.6366173E1,6.782055E1,1.8339508E2,3.6237094E2,3.3067814E1,3.4752735E1],"tree_param":{"num_deleted":"0","num_feature":"30","num_nodes":"11","size_leaf_vector":"1"}},{"base_weights":[3.158829E-2,-7.2242594E-1,1.5963477E-1,-2.2072278E-2,-9.400518E-1,7.7483386E-1,6.222562E-2,-7.233745E-2,-2.8553722E-2,8.7452985E-2,8.662507E-3,-4.916561E-3,3.567734E-2],"categories":[],"categories_nodes":[],"categories_segments":[],"categories_sizes":[],"default_left":[0,0,0,0,0,0,0,0,0,0,0,0,0],"id":39,"left_children":[1,3,5,-1,7,9,11,-1,-1,-1,-1,-1,-1],"loss_changes":[6.585764E1,7.2406044E0,3.4820816E1,0E0,5.325157E0,3.1148243E1,3.653555E1,0E0,0E0,0E0,0E0,0E0,0E0],"parents":[2147483647,0,0,1,1,2,2,4,4,5,5,6,6],"right_children":[2,4,6,-1,8,10,12,-1,-1,-1,-1,-1,-1],"split_conditions":[4.5062744E2,1.215E3,3.83E2,-2.2072278E-2,2.4249133E2,1.2734716E3,4.72255E-3,-7.233745E-2,-2.8553722E-2,8.7452985E-2,8.662507E-3,-4.916561E-3,3.567734E-2],"split_indices":[16,1,19,0,16,16,3,0,0,0,0,0,0],"split_type":[0,0,0,0,0,0,0,0,0,0,0,0,0],"sum_hessian":[6.7626624E2,9.669234E1,5.795739E2,3.8033646E1,5.865869E1,7.716202E1,5.024119E2,3.825176E1,2.0406933E1,3.7571377E1,3.959064E1,3.9461438E2,1.0779754E2],"tree_param":{"num_deleted":"0","num_feature":"30","num_nodes":"13","size_leaf_vector":"1"}},{"base_weights":[1.8715205E-2,-3.4817162E-1,2.6842973E-1,-1.7482258E-1,-9.469766E-1,2.2083281E-1,6.0593095E-2,-4.21119E-2,8.455798E-3,-3.1463284E-2,-8.983689E-2,4.4065267E-2,8.347205E-3],"categories":[],"categories_nodes":[],"categories_segments":[],"categories_sizes":[],"default_left":[0,0,0,0,0,0,0,0,0,0,0,0,0],"id":40,"left_children":[1,3,5,7,9,11,-1,-1,-1,-1,-1,-1,-1],"loss_changes":[6.13805E1,2.7808502E1,1.2960999E1,3.3363747E1,1.1681358E1,1.57236E1,0E0,0E0,0E0,0E0,0E0,0E0,0E0],"parents":[2147483647,0,0,1,1,2,2,3,3,4,4,5,5],"right_children":[2,4,6,8,10,12,-1,-1,-1,-1,-1,-1,-1],"split_conditions":[9.779115E3,6.636E3,1.4864815E4,3.49E2,4.17E2,1.036E3,6.0593095E-2,-4.21119E-2,8.455798E-3,-3.1463284E-2,-8.983689E-2,4.4065267E-2,8.347205E-3],"split_indices":[9,0,15,5,10,5,0,0,0,0,0,0,0],"split_type":[0,0,0,0,0,0,0,0,0,0,0,0,0],"sum_hessian":[6.64413E2,2.6855435E2,3.9585864E2,2.1041367E2,5.8140663E1,3.733477E2,2.2510971E1,7.984967E1,1.3056401E2,3.286221E1,2.5278456E1,5.4440536E1,3.1890714E2],"tree_param":{"num_deleted":"0","num_feature":"30","num_nodes":"13","size_leaf_vector":"1"}},{"base_weights":[2.6856853E-2,-6.231617E-1,1.3096121E-1,-2.7701485E-1,-7.9399414E-2,-6.4553507E-3,4.4868612E-1,-5.4014347E-2,3.3099856E-2,-4.159206E-2,1.0228581E-2,-1.5382458E-2,3.589633E-2],"categories":[],"categories_nodes":[],"categories_segments":[],"categories_sizes":[],"default_left":[0,0,0,0,0,0,0,0,0,0,0,0,0],"id":41,"left_children":[1,3,5,7,-1,9,11,-1,-1,-1,-1,-1,-1],"loss_changes":[4.5610588E1,2.0155178E1,2.5431133E1,3.1209415E1,0E0,4.613458E1,1.5821716E1,0E0,0E0,0E0,0E0,0E0,0E0],"parents":[2147483647,0,0,1,1,2,2,3,3,5,5,6,6],"right_children":[2,4,6,8,-1,10,12,-1,-1,-1,-1,-1,-1],"split_conditions":[8.9E1,1.124E3,7.388E3,4.221E3,-7.9399414E-2,-7.274E3,4.9596E4,-5.4014347E-2,3.3099856E-2,-4.159206E-2,1.0228581E-2,-1.5382458E-2,3.589633E-2],"split_indices":[10,13,10,1,0,25,1,0,0,0,0,0,0],"split_type":[0,0,0,0,0,0,0,0,0,0,0,0,0],"sum_hessian":[6.678331E2,9.065968E1,5.7717346E2,6.1099606E1,2.9560074E1,4.039874E2,1.7318604E2,3.5349667E1,2.574994E1,8.185157E1,3.2213583E2,2.621816E1,1.4696788E2],"tree_param":{"num_deleted":"0","num_feature":"30","num_nodes":"13","size_leaf_vector":"1"}},{"base_weights":[-2.1173432E-2,-3.8632894E-1,2.1954739E-1,1.6095233E-1,-5.728614E-1,4.6505702E-1,1.6680261E-2,-2.3775136E-2,7.38738E-2,-4.7340587E-2,2.8311474E-2,4.2213522E-2,-1.5673434E-2,-1.8633468E-2,3.552801E-2],"categories":[],"categories_nodes":[],"categories_segments":[],"categories_sizes":[],"default_left":[0,0,0,0,0,0,0,0,0,0,0,0,0,0,0],"id":42,"left_children":[1,3,5,7,9,11,13,-1,-1,-1,-1,-1,-1,-1,-1],"loss_changes":[5.6875927E1,2.650655E1,1.934968E1,3.824922E1,3.7462494E1,2.7075531E1,3.8073788E1,0E0,0E0,0E0,0E0,0E0,0E0,0E0,0E0],"parents":[2147483647,0,0,1,1,2,2,3,3,4,4,5,5,6,6],"right_children":[2,4,6,8,10,12,14,-1,-1,-1,-1,-1,-1,-1,-1],"split_conditions":[3.863E4,2.07E2,8.7927E4,3.35E2,2.5598E4,3.0008E4,3.2694E4,-2.3775136E-2,7.38738E-2,-4.7340587E-2,2.8311474E-2,4.2213522E-2,-1.5673434E-2,-1.8633468E-2,3.552801E-2],"split_indices":[24,19,24,5,5,0,8,0,0,0,0,0,0,0,0],"split_type":[0,0,0,0,0,0,0,0,0,0,0,0,0,0,0],"sum_hessian":[6.4121716E2,2.5449658E2,3.867206E2,6.4587204E1,1.8990938E2,1.7352805E2,2.1319255E2,4.294898E1,2.1638224E1,1.6135997E2,2.8549408E1,1.3421059E2,3.931747E1,1.3618204E2,7.701051E1],"tree_param":{"num_deleted":"0","num_feature":"30","num_nodes":"15","size_leaf_vector":"1"}},{"base_weights":[-1.55043565E-2,-6.29799E-1,9.011068E-2,-9.3172175E-1,-1.0906243E-3,1.3410676E-2,5.430929E-2,-7.2017424E-2,-2.4814324E-2,3.914641E-2,-5.735753E-3],"categories":[],"categories_nodes":[],"categories_segments":[],"categories_sizes":[],"default_left":[0,0,0,0,0,0,0,0,0,0,0],"id":43,"left_children":[1,3,5,7,-1,9,-1,-1,-1,-1,-1],"loss_changes":[4.2644787E1,1.7683239E1,3.3435143E1,6.6656837E0,0E0,3.332835E1,0E0,0E0,0E0,0E0,0E0],"parents":[2147483647,0,0,1,1,2,2,3,3,5,5],"right_children":[2,4,6,8,-1,10,-1,-1,-1,-1,-1],"split_conditions":[3E0,1.2E1,1.0595145E-2,1.09E2,-1.0906243E-3,5.32E2,5.430929E-2,-7.2017424E-2,-2.4814324E-2,3.914641E-2,-5.735753E-3],"split_indices":[6,28,3,29,0,19,0,0,0,0,0],"split_type":[0,0,0,0,0,0,0,0,0,0,0],"sum_hessian":[6.497547E2,9.405771E1,5.55697E2,6.216428E1,3.1893427E1,5.0793582E2,4.7761185E1,4.210574E1,2.005854E1,7.3123474E1,4.3481235E2],"tree_param":{"num_deleted":"0","num_feature":"30","num_nodes":"11","size_leaf_vector":"1"}},{"base_weights":[8.424893E-2,-3.938305E-1,1.7433873E-1,-8.6880577E-1,2.9006848E-1,-2.2294171E-1,3.191372E-1,-1.9571552E-2,-7.02389E-2,-2.2708982E-2,6.39354E-2,-5.2754823E-2,2.8727714E-2,5.323285E-2,1.1366975E-2],"categories":[],"categories_nodes":[],"categories_segments":[],"categories_sizes":[],"default_left":[0,0,0,0,0,0,0,0,0,0,0,0,0,0,0],"id":44,"left_children":[1,3,5,7,9,11,13,-1,-1,-1,-1,-1,-1,-1,-1],"loss_changes":[2.963808E1,3.6059334E1,3.338752E1,8.485546E0,2.3148422E1,6.693116E1,3.0698338E1,0E0,0E0,0E0,0E0,0E0,0E0,0E0,0E0],"parents":[2147483647,0,0,1,1,2,2,3,3,4,4,5,5,6,6],"right_children":[2,4,6,8,10,12,14,-1,-1,-1,-1,-1,-1,-1,-1],"split_conditions":[5.794156E2,2.6E2,1.389072E6,2.4E1,3.4E1,9.687732E2,1.5765646E3,-1.9571552E-2,-7.02389E-2,-2.2708982E-2,6.39354E-2,-5.2754823E-2,2.8727714E-2,5.323285E-2,1.1366975E-2],"split_indices":[16,14,7,10,17,15,16,0,0,0,0,0,0,0,0],"split_type":[0,0,0,0,0,0,0,0,0,0,0,0,0,0,0],"sum_hessian":[6.807808E2,1.0666213E2,5.741187E2,6.273968E1,4.392245E1,1.5283595E2,4.2128275E2,2.138336E1,4.1356323E1,2.3670668E1,2.0251783E1,7.983337E1,7.300258E1,8.372996E1,3.375528E2],"tree_param":{"num_deleted":"0","num_feature":"30","num_nodes":"15","size_leaf_vector":"1"}},{"base_weights":[1.3006034E-1,-7.105722E-1,1.9101547E-1,-1.874586E-2,-6.2677845E-2,3.7010786E-1,-1.0747705E-1,-1.612399E-2,2.9635554E-2,-4.9446855E-2,8.09766E-3],"categories":[],"categories_nodes":[],"categories_segments":[],"categories_sizes":[],"default_left":[0,0,0,0,0,0,0,0,0,0,0],"id":45,"left_children":[1,3,5,-1,-1,7,9,-1,-1,-1,-1],"loss_changes":[3.4818115E1,4.8930645E0,3.375654E1,0E0,0E0,2.625116E1,3.8961296E1,0E0,0E0,0E0,0E0],"parents":[2147483647,0,0,1,1,2,2,5,5,6,6],"right_children":[2,4,6,-1,-1,8,10,-1,-1,-1,-1],"split_conditions":[1.1E1,2.165E3,5.04E2,-1.874586E-2,-6.2677845E-2,2.6847507E2,4.9E1,-1.612399E-2,2.9635554E-2,-4.9446855E-2,8.09766E-3],"split_indices":[29,20,17,0,0,16,4,0,0,0,0],"split_type":[0,0,0,0,0,0,0,0,0,0,0],"sum_hessian":[6.697229E2,4.3710236E1,6.260127E2,2.00928E1,2.3617435E1,3.9123053E2,2.3478214E2,5.5306732E1,3.359238E2,5.935086E1,1.7543127E2],"tree_param":{"num_deleted":"0","num_feature":"30","num_nodes":"11","size_leaf_vector":"1"}},{"base_weights":[1.2213763E-1,-5.745888E-1,2.4084748E-1,-8.356858E-1,1.0688205E-2,9.0932675E-2,1.9007125E-1,-3.9482478E-2,-7.757299E-2,8.916677E-3,4.654348E-2],"categories":[],"categories_nodes":[],"categories_segments":[],"categories_sizes":[],"default_left":[0,0,0,0,0,0,0,0,0,0,0],"id":46,"left_children":[1,3,5,7,-1,-1,9,-1,-1,-1,-1],"loss_changes":[5.7457527E1,2.011673E1,3.609091E1,4.683792E0,0E0,0E0,1.47926655E1,0E0,0E0,0E0,0E0],"parents":[2147483647,0,0,1,1,2,2,3,3,6,6],"right_children":[2,4,6,8,-1,-1,10,-1,-1,-1,-1],"split_conditions":[3.13E2,2.1673E4,3.79E2,7.132424E2,1.0688205E-2,9.0932675E-2,1.0248902E-2,-3.9482478E-2,-7.757299E-2,8.916677E-3,4.654348E-2],"split_indices":[5,1,5,16,0,0,3,0,0,0,0],"split_type":[0,0,0,0,0,0,0,0,0,0,0],"sum_hessian":[6.8778156E2,9.8862175E1,5.889194E2,7.3177635E1,2.5684542E1,2.1302292E1,5.676171E2,5.241849E1,2.075914E1,5.25692E2,4.1925083E1],"tree_param":{"num_deleted":"0","num_feature":"30","num_nodes":"11","size_leaf_vector":"1"}},{"base_weights":[1.2372103E-2,-3.6221594E-1,1.5120192E-1,-7.0694E-1,1.0086959E-1,-4.0774527E-1,2.6591322E-1,6.397077E-3,-6.3235335E-2,4.2122267E-2,-2.4163578E-2,-5.605362E-2,7.6872665E-3,5.6479055E-2,1.1555045E-2],"categories":[],"categories_nodes":[],"categories_segments":[],"categories_sizes":[],"default_left":[0,0,0,0,0,0,0,0,0,0,0,0,0,0,0],"id":47,"left_children":[1,3,5,7,9,11,13,-1,-1,-1,-1,-1,-1,-1,-1],"loss_changes":[3.3655403E1,2.8147812E1,3.0521738E1,2.5292774E1,2.20743E1,2.1506708E1,1.9975956E1,0E0,0E0,0E0,0E0,0E0,0E0,0E0,0E0],"parents":[2147483647,0,0,1,1,2,2,3,3,4,4,5,5,6,6],"right_children":[2,4,6,8,10,12,14,-1,-1,-1,-1,-1,-1,-1,-1],"split_conditions":[1.4134E6,5.001E3,3.49E2,3.79E2,1.08454E5,4.351E3,3.83E2,6.397077E-3,-6.3235335E-2,4.2122267E-2,-2.4163578E-2,-5.605362E-2,7.6872665E-3,5.6479055E-2,1.1555045E-2],"split_indices":[7,8,5,5,1,1,19,0,0,0,0,0,0,0,0],"split_type":[0,0,0,0,0,0,0,0,0,0,0,0,0,0,0],"sum_hessian":[6.41162E2,1.7226186E2,4.6890012E2,9.831089E1,7.3950966E1,7.879377E1,3.9010635E2,2.7237076E1,7.1073814E1,3.3752384E1,4.0198578E1,4.037141E1,3.842236E1,4.1321754E1,3.487846E2],"tree_param":{"num_deleted":"0","num_feature":"30","num_nodes":"15","size_leaf_vector":"1"}},{"base_weights":[-3.7633248E-3,-7.5501174E-1,1.00459374E-1,-5.056661E-3,-6.4329974E-2,3.0857908E-2,5.3039525E-2,1.8129036E-2,-1.37967765E-2],"categories":[],"categories_nodes":[],"categories_segments":[],"categories_sizes":[],"default_left":[0,0,0,0,0,0,0,0,0],"id":48,"left_children":[1,3,5,-1,-1,7,-1,-1,-1],"loss_changes":[5.2993496E1,1.5050892E1,3.085691E1,0E0,0E0,3.5769657E1,0E0,0E0,0E0],"parents":[2147483647,0,0,1,1,2,2,5,5],"right_children":[2,4,6,-1,-1,8,-1,-1,-1],"split_conditions":[4.5062744E2,1.5410254E1,1.0595145E-2,-5.056661E-3,-6.4329974E-2,-6E0,5.3039525E-2,1.8129036E-2,-1.37967765E-2],"split_indices":[16,16,3,0,0,22,0,0,0],"split_type":[0,0,0,0,0,0,0,0,0],"sum_hessian":[6.690836E2,8.015711E1,5.889265E2,2.4153395E1,5.6003716E1,5.4092175E2,4.8004753E1,2.6648886E2,2.7443292E2],"tree_param":{"num_deleted":"0","num_feature":"30","num_nodes":"9","size_leaf_vector":"1"}},{"base_weights":[2.9992392E-2,-2.698867E-1,2.836254E-1,-7.933689E-2,-1.8037392E-1,5.254446E-1,7.129351E-2,1.1180832E-6,-3.500921E-2,-3.4731475E-4,5.4750703E-2,-7.37559E-2,1.5798496E-2],"categories":[],"categories_nodes":[],"categories_segments":[],"categories_sizes":[],"default_left":[0,0,0,0,0,0,0,0,0,0,0,0,0],"id":49,"left_children":[1,3,5,-1,7,9,11,-1,-1,-1,-1,-1,-1],"loss_changes":[4.8248146E1,2.5632154E1,1.7532333E1,0E0,1.8594841E1,3.0048565E1,4.300722E1,0E0,0E0,0E0,0E0,0E0,0E0],"parents":[2147483647,0,0,1,1,2,2,4,4,5,5,6,6],"right_children":[2,4,6,-1,8,10,12,-1,-1,-1,-1,-1,-1],"split_conditions":[4.7739585E3,-4.97E3,-2.088E3,-7.933689E-2,5.49E2,-2.5228E4,5.57E2,1.1180832E-6,-3.500921E-2,-3.4731475E-4,5.4750703E-2,-7.37559E-2,1.5798496E-2],"split_indices":[16,14,14,0,28,14,14,0,0,0,0,0,0],"split_type":[0,0,0,0,0,0,0,0,0,0,0,0,0],"sum_hessian":[6.2859595E2,2.8774963E2,3.4084628E2,2.1348557E1,2.664011E2,1.5771117E2,1.8313512E2,1.8185336E2,8.4547714E1,6.3486168E1,9.4225006E1,2.1739285E1,1.6139583E2],"tree_param":{"num_deleted":"0","num_feature":"30","num_nodes":"13","size_leaf_vector":"1"}},{"base_weights":[-1.5133279E-2,-7.227027E-2,4.856616E-2,-1.2237013E-2,-7.3356366E-1,-1.9378878E-2,8.37104E-3,-1.3806572E-2,-7.093294E-2],"categories":[],"categories_nodes":[],"categories_segments":[],"categories_sizes":[],"default_left":[0,0,0,0,0,0,0,0,0],"id":50,"left_children":[1,3,-1,5,7,-1,-1,-1,-1],"loss_changes":[2.9487738E1,2.4036064E1,0E0,2.4485178E1,9.823648E0,0E0,0E0,0E0,0E0],"parents":[2147483647,0,0,1,1,3,3,4,4],"right_children":[2,4,-1,6,8,-1,-1,-1,-1],"split_conditions":[1.0315127E-2,2.028004E6,4.856616E-2,1.42202E6,6.81E2,-1.9378878E-2,8.37104E-3,-1.3806572E-2,-7.093294E-2],"split_indices":[3,7,0,7,12,0,0,0,0],"split_type":[0,0,0,0,0,0,0,0,0],"sum_hessian":[6.43378E2,6.019835E2,4.1394424E1,5.539093E2,4.807424E1,1.8189174E2,3.7201755E2,2.2657175E1,2.5417067E1],"tree_param":{"num_deleted":"0","num_feature":"30","num_nodes":"9","size_leaf_vector":"1"}},{"base_weights":[3.928949E-2,8.933055E-2,-7.32144E-2,2.6721425E-2,5.695584E-1,2.9950084E-2,-5.8917417E-3,4.5016047E-2,1.55020775E-2],"categories":[],"categories_nodes":[],"categories_segments":[],"categories_sizes":[],"default_left":[0,0,0,0,0,0,0,0,0],"id":51,"left_children":[1,3,-1,5,7,-1,-1,-1,-1],"loss_changes":[4.0718185E1,1.9278564E1,0E0,3.1505909E1,3.2072792E0,0E0,0E0,0E0,0E0],"parents":[2147483647,0,0,1,1,3,3,4,4],"right_children":[2,4,-1,6,8,-1,-1,-1,-1],"split_conditions":[2.345472E6,6.1387355E-3,-7.32144E-2,3.83E2,1.7131E4,2.9950084E-2,-5.8917417E-3,4.5016047E-2,1.55020775E-2],"split_indices":[7,3,0,19,28,0,0,0,0],"split_type":[0,0,0,0,0,0,0,0,0],"sum_hessian":[6.628546E2,6.3844434E2,2.4410303E1,5.668931E2,7.1551186E1,1.1854776E2,4.4834537E2,4.664494E1,2.4906248E1],"tree_param":{"num_deleted":"0","num_feature":"30","num_nodes":"9","size_leaf_vector":"1"}},{"base_weights":[3.9756466E-2,-1.8610081E-1,2.7153143E-1,-8.970159E-2,-6.388008E-2,4.6546438E-1,3.9031655E-2,2.4199422E-2,-1.6463384E-2,-8.979149E-3,3.5714038E-2,-1.2790159E-2,4.5710966E-2],"categories":[],"categories_nodes":[],"categories_segments":[],"categories_sizes":[],"default_left":[0,0,0,0,0,0,0,0,0,0,0,0,0],"id":52,"left_children":[1,3,5,-1,7,9,11,-1,-1,-1,-1,-1,-1],"loss_changes":[3.369471E1,4.963059E1,1.4239094E1,0E0,2.7248363E1,1.1487591E1,2.5376894E1,0E0,0E0,0E0,0E0,0E0,0E0],"parents":[2147483647,0,0,1,1,2,2,4,4,5,5,6,6],"right_children":[2,4,6,-1,8,10,12,-1,-1,-1,-1,-1,-1],"split_conditions":[4.6822E4,-1.0992E4,3.6092E4,-8.970159E-2,-4.5E1,-4.1514E4,2.01497E5,2.4199422E-2,-1.6463384E-2,-8.979149E-3,3.5714038E-2,-1.2790159E-2,4.5710966E-2],"split_indices":[1,25,0,0,25,25,13,0,0,0,0,0,0],"split_type":[0,0,0,0,0,0,0,0,0,0,0,0,0],"sum_hessian":[6.375288E2,3.2280533E2,3.1472348E2,2.6736082E1,2.9606924E2,1.7021225E2,1.4451122E2,9.007725E1,2.0599199E2,2.5103367E1,1.4510889E2,1.0779553E2,3.6715683E1],"tree_param":{"num_deleted":"0","num_feature":"30","num_nodes":"13","size_leaf_vector":"1"}},{"base_weights":[6.7998566E-2,-8.5721105E-2,4.57247E-1,-8.0117896E-2,8.500659E-3,7.239006E-1,2.286856E-1,-6.23675E-3,5.0238274E-2,6.7512915E-2,2.3956336E-2,-1.573077E-2,2.330237E-2],"categories":[],"categories_nodes":[],"categories_segments":[],"categories_sizes":[],"default_left":[0,0,0,0,0,0,0,0,0,0,0,0,0],"id":53,"left_children":[1,3,5,-1,7,9,11,-1,-1,-1,-1,-1,-1],"loss_changes":[3.8698475E1,5.2658745E1,1.0798756E1,0E0,3.764272E1,9.286739E0,7.357927E0,0E0,0E0,0E0,0E0,0E0,0E0],"parents":[2147483647,0,0,1,1,2,2,4,4,5,5,6,6],"right_children":[2,4,6,-1,8,10,12,-1,-1,-1,-1,-1,-1],"split_conditions":[1.498E3,-2.5228E4,1.6E1,-8.0117896E-2,1.0323E5,2.62E3,1.486E3,-6.23675E-3,5.0238274E-2,6.7512915E-2,2.3956336E-2,-1.573077E-2,2.330237E-2],"split_indices":[29,14,22,0,20,29,22,0,0,0,0,0,0],"split_type":[0,0,0,0,0,0,0,0,0,0,0,0,0],"sum_hessian":[6.406558E2,4.601522E2,1.805036E2,3.1825777E1,4.2832642E2,8.1070526E1,9.9433075E1,3.7838498E2,4.994145E1,3.7210056E1,4.3860466E1,2.2460253E1,7.6972824E1],"tree_param":{"num_deleted":"0","num_feature":"30","num_nodes":"13","size_leaf_vector":"1"}},{"base_weights":[3.4565814E-2,1.1491307E-1,-6.386188E-1,-1.7375466E-1,2.764674E-1,-1.5011056E-2,-6.956388E-2,-5.9415326E-2,9.616992E-3,4.3735947E-2,8.259901E-3],"categories":[],"categories_nodes":[],"categories_segments":[],"categories_sizes":[],"default_left":[0,0,0,0,0,0,0,0,0,0,0],"id":54,"left_children":[1,3,5,7,9,-1,-1,-1,-1,-1,-1],"loss_changes":[3.473447E1,2.683319E1,1.2382303E1,5.3170246E1,2.2313444E1,0E0,0E0,0E0,0E0,0E0,0E0],"parents":[2147483647,0,0,1,1,2,2,3,3,4,4],"right_children":[2,4,6,8,10,-1,-1,-1,-1,-1,-1],"split_conditions":[1.944816E6,1.443276E6,1.689E3,3.9289E4,1.262E3,-1.5011056E-2,-6.956388E-2,-5.9415326E-2,9.616992E-3,4.3735947E-2,8.259901E-3],"split_indices":[7,7,8,24,13,0,0,0,0,0,0],"split_type":[0,0,0,0,0,0,0,0,0,0,0],"sum_hessian":[6.3535315E2,5.692439E2,6.6109215E1,2.0392622E2,3.653177E2,3.7772022E1,2.8337193E1,5.9439903E1,1.4448631E2,9.045183E1,2.7486584E2],"tree_param":{"num_deleted":"0","num_feature":"30","num_nodes":"11","size_leaf_vector":"1"}},{"base_weights":[4.7599606E-2,1.2875159E-1,-3.1634617E-1,-1.1979931E-1,3.5294995E-1,-8.843507E-2,-1.2343024E-2,9.310219E-3,-2.4357833E-2,7.069399E-2,1.234673E-2,-2.0828549E-2,4.5109227E-2],"categories":[],"categories_nodes":[],"categories_segments":[],"categories_sizes":[],"default_left":[0,0,0,0,0,0,0,0,0,0,0,0,0],"id":55,"left_children":[1,3,5,7,9,-1,11,-1,-1,-1,-1,-1,-1],"loss_changes":[1.9578047E1,3.0255554E1,4.027709E1,1.89512E1,3.402805E1,0E0,2.3436811E1,0E0,0E0,0E0,0E0,0E0,0E0],"parents":[2147483647,0,0,1,1,2,2,3,3,4,4,6,6],"right_children":[2,4,6,8,10,-1,12,-1,-1,-1,-1,-1,-1],"split_conditions":[3.7189377E3,2E0,1.6121E4,1.561E3,3.881E3,-8.843507E-2,5.2524E4,9.310219E-3,-2.4357833E-2,7.069399E-2,1.234673E-2,-2.0828549E-2,4.5109227E-2],"split_indices":[15,4,11,13,0,0,0,0,0,0,0,0,0],"split_type":[0,0,0,0,0,0,0,0,0,0,0,0,0],"sum_hessian":[6.555416E2,5.3735406E2,1.18187584E2,2.550044E2,2.8234967E2,2.3917597E1,9.426999E1,1.2806967E2,1.26934715E2,4.463621E1,2.3771347E2,6.646644E1,2.7803547E1],"tree_param":{"num_deleted":"0","num_feature":"30","num_nodes":"13","size_leaf_vector":"1"}},{"base_weights":[-3.8076572E-2,-1.836973E-1,2.6667565E-1,-5.4745965E-2,-1.1066258E-1,6.559701E-1,6.9282405E-2,-1.3448325E-3,-4.2941585E-2,6.485805E-2,2.3459865E-2,-3.128043E-2,1.4614793E-2],"categories":[],"categories_nodes":[],"categories_segments":[],"categories_sizes":[],"default_left":[0,0,0,0,0,0,0,0,0,0,0,0,0],"id":56,"left_children":[1,3,5,-1,7,9,11,-1,-1,-1,-1,-1,-1],"loss_changes":[2.7645853E1,2.1163965E1,1.5345707E1,0E0,1.9713568E1,6.4339314E0,1.31163E1,0E0,0E0,0E0,0E0,0E0,0E0],"parents":[2147483647,0,0,1,1,2,2,4,4,5,5,6,6],"right_children":[2,4,6,-1,8,10,12,-1,-1,-1,-1,-1,-1],"split_conditions":[1.062E3,1.04E2,-1.352E3,-5.4745965E-2,4.255416E3,5.8485E4,4.82E2,-1.3448325E-3,-4.2941585E-2,6.485805E-2,2.3459865E-2,-3.128043E-2,1.4614793E-2],"split_indices":[29,20,28,0,15,20,28,0,0,0,0,0,0],"split_type":[0,0,0,0,0,0,0,0,0,0,0,0,0],"sum_hessian":[6.166602E2,4.1808893E2,1.9857127E2,3.7589237E1,3.804997E2,6.504421E1,1.3352705E2,3.3159888E2,4.8900814E1,2.5001904E1,4.004231E1,2.8861076E1,1.0466598E2],"tree_param":{"num_deleted":"0","num_feature":"30","num_nodes":"13","size_leaf_vector":"1"}},{"base_weights":[-9.054277E-2,2.7506283E-1,-2.683766E-1,-7.73544E-2,4.2722708E-1,-3.183937E-1,3.0770663E-2,-2.5059229E-2,3.2751907E-2,6.360829E-2,1.5959665E-2,-1.5626833E-2,-5.69756E-2],"categories":[],"categories_nodes":[],"categories_segments":[],"categories_sizes":[],"default_left":[0,0,0,0,0,0,0,0,0,0,0,0,0],"id":57,"left_children":[1,3,5,7,9,11,-1,-1,-1,-1,-1,-1,-1],"loss_changes":[4.0678734E1,1.1117368E1,1.6402195E1,1.291547E1,1.4071476E1,1.5581993E1,0E0,0E0,0E0,0E0,0E0,0E0,0E0],"parents":[2147483647,0,0,1,1,2,2,3,3,4,4,5,5],"right_children":[2,4,6,8,10,12,-1,-1,-1,-1,-1,-1,-1],"split_conditions":[-8.52E2,-2.5228E4,1.19E2,5.9022094E4,-1.1288E4,2.3235E4,3.0770663E-2,-2.5059229E-2,3.2751907E-2,6.360829E-2,1.5959665E-2,-1.5626833E-2,-5.69756E-2],"split_indices":[28,14,2,9,22,28,0,0,0,0,0,0,0],"split_type":[0,0,0,0,0,0,0,0,0,0,0,0,0],"sum_hessian":[6.196684E2,2.0218964E2,4.1747876E2,6.1014244E1,1.411754E2,3.929844E2,2.4494358E1,4.022834E1,2.0785902E1,2.9344334E1,1.1183106E2,3.5537158E2,3.7612816E1],"tree_param":{"num_deleted":"0","num_feature":"30","num_nodes":"13","size_leaf_vector":"1"}},{"base_weights":[-4.5256337E-4,6.56206E-1,-8.731638E-2,1.5060733E-2,6.819865E-2,-4.12141E-1,1.06511645E-1,8.87573E-3,-4.337288E-2,1.0051375E-2,-4.2636544E-2],"categories":[],"categories_nodes":[],"categories_segments":[],"categories_sizes":[],"default_left":[0,0,0,0,0,0,0,0,0,0,0],"id":58,"left_children":[1,3,5,-1,-1,7,9,-1,-1,-1,-1],"loss_changes":[3.5252056E1,1.2483635E1,3.4497208E1,0E0,0E0,3.2364395E1,1.5077202E1,0E0,0E0,0E0,0E0],"parents":[2147483647,0,0,1,1,2,2,5,5,6,6],"right_children":[2,4,6,-1,-1,8,10,-1,-1,-1,-1],"split_conditions":[1.52E2,8E1,5E0,1.5060733E-2,6.819865E-2,1.323E3,3.2078E4,8.87573E-3,-4.337288E-2,1.0051375E-2,-4.2636544E-2],"split_indices":[19,19,4,0,0,20,28,0,0,0,0],"split_type":[0,0,0,0,0,0,0,0,0,0,0],"sum_hessian":[6.1200256E2,6.981023E1,5.421923E2,3.7521465E1,3.228876E1,2.0203728E2,3.4015503E2,6.84373E1,1.3359998E2,3.1980383E2,2.035122E1],"tree_param":{"num_deleted":"0","num_feature":"30","num_nodes":"11","size_leaf_vector":"1"}},{"base_weights":[2.3446755E-2,6.7085646E-2,-7.2106E-2,-4.0415248E-1,1.953156E-1,-7.801311E-2,-4.452654E-3,-3.6255088E-2,1.6674396E-2],"categories":[],"categories_nodes":[],"categories_segments":[],"categories_sizes":[],"default_left":[0,0,0,0,0,0,0,0,0],"id":59,"left_children":[1,3,-1,5,7,-1,-1,-1,-1],"loss_changes":[3.416263E1,3.8717926E1,0E0,3.833018E1,2.8426231E1,0E0,0E0,0E0,0E0],"parents":[2147483647,0,0,1,1,3,3,4,4],"right_children":[2,4,-1,6,8,-1,-1,-1,-1],"split_conditions":[2.345472E6,1.380076E6,-7.2106E-2,3.7881E4,3.96E2,-7.801311E-2,-4.452654E-3,-3.6255088E-2,1.6674396E-2],"split_indices":[7,7,0,24,13,0,0,0,0],"split_type":[0,0,0,0,0,0,0,0,0],"sum_hessian":[6.558717E2,6.343648E2,2.1506857E1,1.3456999E2,4.9979483E2,3.634614E1,9.8223854E1,4.1011547E1,4.5878326E2],"tree_param":{"num_deleted":"0","num_feature":"30","num_nodes":"9","size_leaf_vector":"1"}},{"base_weights":[6.75756E-2,-4.9639583E-1,1.2544419E-1,1.6274327E-2,-7.435491E-2,6.3058454E-1,2.7667478E-2,6.917869E-2,4.2204093E-3,-2.6126562E-3,4.944747E-2],"categories":[],"categories_nodes":[],"categories_segments":[],"categories_sizes":[],"default_left":[0,0,0,0,0,0,0,0,0,0,0],"id":60,"left_children":[1,3,5,-1,-1,7,9,-1,-1,-1,-1],"loss_changes":[2.102052E1,3.2297104E1,2.8658752E1,0E0,0E0,2.5060276E1,2.631992E1,0E0,0E0,0E0,0E0],"parents":[2147483647,0,0,1,1,2,2,5,5,6,6],"right_children":[2,4,6,-1,-1,8,10,-1,-1,-1,-1],"split_conditions":[7E0,1.03E2,5.15E2,1.6274327E-2,-7.435491E-2,8.52721E2,1.0595145E-2,6.917869E-2,4.2204093E-3,-2.6126562E-3,4.944747E-2],"split_indices":[12,19,19,0,0,16,3,0,0,0,0],"split_type":[0,0,0,0,0,0,0,0,0,0,0],"sum_hessian":[6.354418E2,5.7532234E1,5.7790955E2,2.8039782E1,2.9492453E1,9.175899E1,4.8615057E2,4.846795E1,4.3291042E1,4.4719223E2,3.8958336E1],"tree_param":{"num_deleted":"0","num_feature":"30","num_nodes":"11","size_leaf_vector":"1"}},{"base_weights":[-1.498513E-2,-7.7991587E-1,4.945937E-2,-1.8087747E-2,-6.989521E-2,-3.6812093E-2,4.8083407E-1,2.0749934E-2,-1.3238207E-2,3.717038E-2,6.238882E-3],"categories":[],"categories_nodes":[],"categories_segments":[],"categories_sizes":[],"default_left":[0,0,0,0,0,0,0,0,0,0,0],"id":61,"left_children":[1,3,5,-1,-1,7,9,-1,-1,-1,-1],"loss_changes":[3.0800636E1,7.375025E0,2.1457909E1,0E0,0E0,3.1158987E1,4.024027E0,0E0,0E0,0E0,0E0],"parents":[2147483647,0,0,1,1,2,2,5,5,6,6],"right_children":[2,4,6,-1,-1,8,10,-1,-1,-1,-1],"split_conditions":[1.02E2,1.3E1,7E0,-1.8087747E-2,-6.989521E-2,9.79E2,7.0683E4,2.0749934E-2,-1.3238207E-2,3.717038E-2,6.238882E-3],"split_indices":[0,0,2,0,0,19,14,0,0,0,0],"split_type":[0,0,0,0,0,0,0,0,0,0,0],"sum_hessian":[6.1517883E2,4.6245834E1,5.68933E2,2.0600487E1,2.564535E1,4.753775E2,9.35555E1,1.5221867E2,3.231588E2,7.0776665E1,2.2778828E1],"tree_param":{"num_deleted":"0","num_feature":"30","num_nodes":"11","size_leaf_vector":"1"}}]},"name":"gbtree"},"learner_model_param":{"base_score":"[5E-1]","boost_from_average":"1","num_class":"0","num_feature":"30","num_target":"1"},"objective":{"name":"binary:logistic","reg_loss_param":{"scale_pos_weight":"8.5"}}},"version":[3,2,0]}